solver_type L2R_LR_DUAL
nr_class 3
label 0 1 2
nr_feature 29232
bias 0.000000000000000
w
0.4080395332974718 -0.4709840539268253 0.3314558665508827 
-0.2063947919265675 0.2921954437313069 -0.4765948204486550 
-0.5697589369412766 0.5033142298219966 -0.3409860599841519 
-0.2988213952838005 0.1284451029745966 0.1971080401032508 
0.3136819678270790 -0.2597379749570273 -0.1228613403629233 
0.05470425832823728 -0.05865790897889184 0.02276888659979186 
-0.6330529348726672 0.5321247290716861 -0.6694751412220243 
-0.1254035857903200 0.1933974759085919 -0.02920365700784501 
-0.3992569450893971 0.3911895855576113 -0.1164988040492780 
0.1386183955588989 -0.1203321234353766 -0.009804695417153628 
-0.3740554788999277 0.2760466693908291 -0.06233267372660745 
-0.2145043210854313 0.1786272055569351 -0.9643025434037255 
-0.5487111345708229 0.3803696721660689 -0.5833230505907805 
-1.149656685815007 1.009308011600647 -1.205078385324418 
0.1529371917261603 -0.1272844782931840 -0.03506805466737926 
0.1951918242971050 -0.1542281582871740 -0.1539933010080640 
-0.3747785592432149 0.4500239681230266 -0.2728336403973635 
-0.4467621558465288 0.4692010471052981 -0.1294547208724485 
-0.05895249860683047 0.1873135277145926 -0.5691621391699838 
-0.03066625068542199 0.05245953609377176 -0.7281744057655748 
-0.3095399466569092 0.2792312058960301 0.02008976330849051 
0.2003061543743848 -0.1771609278465590 -0.07623327913519944 
-0.3879396077097762 0.4622676651587376 -0.1736209084187131 
0.1912906597995317 -0.1840323151876554 -0.01029206031779843 
-0.3884493548098827 0.4292607298515408 -0.2036073747685632 
-0.05572306753252589 0.1118589941529317 -0.02565639223426091 
-0.2506429604243760 0.1649586346444322 -0.2441227202264973 
0.4844619023147451 -0.6202095531641705 -0.06592328896916545 
-0.3715891457661483 0.3684167567928446 -0.07974739158831845 
0.04447584103547818 0.01855074260232438 -0.4836410345022776 
-0.1600456715196223 0.1514910975879653 -0.1315808431680139 
-0.5686880654218800 0.3746055929362626 0.1530441443719263 
-0.3695151890320201 0.3888044500623100 -0.1798851745602328 
-0.2121740146550884 0.2384914743870813 -0.1951773226016897 
0 0 0 
-0.2274212407061762 0.3687280689689625 -0.1271013090814461 
-0.8960960845680527 0.9523646380469949 -0.5112453921997039 
0.2880526756933289 -0.2833402095216460 -0.2640045288198686 
0.1314538728946547 -0.1164601398093717 -0.3125364934265846 
-0.08747360060074450 -0.02970159157491728 0.3003178893841668 
-0.5670680331310836 0.4783046912318392 0.1610642666334723 
-0.3163631283868710 0.3042057151050803 -0.3869216035416122 
-0.4191117365488111 0.1995971146727018 0.5903655686751388 
1.030072334026899 -0.9461523358377071 0.09592128846248668 
0 0 0 
-0.8735479104691111 0.8015533534455151 -0.2410724749556386 
0.1003609094093470 0.06398295877050891 -0.6228288906467332 
-0.4370090704871039 0.5327227347458775 -0.5094148723701871 
0.1410452184492962 -0.1382586914885479 -0.01972155428287618 
-0.01467766175198468 0.1038068917383900 -0.2514479641529838 
0.5751941774392620 -0.4994523066378888 -0.08920836161867962 
-0.5124438341072133 0.6134372219015682 -0.2090904763338451 
0.02715400797262554 -0.02585495400607660 -4.534423759416547e-06 
0.2544331853787848 -0.2112384758632098 -0.06080175146335339 
0.1044709692491646 -0.08420668331118217 -5.516503077570876e-06 
-0.1512651092363196 0.1885788941727093 -0.04033183775350500 
0.5110094867334325 -0.6687042263083265 1.082129808538950 
0.02839254075332267 -0.02670615866066273 -1.378595001117393e-06 
0.02839254075332267 -0.02670615866066273 -1.378595001117393e-06 
0.1070891751085146 -0.03927792336466292 -0.02527744578715145 
0.3158770010032990 -0.2270583689854116 -0.1911520150962520 
0.02839254075332267 -0.02670615866066273 -1.378595001117393e-06 
0.02839254075332267 -0.02670615866066273 -1.378595001117393e-06 
0.4400862855511297 -0.5356252050522764 0.1263524487294864 
-0.3756615101800309 0.4886624717191153 -0.2943044884911980 
0.2065543719348747 -0.3509293941659263 0.4467615815914295 
0.1515266187220960 -0.09882880375335079 -0.02265631003427652 
-0.5035871029342126 0.3797315531223793 -0.09247653346589209 
0.1142449788402005 -0.01244495377235984 -0.6046155706721770 
-0.6396066397869529 0.5602534662681019 -0.07104608474312027 
-0.1072629336038369 0.008411129014036919 -0.03740047977953383 
0.3363133204479510 -0.2930262691515353 -0.1968818033677781 
-0.009684379188529863 -0.08144664736195899 0.1125169947188428 
0.2753623078507264 -0.2116911994896583 -0.06474060858196705 
0.05070798431294284 -0.04653938255692577 -0.003376838415644376 
-0.4498202891931541 0.5572700055746481 -0.2900848900382725 
0.3221047559762840 -0.2718110635991874 -0.003729844820363703 
-0.03150300580389994 -0.09809838370926317 0.2895232622841564 
0.05070798431294284 -0.04653938255692577 -0.003376838415644376 
-0.3337043320266031 0.4098342243721323 -0.3397899660716653 
0.4414621350786788 -0.3325177863485521 -0.1877889157682104 
-0.04318617464882452 0.07223155259698400 -0.09528605830624096 
0.3589573548799445 -0.3294851114337689 0.01418956132601236 
0.05070798431294284 -0.04653938255692577 -0.003376838415644376 
0.4598818586121696 -0.4491979928631769 -0.03766225352811388 
-0.2729356364561158 0.2413401896486058 -0.2243069160246213 
-0.04672905564527034 0.1293744058623920 -0.07946623354974539 
-0.3911823016820170 0.2440821064272649 -0.05015596275362810 
-0.9253277572307466 0.7460875547638174 0.1095754569114265 
-0.08120566319267244 0.1050381574247407 -0.06048691771512166 
-0.02810756216798718 0.03462342870941759 -0.0004178165362800731 
-0.02810756216798718 0.03462342870941759 -0.0004178165362800731 
-0.02810756216798718 0.03462342870941759 -0.0004178165362800731 
0.04889914328273382 0.03635272369139016 -0.5672166083590479 
-0.02810756216798718 0.03462342870941759 -0.0004178165362800731 
-0.1678618812191642 0.2239655808711303 -0.1437966075786587 
-0.1196917336229605 0.1382593717503245 -0.01559194290035595 
-0.03630125982744090 0.06026843212912107 -0.01428763137460012 
-0.1849965733680565 -0.01861015957910729 0.2622235216314781 
-0.1139225691031785 0.1960977204710930 -0.07895806668929697 
-0.09511675053987072 0.1191739330548533 -0.01794272435142175 
-0.1421441319363395 0.1807285416007471 -0.007476123906415490 
-0.5087521264284288 0.3253358748083816 0.4437554744748408 
-0.5974442838356244 0.5066655813210028 0.1115953390925371 
0.1293197905271862 -0.03941761996745408 -0.2120704840298317 
-0.2517812549074357 0.3064493892865923 -0.07004477310039840 
-0.2830992307859058 0.3492904885966753 -0.09395153468547782 
-0.3231355276854324 0.07016402648706424 0.4628987549105857 
-0.1501369291997629 0.1978523383822839 -0.04142059938343724 
0.3714126289567358 -0.3399741346915039 -0.1370166890429033 
0.1537359661781947 -0.1240698160312362 -0.01698873351363192 
0.1142284464160605 -0.09477904991326377 -0.01698872720367957 
0.1142284464160605 -0.09477904991326377 -0.01698872720367957 
-0.7131111147554575 0.5985351415247067 -0.05624666342593072 
-0.5512530816512521 0.6017507189985666 -0.01471056234749537 
-0.05129121949208346 0.05047114132892579 -0.04618175931790272 
-0.1552931334436376 0.1623408346629761 -0.07510371765298056 
0.05952818632021995 -0.06143297657698026 -5.269012654391930e-05 
0.1127087025299783 -0.09823763425674957 -0.04907333111517002 
0.06834332641858712 -0.06768875840814899 -1.545527475458503e-06 
0.06013521544269702 -0.06226335612736946 -1.520937577544559e-06 
0.1149918223986442 -0.1008329058644310 -0.03072452781565135 
-0.2565940894225010 0.3194718150665623 -0.3173420363264664 
-0.1442712755993557 0.1958539646997894 -0.06399764992719126 
0.06013521544269702 -0.06226335612736946 -1.520937577544559e-06 
0.06013521544269702 -0.06226335612736946 -1.520937577544559e-06 
-0.4904729533332983 -0.3523806326220172 0.7597240970132693 
-0.2300938950015868 -0.5689929596026666 0.9507359736934713 
0.1987689986086602 -0.1744871145335573 -0.01829631888204342 
0.1199094444366703 -0.06087157878843441 -0.06034063003191135 
0.7771067137693796 -0.6838327406770301 -0.06983503001725704 
0.6064883764212622 -0.6016462216105614 -0.007381668688838664 
0.1858566863859245 -0.1779129431427218 -0.0004044200727800820 
0.1858566863859245 -0.1779129431427218 -0.0004044200727800820 
-0.3092378129704667 0.3623761388900748 -0.1489708862326022 
0.02883044079857404 -0.02090756324597686 -4.683218287432288e-05 
0.01604415401507084 0.04669639798514491 -0.1580804050526468 
-0.06348057920704028 0.1695586658585507 -0.1158593225547073 
0.1110069789374025 -0.08967905981159932 -4.138621680060945e-06 
0.03492855044156065 -0.03217853516107966 -7.136036074602560e-10 
0.0005556255922486569 0.01812727401114590 -0.008626021014620747 
0.2453463318672214 -0.2035850360941871 -0.06055427421629978 
0.2445145591689739 -0.2220475435024605 -0.005897783148746567 
0.3095398573749144 -0.3150255349085525 -0.1631005000569605 
-0.09483122775146349 0.09537624024510290 -0.01293512224978685 
-0.06647987488414502 0.09193307272317859 -0.1459016687229731 
-0.1143262523477726 0.1159188704373087 -0.01315279651741644 
-0.3377307040646199 0.1451238790582011 0.1838711489174267 
-0.4526540852530802 0.1783202855159828 0.09787087268191105 
-0.2517988371190558 0.2914798471136332 -0.06905218603409244 
-0.04653364064454351 0.06485029533932440 -0.01550225999388884 
-0.07751273102292386 0.1322029425464982 -0.05062134889453617 
-0.005570210305655222 0.01716323168404663 -1.350395141037375e-05 
-0.6700937701500013 0.7169073101933409 -0.1310979337579400 
0.07907841719906013 -0.06833319301365080 -0.002614804923802759 
-0.2616982155680884 0.1243210007325165 0.2470147807237855 
1.103743723349961 -1.096153056515310 0.1178502216416084 
0.1169391503760284 -0.1848338677946554 0.08100329621577440 
-0.07036499657760345 0.1478451601630114 -0.05048648462762834 
0.1932711418784268 -0.1661618042085399 -0.1458515245739237 
-0.4292973148942442 0.4722679451205483 -0.1816540118496201 
-0.1539857169037222 0.2505311403447863 -0.2447364537868241 
-0.1673153374069093 0.1909861329946429 -0.05388271608855314 
-0.4832952074319316 0.4019673538323163 0.1694480314367659 
-0.1302102555470155 0.2111662277368915 -0.05838601863801346 
-0.02594561088481385 0.03818647589481657 -0.009638326718080287 
-0.01328780004160920 0.01798853290515311 -0.005349403899263411 
-0.06409028332945566 -0.006290838316052707 0.1650874541516217 
0.01218898420566908 -0.007277275352507049 -1.115238503334318e-06 
-0.003563989267052667 0.004372713449811301 -0.0002185396760700816 
-0.1596161307400367 0.1547477582775847 -0.3630579972670632 
-0.2297296775162087 0.3097514007648434 -0.2351699091755320 
-1.136681486431094 0.8325598849225226 0.3290981790049729 
-0.03780835793622314 0.04362461279032016 -0.005973623221298464 
-2.400262893242633e-05 7.242727174574144e-05 -2.590619737636381e-07 
-0.08339047379551957 0.07799093962120365 -0.001304311525755832 
-0.03384663232603252 0.1536189596868171 -0.05511189863541466 
0.01856458200868781 0.01545465349946846 -0.1012236397031864 
-0.1751171226151775 0.1601058500290672 -0.002851606169746804 
0.1862183040330974 -0.1015562177455728 -0.01185356323122201 
-0.1129859614203780 0.1212942920033072 -0.007413456617612689 
0.01518594899481509 0.03604682127194400 -0.06683969788722897 
0.09299781373694417 -0.07474736541777934 -0.01014617789501681 
0.1256299694378082 -0.06228480152828179 -0.01154460306896348 
0.09299781373694417 -0.07474736541777934 -0.01014617789501681 
0.002589764956930942 -0.06878640751018894 0.1627781213803599 
-0.1902434166192643 0.2429382304614256 -0.1289809840539994 
-0.7615220263431302 0.8656154471644910 -0.3322309302585157 
0.3951855481375378 -0.6897621604761025 0.3783295512960065 
0.6020368789793972 -0.4769016908120709 -0.1638476831821270 
0.2258247374897075 -0.1870125678913938 -0.001513726115328378 
0.2986506751131905 -0.2520438422719081 -0.003162260281544945 
0.2781332872511133 -0.2962288232609118 0.1833259639803348 
0.1213592000478260 -0.1677421054665129 0.2099548063722076 
-0.04508230311201942 0.1631501885575205 -0.08906324567330527 
0.06987715648041036 -0.05604273174978519 -1.152959746294858e-08 
-0.1013074681747244 0.1744938055254880 -0.02285021004422943 
-0.2825532968394503 0.2870167361267893 -0.03676160022543162 
0.02580203757131166 -0.01059680927962995 -0.01016823525489168 
-0.5427495021712772 0.5713971184577136 -0.2902346282935557 
-0.009477665154904457 0.01402510794647330 -0.0002986745395159352 
-0.009477665154904457 0.01402510794647330 -0.0002986745395159352 
-0.1537579694516159 0.1769313013731145 -0.04758281790688084 
-0.009477665154904457 0.01402510794647330 -0.0002986745395159352 
-0.1442803042967117 0.1629061934266412 -0.04728414336736479 
0.2423839532233327 -0.2683650112550731 0.07487360603852287 
0.2244307028709228 -0.2181159247146374 -0.009980582189691103 
0.3710787596281425 -0.3528104336995156 -0.001640213695336485 
-0.08562414118437170 0.1330921855081145 -0.03938119227146159 
-0.03460305458388543 0.1037660733224940 -0.1049839691429978 
0.1620069575049394 -0.1503068704528255 -0.04452090060832347 
0.2651214352473538 -0.2164184430302745 -0.1317234683052931 
-0.5544313968339037 0.5835136974554440 -0.04045316916877637 
-0.3872646658555248 0.4218167712073793 -0.06229282056418246 
-0.1781513391086483 0.1603907083019816 0.06336947289839442 
-0.1075250321608216 0.03045664123752353 0.1361395494646021 
-0.1132605439336876 0.1364004120068649 -0.06185911163933496 
-0.04721275722125306 0.06051099754144397 -9.143369234678067e-06 
-0.04721275722125306 0.06051099754144397 -9.143369234678067e-06 
-0.7344291601508417 0.6597351249103995 0.2151978811359548 
-0.04721275722125306 0.06051099754144397 -9.143369234678067e-06 
-0.1463412036533801 0.1967106450751876 -0.05343244264029547 
-0.04721275722125306 0.06051099754144397 -9.143369234678067e-06 
-0.04721275722125306 0.06051099754144397 -9.143369234678067e-06 
-0.6561622639816094 0.5624832708459896 -0.3510305447250267 
-0.04489391434038059 0.07631781667448351 -0.03720860561000570 
-0.07291946746455480 0.1293190212357865 -0.08532651683876576 
-0.2841813834541172 0.08319054168288964 0.3553702997579961 
-0.04813554683560104 0.05370748945654236 -0.0007604320654430779 
-0.0005261000792709047 0.0004908467699999071 -2.055882902982792e-05 
-0.08033978990170830 0.1078103940041821 -0.02386005024604607 
-0.003130110298394676 0.002549993479783397 -0.0008296396882898052 
-0.03115564996512837 0.07308182004722392 -0.08666589339469770 
-0.2451925137612580 0.3957826274403745 -0.3172494015793143 
-0.2210026972198068 0.3736859311022260 -0.3965489086810324 
-0.4088927018110046 0.4255275863348997 -0.1434305464186230 
-0.05754903057136991 0.06185512209630852 -0.007281433724460148 
-0.05754903057136991 0.06185512209630852 -0.007281433724460148 
-0.05754903057136991 0.06185512209630852 -0.007281433724460148 
-0.07610058797256847 0.07962371381483617 -0.01791648826081931 
-0.1427210797617466 0.1793854588322056 -0.04770897937063269 
-0.3619338958325453 0.3988532835999600 -0.1171830468259718 
-0.7980316737887129 0.9086195313904174 -0.2783550728314544 
-0.08851898393981847 0.09769314425389306 -0.04742742287547369 
-0.08851898393981847 0.09769314425389306 -0.04742742287547369 
-0.1336951046252916 0.1402090458140164 -0.002760593478224325 
-0.1336951046252916 0.1402090458140164 -0.002760593478224325 
-0.1336951046252916 0.1402090458140164 -0.002760593478224325 
0.3382194317359068 -0.5598912634617446 0.4248284432347385 
0.08278591547912303 -0.1128509612482579 -0.07981087112413000 
-0.3151464632570903 0.4001959703726215 -0.1609520837885324 
0.2250574766116158 -0.2201142157551169 -0.01669144574200245 
0.2179912908984762 -0.2183146619013495 -0.01739993936250229 
0.3099823439702016 -0.2381564437493988 -0.1753897253252346 
0.2179912908984762 -0.2183146619013495 -0.01739993936250229 
0.2878295017131933 -0.2624812266770528 -0.06419408973661771 
-0.04617263398909854 0.05735348357281972 -0.07162012003026721 
0.2751067086065572 -0.2352905325459428 -0.05125921502332057 
0.06171577165351987 -0.05300110812577612 -1.007661728356476e-10 
-0.1144284374373512 0.1218996450270860 -0.01687235570096695 
0.01454393190728561 0.01464946522770801 0.05075588645673808 
0.06171577165351987 -0.05300110812577612 -1.007661728356476e-10 
0.06171577165351987 -0.05300110812577612 -1.007661728356476e-10 
0.06171577165351987 -0.05300110812577612 -1.007661728356476e-10 
0.06171577165351987 -0.05300110812577612 -1.007661728356476e-10 
0.06171577165351987 -0.05300110812577612 -1.007661728356476e-10 
-0.06597320350499950 -0.002909572221275073 0.09770986184059094 
-0.1459245087932404 0.1794712636240476 -0.05229186500745625 
0.06171577165351987 -0.05300110812577612 -1.007661728356476e-10 
-0.3499130039341222 0.4459230714740852 -0.1458540940991927 
-0.1861093097243648 0.2178459180816978 -0.01756544888018401 
0.06171577165351987 -0.05300110812577612 -1.007661728356476e-10 
-0.1977699495187443 0.2512612326185700 -0.08318627045409391 
0.2164049652007068 -0.1715436489285085 -0.09124598494128842 
-0.1731072426596024 0.1730707109663695 0.09005136431217535 
0.2889646400744375 -0.3898961953357146 0.1700682422387936 
-0.01346175580443831 -0.1067313584101430 0.1567901308445160 
0.002347243223362731 -0.002266380370648495 -3.895209891213366e-06 
0.09423507821996957 -0.06484773836950200 0.09594664609844146 
0.1000735998381493 -0.09294338720154774 -0.01364750772448149 
-0.04313277280059426 0.05937309782900161 -7.860029923335870e-05 
-0.1253576056195068 0.07069118285745880 0.1438387373959046 
-0.04646890328651711 0.06313144647123106 -0.01750073568960006 
0.02384297856321554 -0.006814072790125856 0.1220063167602168 
0.06807466076090223 -0.06811630702652724 -4.929899009461805e-05 
0.01568354488589511 -0.01705623807738708 0.1186019844054123 
-0.02320843370808299 0.02540792173329196 -0.01304340774527419 
-0.3085277352234579 0.3686020701298829 -0.1414813760414294 
0.07510184506117505 -0.07145174143178243 -4.947169317205125e-05 
0.06807466076090223 -0.06811630702652724 -4.929899009461805e-05 
-0.1197571141069978 0.1622122976359854 -0.05192480105802043 
-0.4725677808477763 0.5831601077452507 -0.3375590923035702 
-0.1499238867165321 0.1915193086105421 -0.04305146113717686 
-0.2067296553147077 0.2698952014187932 -0.1085918299947264 
-0.3310935826617966 0.3580752435959643 -0.07926000597729260 
-0.2485031006745768 0.2908344311708689 -0.07345894908921624 
0.1539375794210199 -0.1509598819408861 -0.03250941950664294 
-0.1356574095285689 0.1418983474709062 -0.01917809244504515 
-0.08983104872457062 0.1004271479202810 -0.01278548222531252 
-0.1525391577061473 0.1231822173050130 0.1006521893928114 
-0.002138354273551925 0.003324206725223299 -5.472122363897970e-07 
-0.2937141306741519 0.1679295690045075 0.2559043721123775 
-0.03374978363670035 0.04914919884393594 -0.009392980455575371 
-0.002138354273551925 0.003324206725223299 -5.472122363897970e-07 
-0.002138354273551925 0.003324206725223299 -5.472122363897970e-07 
-0.002138354273551925 0.003324206725223299 -5.472122363897970e-07 
0.2897337914685070 -0.2640794901127643 -0.02500814629175942 
-0.002138354273551925 0.003324206725223299 -5.472122363897970e-07 
0.2637414289695061 -0.2039290946046348 -0.2400786723998118 
-0.2328769794182330 0.2242807641176725 -0.01939596920699633 
0.3723290100525746 -0.3255817937012366 -0.1186678125339088 
0.2983032207518985 -0.2539523265714516 -0.1150802034485915 
-0.1727891393239606 0.1686312674635141 -0.0007270274341669156 
0.1201126889119212 -0.05205716673952403 -0.1075890770661295 
-0.05134464564578378 0.05632724148573336 -0.0002659621376971913 
0.1146942991322656 -0.1075442116832889 -0.003431384761526689 
-0.05134464564578378 0.05632724148573336 -0.0002659621376971913 
-0.09644668202348430 0.1187810121658803 -0.002800581744750667 
-0.1260961215894052 -0.4180738957327397 0.8623610385838107 
0.05214119087792154 -0.002868818524352973 -0.08189993181216351 
-0.09644668202348430 0.1187810121658803 -0.002800581744750667 
0.08352589516335165 -0.1375599613961141 0.1485544934252340 
-0.09644668202348430 0.1187810121658803 -0.002800581744750667 
-0.08284214226937024 0.1444552943406156 -0.06543857918515274 
-0.2268454141008850 0.2554923830991318 -0.06763247914446494 
-0.1177009239528178 0.1159527036919471 -0.01254428647036038 
-0.02656711784935514 0.02926761920430236 -9.049744400010487e-05 
0.4791335632784381 -0.4075266226964511 -0.03864097430163965 
-0.02656711784935514 0.02926761920430236 -9.049744400010487e-05 
-0.1181263139908295 0.1290629184973104 -0.01879262970495580 
-0.02656711784935514 0.02926761920430236 -9.049744400010487e-05 
-0.02656711784935514 0.02926761920430236 -9.049744400010487e-05 
-0.04336112087201343 0.06448876948619431 -0.008867408223557444 
-0.04336112087201343 0.06448876948619431 -0.008867408223557444 
0.2556397909671089 -0.3420925264956328 0.1160482208311401 
0.08073741070803714 0.1262421289920761 -0.2399449837799791 
-0.4642328472231480 0.4552051068251571 -0.02893747194561409 
-0.02206235189795500 0.02453284768650919 -0.02772574227879734 
-0.4971338802672882 0.5099216600938536 -0.1608756735794250 
-0.06461951757452530 0.08343234317497873 -0.04524898855169969 
-0.2365496074132965 0.2772537718653251 -0.08491201273446204 
-0.3117945142009054 0.2445911084554285 0.1340953850470736 
-0.1426127790871850 0.2127747026847099 -0.08991939502763996 
-0.08159595987334700 0.1241319562474646 -0.1531363880510962 
-0.04517746859653359 0.05495578645414101 -0.02968865474634569 
0.2514485234706113 -0.2290995291250439 -0.03133604092478252 
-0.1000152376554536 -0.1214359405505956 0.3680135854824628 
-0.1934728142066735 0.2957028512872209 -0.04178195502373235 
-0.02609967058523751 0.02981110662163909 -0.01124233516833677 
-0.02609967058523751 0.02981110662163909 -0.01124233516833677 
-0.1439550365704642 0.1601271735267739 -0.04852774170908245 
0.3106120148492245 -0.2789973088845456 -0.06127598833777419 
0.3106120148492245 -0.2789973088845456 -0.06127598833777419 
0.1424201861523551 -0.1129807267089926 -0.03292124027176912 
0.2856941469166844 -0.2552409106268912 -0.03745455988965123 
0.1067127351151779 -0.06818689034010582 -0.03746899144219568 
0.5669608702923735 -0.4810221866174733 -0.1092637078211277 
-0.4211133898781502 0.07269822474427069 0.3831042064688758 
-0.2899560068803503 0.4310655966809350 -0.3191514525091961 
0.03200941373666942 -0.02604036320579008 -7.673542081746613e-07 
-0.1004255007985169 -0.2593373780990451 0.5032721257819931 
0.08250018053496243 -0.1264107055830146 0.1742038773648366 
0.2154241466733351 -0.1239109920599818 -0.1765031274543669 
-0.1265511870816778 0.1336320898606863 -0.01652772875072334 
-0.2880639848433576 0.2080789563291634 0.08604218552441746 
-0.1109484134767408 0.1079184853326160 -0.01752050176228474 
-0.08251005983575295 0.07215172529031505 -0.002136084306215463 
-0.05800678030215609 0.06356851891494224 -0.09331819646586300 
-0.03351542609022314 0.03447277929803810 -0.0002114336067847732 
0.4030269304048939 -0.3869442864209179 -0.006186502678140843 
0.5910074574987398 -0.5714313744691953 -0.1287691375064835 
-0.07621714832642078 0.08984947277085184 -0.01490554056983163 
-0.09155919614147454 0.09979529929300804 -0.01870213226095566 
-0.09155919614147454 0.09979529929300804 -0.01870213226095566 
-0.08686433467571915 0.1077925438939505 -0.02857466267717198 
-0.09155919614147454 0.09979529929300804 -0.01870213226095566 
-0.008632711354725090 -0.04135536788767141 0.1380482588602296 
0.08710740887497717 -0.06498863788342797 -0.003062983072483174 
0.4266739368629258 -0.3737401507658664 -0.01478509775523070 
0.004889982812462411 0.01923469176002594 -0.02464108339327125 
0.08710740887497717 -0.06498863788342797 -0.003062983072483174 
0.2206769166996579 -0.2132624290269024 -0.008220659768353875 
0.2153385962453593 -0.1989297006744548 -0.008541287415319170 
-0.2607400465169831 -0.0002165535299107901 0.3475877369157919 
-0.03179000239070175 -0.3704635451184328 0.6505840842697129 
0.2679437867538294 -0.2358950840433865 -0.07783986859085189 
0.2697709415962013 -0.2445519954919569 -0.07769014940314037 
0.2697709415962013 -0.2445519954919569 -0.07769014940314037 
-0.04544001680600791 0.09049641541413611 -0.1928661499771487 
0.2926106956262308 -0.4163123971514318 0.1596765596192948 
0.3274200781877927 -0.2941116615268275 -0.01179532739101497 
0.09534493231590210 -0.03967360026786052 -0.05046841827037749 
0.08414422598056830 -0.07557780667981936 -0.0004165311801311538 
0.08414422598056830 -0.07557780667981936 -0.0004165311801311538 
0.09587402641520455 -0.07569491000762975 -0.001164688141815481 
0.2255175468997677 -0.2407605299588781 0.1766289840386925 
0.06098664848031291 -0.04271837499076871 -0.0004166223723698741 
0.08414422598056830 -0.07557780667981936 -0.0004165311801311538 
-0.04106597406510967 0.1418465415788518 -0.1635528582823777 
0.2259282610275099 -0.1975370550684185 -0.06907722352996397 
0.1453346765315650 -0.1388524242980175 -0.0001515350274405744 
0.1569501482992131 -0.09865585718122469 -0.005469902800873894 
0.1453346765315650 -0.1388524242980175 -0.0001515350274405744 
0.6850657394322479 -0.5892736729222692 -0.08587117356358623 
-0.2028055551502130 0.2238082666770120 -0.03121135002723667 
-0.1595771739551091 0.1843937499863461 -0.02723817712400316 
-0.07486270967500128 0.1235905166041096 -0.06570051902249110 
0.2050479115780913 -0.1935496302104120 -0.01520981585895191 
0.1712911358874890 -0.1649838147495685 -0.01520959827280833 
0.4108872312984920 -0.2776270538173531 -0.1416320758362352 
-0.01297200992568389 0.02347885610720885 -0.04102157169169828 
0.1649297381392463 -0.1659539981440892 -0.01669275094347284 
0.3098677671567378 -0.2603044899435930 -0.1269234162102441 
0.2068207733293956 -0.3453253094819049 0.2198630386703670 
0.2063458886154143 -0.1783700308987206 -0.1504921419448805 
0.09606222217286536 -0.03691242345683187 -0.03317309339456712 
0.05328582345092931 -0.03682960439053076 -0.04617935475393686 
0.2430372521510676 -0.2226437233737486 -0.04452016608516249 
-0.2308053082752772 0.2660159610389865 -0.08528906416407220 
-0.07746880517730416 0.08878252912916750 -0.01256354191403118 
0.1891155368973591 -0.1516854647952210 -0.03305149928623594 
-0.05528755172971881 0.06758599804809048 -0.007947025799780183 
0.3636247369863271 -0.2930801193913205 -0.06459716651141624 
-0.02276403631606012 0.02637958809666248 -0.002652960542472694 
-0.03532887918445122 0.05111735889052452 -0.002757463895081910 
-0.2311838037181273 0.2604616228061994 -0.1244056587918686 
-0.07971525866794132 0.08098443096706406 -0.05559342507080134 
-0.2346672948074696 0.2779505266187952 -0.04514654273642279 
-0.05166020771325942 0.05047387685513884 -0.01370846771790080 
-0.1146563840112969 0.1233751254602589 -0.02175764348838715 
-0.1210082135683916 -0.2953411843811078 0.5719243366208803 
0.003676250094230220 -0.2683877956170042 0.2316098946815697 
-0.09078325462387890 0.09985691900192273 -0.01608210778731934 
-0.3418892143925741 0.3860714662020848 -0.07516024214280417 
-0.08680133352196129 0.09994633089795892 -0.009349743251187190 
-0.4250101765525904 0.4332242389595594 -0.04725579130165868 
-0.06491159363100340 0.07098705560721431 -0.01110783386259249 
-0.08673792667067033 0.08631292791522249 -0.0005160770796370820 
-0.04232546523769862 0.04402159105408520 -0.0002958424447117435 
0.03491866443768039 0.01966945408332415 -0.1506850318297902 
-0.2030544093052211 0.3001979485127340 -0.3237296157029682 
-0.2398320748272796 0.2877405464557171 -0.03895018867221683 
-0.1106056053003550 0.1253543438139738 -0.03326090959477499 
-0.009827268291884147 0.01039790428244636 -0.01204098990277807 
-0.4236318197631837 0.3895396104487305 0.08767484162159857 
0.1049518677855354 -0.07320883654537523 -0.007196735116478546 
-0.1437600073034514 0.1505467981286186 -0.01553189801320231 
-0.01488712113574679 0.02236994728287634 -0.0008720784555260438 
-0.04247069010556481 0.03498318966588329 -0.003997406813601724 
-0.07323811383403928 -0.2541296235534158 0.3789936662678434 
-0.4302996856098421 0.2430627480985051 0.2738643365730327 
-0.09707822720303600 0.1079383849850416 -0.009796875156641682 
-0.04493295982983536 0.04483027816586601 -0.0001152199827773483 
-0.04493295982983536 0.04483027816586601 -0.0001152199827773483 
-0.2391507827036056 0.2498966865684956 -0.04817630036541369 
-0.06425511001963800 0.06821018248500160 -0.01019192899372314 
-0.09992313736950979 0.1040050660022339 -0.01022000265957598 
-0.03526143688100268 0.03891049118968004 -0.01601756564256838 
-0.03526143688100268 0.03891049118968004 -0.01601756564256838 
-0.1347162863869243 0.1627254278331147 -0.01602008333524186 
-0.2170489509606064 0.2888643284223291 -0.2438009912392447 
-0.4246993263700241 0.5826547662775743 -0.2135536800959609 
-0.06758524116783166 0.06333404092265547 -0.02920947838444838 
0.3995745254507003 -0.3370894602210341 -0.06040572969580331 
0.06062404755230791 -0.05233597194043096 -0.006304483821291761 
0.06062404755230791 -0.05233597194043096 -0.006304483821291761 
0.06062404755230791 -0.05233597194043096 -0.006304483821291761 
0.06062404755230791 -0.05233597194043096 -0.006304483821291761 
-0.1061401623415670 0.09271941780632663 0.2425733066334052 
0.06059228706122150 -0.1866648867496069 0.2126362217171828 
0.4230499434062803 -0.3891963974554543 -0.09455331810842593 
0.7972518197928997 -0.7515668311455288 -0.1019457669014441 
0.06903605655539900 0.02803837486575104 -0.1808218081469357 
0.05010747268451717 -0.04652517160511634 -0.008540870021849558 
0.06593484091186957 -0.05247228514520756 -0.008541653046197788 
-0.1574406668904855 0.1738434624689350 -0.04717966932389021 
0.2271630214205804 -0.2202495391015149 -0.002958132892033688 
0.02043287368538405 -0.01784045931379973 -0.001168131043442450 
-0.6193352499439786 0.7671713864577827 -0.2636252230284685 
-0.2872556382065802 0.3663141673299177 -0.1615531315074956 
-0.07353406760162347 0.08210204160532910 -0.09522063754545572 
-0.7376387859833438 0.6144921839967462 0.1125787600629507 
-0.1752003424819259 0.1339688899660706 0.1804435047050300 
-0.1101720645145461 0.1414896208055281 -0.03977545082730286 
-0.2716255128673841 0.2533364631683840 -0.05164074216562479 
0.4701675409081794 -0.4398637956810306 -0.1010115232463644 
0.5953805708833166 -0.5412008989909449 -0.09918931731270585 
0.2025217700604912 -0.1700593639984892 -0.08014841054582261 
0.2025217700604912 -0.1700593639984892 -0.08014841054582261 
-0.2102196012859046 0.003498723585836722 0.3714030834570444 
-0.01389510068130875 0.01999121177914913 -2.494743461916639e-05 
-0.02189356801770201 0.03001009217578014 -3.986072498721993e-05 
-0.01389510068130875 0.01999121177914913 -2.494743461916639e-05 
0.01969340491109402 -0.01100324764384466 -0.002042378816694566 
0.5043614721548160 -0.4635092917979829 -0.1099057920423031 
-0.002933847603243825 0.008417919679157948 -0.01304388168650083 
-0.4640399483189798 0.5296772631365091 -0.1183553189967696 
-0.02152586442970998 0.01835352739455893 -0.006670068001285151 
0.5293855418710744 -0.3744949381920422 -0.09080037852979553 
0.1449879681753231 -0.1254808543337992 -0.01325772103595416 
-0.8255599003618289 0.8659597187602892 -0.2805138079311850 
-0.2217518358061686 0.2609472483109481 -0.1225770329319244 
-0.1474624640850596 0.1874607224595604 -0.06420908906559368 
-0.006769998194187972 0.006158357963981793 -0.0001551194189000726 
0.01382908831281739 -0.007287423918856406 -0.0001553438112461531 
-0.006895467669798927 0.006312263458589660 -0.0001551306848917408 
-0.006769998194187972 0.006158357963981793 -0.0001551194189000726 
-0.04042429484602922 0.04989472805737831 -0.01778507095351997 
-0.02431574483124979 0.02562659595077058 -0.007699031872241891 
0.1756541750307309 -0.1626205244500696 -0.04637096701453265 
-0.1029331593036793 0.1074738702107915 -0.01306646504097787 
-0.1543766413421273 0.1560615046438728 -0.02543734391376336 
-0.1042924077923745 0.1030171874568308 -0.01696625688620514 
0.1225460671934442 -0.1219674395327159 -0.01252483575756627 
-0.05753068318792062 0.07200692022059019 -0.03108176628011324 
-0.03365781518453041 0.04503617777500271 -0.02331212864730897 
-0.04372069232038980 0.07294195976555543 -0.002536677350451632 
-0.04093161357083085 0.06426389254205425 -0.002536677309822775 
-0.03774442366335750 0.07707551988130660 -0.002578055979459949 
-0.08231934714698481 0.1321427877910531 -0.06193451183656233 
-0.2607612562718452 -0.009947070341998123 0.4814461234255347 
-0.01584226413776224 0.04750995842193610 -0.002540004354296818 
-0.06627743750209064 -0.08114611511357375 0.2687079878262401 
0.1159230097208205 -0.2201887099113281 0.2141838859892100 
0.2266193999212288 -0.1984648300687480 -0.008305542525328962 
0.004277511976526989 -0.001314520948006115 -0.001685967840839923 
0.1043463828201014 -0.1092133100137792 -0.001727354565658676 
-0.1089054838211984 0.1033627784979920 -0.006772241102460719 
-0.01418138156048404 0.01357187050955101 -0.02906486997951407 
-0.01063144944052540 0.02146640045231814 -5.824621577184360e-05 
-0.01063144944052540 0.02146640045231814 -5.824621577184360e-05 
-0.1061657715829844 0.1164906932316575 -0.01116263250130441 
0.05352578571624853 -0.03441027690821757 -6.776343225990862e-05 
-0.01063144944052540 0.02146640045231814 -5.824621577184360e-05 
-0.01063144944052540 0.02146640045231814 -5.824621577184360e-05 
-0.4696275216766604 0.5236315901780216 -0.08649981515429170 
-0.01949502904200959 0.02694775920787848 -0.006587328376425429 
-0.02037768599763215 0.09005366096433510 -0.04621239925395686 
0.1595044352135119 -0.1388473054821194 -0.004777840512644795 
-0.1681382884504472 0.1923989804422165 -0.04321297996459741 
-0.05932092072027075 0.07575023569470452 -0.002088903647516298 
-0.08715692412085220 -0.07971333393619057 0.1725386706907534 
-0.07075314419457684 0.07509327337353350 -0.009266618248452025 
-0.04276347104205833 0.04088839866859094 -0.008565781326777882 
-0.01659065747340563 0.02973775343709607 -0.01384919273652779 
-0.01659065747340563 0.02973775343709607 -0.01384919273652779 
-0.1164517843112794 0.1408933900545800 -0.02204255111281620 
-0.07397112654373121 0.09539603640330187 -0.007824093211671010 
-0.1271762201241370 0.1730789725722282 -0.06627784223156294 
-0.01811982067927383 0.02687940819746964 -0.006939804926382950 
-0.04147716181560990 -0.03365328992744845 0.1958391009892906 
-0.02394368907538151 0.03826806638242081 -0.004395630121011725 
0.1458559859973634 -0.2537033983856198 0.1690949246637225 
-3.176049108643661e-05 -0.1343289148091763 0.2189407055384746 
-0.1840969006277654 0.1191199274090341 0.1163440131833483 
-0.1166536455574114 -0.008705062269846877 0.2161430841486192 
-0.2324007547559576 0.2135790915835064 -0.1308086294647789 
0.2781605810533165 -0.2138122283410768 -0.1240509316253001 
-0.1175781968667365 0.1194328643890524 -0.004630004040857515 
-0.08387910650028937 0.1117543461160829 -0.02590209261153140 
-0.1185717550018753 0.1281981093180886 -0.03026083193603275 
-0.04436641677843858 0.04453904119728736 -0.02816962096994120 
-0.1963895923794767 0.2215810935970943 -0.03754385060197468 
0.04557335324340131 -0.1028632941971232 0.1484627961524138 
-0.1866377299087345 0.2299508362235335 -0.1295604754585085 
-0.007793565137247539 0.01396370735396858 -5.238119826159964e-05 
-0.02124927169306539 0.02210880889610627 -0.004772939052040474 
-0.2005503266694891 0.2343572932877237 -0.07258883099831792 
-0.3346285625667197 0.2110749618568738 0.1137259859648907 
-0.3090070497337878 0.3302754081159534 -0.1269307974670671 
-3.520780483680169e-05 7.523398898626393e-05 -6.344695252245241e-07 
-0.02368339128892249 0.02590796995311798 -0.0005938384528837033 
-3.520780483680169e-05 7.523398898626393e-05 -6.344695252245241e-07 
-0.1568723472575874 0.1698643775687916 -0.08244144325746239 
0.1273348409544935 -0.1063869292959054 -0.002135935321580080 
0.1190189394097983 -0.09175434826452208 -0.002330372822237231 
0.05274296829830828 -0.04148283955926720 -0.001763537681422056 
-0.02868287566946238 0.03859072843636074 -0.004991621696838824 
-0.02868287566946238 0.03859072843636074 -0.004991621696838824 
-0.07854913356717731 0.09339216934238474 -0.03874884769475658 
0.2832754747263292 -0.2431763955155801 -0.03084796373628508 
0.2764641627580898 -0.2660557985366625 -0.006984741384266534 
0.3281191191121383 -0.3126116068710262 -0.0007889217005157030 
0.2797879828665503 -0.2539958655197350 -0.003790962691555203 
0.2797879828665503 -0.2539958655197350 -0.003790962691555203 
0.03335418869304637 -0.03022866909689602 -0.0003062308042551774 
0.03335418869304637 -0.03022866909689602 -0.0003062308042551774 
0.03335418869304637 -0.03022866909689602 -0.0003062308042551774 
-0.09348030476409117 0.1047403557235870 -0.01909161069559183 
-0.09913132579731401 0.1011060148222615 -0.01389548519659768 
0.2397146817587943 -0.2059548240916133 -0.001785960388801526 
0.1026263942303697 -0.09399187387353962 -0.0003062577190134293 
0.03335418869304637 -0.03022866909689602 -0.0003062308042551774 
0.08322658645552265 -0.08651793254208123 -4.768724091971758e-06 
0.08322658645552265 -0.08651793254208123 -4.768724091971758e-06 
0.08322658645552265 -0.08651793254208123 -4.768724091971758e-06 
0.08322658645552265 -0.08651793254208123 -4.768724091971758e-06 
0.2190645536887975 -0.2156890465617095 -0.1000737190584036 
0.08322658645552265 -0.08651793254208123 -4.768724091971758e-06 
0.08322658645552265 -0.08651793254208123 -4.768724091971758e-06 
0.2293825807856748 -0.2098334720217932 -0.03280268112566694 
0.3870908747733936 -0.4042115017415304 0.05385190029061608 
0.2293825807856748 -0.2098334720217932 -0.03280268112566694 
-0.5118682526078558 0.5594901615500167 -0.1587081835892950 
-0.02718769560574394 0.03476122081350134 -0.003034332735848638 
0.4626784874565617 -0.4619110926842243 -0.05798779514855969 
-0.04285632587146605 0.06983002762079808 -0.03020205514624895 
-0.04285632587146605 0.06983002762079808 -0.03020205514624895 
-0.07430648935572959 0.09249360706635845 -0.06986960658641705 
-0.009564584305208186 0.01513156640235100 -0.006615319161104538 
-0.009564584305208186 0.01513156640235100 -0.006615319161104538 
-0.06095068340614031 0.06344041143348783 -0.006379616672674577 
-0.4909046549491169 0.4704062286994408 -0.07272269008604793 
-0.2501044194943922 0.2453435561426735 -0.03007434226175013 
-0.07484404234899421 0.07470322804488028 -0.01237962083339292 
0.05258157580422087 0.009311298292984510 -0.1365936081845380 
-0.03412426491808650 0.04427563196528780 -0.0001444946518910242 
-0.004998580944395203 0.005246450666625466 -0.0002009467656634772 
-0.004998580944395203 0.005246450666625466 -0.0002009467656634772 
-0.004998580944395203 0.005246450666625466 -0.0002009467656634772 
0.02895100007098089 -0.02070754503629484 -0.0003153051128992823 
-0.07438887117692655 0.08912292881344182 -0.0009046400652470501 
0.1561668744467324 -0.1358243344297826 -0.04077041211964075 
0.4645226232432282 -0.4113836475375620 -0.09091065307277227 
0.1162544427987158 -0.1160009554991600 -0.02324180024149574 
0.008208110975889879 -0.005425402280779715 -2.458989791394364e-08 
0.05078763580268441 -0.03552113652310490 -3.090735283787384e-08 
0.008208110975889879 -0.005425402280779715 -2.458989791394364e-08 
0.008208110975889879 -0.005425402280779715 -2.458989791394364e-08 
0.008208110975889879 -0.005425402280779715 -2.458989791394364e-08 
-0.09543893726895261 0.1119816635693584 -0.01179310344695022 
0.008208110975889879 -0.005425402280779715 -2.458989791394364e-08 
-0.1381296161196708 0.1394980380395307 -0.01024427995754258 
0.008208110975889879 -0.005425402280779715 -2.458989791394364e-08 
0.008208110975889879 -0.005425402280779715 -2.458989791394364e-08 
0.1101930377757458 -0.06335335900849166 -0.04268328685969995 
0.008208110975889879 -0.005425402280779715 -2.458989791394364e-08 
0.09995167579101273 -0.08776717056139080 -0.1308363835771855 
0.4661880228601935 -0.3178928651395471 -0.02744678789704710 
0.2321618400031675 -0.4116027283096783 0.3901595431414392 
0.05569419217581936 -0.03009330558117907 -0.002196378757049275 
0.07893895817666612 -0.05176311265819404 -5.242981025885324e-05 
0.2639303394775588 -0.2329149908202012 -0.02126899357488070 
-0.08729793503389391 0.1123781959594117 -0.03983991209691327 
-0.08289958815706372 0.1069721558460969 -0.03958866788417870 
-0.3294020922380173 0.3488180547493537 -0.04934268286348756 
-0.01047724735420611 0.01394380196205425 -0.0007353187414760448 
-0.01047724735420611 0.01394380196205425 -0.0007353187414760448 
-0.1797736882903031 0.2152586027122463 -0.08448093905734930 
-0.1797736882903031 0.2152586027122463 -0.08448093905734930 
-0.3324317590136698 0.3451342097188865 -0.04349629836522993 
-0.3237103782091664 0.3447825965728477 -0.06269546848627984 
-0.05985653705911583 0.06781468890499942 -0.001541306947618069 
-0.1246267637684050 0.1315816536598056 -0.02535599584047510 
-0.006014387292880018 0.008285335194340241 -0.001313683091064614 
-0.1041848183513775 0.1097338814068514 -0.03004993209363089 
-0.05600433942807977 0.05543556241910203 -0.007158019146452165 
-0.1508983164856464 -0.01087873328836351 0.09247596006447634 
-0.1508983164856464 -0.01087873328836351 0.09247596006447634 
-0.1508983164856464 -0.01087873328836351 0.09247596006447634 
-0.03335155636876731 0.04320019599023474 -7.339607326204106e-05 
0.1158609270993010 -0.1739611779677075 0.1539121566509231 
-0.1463849218406559 -0.09342093180701258 0.2366052917694202 
-0.1227156193398008 -0.1639000676188319 0.4070554038708631 
0.3199174978261262 -0.3021238389198606 -0.02291303284125177 
0.1285287816248756 -0.1281045977178830 -0.02226515807970949 
-0.06554387611773617 0.06903755359308664 -0.005493781632155270 
-0.04322838119510371 0.03941451669066551 -0.003973172903233509 
0.1307360303467689 -0.1199292804404138 -0.01068943649638127 
0.06626891818688391 -0.05075180391582747 -0.02279696692640099 
0.1307360303467689 -0.1199292804404138 -0.01068943649638127 
0.2103409894613988 -0.1934581661911298 -0.07634566607365678 
-0.2298168324579951 0.1989965572691790 0.1201784061488509 
-0.09516170472372491 0.1283986605674536 -0.03273986319865610 
0.02290867019455874 0.003357465719629169 -0.03596812339555930 
0.07106735482020780 -0.05118437364328923 -0.004099084173403081 
0.03948388859849202 -0.01797801747190620 -0.002315685932081789 
0.3226681871001387 -0.2974009950789183 -0.03790605917389624 
0.3226681871001387 -0.2974009950789183 -0.03790605917389624 
-0.06154689721805758 0.06888584248965521 -0.01023878486634639 
0.1022640077254899 -0.08715914157133636 -0.02897115053855102 
0.08035188531444985 -0.01609932701936464 -0.06705349944778870 
-0.1919152062215921 0.2150539331927969 -0.01351652149201641 
-0.05423654907469806 0.08821423856873804 -0.1070438277016880 
-0.04891808952380402 0.04909278525643245 -0.002198121409666245 
0.06235650239330462 -0.06684111013498659 -0.01400545593850310 
0.1187578619316862 -0.08172507469217827 -0.01790987568423651 
-0.1572371011068919 0.1684408377462583 -0.01264856585442002 
-0.04891808952380402 0.04909278525643245 -0.002198121409666245 
-0.1544279103012332 0.2108205115621794 -0.07398275662620783 
-0.1795479772551376 0.2239459771653800 -0.1187693053196363 
-0.1627696045840618 0.1878452281256909 -0.01941932833115281 
-0.01554271240878940 0.01272941967780794 -0.008990656022327471 
-0.0001645471444933992 0.0001293681874955365 -7.194437137513362e-08 
-0.0001645471444933992 0.0001293681874955365 -7.194437137513362e-08 
-0.007637602159727807 0.01365932033840841 -2.088153272312288e-06 
-0.2401552750294780 0.2388198283924788 -0.03398317734858430 
-0.01831483584589278 0.02256675129540630 -0.0008250230119905892 
-0.08302566583973817 0.09861642135869797 -0.01181825871227490 
-0.06471082999384548 0.07604967006329172 -0.01099323570028430 
-0.1430594212946138 0.1573637108090713 -0.01468378514857976 
-0.09888110002553469 0.1025951958009694 -0.004541768468597341 
-0.007473055015234404 0.01352995215091289 -2.016208900937142e-06 
-0.1656989001795451 0.1323579170362122 0.1996835257160562 
0.1165130397068885 -0.05483754287197661 -0.09302102217891471 
-0.007186536014770448 0.01313332780357923 -1.212009295224760e-06 
-0.1024684001110866 0.1143223256134852 -0.02950318274520962 
-0.3746347644966972 0.4518108074863213 -0.3336514030045996 
0.3026261254072892 -0.4078434156744195 0.1668002790343223 
-0.01183933464500138 0.02053901581862145 -0.001138919099101055 
-0.01183933464500138 0.02053901581862145 -0.001138919099101055 
0.5142279869658967 -0.4474950891899877 -0.07397299199473044 
-0.1654370982058503 0.1768871549265545 -0.01183450462390987 
-0.1654370982058503 0.1768871549265545 -0.01183450462390987 
-0.05837500415735659 0.07670175467927197 -0.02372914752023470 
0.09487702206031784 -0.05003414482350130 -0.1442013188710023 
-0.1201796003283289 0.1205721198302379 -0.01463632289890455 
-0.05203276727601801 0.05183453283857153 -0.003129362422739824 
-0.04100683001414768 0.04001995158677109 -0.002167460448423220 
-0.01062081102806428 0.01463767737159461 -0.009485368988134676 
-0.01062081102806428 0.01463767737159461 -0.009485368988134676 
-0.2787940867227743 0.3010751521527985 -0.02177050056406914 
-0.1262429077159868 0.1422404314585095 -0.009970890911615895 
-0.005666705035082139 0.005494634412951859 -1.824338912051568e-07 
-0.005666705035082139 0.005494634412951859 -1.824338912051568e-07 
-0.01268499594125853 0.02903707842537799 -0.0001849453289355602 
-0.06594423486104500 0.07177545496449574 -0.001453750349114501 
-0.03256417086517554 0.03374215342870064 -0.002846624981402045 
-0.06947981889311242 0.08166971107435847 -0.009093452303861847 
0.2067351788494199 -0.1956922428678632 -0.02325881345468867 
0.1561248291954820 -0.1568624879978905 -0.006649391852008159 
-0.1505289401100634 0.1778159454419333 -0.04508392431781853 
-0.08540503425141781 0.1100730824624757 -0.02618826081144501 
-0.08540503425141781 0.1100730824624757 -0.02618826081144501 
-0.07110433815493743 0.09301213820251256 -0.01879337982639094 
-0.07110433815493743 0.09301213820251256 -0.01879337982639094 
0.3555087372117912 -0.2647129477266729 -0.08330672114001764 
0.07425886311542315 -0.07354079247623820 -0.01492904056146434 
-0.1523747811892309 0.1655911463427918 -0.02849351614127286 
-0.06199712080535452 0.05885158128826599 -0.005169456373261742 
-0.1709896889548082 0.1593636212837932 -0.02173027286473967 
0.4839316388856749 -0.7660052128766649 0.4418204553112631 
-0.07223872512824916 -0.1657300676341711 0.2626192335897367 
-0.08668081216379878 0.1484128316950352 -0.1136583013205262 
0.1665138326050331 -0.1438343817283581 -0.006587653034668984 
0.1665138326050331 -0.1438343817283581 -0.006587653034668984 
0.1665138326050331 -0.1438343817283581 -0.006587653034668984 
0.1665138326050331 -0.1438343817283581 -0.006587653034668984 
-0.03019698635330655 -0.02751458342513232 0.2058920688935671 
0.006551147401241285 -0.01363136789417041 0.1096341914759366 
-0.03019698635330655 -0.02751458342513232 0.2058920688935671 
-0.03019698635330655 -0.02751458342513232 0.2058920688935671 
-0.04267399568030375 -0.009469799138245989 0.2041560261469036 
0.7813543837332424 -0.7117382790957135 0.06920575569582524 
-0.03019698635330655 -0.02751458342513232 0.2058920688935671 
0.09718410821621819 -0.07063497183967829 0.1448566106297244 
-0.03019698635330655 -0.02751458342513232 0.2058920688935671 
-0.04487468898894982 -0.009171357952258123 0.2057984604495620 
-0.06669059301831796 0.02408777047387806 0.2056367448408181 
-0.03019698635330655 -0.02751458342513232 0.2058920688935671 
-0.04445882083196422 0.08320118662599392 -0.05190262072718217 
-0.1141418356392679 0.1481833785480047 -0.02488476774082936 
-0.08335040747308622 0.09116007536390605 -0.009988712364578142 
-0.08335040747308622 0.09116007536390605 -0.009988712364578142 
-0.06558653161140429 0.08399303031488356 -0.03015254370314925 
-0.06558653161140429 0.08399303031488356 -0.03015254370314925 
-0.01709304956136443 0.03095805722004973 -0.0003699749881274674 
-0.1308285001141979 0.1395264427073002 -0.007114071052058092 
-0.06029305451077568 0.06949652432090117 -0.01399781740643337 
0.3955561579503699 -0.3743347960936920 -0.02727829605734791 
0.1443369277295425 -0.1010212763811157 -0.1437866390596834 
-0.01532967468578047 0.01791789583774395 -0.003847214631825505 
-0.4244969330104200 0.4367815055366955 -0.06657204896569029 
-0.3887815328747063 0.06201107380395593 0.5037856977191353 
-0.01761669448873613 0.02047112917936138 -0.0008924596096549650 
-0.01761669448873613 0.02047112917936138 -0.0008924596096549650 
-0.01761669448873613 0.02047112917936138 -0.0008924596096549650 
-0.01358157591014531 0.01643743937640651 -0.002814814251124770 
-0.004398346876829990 0.005406040113314897 -0.0002512442127345549 
-0.04800799246791521 0.04938681781874607 -0.0007209128054521224 
-0.8327889523146386 0.9037089579086260 -0.07512551173356520 
-0.1248699160631190 0.1446601221208814 -0.02141598613858232 
-0.08202263154554534 0.09973237723728413 -0.01390379125809250 
-0.1000243483296613 0.1003955410575773 -0.01345832011558532 
-0.04664631214193551 0.04630105638079633 -0.008121950486712695 
-0.1178422358325105 0.1300453490250081 -0.01902334196107822 
-0.1178422358325105 0.1300453490250081 -0.01902334196107822 
-0.1233825892535454 0.1401983119809892 -0.02025685400018125 
-0.1344392008858679 0.1384852438683831 -0.01814328745177045 
-0.05456275650482142 0.06278240332162013 -0.0002404623714654752 
-0.006719557649576952 0.02992802901250777 -0.0002404627578490568 
0.2861366344802537 -0.2808876107071719 -0.01786285052194661 
-0.1236539214135214 0.1638456562944167 -0.05435480642756940 
-0.009829090362029804 0.01393813261230929 -0.0002399379356495964 
-0.009829090362029804 0.01393813261230929 -0.0002399379356495964 
-0.03828717820856514 0.07347640722719925 -0.02113323623499655 
0.3021507097179326 -0.3221196808044901 -0.0005280552162354914 
0.2397231338724808 -0.2514449844740923 -0.009586573212930815 
-0.1678308907231993 0.1871408914248679 -0.1064973409675028 
-0.02206861518466236 0.02796018330504228 -0.01594155730315418 
-0.05344099610953637 0.07018476125996500 -0.01543357534481204 
-0.09707465304788222 0.1024796191715242 -0.002129709320914977 
-0.09707465304788222 0.1024796191715242 -0.002129709320914977 
-0.09707465304788222 0.1024796191715242 -0.002129709320914977 
-0.02286931482444561 0.01882055105072275 -3.849835482342563e-05 
-0.05907973888581401 0.06607202804867994 -0.005268712660979047 
-0.3824803776099973 0.4041116105606117 -0.06323402562613840 
0.1303932375237990 -0.02734580375919722 -0.1521033699558792 
-0.09414720380062573 0.1166102773239409 -0.01323548680306164 
-0.2329744749697489 0.3037137971930301 -0.09201352431855445 
-0.09591410339494406 0.1142321687429178 -0.005978729705803963 
-0.02635065258543403 0.03653457050980482 -0.005818467140743626 
0.1743160297619232 -0.1567841346082270 -0.004948746675567996 
0.2144696751197813 -0.2164802358873524 -0.0003694032271523278 
0.2214968594200542 -0.2198156702926075 -0.0003695759302297615 
0.01221298683460152 -0.007349702624252787 -8.561765295706771e-07 
-0.08209227947871175 -0.1828883886790839 0.3235783627601339 
0.01221298683460152 -0.007349702624252787 -8.561765295706771e-07 
0.01221298683460152 -0.007349702624252787 -8.561765295706771e-07 
-0.03642870566833763 -0.2349335872120058 0.3279024468708067 
-0.06091596683312434 -0.4041659477644402 0.6087046217247681 
-0.1664828508863889 0.02992249373340733 0.2002585314221205 
0.002921667649327862 -0.001210995655406084 -1.003317192511158e-07 
0.002921667649327862 -0.001210995655406084 -1.003317192511158e-07 
0.3300844150742702 -0.2677658601581152 -0.03594522266860980 
-0.07876142967015398 0.08243366508598995 -0.001218582274782395 
-0.009493841220310745 0.003773433166592344 -0.006550566205293965 
-0.02403288681415200 0.02591444234835360 -0.003750178736789914 
-0.05380065763106307 0.05686790864348813 -0.003617190561093738 
0.03514490249053210 0.02169999417270029 -0.04050621685192525 
-0.1513114755675856 0.1996836503491033 -0.06559721921667115 
0.03981834645197693 -0.03485848643372460 -0.01680348333762347 
-0.1434346692227720 0.1540969804451085 -0.02768239409356398 
-0.008572103362921215 0.01305346336484549 -0.001356782744140043 
-0.1087633100522613 0.1576157440149328 -0.01635418574429631 
-0.02653188440944070 0.02936783070431977 -0.01349122279584455 
0.01327116319509913 -0.002637256236105837 -0.0007481527048844542 
-0.4723720729570184 0.5007929489606043 -0.06152094150882244 
-0.0001691070608117454 0.0003107088237076694 -1.083422767682133e-05 
-0.01002367319784604 0.009326545664219754 -0.001145608850200981 
-0.0001691070608117454 0.0003107088237076694 -1.083422767682133e-05 
-0.003112260242498906 0.004578743944401215 -0.0008632543511472226 
-0.1997117927577947 0.2343755568197682 -0.09966976370996539 
-0.01359365956220933 0.02975026068359056 -0.0001564210120105110 
-0.01893198001650828 0.04408298903603831 -0.0004770486589758022 
-0.01359365956220933 0.02975026068359056 -0.0001564210120105110 
-0.2358886979142151 0.3077545797520956 -0.1966180013149035 
-0.03157281483072270 0.03471642574626624 -0.005748972457600206 
-0.1269679412806221 0.1652124243466490 -0.08546310856769301 
-0.1269679412806221 0.1652124243466490 -0.08546310856769301 
-0.3022326602662638 0.3156301835536169 -0.08430091063739860 
-0.03811381695250773 0.06039687432286633 -0.008450170963015170 
-0.1455023472637397 0.1639913508625460 -0.02647320360088296 
-0.1663927017349090 0.2317344749088593 -0.1314809000977694 
-0.08082240067673524 0.1212102859909528 -0.07872278718851569 
0.4349135413909433 -0.4326500654855437 -0.01663752183941168 
-0.2687335177256650 0.2853546711900849 -0.02962970949867519 
-0.08379806917534695 0.1018256666592053 -0.01717848163147107 
-0.05324820664769978 0.07307708170730319 -0.006017671912665195 
-0.01132953363579503 0.01436043667486592 -1.170799717061106e-06 
-0.2290158754760647 0.2489873963697078 -0.06069785987516294 
-0.01132953363579503 0.01436043667486592 -1.170799717061106e-06 
0.1046981773280604 -0.09118289210334117 -0.04961468148889174 
-0.01197410627484391 0.01225671921015813 -0.004835684891371019 
-0.009097137973308083 0.007793517257499257 -0.0007725202272402612 
-0.009097137973308083 0.007793517257499257 -0.0007725202272402612 
-0.01708602650247421 0.02412897961245046 -0.0001661124614095539 
-0.02411321080274708 0.02746441401770558 -0.0001659397583321209 
0.07161681935402026 -0.05496310745613146 -0.0009306318386291463 
-0.1694831141849231 -0.09172316446634807 0.2888136344509072 
-0.02187690122629970 0.03517628025949915 -0.0001602722088938822 
0.1579521957768483 -0.1100488191027595 -0.06115473190547107 
-0.02187690122629970 0.03517628025949915 -0.0001602722088938822 
-0.02246128462276439 0.02316068638200336 -0.0001931657746453998 
0.1713614658486461 -0.1534676210832364 -0.005647219836572250 
0.007974513899330113 -0.002786146220629168 -0.0003080508072781701 
0.1684418019821614 -0.1458726049491178 -0.05781134925758577 
-0.1722089786555188 0.1878364353143346 -0.04348827618512716 
-0.05741591469735934 0.07110433117073707 -0.007412477620782418 
-0.1319003773719931 0.1575479725001263 -0.03458843649897470 
-0.3145375487900459 0.2501909843726078 -0.06392490083672880 
-0.1307307734715326 -0.1119687729556423 0.2592885125731986 
0.01955507894620745 0.03068678433835592 -0.02235019971544738 
0.07148657190191827 -0.01136507957172638 -0.04568981358911672 
-0.2656940183525826 0.3269986917649785 -0.09169091785800630 
-0.2397111813728569 -0.9094122923571725 1.448384835172646 
0.4963471493480447 -0.4613099209872669 0.009525301907387379 
0.05685465153742601 -0.05553052078075407 -0.01722320015654234 
0.1113675099352377 -0.07697086512507677 -0.07190263413038350 
-0.01495113360399795 0.02649220883305461 -0.003701743088057656 
-0.03183112187732882 0.04905678799893229 -0.009031885409845700 
-1.685660509833063e-05 5.673176646775374e-05 -2.117457409638379e-07 
-0.07587835712296469 0.09311669082691959 -0.05619290337027357 
-0.02243649327949967 0.09914799298391835 -0.1221707407090746 
-0.09642606943369661 0.1033867714053758 -0.03505670477679903 
-0.1119887951135546 0.1277070655589620 -0.04099636415750119 
-0.0008606629772474620 0.003133483322516863 -1.445180841335083e-08 
0.2562860846844842 -0.2584067230101169 -0.04007558652257545 
-0.01235048995329056 0.01953121050305660 -0.005389378926458235 
-0.0008606629772474620 0.003133483322516863 -1.445180841335083e-08 
-0.0008606629772474620 0.003133483322516863 -1.445180841335083e-08 
-0.0008606629772474620 0.003133483322516863 -1.445180841335083e-08 
-0.0008606629772474620 0.003133483322516863 -1.445180841335083e-08 
-0.0008606629772474620 0.003133483322516863 -1.445180841335083e-08 
-0.0008606629772474620 0.003133483322516863 -1.445180841335083e-08 
-0.0008606629772474620 0.003133483322516863 -1.445180841335083e-08 
-0.0008606629772474620 0.003133483322516863 -1.445180841335083e-08 
-0.07271635764220094 0.1010082308080262 -0.01628628832754028 
-0.07271635764220094 0.1010082308080262 -0.01628628832754028 
0.1200016027238117 -0.1051969577406597 -0.02050683828014245 
0.1200016027238117 -0.1051969577406597 -0.02050683828014245 
0.05195312704759524 -0.02962378227914321 -0.03292288146662377 
-0.02315757750025530 0.03285943168905065 -9.119223872064529e-08 
-0.02315757750025530 0.03285943168905065 -9.119223872064529e-08 
-0.02315757750025530 0.03285943168905065 -9.119223872064529e-08 
0.1841438964013092 -0.1726691663629493 -0.002994533010659809 
0.1523267221152718 -0.1280407000740965 -0.02471897237106147 
-0.1028775174331110 0.1034883500400441 -0.008557779896964800 
0.003874254670112976 -0.01460550079101658 -0.03996477136621724 
-0.02655849024472208 0.03956953830381368 -0.007777677768817801 
-0.1366760158349082 0.1361933224316982 -0.03208309080058788 
-0.06516390550647355 0.07287507324004361 -0.01374463325683796 
-0.06486658469030260 0.06493829848922922 -0.002712890466286939 
0.2482358347945529 -0.2093664901294476 -0.04574179113402679 
-0.01677052001341482 0.1105843334731820 -0.2361619902990031 
-0.01786989411363296 0.02072229287739364 -0.006399976603599828 
-0.07592128071237231 0.09987971161595650 -0.05512954714222486 
-0.1096459895919756 0.1281035709864017 -0.02476785682926353 
0.1397780070307621 -0.1324899022042120 -0.01133206810695233 
0.07071221907065530 -0.06107666610002090 -0.02374993434710083 
0.1870038330569756 -0.1680139670528993 -0.01946654759754057 
0.02557132624905240 -0.01772497564345937 -2.283669013635667e-07 
0.03375677569060238 -0.02856581546084352 -2.175861435840925e-07 
0.03375677569060238 -0.02856581546084352 -2.175861435840925e-07 
0.03375677569060238 -0.02856581546084352 -2.175861435840925e-07 
0.03375677569060238 -0.02856581546084352 -2.175861435840925e-07 
0.03375677569060238 -0.02856581546084352 -2.175861435840925e-07 
-0.05055528837665694 0.05717239343450097 -0.006271800418876355 
-0.007905814107220920 0.007219314648824078 -0.001964268977196581 
-0.0006618099237743378 0.0006340043422224136 -6.915320595549279e-05 
-0.0006618099237743378 0.0006340043422224136 -6.915320595549279e-05 
-0.02222363527340359 0.01918772663133249 -2.020054763189410e-05 
-0.1064575721053020 0.1092862389175778 -0.04568286736814275 
-0.5009261062005190 0.5885212806253051 -0.2122675160706032 
-0.08557030105817360 0.1105241889179065 -0.05275811290925372 
-0.02400901529324067 0.02637800686008446 -0.03025124068469665 
-0.1136578007436668 0.1815757271006936 -0.03066201589248039 
-0.01546988342417865 0.01146831005227878 -0.01371585110368320 
0.1289274188077158 -0.1212011169368377 -0.004673666453061853 
0.1764434694275368 -0.1422419986036280 -0.1143776436992025 
-0.09776523081929896 0.1025603078911164 -0.008264318314992983 
-0.08595068169045668 0.09344477169921629 -0.002328061895446794 
-0.03979453483244350 0.03747817308301710 -0.01223957689188613 
-0.0002607714337040098 0.0002968391570790064 -2.725395078464871e-10 
-0.0002607714337040098 0.0002968391570790064 -2.725395078464871e-10 
-0.0007158115404404489 0.001065383787374387 -3.484267500413283e-06 
-0.05257483256879539 0.04950837708323583 -0.004814391960564202 
-0.0002607714337040098 0.0002968391570790064 -2.725395078464871e-10 
-0.1047490142223129 0.1010711841786181 -0.02080835260129956 
-0.1457622755385368 0.1591807081198258 -0.09055578366434860 
-0.1457622755385368 0.1591807081198258 -0.09055578366434860 
0.09564532989976585 -0.09201615759382768 -0.005146030158899214 
0.03283919466783396 -0.02871810770957220 -2.626512531116531e-08 
0.03283919466783396 -0.02871810770957220 -2.626512531116531e-08 
0.03283919466783396 -0.02871810770957220 -2.626512531116531e-08 
0.03283919466783396 -0.02871810770957220 -2.626512531116531e-08 
0.06054071553029057 -0.04532797109085667 -2.634523784476540e-08 
0.08977680298155160 -0.07844709497276532 -1.077918148218696e-05 
0.03283919466783396 -0.02871810770957220 -2.626512531116531e-08 
0.03283919466783396 -0.02871810770957220 -2.626512531116531e-08 
0.005157439887284357 0.01340861931293122 -6.633482890661166e-05 
0.03283919466783396 -0.02871810770957220 -2.626512531116531e-08 
0.4803626822859093 -0.4276749685958907 -0.07288163491455120 
0.3067734149350029 -0.2916906216381625 -0.02303585395968655 
-0.2863771574914349 -0.1983201164021185 0.6093736492051010 
-0.1026215666918017 -0.1730823208121732 0.4267204638053867 
0.2563222957291332 -0.2311459478798537 -0.04356716179002075 
0.2563222957291332 -0.2311459478798537 -0.04356716179002075 
0.02508934943306861 -0.01675393412011819 -3.327044474049842e-06 
0.02508934943306861 -0.01675393412011819 -3.327044474049842e-06 
0.02508934943306861 -0.01675393412011819 -3.327044474049842e-06 
0.02508934943306861 -0.01675393412011819 -3.327044474049842e-06 
0.02508934943306861 -0.01675393412011819 -3.327044474049842e-06 
0.02508934943306861 -0.01675393412011819 -3.327044474049842e-06 
0.2591901732967285 -0.2356301566900809 -0.06056886485840486 
0.2591901732967285 -0.2356301566900809 -0.06056886485840486 
0.4260076193695283 -0.4036416015113776 -0.06946650670845430 
0.4260076193695283 -0.4036416015113776 -0.06946650670845430 
0.1060466033239446 -0.08407962321421318 -0.03678448987257949 
0.1643192698661637 -0.1579518647054373 -0.003609815853835771 
0.1643192698661637 -0.1579518647054373 -0.003609815853835771 
0.1643192698661637 -0.1579518647054373 -0.003609815853835771 
0.1643192698661637 -0.1579518647054373 -0.003609815853835771 
0.1806896542563897 -0.1646767339762306 -0.08113888727316158 
0.2488061803497746 -0.2356551612914939 -0.07363277773151720 
-0.02770027646098196 0.02621077083327591 -0.006834338748032347 
0.2275768292158422 -0.2081526056647587 -0.01982510042497224 
-0.07611082888732289 0.09035427519179061 -0.06684512581122491 
-0.04763118538327301 0.04628131366597960 -0.001713392384068813 
-0.05190325725933680 0.04999172813504780 -0.006101759128909945 
-0.1354853245924491 0.1934942863897335 -0.04043359529828546 
0.03775199610358181 -0.02359281265649536 -0.01904530388239846 
-0.06752484051588735 0.07862962085689810 -0.01858010288978398 
0.06726737892131533 -0.03703410695010134 -0.04354705424132097 
-0.07474017145149969 0.09400174389330619 -0.01776727840715907 
-0.2152753882218601 0.2275094295177351 -0.08187674192725346 
-0.06252176502828616 0.07174940604530390 -0.005510823750580058 
-0.09553432214245905 0.09502429277933952 -0.01110438628553257 
0.2225150279509167 -0.1408004344836346 -0.1244961057264937 
-0.04092139596658981 0.08812304699324532 -0.08162330523291350 
-0.1821505491867685 0.1958453252291316 -0.05960710878313289 
-0.01937356117269787 0.02223472599901803 -0.008231728756173137 
-0.05519137509956360 0.06538143036050009 -0.006992374309471409 
0.06407961784272839 -0.05357638284516526 -0.04380697604122380 
-0.05519137509956360 0.06538143036050009 -0.006992374309471409 
-0.03388916779337201 0.04026031217617376 -0.02530409094676617 
-0.03388916779337201 0.04026031217617376 -0.02530409094676617 
-0.02404610850938373 0.03421510685857870 -0.002148433592191404 
-0.02093734653964030 0.02925470997345605 -0.002143236495509778 
-0.02093734653964030 0.02925470997345605 -0.002143236495509778 
-0.1132945266826304 0.1294696528601088 -0.01061091518640213 
-0.03161142936314847 0.04582499211871270 -0.009392433243338988 
-0.1035215787692316 0.1172531603555301 -0.01179306759106067 
-0.1035215787692316 0.1172531603555301 -0.01179306759106067 
-0.1152219027105392 0.1496740181103605 -0.02721762071812163 
-0.04889793790382416 0.06437878956999580 -0.006724080215609165 
-0.01762969425721865 0.02084931352827122 -0.002836144621562579 
0.06360854258978058 -0.03941336638620914 -0.02331675107213805 
-0.007158213163870350 0.008618982695005730 -9.069451454374256e-07 
-0.007158213163870350 0.008618982695005730 -9.069451454374256e-07 
-0.007158213163870350 0.008618982695005730 -9.069451454374256e-07 
-0.007158213163870350 0.008618982695005730 -9.069451454374256e-07 
-0.007158213163870350 0.008618982695005730 -9.069451454374256e-07 
-0.007158213163870350 0.008618982695005730 -9.069451454374256e-07 
-0.1486490162539476 0.1387630839608892 -0.005701251766340542 
-0.08943942239333362 0.1051508403475770 -0.01869275165672302 
-0.01102593726187040 0.01181458125180039 -0.0009619019743166033 
-0.06300071846745628 0.05546530278523517 -0.0006625188630185445 
-0.1436510069526743 0.1631634848208010 -0.006500782176775363 
-0.07546476494344476 0.1012731927459767 -0.004387906688044199 
-0.07546476494344476 0.1012731927459767 -0.004387906688044199 
-0.002789078749559051 0.008678067223501213 -4.062885877348933e-11 
0.1186265061776111 -0.1155655445377375 0.1734141658465523 
-0.002789078749559051 0.008678067223501213 -4.062885877348933e-11 
-0.05475704124476694 -0.08747055255629903 0.2143544822375325 
-0.05475704124476694 -0.08747055255629903 0.2143544822375325 
-0.05475704124476694 -0.08747055255629903 0.2143544822375325 
-0.05475704124476694 -0.08747055255629903 0.2143544822375325 
-0.07623558601413957 -0.2708375733783022 0.4666975411897988 
0.1736910765601205 -0.1746850758745802 -0.007492228364550804 
0.2455669735772599 -0.2375795977038261 -0.002881245498935381 
0.2455669735772599 -0.2375795977038261 -0.002881245498935381 
0.2728834418332644 -0.2071117392770919 -0.03456225466295984 
0.5084284630376907 -0.4801816807594535 -0.09997581830617491 
0.1528961036423158 -0.1424085691253288 -0.004906231899404407 
0.1528961036423158 -0.1424085691253288 -0.004906231899404407 
0.2643203986863211 -0.2152427102581911 -0.07708672760934550 
-0.01521662842955264 0.02050959967192910 -0.0005358142928066191 
-0.2566401050655791 0.2727559219199621 -0.03663314088813896 
-0.0009800509895043874 0.002098499367438930 -4.533552585741589e-07 
-0.0009800509895043874 0.002098499367438930 -4.533552585741589e-07 
-0.0009800509895043874 0.002098499367438930 -4.533552585741589e-07 
-0.0009800509895043874 0.002098499367438930 -4.533552585741589e-07 
-0.08772297803123777 0.08576957904993464 -0.003814693689211007 
-0.1365181934659199 0.1388490898609803 -0.009021394667033250 
0.1845474251802611 -0.1734774341585423 -0.01473269235579608 
-0.1564404946350370 0.1619780391798622 -0.04087118180816224 
-0.03517707201516212 0.05703181041696941 -0.03332004771312041 
-0.03517707201516212 0.05703181041696941 -0.03332004771312041 
-0.03517707201516212 0.05703181041696941 -0.03332004771312041 
0.007027184300272904 -0.003335434405255124 -1.727030774332510e-07 
0.007027184300272904 -0.003335434405255124 -1.727030774332510e-07 
0.007027184300272904 -0.003335434405255124 -1.727030774332510e-07 
0.2037672453992576 -0.1909391651876746 -0.07097632606472502 
0.2329174966465159 -0.1784959260460318 -0.006087542645906293 
-0.2288289441082690 0.2841389072892427 -0.06187828708951790 
-0.02998538737056786 0.03718864523651020 -0.004948809424623103 
-0.2942789108069536 0.3141408033722888 -0.09067269063135654 
-0.1086143315179088 0.1221809088738857 -0.01599170951175220 
-0.1616225402102109 0.1798573112787787 -0.02606130680853706 
-0.2909337999493042 0.3091817962881672 -0.09403908834279066 
-0.07049145059276718 0.1080872254635182 -0.006794738539226298 
-0.01735751322333690 0.04170696277516003 -0.008437487262991582 
-0.03036439229338208 0.06650199636166404 -0.005244934694041770 
-0.06186534491583656 0.07021834415090375 -0.009032633194539516 
-0.05356848435435158 0.08895480141591727 -0.04948130699505234 
-0.2082386118940030 0.2046848776831928 -0.07899780728267983 
0.5050368710640638 -0.4786120107518568 -0.1011411702983612 
0.4006251072689729 -0.3528630877441003 -0.1150134842223594 
0.3398781839733565 -0.3376950997850934 -0.007249617949479824 
0.3398781839733565 -0.3376950997850934 -0.007249617949479824 
0.1230290440515369 -0.1188698971436041 -0.007363041163601371 
0.02136070094925736 0.002794909852022000 -0.0003369619764765742 
0.04794766053294937 -0.03871289770269734 -0.001357820347887345 
0.05656369388928655 -0.04687752988862318 -0.0002262015541214866 
0.05656369388928655 -0.04687752988862318 -0.0002262015541214866 
0.05656369388928655 -0.04687752988862318 -0.0002262015541214866 
-0.01265781084320457 0.02019794298966342 -0.004288922818816882 
-0.1105945224736207 0.1411481318720854 -0.09622046580253295 
-0.1861222772089718 0.1874016644423431 -0.02451885014294198 
-0.09793671163041615 0.1209501888824218 -0.09193154298371604 
-0.3107774147517881 0.3324431421798494 -0.05551314453794888 
-0.1498010860077228 0.1470540279346995 -0.01913636488453561 
0.4810185716873838 -0.4489965681705164 -0.06035982889672863 
-0.001541362760462784 0.002520152908295557 -4.256799872794949e-09 
-0.001541362760462784 0.002520152908295557 -4.256799872794949e-09 
-0.001541362760462784 0.002520152908295557 -4.256799872794949e-09 
-0.008833161599529994 0.01158395257362201 -0.001245110237272061 
-0.008833161599529994 0.01158395257362201 -0.001245110237272061 
-0.05408550822252873 0.05537358888834496 -0.05490797899269186 
-0.02088265368021891 0.02911865009900320 -3.847166270374699e-05 
-0.02088265368021891 0.02911865009900320 -3.847166270374699e-05 
-0.002988031664968382 0.004571316086639501 -1.880172228948477e-06 
-0.002988031664968382 0.004571316086639501 -1.880172228948477e-06 
-0.003108761969743456 0.004960396885122530 -5.197096681625763e-06 
-0.1845805559451181 -0.3389588423242435 0.6108450798351469 
-0.02731806354603125 -0.2265662950913574 0.2748856578979204 
-0.08516681494488017 0.09454133210147858 -0.0008273397387546334 
0.09737364035232594 -0.07445149616470374 -0.01851517244522629 
-0.05242485357287147 0.05695488311413124 -0.006171393754772879 
-0.05242485357287147 0.05695488311413124 -0.006171393754772879 
0.04920805584439519 -0.04462688404215163 -0.006174825286528518 
-0.1057560391252565 0.1170950418145055 -0.01929400695271907 
-0.1653854318893017 -0.3004294122595598 0.3908236406295230 
-0.09406953490327852 -0.01740132962075669 0.2070400722346849 
-0.06677719460813340 -0.05914715817760422 0.2068761069626270 
-0.09790156892194700 0.1233683525201699 -0.05418732261929049 
-0.02621415552327177 0.02785250440346200 -0.004091197943780845 
-0.02621415552327177 0.02785250440346200 -0.004091197943780845 
-0.07535328575144565 0.08311088519925648 -0.009889826445576769 
0.08677187170557520 -0.06738374813513191 -0.01069537601356025 
-0.07535328575144565 0.08311088519925648 -0.009889826445576769 
-0.4644133842547426 0.5005351950707930 -0.04324310136320518 
-0.004819380233504596 0.004032064413533066 -0.0001521123182536915 
-0.005875796612335051 0.005515947280629619 -0.0002403759012745488 
0.2250365554311985 -0.2208196349713014 -0.004606054464440002 
-0.05419610492912626 0.05289254439952111 -0.002456577735031865 
-0.05419610492912626 0.05289254439952111 -0.002456577735031865 
-0.009693988731160072 0.01110567511752281 -0.0009975650781543252 
-0.009693988731160072 0.01110567511752281 -0.0009975650781543252 
-0.1320720732899459 0.1361674950800567 -0.02128294014774044 
0.1458877464884497 -0.1193744835764436 -0.04984578087475221 
-0.07094636081233770 0.07513058315948593 -0.01614725535875240 
-0.07094636081233770 0.07513058315948593 -0.01614725535875240 
-0.01814794986908331 0.02452368169308921 -0.001285178456803674 
0.09069245855172581 -0.09508296484971583 -0.005907109319982791 
-0.004320959748980081 0.005684174620915299 -0.0002361791030002700 
-0.004320959748980081 0.005684174620915299 -0.0002361791030002700 
-0.004320959748980081 0.005684174620915299 -0.0002361791030002700 
-0.06017806084692649 -0.06741709960020517 0.1722835856810482 
-0.1115313067197726 0.09973400741075303 -0.003348515650511538 
-0.03026767093294659 0.03814765102702541 -0.01421931407767471 
-0.03026767093294659 0.03814765102702541 -0.01421931407767471 
-0.03026767093294659 0.03814765102702541 -0.01421931407767471 
-0.06807045032131376 0.07611660887858801 -0.09613167200552757 
-0.06807045032131376 0.07611660887858801 -0.09613167200552757 
0.1222726208157551 -0.06468670562396328 -0.07616814609562925 
-0.03855342514225066 0.03874727530023644 -0.003099068204111607 
-0.004623354649752114 0.007045929372427111 -1.167585014320945e-05 
-0.03901454589248919 0.05164262597106920 -0.01827795030731275 
-0.01056068932945801 0.01680957750316072 -0.003436493214959993 
0.1544881727251437 -0.1457114157279186 -0.005743904357968618 
-0.05008423354975239 0.05304431718704204 -0.008471087027558208 
-0.05008423354975239 0.05304431718704204 -0.008471087027558208 
-0.09707038197684911 0.1144214976596395 -0.009860607636032134 
-0.2194519844858111 0.2412942954440099 -0.04055699522698524 
0.2257965443995136 -0.2187609367583754 -0.02453745205132215 
-0.07037905719950706 0.07929339914825431 -0.01439511714083749 
-0.3327725409138305 0.3639738786858568 -0.2133455567087223 
0.2039774246455872 -0.2007319722282622 -0.03418369558371492 
0.1062510680308010 -0.1100549653973628 -0.02054008306912464 
-0.07460139642849908 0.1065102736899580 -0.02029879404065687 
0.1992489266204443 -0.1422776255303966 -0.1123078657643047 
0.1052768366194692 -0.1022224335133935 -0.0004652009926144613 
0.1052768366194692 -0.1022224335133935 -0.0004652009926144613 
0.5894822719283868 -0.5870201775876853 -0.07308138983445224 
-0.07755375441737114 -0.4042822726138176 0.4817585119662182 
0.1940806477636068 -0.1789718390685430 -0.07413137741212690 
-0.1983326809408496 0.2020178848486023 -0.02216429523317410 
-0.2207658289599312 0.2290043735776516 -0.02835809038647500 
-0.1591374877145449 0.1980084331949635 -0.1063876664560580 
-0.009794738425772444 0.01442901368176892 -0.007156838629583750 
-0.009794738425772444 0.01442901368176892 -0.007156838629583750 
-0.04582636080399816 0.04147119955062510 -0.006392610219732622 
-0.02244802526382135 0.02934593352313864 -0.009112133720658460 
-0.02244802526382135 0.02934593352313864 -0.009112133720658460 
-0.01049219708613140 0.01306987210723093 -0.006107137005883456 
-0.05667049799532446 0.07404777938513640 -0.007362207543065501 
-0.1127842990187667 0.1287797497339377 -0.06657773531465117 
-0.1127842990187667 0.1287797497339377 -0.06657773531465117 
-0.1172247010749362 0.1157676558620748 -0.04601971377004552 
-0.2256499019497579 0.2556979310245212 -0.03682483466721188 
-0.5255957949748260 0.5282163713514119 -0.2860409887899724 
0.2411248099736411 -0.2117832014035975 -0.006904993365639848 
0.2339959593788711 -0.2054794702531556 -0.006997730098970991 
0.2411248099736411 -0.2117832014035975 -0.006904993365639848 
0.3614913563763271 -0.3675052374141644 -0.04016711271519201 
0.02615112336010514 -0.02949142841432621 -0.02141529002304286 
0.09998365248610357 -0.09831470458176346 -0.02770559289075025 
0.2993022857698970 -0.2828983526062093 -0.005580172036408495 
0.2947963688493849 -0.3029120741093269 -0.006329734886862637 
0.2947963688493849 -0.3029120741093269 -0.006329734886862637 
0.2663075839509076 -0.2747039695178420 -0.02003868892903131 
0.3480038522382955 -0.3526808101670877 -0.03970544591571676 
0.1499760902501391 -0.1647831574340407 -0.0006334787005424795 
0.2966007048140085 -0.3146189749473489 -0.001210037900468957 
0.2309123520435336 -0.2263355822519315 -0.004365678563165451 
-0.06748251220927770 0.07794184884022012 -0.02074255476801215 
0.1068722627781191 -0.1046841513290299 -0.002581100424760493 
0.2455399748176563 -0.3156225464730614 0.1829439165982668 
0.2961756015990207 -0.2980543359066296 -0.01014233491048470 
0.1031408759082343 -0.1087037571901258 -4.138673232131971e-05 
0.1031408759082343 -0.1087037571901258 -4.138673232131971e-05 
0.1031408759082343 -0.1087037571901258 -4.138673232131971e-05 
0.03358850559240281 -0.03099445942299378 -0.002017431382075403 
0.2840780232302756 -0.2828709021393635 -0.03237184944910998 
0.5704565156878192 -0.4703288097000223 -0.06268771390473038 
0.2084018615465958 -0.1848881890284239 -0.03180975334087376 
0.2140992573803557 -0.2199979421118753 -0.001470764937763133 
0.2140992573803557 -0.2199979421118753 -0.001470764937763133 
-0.1344626457741150 0.1508762049606034 -0.03176026544163477 
-0.08233035035904906 0.08733163916449788 -0.03140421217900195 
-0.0002865190004639650 0.0003966243473336272 -8.041996057123873e-07 
-0.0002865190004639650 0.0003966243473336272 -8.041996057123873e-07 
-0.3012621278174046 0.3190522999949277 -0.04811343316037203 
0.09169459385645554 -0.07907475307582604 -0.06814872314849381 
-0.08955174277384886 0.09335063908100963 -0.008260940183238218 
-0.2447391159255135 0.2772974038904837 -0.02849243851566025 
-0.1124850993697926 0.2076766626656882 -0.1068409258034215 
-0.001827154842372041 0.008656911448570613 -0.0001497191877115439 
-0.01001260428392204 0.01949775126595470 -0.0001497299684693236 
-0.001827154842372041 0.008656911448570613 -0.0001497191877115439 
-0.01916960042818051 0.05216792139219429 -0.02170097911271823 
0.05151333518915962 -0.03939304432536887 -5.007876375731723e-07 
0.04874732196603701 -0.2633729203417261 0.3711077978358176 
0.05151333518915962 -0.03939304432536887 -5.007876375731723e-07 
0.05151333518915962 -0.03939304432536887 -5.007876375731723e-07 
0.05151333518915962 -0.03939304432536887 -5.007876375731723e-07 
0.05151333518915962 -0.03939304432536887 -5.007876375731723e-07 
0.05151333518915962 -0.03939304432536887 -5.007876375731723e-07 
0.05151333518915962 -0.03939304432536887 -5.007876375731723e-07 
0.4572705075389625 -0.4332954117271940 -0.06304768584621075 
0.1204160269254140 -0.1303315272756417 -0.01435165251647203 
0.1204160269254140 -0.1303315272756417 -0.01435165251647203 
0.01307403987879161 -0.001775405927267496 -0.05062668138845885 
0.02926080642405556 0.01183901228874308 -0.03447566545235647 
0.09808497737306675 -0.07757364050994184 -6.947250692038727e-05 
0.09808497737306675 -0.07757364050994184 -6.947250692038727e-05 
0.09808497737306675 -0.07757364050994184 -6.947250692038727e-05 
-0.03336008470400257 0.04566401221824287 -0.02053380143351280 
-0.03952540666853243 0.05193034321216970 -0.02200165953224143 
-0.1399132266178428 0.1625876363781818 -0.03543251288217261 
-0.04874175387503900 0.04985709239161494 -0.009684696624868063 
0.4847719129348873 -0.4460343466947772 -0.03857276703802413 
0.1304755237667599 -0.1125518614113153 -0.01846709963894515 
0.1304755237667599 -0.1125518614113153 -0.01846709963894515 
0.1963042097094959 -0.1599448987562974 -0.05777664802073474 
0.1963042097094959 -0.1599448987562974 -0.05777664802073474 
-0.004090727353220158 0.004525561985466447 -0.001215360345542093 
-0.1296880577640220 0.1682167896820345 -0.02312531682105542 
-0.03606687987390953 0.05013749343202249 -0.005786743797640215 
-0.04935806022064714 0.06053616654540420 -0.02630779744796222 
-0.09871598967552551 0.1210721010471741 -0.05261556316192610 
-0.09871598967552551 0.1210721010471741 -0.05261556316192610 
-0.09816558686010225 0.1139176058904033 -0.04815665732709357 
-0.2364780764741502 0.2503724782460176 -0.09658557510039444 
-0.06501983976641419 0.08086073544403045 -0.06661018810573552 
-0.02122412927785502 0.03286146395446300 -0.02128510792043808 
-0.02122412927785502 0.03286146395446300 -0.02128510792043808 
-0.004024582432591971 0.006391089890869168 -0.0003236500839542363 
-0.004024582432591971 0.006391089890869168 -0.0003236500839542363 
-0.004024582432591971 0.006391089890869168 -0.0003236500839542363 
0.1446083111497409 -0.1254064551677928 -0.008366020164360635 
-0.2279593683717265 0.2579595577290735 -0.04218938279591220 
-0.1198636656447283 0.1314169333015655 -0.007571157397082406 
-0.07560704569556174 0.07716912519097355 -0.004326679155737377 
-0.08778557218794689 0.08387927446671922 -0.006564670712868929 
0.5439681957020321 -0.5222431510453391 -0.1174821272471471 
0.01947709407325660 -0.01603790350993615 -0.0001699168195772871 
0.1838488096851360 -0.1657114646311662 -0.02923802243433041 
0.01947709407325660 -0.01603790350993615 -0.0001699168195772871 
0.2087674789595612 -0.1911801503952225 -0.08097434243202162 
-0.07541161310926148 0.08909874320201991 -0.09764263410175522 
0.04252909457357652 -0.04016004775007789 -0.05195845137942881 
-0.07693842562991146 0.07811307694369753 -0.001371758734194632 
-0.07693842562991146 0.07811307694369753 -0.001371758734194632 
-0.02759935179785441 0.03557647946642836 -0.003128678460996310 
-0.04317848089979010 0.04951414912076466 -0.003409118376293618 
-0.01557912910193568 0.01393766965433627 -0.0002804399152973061 
-0.01557912910193568 0.01393766965433627 -0.0002804399152973061 
-0.01557912910193568 0.01393766965433627 -0.0002804399152973061 
-0.1997071977906119 0.2100246600721180 -0.02029270999396190 
-0.09130959606408107 -0.05868966597737761 0.1326720678380512 
-0.09130959606408107 -0.05868966597737761 0.1326720678380512 
-0.06128377261369006 -0.04907995548203107 0.1201367911763521 
-0.09130959606408107 -0.05868966597737761 0.1326720678380512 
-0.1272827375052152 0.1554077886144643 -0.07629767090134716 
-0.0001207303047750770 0.0003890807984830233 -3.316924452677286e-06 
-0.04345865104773797 0.005669784557438113 0.1369979603619587 
-0.009146151924385965 0.01348725351745711 -0.006681028417284192 
-0.1260887120681456 0.1724776985806842 -0.07167598290882815 
-0.1260887120681456 0.1724776985806842 -0.07167598290882815 
-0.1420454393375505 0.1609784354443567 -0.07639730711679855 
-0.1420454393375505 0.1609784354443567 -0.07639730711679855 
-0.1420454393375505 0.1609784354443567 -0.07639730711679855 
-0.0009799093362828615 0.001209394016837976 -1.149683230396492e-05 
-0.0009799093362828615 0.001209394016837976 -1.149683230396492e-05 
-0.0009799093362828615 0.001209394016837976 -1.149683230396492e-05 
-0.0009799093362828615 0.001209394016837976 -1.149683230396492e-05 
-0.0009799093362828615 0.001209394016837976 -1.149683230396492e-05 
-0.06556532830007260 0.07204205786428099 -0.008773797870795610 
-0.2029015012309259 0.1998313957622804 -0.006426853298446441 
-0.09037766038387599 0.1067395650545258 -0.02332405976801116 
-0.04727509456205498 0.05539260555860235 -0.008460918243237130 
0.3637457498580466 -0.2679680203340578 -0.2708590166152667 
0.4148453498011336 -0.4005206272894036 -0.04016150186987577 
0.1182584863331202 -0.1346750625026303 -0.002848496106576053 
0.07408788178670102 -0.05330763763346762 -0.009242026523448920 
0.2106060088197310 -0.1865677218581860 -0.009415082534284604 
0.2446763267876056 -0.2341372403265360 -0.02097816066970904 
0.1571995885253588 -0.1579377290238420 -0.06413361949768807 
0.1795508116626463 -0.1532919362945088 -0.02090182383918688 
-0.1046413828988001 0.1343725398179728 -0.06697291039717819 
0.08831048476097988 -0.07332329770287213 -0.001364212815913445 
-0.03211265494294698 -0.02592884580168593 0.1514114259164810 
-0.03211265494294698 -0.02592884580168593 0.1514114259164810 
0.03416331616854305 -0.07620035450694096 0.1508445907756656 
-0.03211265494294698 -0.02592884580168593 0.1514114259164810 
-0.03211265494294698 -0.02592884580168593 0.1514114259164810 
-0.03211265494294698 -0.02592884580168593 0.1514114259164810 
0.2790384402052679 -0.2910595054142331 -0.009733830020928383 
0.2790384402052679 -0.2910595054142331 -0.009733830020928383 
0.03950751976213430 -0.02929076611797248 -6.309952355346725e-09 
0.03950751976213430 -0.02929076611797248 -6.309952355346725e-09 
0.03950751976213430 -0.02929076611797248 -6.309952355346725e-09 
0.03950751976213430 -0.02929076611797248 -6.309952355346725e-09 
0.03950751976213430 -0.02929076611797248 -6.309952355346725e-09 
0.03950751976213430 -0.02929076611797248 -6.309952355346725e-09 
-0.06170740183308798 0.07662889068041320 -0.01279893007504390 
0.009761242604727970 -0.001629097499667815 -1.989851576579652e-05 
0.009761242604727970 -0.001629097499667815 -1.989851576579652e-05 
0.009761242604727970 -0.001629097499667815 -1.989851576579652e-05 
0.009761242604727970 -0.001629097499667815 -1.989851576579652e-05 
0.009761242604727970 -0.001629097499667815 -1.989851576579652e-05 
0.1566602966784421 -0.1427675826928687 -0.1015231557341538 
-0.3814748660709790 0.3953287683462163 -0.1609591820406826 
-0.007018290906176378 0.02354244401242616 -0.0001847628950443551 
-0.06608049251644718 0.09054908931867797 -0.02519558529961145 
-0.007018290906176378 0.02354244401242616 -0.0001847628950443551 
-0.005338320454298943 0.01433272835244771 -0.0003206276469652912 
-0.005338320454298943 0.01433272835244771 -0.0003206276469652912 
-0.1229642431039391 0.1312381816468618 -0.02082516371167497 
-0.1089925681494538 0.1005120399955271 -0.01656081649147794 
-0.09908865280268124 0.09986858272616692 -0.007358762179437214 
-0.09908865280268124 0.09986858272616692 -0.007358762179437214 
0.2005704455863420 -0.1873577867049730 -0.01456615929373151 
0.2005704455863420 -0.1873577867049730 -0.01456615929373151 
0.2005704455863420 -0.1873577867049730 -0.01456615929373151 
-0.1030079227296961 0.1360705563269103 -0.05442737389718613 
-0.0001254694756109647 0.0001539054946078771 -1.126599166828616e-08 
-0.02247692541566687 0.02526001509748235 -0.009471325483493600 
-0.01683486457285805 0.01616366560512586 -0.002547002262922683 
-0.05736212838536522 0.06160497693259043 -0.02203289873253832 
-0.009921493217431810 0.01058748866279955 -0.001363275244818431 
-0.2105441080477076 0.2090668659488857 -0.02803201960017320 
-0.2105441080477076 0.2090668659488857 -0.02803201960017320 
-0.08696632082495685 0.1030421507411653 -0.02631209395730683 
-0.009160828692627907 0.01559944041224447 -0.0004630484942268914 
-0.2060789810118154 0.2012615811442847 -0.02295813133818528 
0.2224632113073294 -0.2015883887107832 -0.07657575192623511 
-0.03464693820134122 0.03404750025336904 -0.002073944591210089 
0.06598325712013453 -0.06575882540383533 -0.02129451401310158 
-0.05401375759559747 0.06969170817611935 -0.006495922512102584 
-0.05401375759559747 0.06969170817611935 -0.006495922512102584 
0.02265174969409867 -0.1763036200495710 0.2953312252062801 
0.02265174969409867 -0.1763036200495710 0.2953312252062801 
-0.1082986815896746 0.1073631543373279 -0.02473803099753484 
-0.01474779776920175 0.02508660146599567 -0.04997926531352064 
-0.07485567353107997 0.09484670219307555 -0.01829138326224714 
-0.08984383140590331 0.09817145348398205 -0.02783533240315920 
-0.07345775950904777 0.08028107865891664 -0.02746014641733047 
-0.05919436778587555 0.05762727507765040 -0.01162190853285874 
-0.03663739736304354 0.03994067625787005 -0.01745710655912369 
0.2876207674306059 -0.2467745346304409 -0.007873454767490510 
-0.07291827788624056 -0.2162091078223011 0.3031189755956222 
0.04340983111768515 -0.03228030775311665 -0.009702516966289364 
0.08169626828738827 -0.07797684064924561 -0.01966675698668555 
0.2642808760323662 -0.2374871869375040 -0.03027940882536932 
0.08169626828738827 -0.07797684064924561 -0.01966675698668555 
0.008495946305171410 0.01010528703487722 -0.04521404836423544 
-0.01590246791029367 -0.2519603450480148 0.4040703896406111 
-0.07184127825615655 -0.003886441626557530 0.1602925041608096 
-0.07184127825615655 -0.003886441626557530 0.1602925041608096 
-0.07184127825615655 -0.003886441626557530 0.1602925041608096 
-0.07184127825615655 -0.003886441626557530 0.1602925041608096 
0.07726170493097151 -0.1425966778421267 0.1170026009050685 
-0.07184127825615655 -0.003886441626557530 0.1602925041608096 
0.2210548984404378 -0.2168389792842688 -0.004868664713476578 
0.1852779003013570 -0.1815485025093412 -0.02121575956501613 
0.3305244802419780 -0.3303051718785505 -0.03161331800645292 
0.1056286557194077 -0.08583601765646288 -0.006032598733876226 
0.1056286557194077 -0.08583601765646288 -0.006032598733876226 
0.1056286557194077 -0.08583601765646288 -0.006032598733876226 
-0.009004206644858263 0.008596916874413940 -0.0005270202575244012 
-0.02669988257376887 0.03053307126321345 -0.003271733423480077 
-0.06299617629803755 0.07290124860512005 -0.008049175770486363 
-0.06299617629803755 0.07290124860512005 -0.008049175770486363 
-0.06299617629803755 0.07290124860512005 -0.008049175770486363 
-0.06299617629803755 0.07290124860512005 -0.008049175770486363 
-0.02539589598208518 0.02866565429396476 -0.006152289996995303 
0.02135383920701916 -0.006084803635076505 -0.005214400202386805 
0.06927220553732345 -0.06376320477664346 -2.691475825099046e-08 
-0.06369832707569210 0.07629142223806298 -0.006282368115075405 
-0.1117633554989120 0.1307203235242554 -0.02603263328157839 
-0.04373032720185874 0.05228808607223024 -0.01886322762673050 
-0.1604733619676262 0.1868517458240530 -0.05395442749550181 
-0.008508279627104435 0.009764556453725190 -0.0006830370050931935 
-0.009806541186822145 0.01197819954845559 -0.0007265190752756256 
-0.07740420585704773 0.09999985151938623 -0.009286558236853591 
-0.1213116142990898 0.1248674798628321 -0.03921846643191383 
-0.2064734490566113 0.2193065998821989 -0.04318116689368179 
-0.2549030605555644 0.2737891278578183 -0.01980198133741644 
-0.2549030605555644 0.2737891278578183 -0.01980198133741644 
-0.04036151246280684 0.04727205871279356 -0.001323632679988480 
-0.0005622309296145982 0.0004563521794939593 -2.588480215580026e-05 
-0.0005622309296145982 0.0004563521794939593 -2.588480215580026e-05 
-0.01560336413537013 0.01684373386836564 -0.0006670771736943003 
-0.1553915181896345 0.1423921742751939 -0.02228438194998552 
0.2027802507421725 -0.1690503530882833 -0.2138573842396913 
-0.02881227070072395 0.03536696666926865 -0.0001803245076298942 
-0.02881227070072395 0.03536696666926865 -0.0001803245076298942 
-0.1387707432475016 0.1551019358074010 -0.01990340769161840 
-0.004476565520586081 0.005951814006292130 -0.0001525692049572285 
-0.004476565520586081 0.005951814006292130 -0.0001525692049572285 
-0.007803670003004450 0.009163425546679139 -0.0003216013827439064 
-0.02374485283453411 0.02787044859133896 -0.002701322792930624 
-0.09192175997681332 0.1034424086717095 -0.01183041120149519 
-0.002604010219123778 0.002059146709783488 -0.0008090808592599769 
0.1432528671924283 -0.1445859414784603 -0.002522976231410278 
0.1432528671924283 -0.1445859414784603 -0.002522976231410278 
0.02630611016115369 -0.02184377834428510 -1.839779028471375e-06 
0.1567393164294184 -0.1279919644100759 -0.0005781921363317153 
0.02630611016115369 -0.02184377834428510 -1.839779028471375e-06 
0.01108111739746425 -0.001666678814058450 -0.0005106869529626887 
0.2523488355545311 -0.2452167548895606 -0.01674268624546851 
0.1370780394166389 -0.1379002389617952 -0.01782827221191265 
-0.03527120782194944 0.03516901934367916 -0.01444104061730400 
-0.0005909842114444563 0.003156350974452589 -3.866691162373844e-07 
0.04725221464380006 -0.02969802333465979 -3.870554998193975e-07 
-0.0005909842114444563 0.003156350974452589 -3.866691162373844e-07 
-0.0005909842114444563 0.003156350974452589 -3.866691162373844e-07 
-0.0005909842114444563 0.003156350974452589 -3.866691162373844e-07 
-0.0005909842114444563 0.003156350974452589 -3.866691162373844e-07 
-0.02085157801547999 0.01984337281411046 -0.0009894576651039870 
-0.02085157801547999 0.01984337281411046 -0.0009894576651039870 
-0.01498911314800464 0.01778965679351343 -0.001578120706238548 
-0.01498911314800464 0.01778965679351343 -0.001578120706238548 
0.1401985690986360 -0.1389991560479973 -0.03055400654989918 
0.1997572997026181 -0.1917679116739858 -0.01703192026062687 
-0.2910259504296200 0.3410896941442377 -0.2220665141924811 
-0.09369149981814212 0.1054959697264743 -0.01349236786494558 
-6.538757435869957e-05 0.01441542292405211 -0.002916264999472626 
-0.06359479516291888 0.07904281591600434 -0.001494446767047668 
-0.06359479516291888 0.07904281591600434 -0.001494446767047668 
-0.06359479516291888 0.07904281591600434 -0.001494446767047668 
-0.2144194509171581 0.2288327551500732 -0.04357984803419587 
-0.2144194509171581 0.2288327551500732 -0.04357984803419587 
-0.01116691591756133 0.01117838090866937 -0.007248434616117018 
-0.01958858552053994 0.02901792906022093 -0.006649642927304603 
-0.01620455475524420 0.01592106361534485 -0.003309178653233224 
-0.05723583153822610 0.05795185269628483 -0.04313559523433563 
0.3298457940321354 -0.4185706797408758 0.2165788421828257 
0.09210046963576873 -0.08824897189333615 -0.01583250081211038 
0.1452465799406211 -0.1487566693692093 -0.01039755844143677 
-0.03202188656232557 -0.1542569283560013 0.1741395619636857 
0.05452158101272975 -0.04171649334341578 -0.01056766557246796 
0.1240321833748509 -0.1124092693847712 -0.008513623355916499 
0.7514243548027766 -0.7293363746025966 -0.007462376105173977 
-0.03118603988201433 -0.1084708908100786 0.2110174550502298 
-0.03118603988201433 -0.1084708908100786 0.2110174550502298 
-0.03118603988201433 -0.1084708908100786 0.2110174550502298 
-0.03090811217967431 0.03849007252109932 -0.002372407241143252 
-0.03090811217967431 0.03849007252109932 -0.002372407241143252 
-0.002787777544544531 0.003132201960499893 -0.0003151390388713555 
-0.002787777544544531 0.003132201960499893 -0.0003151390388713555 
-0.01783370225644857 0.02018170597338035 -0.008291997631074225 
-0.07083563874865191 0.07324952401178486 -0.009247066801052430 
-0.03244530812733393 0.03359506256058167 -0.01226366323615383 
-0.07364275258406963 0.1156298035778342 -0.09449818335567489 
0.1522407190243366 -0.1513511183104483 -0.0001429191235077264 
0.1522407190243366 -0.1513511183104483 -0.0001429191235077264 
0.2984323037200419 -0.2853297257029298 -0.06643709702542934 
0.3282161067603352 -0.2834435605736632 -0.1113037310224868 
-0.1198342778900052 0.1316216179234109 -0.02021729203294028 
-0.02084180606535071 0.02081556085356945 -0.003002165537482924 
-0.02084180606535071 0.02081556085356945 -0.003002165537482924 
-0.007128850594770080 0.006303731150441670 -9.273673333114941e-05 
-0.008292520167819959 0.009176745251279018 -0.002226917477056833 
-0.07167100090501384 0.09229309899082197 -0.05146610352209363 
-0.05802890632442663 0.06286709181076430 -0.001403647530223439 
-0.02314737081744483 0.02332439158474685 -0.002523600545896481 
-0.01324991883479662 0.01279170110946439 -9.749520302880186e-05 
-0.01324991883479662 0.01279170110946439 -9.749520302880186e-05 
-0.01324991883479662 0.01279170110946439 -9.749520302880186e-05 
-0.01324991883479662 0.01279170110946439 -9.749520302880186e-05 
-0.0009591475331867911 0.0009459157768118982 -0.0002535314328144331 
-0.0009591475331867911 0.0009459157768118982 -0.0002535314328144331 
-0.0009591475331867911 0.0009459157768118982 -0.0002535314328144331 
-0.03727334988492216 0.04027211647919785 -0.009926722754925610 
-0.03727334988492216 0.04027211647919785 -0.009926722754925610 
-0.07851661998181460 0.08178564994121637 -0.02003879336674115 
-0.08488578470975043 0.08258942777058924 -0.01070994300325487 
-0.05727522293557078 0.05806614165048923 -0.01058399845170558 
-0.1196137008382689 0.1198915107179340 -0.01696701709754212 
0.1269626121392357 -0.1019720746895293 -0.09662073649007352 
0.1269626121392357 -0.1019720746895293 -0.09662073649007352 
0.1016329094172667 -0.1015817671562829 -3.431531755638735e-06 
0.1016329094172667 -0.1015817671562829 -3.431531755638735e-06 
0.1016329094172667 -0.1015817671562829 -3.431531755638735e-06 
0.1016329094172667 -0.1015817671562829 -3.431531755638735e-06 
0.2540824583461181 -0.2191179147411278 -0.01235692706979201 
0.1409579299589842 -0.1309667516267227 -0.005569273011392834 
0.1048932974640664 -0.1191093311874530 -0.01860969043332349 
0.04354605148939612 -0.05346991970711177 -0.04349880415885897 
0.07607842849584176 -0.05750052465051933 -4.137908076453483e-06 
0.07607842849584176 -0.05750052465051933 -4.137908076453483e-06 
0.07607842849584176 -0.05750052465051933 -4.137908076453483e-06 
0.2382035859528628 -0.2079951579849079 -0.0008096874760599258 
0.2962239767403784 -0.2525379751367352 -0.09681151672292537 
0.2962239767403784 -0.2525379751367352 -0.09681151672292537 
0.3422700616946697 -0.3312417732056699 -0.003682163408477830 
0.3422700616946697 -0.3312417732056699 -0.003682163408477830 
0.3422700616946697 -0.3312417732056699 -0.003682163408477830 
0.02125591498513367 -0.01417531173336505 -0.05079032713616804 
0.03338584772932891 -0.01939342467745926 -0.1917451452551813 
0.01212993274419529 -0.005218112944094171 -0.1409548181190131 
-0.1007245668028544 0.1095948954165096 -0.007819630247891375 
-0.1007245668028544 0.1095948954165096 -0.007819630247891375 
-0.2988320510516831 0.3238379585055585 -0.03901520378581309 
-0.1842236258031088 0.1850947039235821 -0.03158983845184446 
-0.07566253709013718 0.07405469159975751 -0.008657529718222224 
-0.06921415537335106 0.09509662091727340 -0.03429275912342242 
-0.008185449441550008 0.01084083981738413 -1.078075777947413e-08 
-0.008185449441550008 0.01084083981738413 -1.078075777947413e-08 
-0.008185449441550008 0.01084083981738413 -1.078075777947413e-08 
-0.008185449441550008 0.01084083981738413 -1.078075777947413e-08 
-0.008243968059769220 0.007830696281196392 -0.001412416564909434 
0.09464795569807122 -0.06924008174982650 -0.04246882469839027 
-0.02768175478054961 0.04212672702250341 -6.630856378130024e-05 
-0.02768175478054961 0.04212672702250341 -6.630856378130024e-05 
-0.2169633539319604 0.2327863342574350 -0.07764624023056166 
-0.1596621778332850 0.1865959843845640 -0.1529504002492435 
-0.1596621778332850 0.1865959843845640 -0.1529504002492435 
-0.06185637545689021 0.07263902214299092 -0.01514546682812845 
-0.06185637545689021 0.07263902214299092 -0.01514546682812845 
-0.01007492111341420 0.01070913388399263 -0.002617805309486376 
-0.01007492111341420 0.01070913388399263 -0.002617805309486376 
0.2494030917040609 -0.2143731540960090 -0.001495976965755574 
0.2494030917040609 -0.2143731540960090 -0.001495976965755574 
0.2494030917040609 -0.2143731540960090 -0.001495976965755574 
0.2494030917040609 -0.2143731540960090 -0.001495976965755574 
0.2494030917040609 -0.2143731540960090 -0.001495976965755574 
0.1568507783332330 -0.1458951607148747 -0.01736980355372660 
0.2318607694528029 -0.2169020979376338 -0.02040785895472180 
0.2741553751649884 -0.2600836470757343 -0.05217192692459344 
-0.04793721998640781 0.05556762031090827 -0.03454447866486753 
0.06322333741370818 -0.05460101352694281 -0.01189991637948531 
0.06322333741370818 -0.05460101352694281 -0.01189991637948531 
0.3371114151825126 -0.2415745949846291 -0.1171696365487877 
0.01132480036680517 0.001201828710079334 -0.001370662270259798 
0.03535749963716779 -0.02539650315717844 -6.775486158154599e-06 
0.07183002441240205 -0.04548709423531071 -0.006174398784658935 
-0.009842482451933518 0.01999656357163974 -0.006030584383803604 
-0.07871317541045470 0.08694003938375477 -0.02109936940872887 
-0.04966371875964713 0.04977921725833832 -8.872020502787486e-06 
-0.04966371875964713 0.04977921725833832 -8.872020502787486e-06 
-0.09511440755793758 0.08611516329923530 -0.01588313627168977 
0.03002582345039101 0.009609710495346535 -0.01253527666169941 
0.1254423515563094 -0.09616771580987538 -0.0002043569363306353 
0.1254423515563094 -0.09616771580987538 -0.0002043569363306353 
-0.1291668535117997 -0.1811191187923711 0.2517529227881995 
0.09115711756635915 -0.08989573962995288 -0.0002163708350521605 
0.1825846077449783 -0.1595103462882579 -0.01061265183868381 
0.1825846077449783 -0.1595103462882579 -0.01061265183868381 
0.05708062118834903 -0.04907388418691116 -0.002878442091471035 
0.3281080059938542 -0.3140556635786408 -0.04155238051669860 
0.05708062118834903 -0.04907388418691116 -0.002878442091471035 
0.1466246145638690 -0.1498358175133079 -0.0005765591999264799 
0.1330913505859993 -0.1399871248735016 -0.009480862594078654 
0.2550221632266833 -0.2342490910515701 -0.01921424411611056 
-0.02457683833494592 0.03590282087655375 -0.01562945618062432 
0.3552599779147727 -0.3593435386162436 -0.004757240955135023 
0.1579209040590442 -0.1622349517722154 -0.003685384042124166 
0.1579209040590442 -0.1622349517722154 -0.003685384042124166 
