solver_type L2R_LR_DUAL
nr_class 3
label 0 1 2
nr_feature 1999
bias 0.000000000000000
w
0.5938527967347716 -0.6538868331127697 0.3892238197361631 
-0.1966533327442257 0.2531014615045651 -0.4408974276660548 
-0.6234613495448189 0.4748864009234487 -0.1599004128714728 
-0.6710141767940927 0.4742332421185584 0.2554023165502131 
0.3621192151512262 -0.2984073914586564 -0.3011274161896078 
-0.1611185221798163 0.08304458531458805 0.2215591318786453 
-0.5460253424040670 0.4232591029146806 -0.6565370545557395 
-0.3736574332619062 0.3484373390056907 -0.1089411187871279 
-0.5527293633466238 0.4751588104243243 -0.07959836930083736 
0.4140447012615511 -0.3774103376637084 -0.01670103549509415 
-0.6140692900256652 0.3993816381275426 0.01609912246241346 
-0.2648554490677370 0.1874569749951121 -0.8570459066232893 
-0.5786062248465276 0.3861817221317637 -0.6626381229818783 
-0.8994914702861303 0.8604840098107025 -1.422425803381237 
0.3345441235439077 -0.3350983654972279 -0.08209877443920010 
0.3326993651876140 -0.2887752701826674 -0.3596057787448551 
-0.4333517581555717 0.4958132089982021 -0.4687158411742597 
-0.3099514119911566 0.3285182857228323 -0.1762444322489876 
-0.1563504527211141 0.1937191314695345 -0.7250409927487627 
-0.02456349665244273 0.02493601634063278 -0.7598157564664311 
-0.5575813777999061 0.3328130646325024 0.2181095670680851 
0.4644568623589200 -0.4624673042990049 -0.1488900171200811 
-0.6456786037011175 0.7586250249053217 -0.3312563516913076 
0.3823598458883730 -0.3970904812978107 -0.03273326534360942 
-0.6257601739702758 0.5347595108766334 -0.1100601804648559 
-0.2000500675393571 0.3847100101679690 -0.1573021326986424 
-0.4062262445890641 0.2218408446653080 -0.1437406998448575 
0.3018233009861127 -0.4639080871177140 -0.03440082046007965 
-0.4086346105532512 0.4475607018480373 -0.3039541192168456 
-0.2085260203261455 0.1988346941693079 -0.5151216346113681 
-0.2299875480842519 0.2219764786485393 -0.06338716581356380 
-0.3456857756613393 0.1027893300163983 0.4738979237167264 
-0.4286913138846910 0.3830290746697828 -0.3443251363715781 
-0.2753196838978259 0.2540764460097090 -0.3505608931241928 
0 0 0 
-0.5419685327810939 0.7185813995102782 -0.2736750020886481 
-0.7314995021553574 0.7787483322080680 -0.4854410085732215 
0.4135246294909084 -0.3641645860300828 -0.04965426112582707 
0.2739447116376520 -0.1995588925376665 -0.1797861340599384 
-0.1575354592448396 0.003497533711112705 0.2255702260982595 
-0.6751885971054984 0.5939877919185149 0.1568109903424728 
-0.2010249792304714 0.2044528002665906 -0.6638974543367197 
-0.9324421847669190 0.5828738521376720 0.8079735557069299 
1.109191003775987 -1.049052197841562 0.1963585134327179 
0 0 0 
-1.139448426605308 1.057251622382460 -0.4267064301297800 
0.04398182961440073 0.1432833940587641 -1.043615581976861 
-0.6181329385186847 0.6976950569526718 -0.8338853396821734 
0.3442073825950156 -0.3667154539493393 -0.02378079559586442 
0.2160269069375255 -0.05603787483530189 -0.5085529539326129 
1.122725005251819 -0.9816995477980346 -0.2510378909845637 
-0.9037034708170026 1.105907546581130 -0.5310710114671369 
0.03199157178271720 -0.04142209034033541 -5.795452219846026e-05 
0.6144117847211015 -0.5006912400836833 -0.1503774942904741 
0.2537432360285777 -0.1838709524260516 -0.0003995143728225267 
-0.4287435145475040 0.5544004934178705 -0.1261986598085065 
0.4027693047849946 -0.6393532163189011 1.749635932840947 
0.03919560641236138 -0.04596517453451626 -4.517510623026898e-05 
0.03919560641236138 -0.04596517453451626 -4.517510623026898e-05 
0.2278727805381190 -0.05335737701520517 -0.2621120444086115 
0.1361013058005980 0.05247868183059993 -0.3245835234420212 
0.03919560641236138 -0.04596517453451626 -4.517510623026898e-05 
0.03919560641236138 -0.04596517453451626 -4.517510623026898e-05 
0.7705221697771170 -1.060585181366380 0.4355379173376670 
-0.6394677681923155 0.7416205340283630 -0.5374348502542771 
0.1562446749799134 -0.3924705712103339 0.8880608914139791 
0.3498735843371106 -0.2268110189187517 -0.07948253626254456 
-0.6678031100125873 0.5455842437889245 -0.2469688776303216 
0.2793897668204377 -0.09895069868977510 -0.8039367325369396 
-0.7507127882533046 0.6019708769140490 0.04280608163086278 
-0.4177849746339931 0.3534389025396031 -0.07076577588906975 
0.5165085371778484 -0.4398455726481975 -0.3949979109221216 
-0.09435292533216696 -0.1062646913133358 0.1915555621576435 
0.4964510617726100 -0.3724106227200482 -0.1005491510294253 
0.1255484516140395 -0.1218814791116752 -0.02419393986511485 
-0.6873622283816249 0.8919374197969160 -0.7806058871539195 
0.2688009704189342 -0.2030557587381677 0.08202011379499930 
-0.1698840633808117 0.01114467720993298 0.1843074820578182 
0.1255484516140395 -0.1218814791116752 -0.02419393986511485 
-0.3907269491221593 0.4732157101186401 -0.6416621525139253 
0.7034654299888949 -0.5300731016718152 -0.4640431340843431 
0.02402488612290251 -0.08783015917869065 0.004875682790696721 
0.4409278682202295 -0.3671574874653598 -0.02328504889640014 
0.1255484516140395 -0.1218814791116752 -0.02419393986511485 
0.5942253434698596 -0.5675689029521589 -0.06831702982042297 
-0.1748992940388987 0.3223734326885128 -0.4953439493876933 
-0.03247112617045257 0.1124682664741217 -0.1303462901454137 
-0.5987171114686367 0.5081007936299464 -0.4030016336390259 
-1.443444003473088 1.078503819851208 0.1371258228584268 
-0.1590836585385072 0.1886054386639236 -0.06629663723915630 
-0.05052690835063027 0.06509772149919868 -0.001553463599609597 
-0.05052690835063027 0.06509772149919868 -0.001553463599609597 
-0.05052690835063027 0.06509772149919868 -0.001553463599609597 
0.04391488243946142 0.05083834863764435 -1.055212206104983 
-0.05052690835063027 0.06509772149919868 -0.001553463599609597 
-0.2530630574669698 0.2987837031333923 -0.2593240753291866 
-0.2709083841409743 0.2989482152174579 -0.02958109671413334 
-0.05709018634314041 0.09602359890742200 -0.02287684870855426 
-0.2569356005188594 -0.04246426808488416 0.3799608601311141 
-0.08649081805665085 0.2738431016225558 -0.1860834341915951 
-0.2479781644402281 0.3332921122887257 -0.07337710943887231 
-0.5064940644444993 0.6480244638155415 -0.05707711445756077 
-1.104456249444288 0.5639621845465660 1.251118686735734 
-0.7938204967083290 0.5479383160305025 0.3411585429669035 
0.07238448020775795 0.1426295499894103 -0.5731769545865922 
-0.4590687536513797 0.5641533427324588 -0.2570953277630136 
-0.3145970066028569 0.4983736347296330 -0.2701233860782504 
-0.3714138835676722 0.06953651542997419 0.6616235651761835 
-0.3319872240327610 0.4587035447399775 -0.1246315530323496 
0.2458883695880934 -0.2796042112356150 -0.4096632280239284 
0.3421048062656236 -0.2985303616735497 -0.06219213162918968 
0.2166032814892396 -0.1844128133055615 -0.06219101005222465 
0.2166032814892396 -0.1844128133055615 -0.06219101005222465 
-0.8554403685774726 0.6635619981916565 0.05259490352375078 
-0.7921317008694200 0.8176105219190315 0.05174146918356685 
0.08440607741860734 -0.09006476750893073 -0.1136530037162293 
-0.2041622125791299 0.1990303767462283 -0.08378082494376368 
0.2896371448377207 -0.3033915312487759 -0.0004727322718233300 
0.3729574846405567 -0.3673463200623623 -0.1321364746346257 
0.3171994111633121 -0.3259488247726257 -2.005438993582374e-05 
0.2909302748470698 -0.3053761578696911 -9.693052026271961e-06 
0.07347983166253791 -0.06173724311601717 -0.05452373073118690 
-0.1945782174664120 0.3312056155990663 -0.6469007526336491 
-0.3030461044515517 0.4265693884496992 -0.1323019256217476 
0.2909302748470698 -0.3053761578696911 -9.693052026271961e-06 
0.2909302748470698 -0.3053761578696911 -9.693052026271961e-06 
-0.6126025036074062 -0.6324148070371729 1.268030125690026 
-0.3357557118560571 -1.131025953620297 1.901555732358073 
0.3174112091827174 -0.3304651952295080 -0.02726102656651402 
0.2480639535290211 -0.1296194366702079 -0.1267379732143141 
1.239526176749043 -1.080562199873007 -0.1562135581771907 
1.113140150250306 -1.107395512982395 -0.02698031861345181 
0.3768751762285326 -0.3813726632953766 -0.001861528564263921 
0.3768751762285326 -0.3813726632953766 -0.001861528564263921 
-0.3559056372652766 0.5055307000380915 -0.4487969491184454 
0.04991781044140298 -0.04849452869299055 -0.0006876357463834995 
0.1938963175909147 -0.02803065705173040 -0.3456844731825098 
-0.09310526782356035 0.3294596914342646 -0.2480314843166145 
0.2939789156587545 -0.2364258453444554 -0.0003543688811059545 
0.07943128604253788 -0.09852006745292022 -2.961451369648481e-08 
-0.001505854233116777 0.01739056511624088 -0.03140289785147501 
0.4605691532967002 -0.4410811239393614 -0.1232761779915626 
0.2252349000752783 -0.1851945084102642 -0.02373823020644326 
0.2215688157277187 -0.2397306553177377 -0.2658830142834706 
-0.1427626179916654 0.1529535671279285 -0.02164763150148789 
-0.05683238673353191 0.1041963673355399 -0.2199322886840746 
-0.1925522319108156 0.1985789415682808 -0.02237764010395056 
-0.6423739548252370 0.2247512252823221 0.3438176665951816 
-0.4954213162389927 0.04976863753014761 0.2824081212523861 
-0.2927768457183018 0.4102504840087722 -0.1405628398894398 
-0.07571761022321177 0.1037692478967704 -0.03529860447199403 
-0.1137721137523026 0.2039031036591422 -0.08334371327174304 
-0.005982195517912316 0.03186308803826856 -0.0004901783358071515 
-1.102249524977297 1.187732096360711 -0.3587817486489329 
0.1430042158906577 -0.1388163518542714 -0.007587059450345753 
-0.6656273215042628 0.4674730071673855 0.4633009872671831 
1.391735547712008 -1.401675305227986 0.4070018404620913 
0.1107502228805793 -0.2605778015103253 -0.02744215809210125 
-0.1821934847560417 0.3872417866822102 -0.1416822592625815 
0.1887789602064753 -0.1257583528937279 -0.2565678063889414 
-0.9196410398617486 1.057212048901849 -0.3362644269075128 
-0.2460059328002501 0.4340236585956224 -0.5011573646594051 
-0.3593073597483942 0.3757515567371179 -0.1144522321844739 
-0.2889076271484129 0.1333851188745685 0.5923287590075957 
-0.06058652430670739 0.2614554798795462 -0.09640586083448514 
-0.04641631678453609 0.06031308437741863 -0.01351562106837353 
-0.02463581760351739 0.02931504758636130 -0.008512082096115292 
-0.1415449180843331 -0.06424585799984440 0.3481776400408546 
0.01115708628669590 -0.006882379281635491 -2.697033093836694e-05 
-0.02055458665876413 0.02948877759603828 -0.0006657199082192544 
-0.3478753824771800 0.4102537788029935 -0.7116575648878692 
-0.3414015960245541 0.4560833857967818 -0.4023879360288077 
-1.612491996089434 1.056939777756305 0.4542812639644689 
-0.08360965629946357 0.08327615914197659 -0.01052314683133956 
-9.617712608836273e-05 0.0004105199420066602 -1.022032427338256e-05 
-0.2138181977978337 0.2029246163100364 -0.006704248005579075 
0.1253807612232449 0.1058561339133961 -0.3349506059679949 
-0.2704288415427830 0.2975475779474435 -0.2334122324665722 
-0.6396554293356679 0.5736000015605465 -0.009174385975964004 
0.3479881566433136 -0.1841546689589235 0.04933006109770773 
-0.3150718778142118 0.3091279467135917 -0.03252866558042097 
0.1555718259904110 -0.09573772380823849 -0.1175612598977339 
0.4265334755050735 -0.4041986836100129 -0.02530233106405361 
0.3931364160393004 -0.1742712352641423 -0.04203539609292277 
0.4265334755050735 -0.4041986836100129 -0.02530233106405361 
0.1467912519434628 -0.2652784906783069 0.4828168343634920 
-0.1537221072144545 0.3054764835164468 -0.2465042201548419 
-0.8603257950702383 1.014835494877415 -0.5168238621913113 
0.7153995032084451 -0.9128979525013480 0.3409525046270205 
1.083944412906524 -0.7739540317959890 -0.2954791911754858 
0.6669585721032514 -0.5324903479732686 -0.004388011635070330 
0.7693927190169386 -0.6400626838516016 -0.009394489804328058 
0.5261261060582803 -0.5662091096645746 0.5591500763160950 
0.5061299465204648 -0.7963005188942347 0.6570953279620886 
-0.1239383016130582 0.4186170978851487 -0.2852334961402245 
0.4170428726706223 -0.3160938444708372 -3.707309745921418e-06 
-0.3552931268039536 0.5929545767887161 -0.1255460553355782 
-0.3027158557269144 0.3324789727689626 -0.03847721190392863 
0.3014048862373132 -0.1679371238807416 -0.04115983908246822 
-0.8098722004881167 0.8357858995617354 -0.4421873847466158 
-0.01696319147871763 0.01548939890430371 -9.712042834825105e-05 
-0.01696319147871763 0.01548939890430371 -9.712042834825105e-05 
-0.3704754076356521 0.4270570544687559 -0.1289776177703750 
-0.01696319147871763 0.01548939890430371 -9.712042834825105e-05 
-0.3535122161569345 0.4115676555644534 -0.1288804973420269 
0.3601601439724806 -0.4670815519659908 -0.04240819354349512 
0.2669561473480916 -0.2872952285217474 -0.02531438284896868 
0.7795855563884987 -0.6769362129919538 -0.004918782881034932 
-0.1736237757242611 0.2742604907847765 -0.08991752164776912 
0.01515971404819532 0.1308063321056382 -0.2685791581956090 
0.4195937250912093 -0.3767747968662740 -0.1532828673322429 
0.3121275258098751 -0.2337821211688657 -0.2087401747644727 
-1.312086942329359 1.360868888828533 -0.1092679959816313 
-0.8111390161230754 0.8660305681647723 -0.1361822809584285 
-0.5570858337705080 0.4642219462792269 0.1486798744779088 
-0.2014184597398332 0.1090788399994488 0.1680937796976512 
-0.2461952409986599 0.2919656383319687 -0.1115948197539156 
-0.2818601568762045 0.3230265929233246 -0.0003304441893302319 
-0.2818601568762045 0.3230265929233246 -0.0003304441893302319 
-1.250247545622551 1.025271644315339 0.5415920456661664 
-0.2818601568762045 0.3230265929233246 -0.0003304441893302319 
-0.3357628610130332 0.4417033131203072 -0.1122779021110896 
-0.2818601568762045 0.3230265929233246 -0.0003304441893302319 
-0.2818601568762045 0.3230265929233246 -0.0003304441893302319 
-0.8416141132529995 0.6520694621653650 -0.3597964298335295 
-0.2062002064818086 0.3434353782742440 -0.1707755598136489 
0.01165360904864445 0.09658608374571956 -0.1493127635399640 
-0.4882041185402117 0.05796056398953690 0.6512053488241428 
-0.1043565999131916 0.1219673450316509 -0.002951238813839258 
-0.001580429031109024 0.001178737256057968 -7.130202397069627e-05 
-0.1798525385443936 0.2751565096319877 -0.1183860294005471 
-0.008437625579368392 0.006495736804395473 -0.001652134805274138 
-0.05625899011957999 0.1595822877981177 -0.1457434829977690 
-0.3805096114036960 0.5622398255736296 -0.5092655678904502 
-0.3895022810122061 0.5987348206203205 -0.6616471567244115 
-0.6902389302128448 0.6986422001462934 -0.2806456374963394 
-0.1002966000181394 0.1085847165526492 -0.01961017247021613 
-0.1002966000181394 0.1085847165526492 -0.01961017247021613 
-0.1002966000181394 0.1085847165526492 -0.01961017247021613 
-0.1329056943594944 0.1507299316765268 -0.02759050115961108 
-0.4139570727535291 0.4694586825806477 -0.1292498475678154 
-0.2880111557214695 0.3966834140319696 -0.2655819470677522 
-1.139772275805640 1.254549239342074 -0.4211889540224047 
-0.1400787049121554 0.1565364141420021 -0.08158343962064514 
-0.1400787049121554 0.1565364141420021 -0.08158343962064514 
-0.2881382103981595 0.2990518864812788 -0.007845193379903106 
-0.2881382103981595 0.2990518864812788 -0.007845193379903106 
-0.2881382103981595 0.2990518864812788 -0.007845193379903106 
0.3682353907842920 -0.8078419644374788 0.7065422010850115 
-0.008704443414879953 -0.1003700851079251 -0.1251892601597931 
-0.2273594469776261 0.4598780178882203 -0.2049035715990287 
0.5121878643502129 -0.5116534930050636 -0.04626272989755616 
0.3675000821254790 -0.3910517650422482 -0.03053073854994667 
0.3505722679456289 -0.2225633742660012 -0.4357560612742066 
0.3675000821254790 -0.3910517650422482 -0.03053073854994667 
0.4847990773064262 -0.4551172151479885 -0.1958419129894143 
-0.08444625428713240 0.08993414850319598 -0.1399729464965973 
0.7323423088565024 -0.6443117441919827 -0.1195701123442905 
0.2461012158428592 -0.2200391935109537 -6.816781452811230e-08 
-0.1289823620623667 0.1732719356867147 -0.05123437173171785 
0.07155593689403370 -0.06430491654421958 0.2150504277537494 
0.2461012158428592 -0.2200391935109537 -6.816781452811230e-08 
0.2461012158428592 -0.2200391935109537 -6.816781452811230e-08 
0.2461012158428592 -0.2200391935109537 -6.816781452811230e-08 
0.2461012158428592 -0.2200391935109537 -6.816781452811230e-08 
0.2461012158428592 -0.2200391935109537 -6.816781452811230e-08 
-0.06630364053736140 -0.1134413098612526 0.2387647757942894 
-0.3059514261210782 0.4191696063735289 -0.1360541019579915 
0.2461012158428592 -0.2200391935109537 -6.816781452811230e-08 
-0.4346969870352013 0.5314066035503346 -0.1542833041923165 
-0.3166601288295327 0.3986930007913823 -0.04920743949542501 
0.2461012158428592 -0.2200391935109537 -6.816781452811230e-08 
-0.2873623385979696 0.4024584873092725 -0.1764291311040036 
0.6392588567063089 -0.5484142724862330 -0.1494823041135862 
-0.5596488223513858 0.4603976934068815 0.3957120439623911 
0.3613867047139255 -0.7881197036830137 0.5896568178383698 
-0.02377723454824295 -0.04495930367235560 0.1897181286985329 
0.001082250363596074 -0.0008129584975321159 -0.0007184323515265276 
0.06138542572621102 -0.03466454163168682 0.4286665871456439 
0.1633224243582553 -0.1656735935650940 -0.02132103764422419 
-0.2079037622683934 0.2229877973319057 -0.001180572695474517 
-0.1090568762289390 -0.1029177438598509 0.4398095195728997 
-0.1113404914847397 0.1167213081196931 -0.04018261126188304 
0.06766761238302327 -0.1010649672188188 0.4017376082436339 
0.1211615136876428 -0.1389585608814692 -0.0004763781024852749 
0.1135298756600041 -0.08315782926882090 0.3501865662467498 
0.05280094265772686 -0.03426426667195659 -0.03344328296496237 
-0.2432365823471023 0.3358776768226079 -0.2786830030278328 
0.1415084553821561 -0.1483260458543094 -0.0005358870536579464 
0.1211615136876428 -0.1389585608814692 -0.0004763781024852749 
0.1138375619469215 -0.08096211296751554 -0.1399154064976284 
-0.5757412277032914 0.7528851336023328 -0.6169305614631431 
-0.1756436762511440 0.2922573189802876 -0.09549402371366161 
-0.5048177548500745 0.5900060506591911 -0.1275016749002500 
-0.6115740624946462 0.6467403298772777 -0.1624118592171924 
-0.5739151084373614 0.6852200296515367 -0.1631878726977555 
0.3826942916937684 -0.3888860067411800 -0.09098210903860945 
-0.2256869473076809 0.2571921709961331 -0.05608189016790121 
-0.1640428877330450 0.1984837978953400 -0.04325092687931414 
-0.4602663767170748 0.2119880486158290 0.3698025048231945 
-0.009397632085096322 0.01418032306407421 -2.811676323531348e-05 
-0.5810082795773635 0.3915793132390685 0.4670250739457649 
-0.08682149189966899 0.1530207542108273 -0.06818339918735009 
-0.009397632085096322 0.01418032306407421 -2.811676323531348e-05 
-0.009397632085096322 0.01418032306407421 -2.811676323531348e-05 
-0.009397632085096322 0.01418032306407421 -2.811676323531348e-05 
0.5447997750672612 -0.4693718946640574 -0.07283159706253108 
-0.009397632085096322 0.01418032306407421 -2.811676323531348e-05 
0.3000183989339897 -0.1828241823032716 -0.4940982402835801 
-0.6958070148888489 0.6268966558714366 -0.02955015200068031 
0.3156184337318312 -0.2691901281531263 -0.2402698476169572 
0.4666208797167866 -0.4180930170713461 -0.2687783783932415 
-0.5752124638234248 0.5350075993224226 -0.001671430777525691 
0.04700262665882345 0.1430363692286905 -0.2290485009399121 
-0.1699801500222800 0.2277233534011608 -0.004532339671394543 
0.5566951576303666 -0.5101823687420944 -0.01587355967010637 
-0.1699801500222800 0.2277233534011608 -0.004532339671394543 
-0.3434180484093968 0.4624452470428405 -0.02074677119485596 
-0.1414823166782118 -0.6148559407889229 1.388686279206157 
0.1669497105255358 0.03902716522928399 -0.2366399814031321 
-0.3434180484093968 0.4624452470428405 -0.02074677119485596 
0.02676794599886011 0.08525796581594716 0.2373728486056551 
-0.3434180484093968 0.4624452470428405 -0.02074677119485596 
-0.005330551783349645 0.1838447832255881 -0.1187151009586489 
-0.4200344528159306 0.4527563535467740 -0.1272253273293537 
-0.2213795819001218 0.2234674656979268 -0.01708615018052725 
-0.08631952698083300 0.07891040857589540 -0.0009488639079121232 
1.058407816146987 -0.9025187999555209 -0.09475299942931337 
-0.08631952698083300 0.07891040857589540 -0.0009488639079121232 
-0.2756732567580693 0.2851722126858959 -0.05080731494484363 
-0.08631952698083300 0.07891040857589540 -0.0009488639079121232 
-0.08631952698083300 0.07891040857589540 -0.0009488639079121232 
-0.1398350776263982 0.1547946162239542 -0.006164898234029019 
-0.1398350776263982 0.1547946162239542 -0.006164898234029019 
0.2009364519880289 -0.3424968623919329 0.1275661029338343 
0.07370666841007006 0.3238500318560688 -0.6270080999625527 
-0.5818356759448259 0.4716666535910780 0.1152971936469113 
-0.02785469417429710 0.03303491037545870 -0.04915821788431282 
-0.9367060718523261 1.019370961954401 -0.3595611317826044 
-0.1568941266583039 0.1935438876786551 -0.1558241093222300 
-0.4005351833024426 0.4513825493034226 -0.1895150452604677 
-0.9133508526135070 0.5428557804916716 0.5465859223380110 
0.02605535307223275 0.1205272432042778 -0.1829786992183433 
-0.06220606787202782 0.08151691893813416 -0.3111259712136256 
-0.07360344153943105 0.09645794912857351 -0.05809465967245683 
0.7366199280760855 -0.5716179729210845 -0.09735764268619318 
0.001409745174108953 -0.4275753879426287 0.8590758544098000 
-0.1855815708973599 0.5292233958795985 -0.1768434015219459 
-0.05944732507262893 0.06553171451686265 -0.01756157971415222 
-0.05944732507262893 0.06553171451686265 -0.01756157971415222 
-0.2136970377564943 0.2928537034679144 -0.1532037693329062 
0.6943632936182600 -0.5772145330417369 -0.1424145166181766 
0.6943632936182600 -0.5772145330417369 -0.1424145166181766 
0.2804594124810231 -0.2225938036390581 -0.06078139569388076 
0.5713391741515925 -0.5662474136742388 -0.05049127497471323 
0.05437401555396387 0.03050845446075783 -0.09285863375556859 
1.321069367328882 -1.235466073855474 -0.1846710814022628 
-0.3406131789820617 -0.06334052124987810 0.6808275152209834 
-0.4120273405913623 0.6098412883405886 -0.6528259408322966 
0.1134411076663020 -0.04015336363260215 -0.0002275760617541182 
-0.2054180876905871 -0.5176867047072830 0.8804306766839142 
0.1552122201164722 -0.3120026507974286 0.5993201752450206 
0.5021937308547643 -0.3103183215356685 -0.3983019804674184 
-0.2057925846611170 0.2525326415474334 -0.01744573178779073 
-0.5335671294924312 0.2178750265931171 0.3622357786017860 
-0.2133526434425193 0.2070035319085352 -0.04220762657574630 
-0.1383010017188320 0.1148635281033991 -0.007532295965718529 
-0.01970611513459072 0.07089058613778657 -0.4606624279776788 
-0.1026335020456855 0.1000569437213095 -0.0007558095358793266 
0.5888147021049885 -0.5184712249970896 -0.03474480569471372 
0.7175815344074313 -0.7371879309517350 -0.2461111032461527 
-0.2325838116427731 0.2794027067731075 -0.06228910668071863 
-0.1893537297772358 0.2062618041100008 -0.04985845103693148 
-0.1893537297772358 0.2062618041100008 -0.04985845103693148 
-0.08142310852624768 0.1468820734847845 -0.08942187168924895 
-0.1893537297772358 0.2062618041100008 -0.04985845103693148 
-0.03902748681268444 -0.3542857557355861 0.5928734373734124 
0.1112882872114322 -0.01277229907857043 -0.006607073386031653 
0.7511508060552742 -0.6385556762315475 -0.03620974126821592 
-0.1186675294599964 0.1712975809036289 -0.04345104904012870 
0.1112882872114322 -0.01277229907857043 -0.006607073386031653 
0.4130617585762367 -0.4164962823572183 -0.01253643568596192 
0.3821388786528095 -0.3721177994948032 -0.01355208608131629 
-0.5182920434890657 0.04409476798099843 0.5917750308514580 
-0.06537794784581062 -0.3974628297008212 0.9684398962567906 
0.4335145623483712 -0.3219320500097219 -0.09865863367497435 
0.4707005769998081 -0.4505182561359603 -0.09030130873786278 
0.4707005769998081 -0.4505182561359603 -0.09030130873786278 
-0.1189274617579058 0.1710316003681300 -0.4011649670479589 
0.3731963384287019 -0.7058766719981867 0.3263423258114473 
0.6361058121424076 -0.5621620425930028 -0.04101454556457900 
0.02262197270622723 0.01761564730253502 -0.1459800376887540 
0.1902927864837475 -0.1525760900911252 -0.005765546323811772 
0.1902927864837475 -0.1525760900911252 -0.005765546323811772 
0.07643636254760253 -0.02086351940265842 -0.009486311131636452 
0.3577245321296503 -0.4636315046807497 0.5074221277193413 
0.1451758780486595 -0.08478902493374868 -0.005767640419194029 
0.1902927864837475 -0.1525760900911252 -0.005765546323811772 
0.08416498804251764 0.1266049353451781 -0.3993656195485198 
0.5383831293076572 -0.5192756746232350 -0.1378402366554200 
0.5545161789990340 -0.5396359539169207 -0.0006878245180901365 
0.5973695390911489 -0.4318091977548658 -0.02243352215135650 
0.5545161789990340 -0.5396359539169207 -0.0006878245180901365 
1.592545745194222 -1.338106024889194 -0.2605553140483892 
-0.4617952505651823 0.5058416446890087 -0.08756474040590331 
-0.3485849784059241 0.4174063861092211 -0.07450603846118091 
-0.2106903673000045 0.2764900546040999 -0.1503987812772647 
0.5195319229582033 -0.4923757475086488 -0.05604756914261191 
0.3697989573529553 -0.3776289746912175 -0.05602364155394584 
0.5669247272215567 -0.2223297624555373 -0.4344682365968399 
-0.1721657043819570 0.1426942820052752 -0.07849953773489013 
0.2322482718107759 -0.2649671005693070 -0.06486407035142519 
0.5899680254998143 -0.4252148673968452 -0.2548845760913692 
0.3821955927819901 -0.6950338012813924 0.2976266004415566 
0.3305957697458163 -0.2744789531452596 -0.3796152181431033 
0.2062075018072094 0.005394670956554764 -0.1593419628006285 
0.1282945906985264 -0.06580459311001877 -0.1305140444174566 
0.4163765675387515 -0.3447646385509380 -0.09671958293725388 
-0.4195813794194045 0.4815354126900057 -0.1649041156998401 
-0.2073289600879137 0.2405039989020337 -0.03495152573813921 
0.3118349594670427 -0.2473764271905918 -0.07548538450208828 
-0.1034663045542456 0.1470577894662363 -0.02428243623615491 
0.4514336409012116 -0.3459774267115194 -0.1314946495102992 
-0.04254048466760873 0.03413122593383342 -0.003623742330550584 
-0.1207395703722358 0.1695290380261236 -0.009848426273075469 
-0.3772426159291401 0.4328892057646009 -0.2186976747175020 
-0.1026394691917940 0.1077114408264667 -0.08202872389869492 
-0.3700925406275166 0.4506227309241130 -0.1008833577681251 
-0.09566638198420938 0.07504873465526642 -0.02462515610500596 
-0.2922313502748111 0.2949799840167817 -0.07461561705296671 
-0.2451779252244983 -0.5504758771245155 1.104404140489136 
0.04895777059221917 -0.3235789506445257 0.3141689440622165 
-0.1608310260426019 0.1788019589798533 -0.02226072141155112 
-0.6221068271358343 0.7114643798073252 -0.1516663142773699 
-0.1593465146360183 0.2082205226529289 -0.02537593573583782 
-0.8607230836762918 0.9004795108297987 -0.1038313824165981 
-0.08121921269324227 0.09074985571193009 -0.01802846233758130 
-0.2431459144163737 0.2268896691020191 -0.002956155091060822 
-0.1115957369284928 0.1062674011031100 -0.002046996448512641 
0.05958749108704918 0.03074356066568285 -0.2869135783020886 
-0.2949030221066197 0.4414848528431042 -0.5623531738917834 
-0.4768053649288230 0.5727284368584560 -0.06806646710910971 
-0.2401155658759987 0.2834042358053814 -0.08369231629734958 
-0.02677984408635323 0.02656661565176049 -0.02227334443677369 
-0.4291623565954704 0.4367879045790881 -0.05467007764215062 
0.1492501466505411 -0.1019664438964473 -0.01860937272865115 
-0.2195642564856363 0.2199462209846911 -0.01333206517102216 
-0.02935902669008472 0.05527550371567876 -0.004348848996827971 
-0.04977054536967900 0.03513363265393960 -0.006422980244269944 
-0.1302984046680928 -0.5721618005300326 0.7236029232155030 
-0.8485441009856987 0.6008650605045630 0.4121921013847989 
-0.1737328750236077 0.1675139002580846 -0.01514629352241203 
-0.09027094807641325 0.07713205554588243 -0.0003158477277621654 
-0.09027094807641325 0.07713205554588243 -0.0003158477277621654 
-0.4703812401976025 0.4656940883819295 -0.08586919953322802 
-0.1604155328253318 0.1586177417451960 -0.03248871567642392 
-0.2686935253013897 0.2484035942891511 -0.03254164774072794 
-0.05157401775877725 0.04901646623503547 -0.01047546270832456 
-0.05157401775877725 0.04901646623503547 -0.01047546270832456 
-0.2741232552159666 0.3497852984781346 -0.04263740676745666 
-0.4160108970175886 0.5525580450651589 -0.4304023238312251 
-0.6317610929314396 0.9131663798149015 -0.4130966898926065 
-0.1227557216295404 0.1117662377106174 -0.02518349273086021 
0.5309054796496534 -0.4563711005790385 -0.09079363306351611 
0.1477765409618920 -0.09747806286168405 -0.06679417755723081 
0.1477765409618920 -0.09747806286168405 -0.06679417755723081 
0.1477765409618920 -0.09747806286168405 -0.06679417755723081 
0.1477765409618920 -0.09747806286168405 -0.06679417755723081 
-0.3501766673748581 0.2480471201322392 0.6610506703427489 
0.1475739451377402 -0.7253274106395927 0.6644161161568147 
0.7444862205774323 -0.7028311529717741 -0.1848341018781867 
1.349907477489697 -1.295868721123896 -0.2111905305855623 
-0.2508369416460896 0.5067897769490503 -0.4863115427262227 
0.1003740363363203 -0.09280817597460170 -0.03047888684044328 
0.1331310835555404 -0.09973194839437707 -0.03078293421683177 
-0.3104504097880407 0.3391418470766894 -0.1203368438949931 
0.4455163581054680 -0.4130551608807813 -0.01348196013254801 
0.09625123038850040 -0.07865709751211312 -0.004860750375290643 
-0.8363170457971500 1.110632208395717 -0.4623554303699027 
-0.4163332656031117 0.6343219909635649 -0.3772659589580632 
-0.05925658131596841 0.04441005823509170 -0.1640487195370208 
-1.050043595760104 0.7771252346631679 0.2031714832798224 
-0.4650627416302071 0.3183341347373055 0.6131236105060618 
-0.1774564522672892 0.2225828672374224 -0.07669900497175071 
-0.4027083494891134 0.3720612468280041 -0.07079852918494466 
0.6685987655866299 -0.6567500603301775 -0.2779619721031390 
0.8561644106969314 -0.7208664395140294 -0.1786413821631372 
0.3247366540441597 -0.2791666091285540 -0.1271574084218830 
0.3247366540441597 -0.2791666091285540 -0.1271574084218830 
-0.4480416333927330 0.02074006474682049 0.6860552296875564 
-0.02426013329585689 0.04199506326992190 -0.0004707130468495288 
-0.03581145125607180 0.05604100708862146 -0.0007797896161033646 
-0.02426013329585689 0.04199506326992190 -0.0004707130468495288 
0.04535388311320153 -0.01764377573711700 -0.02391084072480564 
0.6354260294218443 -0.5747576805048518 -0.2717385239174594 
-0.01545097219498094 0.02213093363899290 -0.009870888367369978 
-0.8074157863669009 0.9616860073564308 -0.2329030203650336 
-0.2158248974245327 0.2103843902407782 -0.05652100278714840 
0.7273906979169344 -0.4355045903321659 -0.2201518760018165 
0.2146032162737236 -0.1411242239395976 -0.08552532987111794 
-1.121103280312335 1.167580741501308 -0.4483343668982475 
-0.4191155370801822 0.4659280648516782 -0.1866585861803161 
-0.4204967597675474 0.5015409435078051 -0.2389060354292272 
-0.01589399430775483 0.01616778087929113 -0.0008017386359960688 
0.03430371999478140 -0.01298333436918572 -0.0008497215607846275 
-0.01708945238834215 0.01748990199449132 -0.0008019938319505743 
-0.01589399430775483 0.01616778087929113 -0.0008017386359960688 
-0.1024079322498254 0.1227844587390022 -0.04642525287483679 
-0.09110126675296554 0.09022307174339880 -0.02508571604516742 
0.3228671984584111 -0.3030055121813070 -0.09536586078408497 
-0.2998927324731227 0.3295531823213626 -0.03527219760032921 
-0.2374597627123674 0.2621145955363795 -0.05115357676945745 
-0.1511277601055544 0.1615253410351973 -0.03454685767853568 
0.1501565800117496 -0.1779868350572700 -0.03150457343903849 
-0.1321179010924849 0.1413041439810423 -0.04107109494456816 
-0.04354664305928944 0.06219271573098715 -0.03178488155002590 
-0.06306615167479213 0.1238500502994225 -0.03935138809907689 
-0.05911494399148993 0.1093345850627688 -0.03935134841997579 
-0.05102996256437887 0.1043800060546019 -0.03950486882845323 
0.03727875168215716 0.08883220715441117 -0.1764839306807345 
-0.3295899946276625 0.01204152924663467 0.9237138491919583 
0.05213985435056946 0.04848519025863482 -0.04016698402669641 
-0.4254976475580479 0.1088197875738504 0.4525871277666051 
0.2513933812727706 -0.3748647877689932 0.2789468829873310 
0.5560842419366416 -0.4805976028014135 -0.02020495368777665 
0.02697878164321299 -0.005481313122024882 -0.01867139440928838 
0.2043882454018241 -0.2429959534136148 -0.01901248492517499 
-0.2131289319825519 0.2037082053819505 -0.03252306707178456 
-0.05152167744993335 0.05027710718649567 -0.1316521008128807 
-0.05557943903736714 0.07517274119330651 -0.0002753277580402604 
-0.05557943903736714 0.07517274119330651 -0.0002753277580402604 
-0.2974834331831767 0.3068750788892775 -0.01650954116348350 
0.1499261709821646 -0.09649339755525740 -0.0005031118584616398 
-0.05557943903736714 0.07517274119330651 -0.0002753277580402604 
-0.05557943903736714 0.07517274119330651 -0.0002753277580402604 
-0.8358287370740087 0.9260342346094325 -0.1846232596835332 
-0.04574176487227436 0.05566283251984332 -0.01056526489127966 
-0.08946703181706250 0.2485613836132206 -0.1297295936154172 
0.3733144572298321 -0.4108556830858623 -0.02238350356067272 
-0.3689863936330627 0.4616151309386135 -0.1482054700814005 
-0.2165924099467691 0.3026007113154251 -0.01261904681740901 
-0.5450534355296623 0.05158001912422911 0.2581257342819453 
-0.1218025611398802 0.1506253613390693 -0.03077642582140593 
-0.09540490849701705 0.09324517097607990 -0.02779112468955407 
-0.03849861031746420 0.06351876384886720 -0.02027284898452559 
-0.03849861031746420 0.06351876384886720 -0.02027284898452559 
-0.2890923820014681 0.3773522038014143 -0.08876645373531813 
-0.1883053062951593 0.2618760300385026 -0.03918016377800964 
-0.2551563564398393 0.3297903811467048 -0.1564647555395629 
-0.04965943394731542 0.06235887632406441 -0.01119729533357875 
-0.1206814156346592 -0.1091617416036284 0.5935538823784074 
-0.04322175472414044 0.08034786036677648 -0.01997913144322304 
0.2874838684614055 -0.7896797815088890 0.5872600935677670 
-0.0002025958241518244 -0.6278493477779101 0.7312102937140439 
-0.2967706069688431 -0.1078130169187655 0.4817842134467977 
-0.2320634999868489 -0.3009357839271565 0.7167553460424867 
-0.1644014487209647 0.1061030977015275 -0.1840162486388897 
0.5514321649604540 -0.4473801291167505 -0.1901950240183400 
-0.3322885159077748 0.3200923197483448 -0.007789370453306829 
-0.1842633194547246 0.2746505539705290 -0.07118879110381240 
-0.2155219173396019 0.2239970120314935 -0.02851474914233849 
-0.06267582949530360 0.05314445952236289 -0.02266884742101041 
-0.3665049705393805 0.4400505350507282 -0.08528228916075199 
0.1543993827497980 -0.3411920384744292 0.5478698258888207 
-0.3202922576295340 0.3976295467666524 -0.2550455711537022 
-0.009102932759725315 0.02719614511181277 -0.0005600080954411117 
-0.07678825443579104 0.06609901438798978 -0.01118612816233405 
-0.3649265313424091 0.4648603420986304 -0.1624821260716000 
-0.6929349289928001 0.3945491601503575 0.2114234495237338 
-0.6069149458762838 0.6703952972516166 -0.2440672785426260 
-0.0002054813590990721 0.0002979356050949777 -7.169829339939069e-06 
-0.08116538634925283 0.1134358662568381 -0.01148581413549198 
-0.0002054813590990721 0.0002979356050949777 -7.169829339939069e-06 
-0.2506154891716003 0.2544789754678710 -0.08888890844550368 
0.3195432782846383 -0.2897927021254375 -0.009615289507350808 
0.3696203262941186 -0.2623891488926169 -0.02244646799073623 
0.1151637572764792 -0.09200458987737484 -0.006471652834400549 
-0.05414696727281777 0.08243214861714981 -0.01077263470857873 
-0.05414696727281777 0.08243214861714981 -0.01077263470857873 
-0.09227847237411880 0.1118134830912057 -0.05332913833963300 
0.5565862847576584 -0.3709366447616554 -0.1135801927861494 
0.6501726136605289 -0.6502140929546997 -0.01562130445689731 
0.8080341142571527 -0.8009875283647258 -0.001922871118979037 
0.6974382684724219 -0.6878380847653544 -0.002860814365820993 
0.6974382684724219 -0.6878380847653544 -0.002860814365820993 
0.07255169163936838 -0.07256667102421263 -0.003561130764685292 
0.07255169163936838 -0.07256667102421263 -0.003561130764685292 
0.07255169163936838 -0.07256667102421263 -0.003561130764685292 
-0.2570862230232895 0.2298296555978810 -0.03112678745738562 
-0.1919639875470542 0.1945627936961699 -0.03882167620438072 
0.5935682549534842 -0.4960439221406959 -0.02621312493054945 
0.3689132040371955 -0.3279911773325676 -0.003568692479432362 
0.07255169163936838 -0.07256667102421263 -0.003561130764685292 
0.2437457090029691 -0.2503571463801481 -8.234365451077199e-05 
0.2437457090029691 -0.2503571463801481 -8.234365451077199e-05 
0.2437457090029691 -0.2503571463801481 -8.234365451077199e-05 
0.2437457090029691 -0.2503571463801481 -8.234365451077199e-05 
0.5243729776976439 -0.5382851859102639 -0.1791832760951108 
0.2437457090029691 -0.2503571463801481 -8.234365451077199e-05 
0.2437457090029691 -0.2503571463801481 -8.234365451077199e-05 
0.5417545524447030 -0.4980524114557978 -0.07380781131249120 
0.2624710235452386 -0.4221028105705549 0.2962118146556953 
0.5417545524447030 -0.4980524114557978 -0.07380781131249120 
-0.7528230162363047 0.8321466390587228 -0.2663005019455901 
-0.06209952131938102 0.08059921904553602 -0.01018243694525844 
0.9260991731975621 -0.9105919409676269 -0.1153904664085598 
-0.07318940481154830 0.1124177775054238 -0.04468606417018828 
-0.07318940481154830 0.1124177775054238 -0.04468606417018828 
-0.1152126199707741 0.1471478813741296 -0.1528663512169448 
-0.03846973129289890 0.04962342015725074 -0.01218501926180298 
-0.03846973129289890 0.04962342015725074 -0.01218501926180298 
-0.1316886852864710 0.1332130679028763 -0.01568393931654170 
-0.7535399579165856 0.6952259075406463 -0.1095601160155797 
-0.4591929642169603 0.4521388176633038 -0.07045035155316705 
-0.1761693772462618 0.1650022611202690 -0.02331349316037977 
0.1217297547096928 -0.02540743511723883 -0.2987434533690487 
-0.1692562407749478 0.1943666693164032 -0.0006476805708416458 
-0.004121946215800513 0.004541957622961526 -0.001275948318526090 
-0.004121946215800513 0.004541957622961526 -0.001275948318526090 
-0.004121946215800513 0.004541957622961526 -0.001275948318526090 
-0.2249210140138248 0.2102965355594247 -0.003237525155069768 
-0.2330088488796420 0.3055854124987056 -0.008283820902508995 
0.3099242831056507 -0.2619945882141483 -0.1359841208679924 
0.7578958293118132 -0.6455389916743850 -0.2411440431595437 
0.1259193534864223 -0.1062697409054879 -0.05207538120341743 
0.02626913631624220 -0.02057266690293462 -1.036133790955172e-05 
0.1775112266864577 -0.1395895223795808 -1.153762595597792e-05 
0.02626913631624220 -0.02057266690293462 -1.036133790955172e-05 
0.02626913631624220 -0.02057266690293462 -1.036133790955172e-05 
0.02626913631624220 -0.02057266690293462 -1.036133790955172e-05 
-0.1845252278765801 0.2435484592740461 -0.03179121012041514 
0.02626913631624220 -0.02057266690293462 -1.036133790955172e-05 
-0.3198013796374171 0.3163770294611858 -0.02210340710921547 
0.02626913631624220 -0.02057266690293462 -1.036133790955172e-05 
0.02626913631624220 -0.02057266690293462 -1.036133790955172e-05 
0.4382211974663605 -0.2470799413142034 -0.1676080794093807 
0.02626913631624220 -0.02057266690293462 -1.036133790955172e-05 
0.1203948545278487 -0.09719306165414750 -0.3060615489446307 
0.9276125508431522 -0.6918492806046468 -0.02050523844518960 
0.5492441899789042 -1.041327624342450 0.8553701102139679 
0.2495955895740452 -0.1372950933047379 -0.007377189073495648 
0.3045628401181474 -0.1907927842445839 -0.002045060219553802 
0.6653551600453672 -0.5730316055405037 -0.03169315071165248 
-0.1960130118131012 0.2310584568817397 -0.05795976208917224 
-0.1828693060340383 0.2171922211095655 -0.05750020561467862 
-0.6898430069767703 0.7436052483066218 -0.1057619159063249 
-0.01905827504151035 0.03102982995695461 -0.002527797503614994 
-0.01905827504151035 0.03102982995695461 -0.002527797503614994 
-0.3425681033974938 0.4013352643074737 -0.1302772554449674 
-0.3425681033974938 0.4013352643074737 -0.1302772554449674 
-0.5732335560661938 0.5520326313363417 -0.06821252811719777 
-0.6079890503893775 0.6010679612382608 -0.1030362063430206 
-0.1385284106355818 0.1407495921951284 -0.003923518450273407 
-0.2701866086493181 0.2782149153927055 -0.04215784103639956 
-0.02252957044035880 0.02730843440296163 -0.003605729793249138 
-0.2174423007110529 0.2104086929763407 -0.09209446707578044 
-0.1031557985454089 0.1114359335015290 -0.01738219683854967 
-0.4853316958845760 -0.03284961648914951 0.08993024604535511 
-0.4853316958845760 -0.03284961648914951 0.08993024604535511 
-0.4853316958845760 -0.03284961648914951 0.08993024604535511 
-0.1027925107847527 0.2034103437392866 -0.001184215790788843 
0.08352264657258456 -0.2082555735376851 0.4494495121282114 
-0.3125128577912939 -0.1942089792233436 0.3781631451146941 
-0.09104058998253690 -0.4246260956333403 0.8729529819762527 
0.4338135839361524 -0.3205511376268887 -0.06588063496249012 
0.1583928299312772 -0.1937281027535079 -0.03789807299480431 
-0.1604886288433026 0.1588766804932148 -0.01800853630025474 
-0.1132102721592585 0.08843525857978772 -0.01305870194472242 
0.3036979025870126 -0.2753327222873319 -0.02476603912506204 
0.05204048005123590 -0.03615036889680954 -0.06362915213897400 
0.3036979025870126 -0.2753327222873319 -0.02476603912506204 
0.5868833662799111 -0.5951958351149431 -0.1704808912047728 
-0.3266629812889547 0.09561232275189224 0.4296708278963270 
-0.2261739528259025 0.2651881107969566 -0.06734056820765510 
0.02648421873134109 0.02312083687128957 -0.06466027524107817 
0.1956203141325925 -0.1603255306896153 -0.02415097233664973 
0.09642503108136684 -0.08080222001669388 -0.005596157776470980 
0.5834989590909099 -0.5180324900416428 -0.05618719695191910 
0.5834989590909099 -0.5180324900416428 -0.05618719695191910 
-0.1092341725876391 0.1550744245944621 -0.07981673004342970 
0.07294924172994707 -0.02565325952548687 -0.1081472431707439 
0.1615435579577821 -0.03501913043278791 -0.1358493173698807 
-0.3602130711471180 0.4322010058357070 -0.04557322120505374 
0.09903609164256694 -0.02320487484730334 -0.2688507674453828 
-0.1301990076578654 0.1305471933236896 -0.006548459263261885 
0.03577297246346177 -0.04811101413989337 -0.03414472234032046 
0.2725509995573285 -0.1850863744162274 -0.04239743642111807 
-0.3437515677478314 0.3521802948589577 -0.02835843601812038 
-0.1301990076578654 0.1305471933236896 -0.006548459263261885 
-0.3121741144977890 0.4384488768456847 -0.1716740904789404 
-0.2271578490253070 0.4256433189122416 -0.3387328902829463 
-0.3284255279094641 0.3855792576211995 -0.1000410763005670 
-0.02317241838392461 0.02088422812435124 -0.01344095374391978 
-0.001532049762980036 0.001688009253806300 -4.144386399888781e-06 
-0.001532049762980036 0.001688009253806300 -4.144386399888781e-06 
-0.01209126812462873 0.03094283433206333 -0.0001434019531082056 
-0.3360818173587110 0.3106133527499767 -0.09147279045665667 
-0.03989109665656789 0.04824913970564512 -0.002619690372429721 
-0.1753336432395985 0.2434481678796854 -0.03627045101701079 
-0.1354425465830308 0.1951990281740399 -0.03365076064458104 
-0.3669328952574370 0.3994690424516488 -0.02762322711622025 
-0.2343732393028414 0.2344993821198054 -0.008577014672682902 
-0.01055921836164867 0.02925482507825704 -0.0001392575667083167 
-0.5755981168448370 0.4624681993572100 0.6466625082399299 
0.05490968778922541 0.1714379920080321 -0.2120195917944882 
-0.007809802750376275 0.02521151849089742 -9.696887564405318e-05 
-0.2030741712150246 0.2299866809302030 -0.06308615289237215 
-0.4854603723477405 0.6893365187090539 -0.7342230371857703 
0.8514689398505587 -1.140247908819505 0.5273788225341411 
-0.02613481150096916 0.05911788073336528 -0.01372174979446843 
-0.02613481150096916 0.05911788073336528 -0.01372174979446843 
0.7378236513385243 -0.5395496751756963 -0.1908739104138114 
-0.2179586134593391 0.2589016912600776 -0.03033327954197921 
-0.2179586134593391 0.2589016912600776 -0.03033327954197921 
-0.1588241767604233 0.1869615109076993 -0.03319119432598564 
0.1593277452228743 -0.1008674441397001 -0.2533333893289358 
-0.2306838634867751 0.2229114169960324 -0.02896884768462064 
-0.1257253333502037 0.1332303771002940 -0.009409007492897536 
-0.09710332974408988 0.1047540498107185 -0.007091607829022161 
-0.01357661076875562 0.02690607310485808 -0.02402684076050431 
-0.01357661076875562 0.02690607310485808 -0.02402684076050431 
-0.6103214787028967 0.6779828172953033 -0.05934226523522932 
-0.2488565238376763 0.2502850256025372 -0.01448598258037662 
-0.01464544411743678 0.01090512269803757 -8.644992128167630e-06 
-0.01464544411743678 0.01090512269803757 -8.644992128167630e-06 
-0.03788720357889588 0.09338920509675595 -0.0009494668411245613 
-0.1961284779932099 0.2053977279497909 -0.007118057384034914 
-0.06338753364469223 0.06013820213754317 -0.006694133335578219 
-0.1388887225697904 0.1743049136389144 -0.01971914847604845 
0.4272704164144600 -0.4083423084262666 -0.04020644735131673 
0.3170848089298906 -0.2945258633013480 -0.02363483137591597 
-0.2667553336075551 0.3085200407368793 -0.1004984939232299 
-0.1298573356850535 0.1747474406506902 -0.04691757985922878 
-0.1298573356850535 0.1747474406506902 -0.04691757985922878 
-0.1097642753528996 0.1910683287043349 -0.04813999151737760 
-0.1097642753528996 0.1910683287043349 -0.04813999151737760 
0.6081620565249637 -0.4817431888981706 -0.2147494547001420 
0.08845631037649479 -0.1083545206365040 -0.03157710618968228 
-0.3478128950215976 0.3218143311695905 -0.02758135966758425 
-0.1061404225031044 0.09456405218085194 -0.006708609223051889 
-0.2850483789313488 0.2531532146674965 -0.03056398619735057 
0.6930012519427771 -1.172606546188179 0.7474597974415688 
-0.2397723811751519 -0.3034521496728762 0.5357934087872419 
-0.1091299667930164 0.1796791807988365 -0.1439658532803373 
0.4304281136982563 -0.3515086141803757 -0.02900432708396964 
0.4304281136982563 -0.3515086141803757 -0.02900432708396964 
0.4304281136982563 -0.3515086141803757 -0.02900432708396964 
0.4304281136982563 -0.3515086141803757 -0.02900432708396964 
-0.1865152323528786 -0.04771891647620979 0.7126916884752541 
0.01701757359435860 -0.1267562349658243 0.4879298449748981 
-0.1865152323528786 -0.04771891647620979 0.7126916884752541 
-0.1865152323528786 -0.04771891647620979 0.7126916884752541 
-0.2047347831827726 -0.01627400659733852 0.7041407739802993 
1.147563797390035 -1.000088329616064 0.3233232342053853 
-0.1865152323528786 -0.04771891647620979 0.7126916884752541 
0.1299872518497770 -0.1412870200867205 0.5328160022614070 
-0.1865152323528786 -0.04771891647620979 0.7126916884752541 
-0.2724918762253180 0.05746057395630900 0.7074598046167286 
-0.2914379201538455 0.1375000646097134 0.7031684321425342 
-0.1865152323528786 -0.04771891647620979 0.7126916884752541 
-0.08860578254723601 0.1802881456664557 -0.1094717079653783 
-0.09079253248181383 0.1788447914748681 -0.04685426052881077 
-0.1631824858316351 0.2050074373826160 -0.02732245915342186 
-0.1631824858316351 0.2050074373826160 -0.02732245915342186 
-0.1133889932770567 0.1315493786803481 -0.03175028882222104 
-0.1133889932770567 0.1315493786803481 -0.03175028882222104 
-0.09858376150933730 0.1597290113547690 -0.008293931603305063 
-0.3097825826284663 0.3214554865351488 -0.01660294425142637 
-0.2146812905177722 0.2558614861665556 -0.04124539057605061 
0.8173158478126860 -0.8015698995582695 -0.06954580430674309 
0.06424631220258911 0.04664358152452220 -0.3721195264167969 
-0.04222373453810489 0.04054137764082148 -0.002419635761158054 
-0.6579349375346366 0.6772178614419558 -0.1484148693050914 
-0.6267556741779499 0.1264884661229811 0.6950647024785808 
-0.03686127521435144 0.04114670622365709 -0.002941341439774673 
-0.03686127521435144 0.04114670622365709 -0.002941341439774673 
-0.03686127521435144 0.04114670622365709 -0.002941341439774673 
-0.02784840614457310 0.03857378848205811 -0.01072339785671170 
-0.01314370577906286 0.01386623577217428 -0.0004595564744936287 
-0.1526791487878521 0.1352167680058503 -0.001047922577010755 
-1.012101297130253 1.123115213533232 0.03993193111522721 
-0.1993577608112482 0.2719229689019203 -0.06074265537156519 
-0.1198906653773534 0.1727875107175555 -0.04757707569445722 
-0.1783946922022413 0.1532103772747424 -0.02352204910195977 
-0.1121254002119850 0.1122724238766240 -0.01678120796560972 
-0.2054584128208503 0.2560774458533073 -0.03183667936382230 
-0.2054584128208503 0.2560774458533073 -0.03183667936382230 
-0.2508448436264699 0.2846200305312078 -0.06492971517234927 
-0.3474873398201643 0.3861145092635783 -0.04673238936204330 
-0.2042002781992518 0.2655694045079635 -0.004357139908589571 
-0.04510531753887095 0.1906820205528290 -0.004359787269892843 
0.5888194735480721 -0.5433182490707729 -0.05229959402133703 
-0.3222139131439492 0.4525526624211780 -0.1241772199621396 
-0.04511525521679969 0.05547843376767360 -0.001315861199287720 
-0.04511525521679969 0.05547843376767360 -0.001315861199287720 
-0.08388139601461486 0.1893104036579482 -0.1010466728913162 
0.6069150000857089 -0.6587181242553058 -0.001200660844287985 
0.4275279111809924 -0.4541200265669405 -0.02812465840998662 
-0.2444893705303164 0.2818517962199513 -0.1308259672684333 
-0.05079749820847954 0.07515066200211692 -0.03319364547562275 
-0.08371071021190113 0.1129617801004036 -0.02840997564690382 
-0.2404507220574814 0.2430140721462805 -0.006030590353606198 
-0.2404507220574814 0.2430140721462805 -0.006030590353606198 
-0.2404507220574814 0.2430140721462805 -0.006030590353606198 
-0.08760463421318275 0.07216151963715013 -0.0001846886322781433 
-0.2599380731501001 0.2690794389920870 -0.01458162522397152 
-0.5679698498328898 0.6533550997950219 -0.1347137297453670 
0.03032933820692902 0.1248031888194054 -0.4538439246507597 
-0.5900791677673827 0.6410514728915340 -0.07470074914897296 
-0.7159968818301949 0.8258085605334389 -0.3028230691716206 
-0.2922500553356384 0.3152649269018695 -0.07800278303241018 
-0.03372674790662040 0.05884558323017478 -0.07695885377448944 
0.3838394273954434 -0.3718479543153670 -0.01620051393966197 
0.6137969846856124 -0.6498527103892493 -0.001669079163918911 
0.6341439263801237 -0.6592201953620894 -0.001728588115091582 
0.01125326341278427 -0.007292899223642151 -1.675000666498439e-05 
-0.1506781939212799 -0.4705148400862981 0.7039923461403843 
0.01125326341278427 -0.007292899223642151 -1.675000666498439e-05 
0.01125326341278427 -0.007292899223642151 -1.675000666498439e-05 
-0.07367322458682214 -0.4797426037867706 0.7055225186652130 
-0.1281374321508634 -0.8635746563181508 1.277511001580176 
-0.3029152319056397 0.03723235933920913 0.3545138119591176 
0.02753532083657735 -0.007529492453576139 -0.0001737303521244994 
0.02753532083657735 -0.007529492453576139 -0.0001737303521244994 
0.8388294630713914 -0.6365005785279096 -0.1055397318964020 
-0.1403832809140980 0.1600320841821027 -0.003299903995096482 
-0.1580190817677919 0.1067955901665128 -0.01542912918306872 
-0.04905807587506605 0.05619187686846983 -0.006580297103597747 
-0.1554071097155984 0.1618002298107497 -0.01707748135065138 
-0.1060188025445390 0.3683102362317469 -0.1363610488239554 
-0.3435542561821875 0.4776524429503616 -0.1686418931756840 
0.08201119746607596 -0.05528938200265007 -0.02963038880515671 
-0.2401629324238102 0.2493296008598921 -0.05399964729796680 
-0.02425352928036529 0.03249125740764652 -0.001792972208518748 
-0.2587124273841583 0.4443987776844781 -0.08457419773916844 
-0.02982759368345537 0.04746970778750791 -0.04218934539516466 
-0.1014803725913647 0.1101743784088091 -0.003719335135298803 
-0.7448573190855421 0.7775443860889570 -0.1192896200830865 
-0.0005399768333885904 0.001558926987605997 -0.0003916634515782375 
-0.02962577479757901 0.03489421228588117 -0.004485955905448517 
-0.0005399768333885904 0.001558926987605997 -0.0003916634515782375 
-0.009900309389246317 0.01067803741895829 -0.001757173491539619 
-0.3433872136027780 0.4296243365991169 -0.1803795805900836 
-0.02606020996167948 0.08371770522059066 -0.01601080761596762 
-0.05698308988510663 0.1280961880830053 -0.01702645801132200 
-0.02606020996167948 0.08371770522059066 -0.01601080761596762 
-0.3336379250524266 0.4611177279581573 -0.3515021884321284 
-0.05960235824600685 0.06384937989428710 -0.01260678168936134 
-0.2076349843170781 0.2678818029931750 -0.1433791281549902 
-0.2076349843170781 0.2678818029931750 -0.1433791281549902 
-0.5591581168003663 0.5596668956852842 -0.1124499119394433 
-0.07909236727320183 0.1995848963574516 -0.04714582244476896 
-0.2952659534539145 0.3163149180084033 -0.04739837216729434 
-0.2935771412643462 0.4493159188172994 -0.2722983742983567 
-0.1942843410866799 0.2807806837325848 -0.1373260212437321 
0.7767866145388611 -0.7301043795025232 -0.04148742524548080 
-0.6473419992370563 0.6416470603966677 -0.05180185387592413 
-0.1569911468725287 0.1866150039195708 -0.02920791422811141 
-0.1188697304924055 0.1539243716824769 -0.01260199004221357 
-0.06024934522039618 0.08814756501505892 -4.855941909931814e-05 
-0.3235848072242553 0.4170460221889530 -0.1544007424016314 
-0.06024934522039618 0.08814756501505892 -4.855941909931814e-05 
0.1343109019694993 -0.06946597440793790 -0.1915453787878232 
-0.03494967343825439 0.03537799910965359 -0.01017297303604732 
-0.01917602874424208 0.01253829052456301 -0.0006664653197223110 
-0.01917602874424208 0.01253829052456301 -0.0006664653197223110 
-0.06510921376561427 0.09190375478793085 -0.001561281676095184 
-0.08545615546012812 0.1012712397607709 -0.001501772724922513 
0.08287998216256190 -0.04516877161194523 -0.003662710523585756 
-0.5178473166811476 0.04311431300607620 0.5369780665117319 
-0.1532251339918931 0.2239895274564862 -0.001403527034401499 
0.2253219966961672 -0.1915703771383138 -0.1206627696565606 
-0.1532251339918931 0.2239895274564862 -0.001403527034401499 
-0.09290143313807003 0.1046304018709383 -0.001297992566022421 
0.2695833118127570 -0.1823000220954734 -0.03250545096955941 
0.02297271424757883 0.004520409339922843 -0.001963144283419741 
0.5252511525766583 -0.4459319162813910 -0.1875830902426932 
-0.3594303588230317 0.3675299264714776 -0.05611002117933531 
-0.07981796526354120 0.09581644740707680 -0.01158378160660570 
-0.2746079091859395 0.3758571583734074 -0.07591373505613977 
-0.5709773140184930 0.3889663905896137 -0.1355898843488119 
-0.3038068490185201 -0.1522638820417450 0.4644019303544794 
0.04373272980520643 0.1620117871841212 -0.1391019843967840 
0.2963559326867316 -0.05221885121656937 -0.2059564361625491 
-0.4431919892220942 0.5956276314979907 -0.2619797849668915 
-0.3813841057122788 -1.129672810090153 1.919275443715968 
0.5318179712664761 -0.5985893938029875 0.2745229428143715 
0.09587140164070510 -0.09828713018315466 -0.03260688617772837 
0.2245794931071332 -0.1802809942829715 -0.1201679061887204 
-0.05915955243073943 0.1234045098986852 -0.01432381400110168 
-0.1123141201580788 0.1912330452888210 -0.02970603737721953 
-0.0001943100851100718 0.001430652794973738 -3.227881355096708e-05 
-0.1191634098751010 0.1573992354030444 -0.1032115397512945 
-0.08808929242554243 0.2548937644549456 -0.3370055855814501 
-0.1970226941079404 0.1628668924606006 -0.04741544177511644 
-0.2779205978764739 0.3085523894986570 -0.1084627795050842 
-0.01982030583479453 0.03350119659161492 -4.183779960000478e-07 
0.2895823330368305 -0.2846126228979883 -0.09513882681887964 
-0.04953318004455532 0.07309478032454156 -0.009156702532027924 
-0.01982030583479453 0.03350119659161492 -4.183779960000478e-07 
-0.01982030583479453 0.03350119659161492 -4.183779960000478e-07 
-0.01982030583479453 0.03350119659161492 -4.183779960000478e-07 
-0.01982030583479453 0.03350119659161492 -4.183779960000478e-07 
-0.01982030583479453 0.03350119659161492 -4.183779960000478e-07 
-0.01982030583479453 0.03350119659161492 -4.183779960000478e-07 
-0.01982030583479453 0.03350119659161492 -4.183779960000478e-07 
-0.01982030583479453 0.03350119659161492 -4.183779960000478e-07 
-0.1630027932164622 0.2385438559962160 -0.03779053524664908 
-0.1630027932164622 0.2385438559962160 -0.03779053524664908 
0.2969065388332687 -0.2701598855171891 -0.03025551848785609 
0.2969065388332687 -0.2701598855171891 -0.03025551848785609 
0.1557968662311048 -0.05740587787756492 -0.07446840728645165 
-0.04511690843508817 0.06778706515737648 -2.094095382255897e-06 
-0.04511690843508817 0.06778706515737648 -2.094095382255897e-06 
-0.04511690843508817 0.06778706515737648 -2.094095382255897e-06 
0.3709007899808001 -0.3898160809939191 -0.009011568383835624 
0.2702615943992978 -0.2133121613738669 -0.05226421778105617 
-0.1995747075280224 0.1890228881186118 -0.01597251098860235 
0.01019439094757800 -0.04075319760942755 -0.1394798325946837 
-0.03273421904153781 0.05421663555933717 -0.01411981933981985 
-0.2295108646988609 0.2154196073650798 -0.06793376228083077 
-0.1540899899776151 0.1793016116308706 -0.03511057158456362 
-0.1757972215577417 0.1800581325471415 -0.006023950071586453 
0.3144097545650305 -0.2758109945024055 -0.1008299822929775 
0.002053979633067478 0.09126482676354339 -0.3206577947949870 
-0.03782116028078798 0.03993851154821153 -0.01227860605954982 
-0.1395250239792648 0.1746329717169073 -0.09906514797971441 
-0.3073260693315504 0.3279548510382968 -0.04500402733352178 
0.2939256266352248 -0.2934766447045799 -0.02495128268927592 
0.1729545693462175 -0.1735961806625298 -0.05382739321365465 
0.5461284234597439 -0.5122012654482735 -0.02819992453081348 
0.1104481485249222 -0.08411321394048564 -2.483772465923750e-05 
0.1497329656052465 -0.1147467728174321 -2.392758866608093e-05 
0.1497329656052465 -0.1147467728174321 -2.392758866608093e-05 
0.1497329656052465 -0.1147467728174321 -2.392758866608093e-05 
0.1497329656052465 -0.1147467728174321 -2.392758866608093e-05 
0.1497329656052465 -0.1147467728174321 -2.392758866608093e-05 
-0.1148793310485126 0.1302392311938033 -0.02708765789710750 
-0.02045935070180602 0.01778556683410255 -0.004513164632383240 
-0.002577211827648732 0.002217439053201132 -0.0002622596429021916 
-0.002577211827648732 0.002217439053201132 -0.0002622596429021916 
-0.06494917385471850 0.04439072222581466 -0.0001005847829258948 
-0.2132857601935757 0.1884497063080086 -0.06267097475029140 
-1.002592140099742 1.192712770290259 -0.4687534400680715 
-0.09929280017766659 0.1685352350847152 -0.1349723530546248 
-0.05039485016316185 0.05247919894930073 -0.04197422040524457 
-0.2147771252997699 0.3892460315355879 -0.1272982882714935 
0.1005920620531704 -0.1463367096339833 -0.02711113558439823 
0.2501527688619952 -0.2495791390637542 -0.01739095856514356 
0.2942712493246099 -0.2446900820795955 -0.2185992949267192 
-0.2740424998944125 0.2635331580963994 -0.01450664228889263 
-0.1813208510225801 0.2589192394107361 -0.01240558950881839 
-0.07380696729732658 0.06850514747818938 -0.02702281268666414 
-0.005465319459771208 0.004425072962205322 -1.217911734717207e-07 
-0.005465319459771208 0.004425072962205322 -1.217911734717207e-07 
-0.007848191025375583 0.008519140648144390 -5.767125257991612e-05 
-0.1660482550513664 0.1522829885046402 -0.01154078394071013 
-0.005465319459771208 0.004425072962205322 -1.217911734717207e-07 
-0.1614808404244716 0.1528899223688692 -0.03772487386101993 
-0.1936918723218371 0.2067011342178337 -0.09763232179281038 
-0.1936918723218371 0.2067011342178337 -0.09763232179281038 
0.1911799229441865 -0.1985452406489053 -0.01636663267180471 
0.1228314547515823 -0.09967511787024882 -5.697385818274202e-05 
0.1228314547515823 -0.09967511787024882 -5.697385818274202e-05 
0.1228314547515823 -0.09967511787024882 -5.697385818274202e-05 
0.1228314547515823 -0.09967511787024882 -5.697385818274202e-05 
0.2616650179089847 -0.1563364721750426 -5.751284462492444e-05 
0.2736060354589377 -0.2477948705590614 -0.0001800108780228180 
0.1228314547515823 -0.09967511787024882 -5.697385818274202e-05 
0.1228314547515823 -0.09967511787024882 -5.697385818274202e-05 
-0.07584369809749808 0.2617552608592571 -0.02632294637016302 
0.1228314547515823 -0.09967511787024882 -5.697385818274202e-05 
0.9169482494977610 -0.7120914406108878 -0.1831842690426439 
0.4904282220548030 -0.4935996525751141 -0.03923352990992451 
-0.8479121101441710 -0.3453985429474310 1.195758552952725 
-0.09485512353921743 -0.3641099322935219 0.8411795325296664 
0.5273822560058923 -0.4871721602599788 -0.1244372113900506 
0.5273822560058923 -0.4871721602599788 -0.1244372113900506 
0.1112547983420594 -0.06084939480413397 -0.0008156356067206621 
0.1112547983420594 -0.06084939480413397 -0.0008156356067206621 
0.1112547983420594 -0.06084939480413397 -0.0008156356067206621 
0.1112547983420594 -0.06084939480413397 -0.0008156356067206621 
0.1112547983420594 -0.06084939480413397 -0.0008156356067206621 
0.1112547983420594 -0.06084939480413397 -0.0008156356067206621 
0.4017916618125510 -0.3675956483584540 -0.07744274565564627 
0.4017916618125510 -0.3675956483584540 -0.07744274565564627 
0.6254281167037774 -0.6002101697476632 -0.08984138235708922 
0.6254281167037774 -0.6002101697476632 -0.08984138235708922 
0.2110096241820349 -0.1538527739659792 -0.1072975382638106 
0.2843330733282712 -0.2687633573796917 -0.01714926938855043 
0.2843330733282712 -0.2687633573796917 -0.01714926938855043 
0.2843330733282712 -0.2687633573796917 -0.01714926938855043 
0.2843330733282712 -0.2687633573796917 -0.01714926938855043 
0.3598326455909545 -0.3343971789835831 -0.1223413635760357 
0.4147090178644906 -0.4208027596508310 -0.1093114737291406 
-0.09282969642333640 0.08041134374756984 -0.01542381362304720 
0.7504120443113103 -0.6775190406154623 -0.05900655113221488 
-0.2065124906203806 0.2073464844569664 -0.08452367903645114 
-0.1200563842985995 0.1167398358282723 -0.003481425096570477 
-0.09110146538268440 0.08024183208824164 -0.01436220669130594 
-0.2974599097050497 0.5129525250553644 -0.1523465795311362 
0.1215150112573489 -0.07287418793152084 -0.07684417221032953 
-0.1658257833025908 0.2202466161532110 -0.07407605933269580 
0.04115586799994567 0.06069821191595173 -0.1804782915659157 
-0.2407490308058184 0.2673684456608638 -0.06726614678478762 
-0.4197385118762278 0.4235012729801891 -0.1713076015264347 
-0.1338373587798808 0.1464621196629562 -0.01286376409607093 
-0.2419039941458091 0.2317023376959702 -0.01623421340544326 
0.5718162497791374 -0.4268297858339308 -0.2004994732294116 
-0.3223535043547035 0.4387248337036881 -0.2112880149346210 
-0.3400293579243450 0.3579375671043236 -0.08779472671832464 
-0.05579971345673607 0.06453652506961352 -0.01908454701689282 
-0.1141262264340017 0.1459706104281771 -0.01777314431654999 
0.04098487215249734 -0.01904924932214430 -0.08654231616561801 
-0.1141262264340017 0.1459706104281771 -0.01777314431654999 
-0.07611580214531113 0.08094319206431227 -0.02817459334233765 
-0.07611580214531113 0.08094319206431227 -0.02817459334233765 
-0.05754388686180002 0.07479947675056911 -0.001972385705846326 
-0.05420874677443381 0.06748993336937084 -0.001883465863325426 
-0.05420874677443381 0.06748993336937084 -0.001883465863325426 
-0.2453424615652481 0.3064020077824328 -0.07128145606708682 
-0.07742385981457250 0.1388404311467529 -0.06815528242411481 
-0.2095989061122352 0.2627990050617803 -0.03178059358655105 
-0.2095989061122352 0.2627990050617803 -0.03178059358655105 
-0.2130597703712187 0.2932488815937797 -0.09746834539211276 
-0.1102769955206951 0.1543915686902563 -0.02351355814034099 
-0.03563984272514086 0.05449003608391107 -0.02087310380149543 
0.04308380573598945 0.005198456082847641 -0.07401585158964359 
-0.004184085626233418 0.005427654476880981 -1.213750429054918e-05 
-0.004184085626233418 0.005427654476880981 -1.213750429054918e-05 
-0.004184085626233418 0.005427654476880981 -1.213750429054918e-05 
-0.004184085626233418 0.005427654476880981 -1.213750429054918e-05 
-0.004184085626233418 0.005427654476880981 -1.213750429054918e-05 
-0.004184085626233418 0.005427654476880981 -1.213750429054918e-05 
-0.2662726784216437 0.2191376446372432 -0.01020324695982418 
-0.3520288752506564 0.4066403556225383 -0.08612591965561764 
-0.02862200360611383 0.02847632728957601 -0.002317399663875382 
-0.1798812820327961 0.1234238997438225 -0.001335768201041449 
-0.3630664948504175 0.4376784608193909 -0.03186559696162482 
-0.1724480361999812 0.3026951799598566 -0.02536760368257892 
-0.1724480361999812 0.3026951799598566 -0.02536760368257892 
-0.003951207683302291 0.01451546523665383 -3.967910110787878e-08 
0.2439391819933140 -0.2469981356560935 0.3292985299965555 
-0.003951207683302291 0.01451546523665383 -3.967910110787878e-08 
-0.1691876799399199 -0.2262308347934898 0.5848886318977109 
-0.1691876799399199 -0.2262308347934898 0.5848886318977109 
-0.1691876799399199 -0.2262308347934898 0.5848886318977109 
-0.1691876799399199 -0.2262308347934898 0.5848886318977109 
-0.2376836597107700 -0.5424730187036447 0.9149630970086612 
0.4582044038861719 -0.4414019471457145 -0.03155872299396308 
0.6170158376036003 -0.6375200421720872 -0.003950774140874656 
0.6170158376036003 -0.6375200421720872 -0.003950774140874656 
0.6117684376565705 -0.4098830216189143 -0.1324773140465516 
0.8118783449999776 -0.7244472621145255 -0.1596948201386394 
0.3203770637360148 -0.2570686237294084 -0.01625734485440612 
0.3203770637360148 -0.2570686237294084 -0.01625734485440612 
0.4670848535655205 -0.3900539379383437 -0.1293649157390711 
-0.02891527079096982 0.02731366770582273 -0.001728982252525153 
-0.6845126542151478 0.6976930549188796 -0.1431490727021177 
-0.002810238255730216 0.005525499080146433 -8.707669349913310e-06 
-0.002810238255730216 0.005525499080146433 -8.707669349913310e-06 
-0.002810238255730216 0.005525499080146433 -8.707669349913310e-06 
-0.002810238255730216 0.005525499080146433 -8.707669349913310e-06 
-0.2702366654214214 0.2733047482220968 -0.01061747014383491 
-0.3451728321659136 0.3521567499873825 -0.02188239921898681 
0.3175897597013658 -0.3379534206038249 -0.02898624811155177 
-0.3345033034903743 0.3314489764603474 -0.06754142962021122 
-0.09770060252204146 0.1619554915551410 -0.08077090591045890 
-0.09770060252204146 0.1619554915551410 -0.08077090591045890 
-0.09770060252204146 0.1619554915551410 -0.08077090591045890 
0.02034694169451383 -0.009367484972839903 -5.950895117267109e-05 
0.02034694169451383 -0.009367484972839903 -5.950895117267109e-05 
0.02034694169451383 -0.009367484972839903 -5.950895117267109e-05 
0.2147579139672915 -0.2000879391210232 -0.1199206008889911 
0.7072585852375906 -0.6172840859663691 -0.02292284212494009 
-0.4312092086558261 0.5812028467631323 -0.1418568865208352 
-0.06397117974251827 0.09739826127426068 -0.02241610462430143 
-0.4262344285599296 0.4511921439934065 -0.1317425657347355 
-0.1690274611543043 0.1919220225748989 -0.01870277140576599 
-0.2716480505603037 0.2920108755526100 -0.05707497970303379 
-0.4288212298816821 0.4490613815470131 -0.1756346918172232 
-0.4708318045131793 0.5880892332696102 -0.04316977115423595 
-0.09737388726649734 0.1812133446603892 -0.03770225841806289 
-0.1768598190704190 0.3046527189965914 -0.03311829812621076 
-0.1767535236381536 0.2020060124142208 -0.02676978416351072 
-0.08192159910482305 0.1358047039090654 -0.06491714111691096 
-0.3111365970378289 0.3159688747015255 -0.1060482886114382 
0.8294344280039497 -0.7843586269575060 -0.1747492124293639 
0.5331356413072661 -0.4597607119165989 -0.1967205212865135 
0.6205696412884845 -0.6238400709208656 -0.01035839678185179 
0.6205696412884845 -0.6238400709208656 -0.01035839678185179 
0.1822784629880060 -0.1941370495918826 -0.01624117811553318 
-0.1045654333041637 0.1325227673972019 -0.005127614579586312 
0.1893504983758126 -0.1781498125492451 -0.007334952502043774 
0.2112322617103589 -0.2069420136533392 -0.003253439464141676 
0.2112322617103589 -0.2069420136533392 -0.003253439464141676 
0.2112322617103589 -0.2069420136533392 -0.003253439464141676 
-0.02178049918101877 0.03099803679105732 -0.005003538972258255 
-0.1818039043762209 0.2317452259411312 -0.1378001064201739 
-0.3786193393974281 0.3847783139301972 -0.06111800390703012 
-0.1600234051952023 0.2007471891500739 -0.1327965674479158 
-0.5410382822098612 0.5975308491294692 -0.1145920714175465 
-0.2708277852981735 0.2629749591884127 -0.03259273793554627 
0.8096860224794814 -0.7821231211063810 -0.1029521623381858 
-0.01237605134478014 0.02153819227965760 -1.429672525875750e-06 
-0.01237605134478014 0.02153819227965760 -1.429672525875750e-06 
-0.01237605134478014 0.02153819227965760 -1.429672525875750e-06 
-0.008529264428515230 0.01143818120514183 -0.004256959256662294 
-0.008529264428515230 0.01143818120514183 -0.004256959256662294 
-0.07970650229594692 0.07818060552564910 -0.06295725681478052 
-0.06365317339036608 0.1094732967667564 -0.0002755091334649323 
-0.06365317339036608 0.1094732967667564 -0.0002755091334649323 
-0.003011609704703611 0.006325055463539567 -7.766157155864858e-05 
-0.003011609704703611 0.006325055463539567 -7.766157155864858e-05 
-0.003335140087366392 0.007309543381198481 -8.891984252089991e-05 
-0.3666109229228193 -0.6800540611092925 1.180867695629169 
-0.05442891970629385 -0.5586278804853662 0.6246910764602702 
-0.3028148325371957 0.3170680100814619 -0.009555908402125122 
0.2323889919116260 -0.2011162790663436 -0.04316636251078572 
-0.08481922900077693 0.1003276174871367 -0.01225282071249973 
-0.08481922900077693 0.1003276174871367 -0.01225282071249973 
0.1153339812975914 -0.1381326490220887 -0.01228183505939118 
-0.2593626394254882 0.2606966080002006 -0.03709491448722026 
-0.2308234876378707 -0.4656057216741277 0.5205842627440729 
-0.3514941362178613 0.03537730944135925 0.6418857707065688 
-0.1538938753962306 -0.3245868760846757 0.6670122814769565 
-0.2399550579716273 0.3031785673418783 -0.1370570565982392 
-0.06409488386626845 0.07276406776739587 -0.006292726315351462 
-0.06409488386626845 0.07276406776739587 -0.006292726315351462 
-0.1927931266144953 0.2393921575791278 -0.04288066626741746 
0.2040133228540614 -0.1506738186066709 -0.04466081646441910 
-0.1927931266144953 0.2393921575791278 -0.04288066626741746 
-0.9159297538155325 0.9683545317664820 -0.1009223860315156 
-0.01416018481025637 0.01676916034674536 -0.001451596005911898 
-0.01990410489817582 0.02367757018160673 -0.001825375958916150 
0.4634617233196921 -0.4623519278606612 -0.009975478853802924 
-0.1107766582670434 0.1157479109050015 -0.005548676682825396 
-0.1107766582670434 0.1157479109050015 -0.005548676682825396 
-0.03667012555391448 0.04182898942967553 -0.003851410411306280 
-0.03667012555391448 0.04182898942967553 -0.003851410411306280 
-0.2439918269311446 0.2386848016726980 -0.03245538645632591 
0.2876864642855575 -0.1618304337309800 -0.1439502001462771 
-0.1350899622620163 0.1512608898412564 -0.03466546053581902 
-0.1350899622620163 0.1512608898412564 -0.03466546053581902 
-0.03400915989247865 0.05385911606422101 -0.004174690495513692 
0.1788347567704975 -0.2170624087469373 -0.01476520894608709 
-0.01410739987399549 0.02037608895291997 -0.0009020639233842131 
-0.01410739987399549 0.02037608895291997 -0.0009020639233842131 
-0.01410739987399549 0.02037608895291997 -0.0009020639233842131 
-0.2628093238124120 -0.1146338255850732 0.3541399822679457 
-0.2346440333287297 0.1947247990706726 -0.005138210935539299 
-0.08953381229352442 0.1081832745392693 -0.04960303996397344 
-0.08953381229352442 0.1081832745392693 -0.04960303996397344 
-0.08953381229352442 0.1081832745392693 -0.04960303996397344 
-0.06504569715455763 0.06877862631135030 -0.09393250125047826 
-0.06504569715455763 0.06877862631135030 -0.09393250125047826 
0.2109003815403670 -0.09889587270219231 -0.1525259348526330 
-0.06467698817606894 0.07974311539566620 -0.01511367999522713 
-0.01832449139314381 0.02243973403229868 -0.0001479586172236680 
-0.05637716183208908 0.07833259158226866 -0.06045321650201928 
-0.03639827246081660 0.05716318441469337 -0.01131259510664489 
0.2737119414903468 -0.2610103927945640 -0.01484706173036564 
-0.08633200260681313 0.1005892545011828 -0.01660671909092179 
-0.08633200260681313 0.1005892545011828 -0.01660671909092179 
-0.1832049152675289 0.2212005845292329 -0.02618344069493920 
-0.4153624392119947 0.4517501628547046 -0.08766080237240259 
0.6265724543117874 -0.6214172133965838 -0.04669469520107088 
-0.2065958751031704 0.2428074864499375 -0.03803916596348408 
-0.4167665998133170 0.4653014395311631 -0.2634990517925445 
0.3490281737426171 -0.3314541440568780 -0.1030468994440395 
0.1867879997479585 -0.1665935089893152 -0.08244429415134183 
-0.2872762618018228 0.2757095716800198 -0.02133881120179487 
0.5194599649939049 -0.3170793027040632 -0.3621835621703780 
0.2873407945599397 -0.2931208040847318 -0.002768112877633676 
0.2873407945599397 -0.2931208040847318 -0.002768112877633676 
0.7856955783875285 -0.7812634844662023 -0.1168308011023409 
-0.1557597683821947 -0.4868059342132766 0.5975818832518300 
0.4229564595313810 -0.3851890841087810 -0.1391112093667533 
-0.2435171961224114 0.2567997252596303 -0.02638308613881377 
-0.3071856252221557 0.3186676325878926 -0.03774366072621872 
-0.2614830723840739 0.3216109618570099 -0.1760224003489363 
-0.04116921972952052 0.04988459790445508 -0.01135382784104982 
-0.04116921972952052 0.04988459790445508 -0.01135382784104982 
-0.06164405957463609 0.05870837310079330 -0.01283096328858706 
-0.05432784191884214 0.05744396065906544 -0.008198069213824915 
-0.05432784191884214 0.05744396065906544 -0.008198069213824915 
-0.01688129845048680 0.01572948642389892 -0.004643433673570503 
-0.1413554386712577 0.1951064655264098 -0.02724431970109250 
-0.1668927764966367 0.1767845283025664 -0.06266678822420388 
-0.1668927764966367 0.1767845283025664 -0.06266678822420388 
-0.1267973508015127 0.1256660145087323 -0.04488846465666041 
-0.4842797042759827 0.5694896689948814 -0.1246246183463288 
-0.8084331320929811 0.8602996035801684 -0.3963857360096792 
0.4900920481637930 -0.4246293841909344 -0.01753063980965936 
0.4740425227427747 -0.4139194390921426 -0.01760150852368492 
0.4900920481637930 -0.4246293841909344 -0.01753063980965936 
0.8278884295726149 -0.8463058369231921 -0.1027794627020441 
0.1901939496036459 -0.1799056850430036 -0.04773028502102155 
0.2711564111041399 -0.2670943946731995 -0.05284233224884369 
0.6728689236382153 -0.6293189370963339 -0.01245139714400727 
0.5150869752474934 -0.5640671896703204 -0.01321048459756360 
0.5150869752474934 -0.5640671896703204 -0.01321048459756360 
0.2983578472125528 -0.3145824130841081 -0.03950110665516016 
0.4322590574234306 -0.4451053662212750 -0.06549234467325782 
0.2950280039555321 -0.3651462299067816 -0.0009727517951912658 
0.6500567889978464 -0.7385447446523470 -0.003035876026949491 
0.4833658282178681 -0.4860294980422684 -0.008150102894886763 
-0.1265968872377281 0.1420970204282953 -0.02574453661315338 
0.2139355852632882 -0.2150701621183544 -0.006996296331612706 
0.4426262142067896 -0.6466125622384786 0.4153444581088906 
0.8331683294149570 -0.8642246998465217 -0.008655529237586798 
0.2031500293524421 -0.2424139474002479 -0.0003411452269680188 
0.2031500293524421 -0.2424139474002479 -0.0003411452269680188 
0.2031500293524421 -0.2424139474002479 -0.0003411452269680188 
0.06961401640905840 -0.05963883900703890 -0.02344012767795612 
0.4821416547694898 -0.4652603880300655 -0.08292423261710608 
1.076852210581756 -0.8259448073867542 -0.1961503076687366 
0.5571499922422136 -0.5094696262653411 -0.06693549736148335 
0.5828200660388364 -0.6139245127431046 -0.004624285349842517 
0.5828200660388364 -0.6139245127431046 -0.004624285349842517 
-0.2535175657685276 0.2722457664486693 -0.06474356981223849 
-0.1606061866132759 0.1689132490983462 -0.06371634279102076 
-0.002749415611272399 0.004043306587359592 -4.228869106426358e-05 
-0.002749415611272399 0.004043306587359592 -4.228869106426358e-05 
-0.6427562925211454 0.6490968462427298 -0.07668554355839728 
0.2120598057792314 -0.1739207893074482 -0.1167882400036851 
-0.2491560240426014 0.2408054964836263 -0.01732495135397577 
-0.4914864712929526 0.6850134424567358 -0.08215206162128370 
-0.4368587909161152 0.6246760799142501 -0.1864702669622590 
-0.03718601465143667 0.1285862061262390 -0.008357324937111651 
-0.07647083173176100 0.1592197650031854 -0.008358235073104825 
-0.03718601465143667 0.1285862061262390 -0.008357324937111651 
-0.07585857529390919 0.2571177384318993 -0.07882589475120425 
0.1385781466012679 -0.06548952530778415 -5.489181895319797e-05 
0.06302014284754102 -0.4789423463809768 0.7005650121012974 
0.1385781466012679 -0.06548952530778415 -5.489181895319797e-05 
0.1385781466012679 -0.06548952530778415 -5.489181895319797e-05 
0.1385781466012679 -0.06548952530778415 -5.489181895319797e-05 
0.1385781466012679 -0.06548952530778415 -5.489181895319797e-05 
0.1385781466012679 -0.06548952530778415 -5.489181895319797e-05 
0.1385781466012679 -0.06548952530778415 -5.489181895319797e-05 
0.8478040399450475 -0.8417316816737352 -0.1218727178072950 
0.3374384356389432 -0.4028006783687862 -0.01752669924646684 
0.3374384356389432 -0.4028006783687862 -0.01752669924646684 
-0.04061275888203961 0.09640372605130203 -0.2075643597066586 
0.2157222170528801 -0.08643802666484030 -0.08694217265155843 
0.3816508411563281 -0.2915485278564031 -0.002215455605847994 
0.3816508411563281 -0.2915485278564031 -0.002215455605847994 
0.3816508411563281 -0.2915485278564031 -0.002215455605847994 
-0.06204127563519338 0.07543801424510164 -0.01766678297553497 
-0.08472911788559064 0.09513599228837608 -0.01886676172275984 
-0.2940045867065622 0.3459875058148683 -0.1645608830469112 
-0.1313371192955893 0.1373376839545701 -0.02977030852609095 
0.9207965700127451 -0.8444482122052677 -0.06670895311170202 
0.2355924570958148 -0.1992074833686679 -0.02986480017629985 
0.2355924570958148 -0.1992074833686679 -0.02986480017629985 
0.3095652573017760 -0.2510206359737138 -0.1075660041697204 
0.3095652573017760 -0.2510206359737138 -0.1075660041697204 
-0.01045725475462115 0.01156290612531339 -0.004391267521583389 
-0.3732183763660085 0.4477783489142202 -0.06159925099869455 
-0.1092432785640603 0.1305706345770996 -0.01605707165327001 
-0.07884943994153955 0.08742213665771602 -0.02166376905635616 
-0.1576980611846026 0.1748437781717596 -0.04332761416398842 
-0.1576980611846026 0.1748437781717596 -0.04332761416398842 
-0.1881986370152706 0.1939954196633783 -0.06089825940497864 
-0.4169584093898147 0.4074302587541501 -0.08302373698077607 
-0.09058361914488691 0.09745310924433115 -0.04850448805045228 
-0.04749622105488607 0.06197467271556875 -0.02436686297237201 
-0.04749622105488607 0.06197467271556875 -0.02436686297237201 
-0.01405770900409158 0.01879909004512607 -0.0004525207828233335 
-0.01405770900409158 0.01879909004512607 -0.0004525207828233335 
-0.01405770900409158 0.01879909004512607 -0.0004525207828233335 
0.2648339384216090 -0.1304613352483688 -0.05031803302364758 
-0.4684984392031926 0.4873529800398323 -0.07514721609878980 
-0.2735937401312444 0.2635209195370378 -0.01316535282277765 
-0.1940974648169659 0.2070510770369739 -0.01117966219432438 
-0.1389877230247984 0.1554985480266309 -0.02386102529903693 
0.9110272484741919 -0.8594080925573528 -0.1983225796181587 
0.03607581398003780 -0.02611902327597648 -0.003700186141566688 
0.2504135422069328 -0.2403440017073621 -0.05864393479772003 
0.03607581398003780 -0.02611902327597648 -0.003700186141566688 
0.3911037483099206 -0.3135035408043638 -0.2119719623932769 
-0.1865662311153617 0.2146017935880537 -0.2246947985907498 
0.06734962245670592 -0.07820142604514507 -0.1289925985405845 
-0.2100754842062662 0.2050333329396375 -0.003242158186187031 
-0.2100754842062662 0.2050333329396375 -0.003242158186187031 
-0.05672733334573659 0.07993490930642433 -0.008763171161778225 
-0.09640636550297554 0.1165672703272992 -0.009921685599301568 
-0.03967903215723882 0.03663236102087496 -0.001158514437523351 
-0.03967903215723882 0.03663236102087496 -0.001158514437523351 
-0.03967903215723882 0.03663236102087496 -0.001158514437523351 
-0.4620874531726355 0.4732786899550331 -0.04324192575913770 
-0.2854528183736015 -0.1458429036893202 0.2138842642229349 
-0.2854528183736015 -0.1458429036893202 0.2138842642229349 
0.01778334290521787 -0.1365829344536349 0.05935931171481226 
-0.2854528183736015 -0.1458429036893202 0.2138842642229349 
-0.1976061966665450 0.2484485697523923 -0.1390201076501994 
-0.0003235303826627849 0.0009844879176589096 -1.125827096225156e-05 
-0.2551775170527595 -0.006016113067088574 0.4484144053989378 
-0.02685012363508032 0.03158613754893722 -0.01170784671452375 
-0.2732856427527539 0.3829343938783694 -0.1838530334650891 
-0.2732856427527539 0.3829343938783694 -0.1838530334650891 
-0.2559339266536296 0.3101166370521981 -0.1858023675981044 
-0.2559339266536296 0.3101166370521981 -0.1858023675981044 
-0.2559339266536296 0.3101166370521981 -0.1858023675981044 
-0.006849531445567847 0.008781642410297916 -0.0003189421719723257 
-0.006849531445567847 0.008781642410297916 -0.0003189421719723257 
-0.006849531445567847 0.008781642410297916 -0.0003189421719723257 
-0.006849531445567847 0.008781642410297916 -0.0003189421719723257 
-0.006849531445567847 0.008781642410297916 -0.0003189421719723257 
-0.1116858835586976 0.1187315666956672 -0.02192459331209924 
-0.4532697938941788 0.4401452180470043 -0.007538167517715416 
-0.2416724725184930 0.2272502789887387 -0.02087275044453238 
-0.1194686834050818 0.1099428537567798 -0.007206273482736652 
0.2945951600970131 -0.1387061345979216 -0.5428245812304096 
0.7673218310067292 -0.7378594912848048 -0.1281057141624422 
0.1624646187471342 -0.2187033619265771 -0.004683096096776975 
0.1048768399164411 -0.05574179837668010 -0.04034234994208949 
0.3707987352937400 -0.3135117719054733 -0.04126767216263260 
0.6247285614919539 -0.5585107153838358 -0.08736466750640241 
0.1404387549543794 -0.1116534878793848 -0.1891789301377251 
0.4273785906259127 -0.3407930988989887 -0.06215470524754065 
-0.1693521395231190 0.2177650206225036 -0.1200971184070338 
0.2564728619860143 -0.1544965418698898 -0.02071288639933352 
-0.1364431591437650 -0.1171721185637168 0.5902016744478118 
-0.1364431591437650 -0.1171721185637168 0.5902016744478118 
0.1180134098738748 -0.2875566775789586 0.5742268592914759 
-0.1364431591437650 -0.1171721185637168 0.5902016744478118 
-0.1364431591437650 -0.1171721185637168 0.5902016744478118 
-0.1364431591437650 -0.1171721185637168 0.5902016744478118 
0.4386940686033608 -0.4725924433816369 -0.01634373330394274 
0.4386940686033608 -0.4725924433816369 -0.01634373330394274 
0.1255015247763839 -0.1141175483679884 -1.121576965035377e-06 
0.1255015247763839 -0.1141175483679884 -1.121576965035377e-06 
0.1255015247763839 -0.1141175483679884 -1.121576965035377e-06 
0.1255015247763839 -0.1141175483679884 -1.121576965035377e-06 
0.1255015247763839 -0.1141175483679884 -1.121576965035377e-06 
0.1255015247763839 -0.1141175483679884 -1.121576965035377e-06 
-0.1270061509064558 0.1573933508949070 -0.02903307131613478 
0.02831803617158262 -0.005380622932248093 -0.001361274774130224 
0.02831803617158262 -0.005380622932248093 -0.001361274774130224 
0.02831803617158262 -0.005380622932248093 -0.001361274774130224 
0.02831803617158262 -0.005380622932248093 -0.001361274774130224 
0.02831803617158262 -0.005380622932248093 -0.001361274774130224 
0.1967013098377922 -0.1492464998120150 -0.1678737414270133 
-0.5304536324082979 0.5771446644019368 -0.2656219860196711 
-0.02324175946145927 0.08248408239871849 -0.0009408218489963927 
-0.09445313379790866 0.1770041137328283 -0.06042606284447077 
-0.02324175946145927 0.08248408239871849 -0.0009408218489963927 
-0.03092287992342715 0.04437848286241498 -0.001015650395354369 
-0.03092287992342715 0.04437848286241498 -0.001015650395354369 
-0.1502041688880788 0.1682424987122110 -0.02707932468078677 
-0.1789079564282441 0.1585891624866448 -0.02385537697429871 
-0.2348551745884605 0.2234311290942402 -0.02004129210568810 
-0.2348551745884605 0.2234311290942402 -0.02004129210568810 
0.4823648625317878 -0.4443704960604977 -0.02826721488493958 
0.4823648625317878 -0.4443704960604977 -0.02826721488493958 
0.4823648625317878 -0.4443704960604977 -0.02826721488493958 
-0.1851930659675859 0.2603801978244880 -0.1417010404492612 
-0.001195458080587291 0.001322121115200227 -2.551959545055115e-07 
-0.06379689485089758 0.07077786588324841 -0.02189045842455108 
-0.04611043342339825 0.04306666675501357 -0.007597125579115425 
-0.05330912709277633 0.06283035438397638 -0.03019319675305164 
-0.02281334726937106 0.02235339416055803 -0.004299908155587544 
-0.3194676492255036 0.3258161432150237 -0.04315180407547590 
-0.3194676492255036 0.3258161432150237 -0.04315180407547590 
-0.1577129376056749 0.1825921897883671 -0.05020843461290643 
-0.01004118034715315 0.02456892766974148 -0.002642087683265169 
-0.4391510649062275 0.4109488696687645 -0.02389917270024121 
0.3007761672797400 -0.2358616116813264 -0.2317332829689608 
-0.05711353129706549 0.06317678810314861 -0.005818932551341910 
0.2001897756872967 -0.2290624590082432 -0.04392648645035637 
-0.07684718888340647 0.09539829768425521 -0.006020717813508086 
-0.07684718888340647 0.09539829768425521 -0.006020717813508086 
-0.04101105849045789 -0.3000170738546364 0.6274474044046713 
-0.04101105849045789 -0.3000170738546364 0.6274474044046713 
-0.1586266939120725 0.1628723170883863 -0.05224184797033507 
-0.02109640018760174 0.02491162022129420 -0.1085673641661386 
-0.1334086439271845 0.1753333111581967 -0.03578995027436339 
-0.1680170011081160 0.2033360764628374 -0.07418160743293228 
-0.1376610881828207 0.1341835433763263 -0.03271653191951557 
-0.1125871821047152 0.1124736533556196 -0.04226896602972317 
-0.07888731522404409 0.08485973957098024 -0.03258940810299171 
0.4543151792037144 -0.4053148331597672 -0.02840108645716339 
-0.1340757797490223 -0.4723792420384723 0.5806580153527086 
0.05809413940294269 -0.04290584446229368 -0.05985079319622770 
0.1339012102108779 -0.1305229531371671 -0.02599123801809783 
0.4452797513524497 -0.4004175708406540 -0.04977950178156726 
0.1339012102108779 -0.1305229531371671 -0.02599123801809783 
0.04447114351176306 0.002447835861694656 -0.1313515446449411 
-0.03467929863457747 -0.6755266263949838 0.8050254030559432 
-0.3585786212441418 -0.01651523962188546 0.6377147300550983 
-0.3585786212441418 -0.01651523962188546 0.6377147300550983 
-0.3585786212441418 -0.01651523962188546 0.6377147300550983 
-0.3585786212441418 -0.01651523962188546 0.6377147300550983 
0.04470565325225578 -0.3681912071677907 0.5160129936731304 
-0.3585786212441418 -0.01651523962188546 0.6377147300550983 
0.5138131679119353 -0.4520346540637601 -0.02699986597141922 
0.3635417355384932 -0.3862821278832793 -0.02960580180103439 
0.6333180252472375 -0.6552645541451474 -0.05005662941383414 
0.1748226281178850 -0.1553204253395090 -0.007070357975684029 
0.1748226281178850 -0.1553204253395090 -0.007070357975684029 
0.1748226281178850 -0.1553204253395090 -0.007070357975684029 
-0.02195048327658363 0.01937881097960656 -0.001159568763771305 
-0.03159545537961440 0.04704314721874414 -0.01851181482081222 
-0.1965649682906015 0.2199312493615148 -0.04999046094796075 
-0.1965649682906015 0.2199312493615148 -0.04999046094796075 
-0.1965649682906015 0.2199312493615148 -0.04999046094796075 
-0.1965649682906015 0.2199312493615148 -0.04999046094796075 
-0.04624318477987899 0.06038973368304824 -0.01795534731295860 
0.1558518802970160 -0.1165444906199504 -0.004701355580739088 
0.2963615123978276 -0.2554245063083545 -7.561714747070826e-06 
0.01719949232419525 0.05184638141968531 -0.02822133685716198 
-0.07397811958260762 0.1518909386856272 -0.06100091574688463 
-0.06921325907626921 0.1000266727075443 -0.04985646898704017 
-0.3496549324773464 0.4199458821471055 -0.1467953742031936 
-0.03072820968468513 0.03559640140609634 -0.002882155599391787 
-0.03526058477907880 0.04707218247159899 -0.003920369065201302 
-0.1820614102255712 0.2373749979576645 -0.02395704660513116 
-0.1632231736639091 0.1620635433422827 -0.06319474419377336 
-0.3429688000531285 0.3680042250876499 -0.05821259649994077 
-0.6079351086524067 0.6369153529131608 -0.05192496553206605 
-0.6079351086524067 0.6369153529131608 -0.05192496553206605 
-0.08873879671643137 0.09512421775477609 -0.003193509847810724 
-0.002633565266563922 0.002592085274144977 -0.0001542134021878882 
-0.002633565266563922 0.002592085274144977 -0.0001542134021878882 
-0.04429152510817795 0.06064866640976648 -0.008511979144204434 
-0.3114260457768336 0.2983593640156682 -0.04097754339933986 
0.4213652397113263 -0.3462086705373680 -0.4256415649495683 
-0.1600341604664671 0.1925485830368695 -0.001479661162431590 
-0.1600341604664671 0.1925485830368695 -0.001479661162431590 
-0.4007086767263312 0.4556569197458055 -0.06191300362525105 
-0.007990536728934815 0.01320157768906019 -0.0009092125760423707 
-0.007990536728934815 0.01320157768906019 -0.0009092125760423707 
-0.01652921818226683 0.02064367624153296 -0.001282670347296214 
-0.1221934162528573 0.1400529051408062 -0.006518622138925690 
-0.2733969662181258 0.2723001230499755 -0.04523980925077221 
-0.006857196548259357 0.005316999548337502 -0.001580832781303446 
0.5177280813552323 -0.5059518493259734 -0.01765228936691275 
0.5177280813552323 -0.5059518493259734 -0.01765228936691275 
0.03997685507255205 -0.03610752052333622 -3.063201942369186e-05 
0.4999390341097241 -0.3781582182871428 -0.01623323127618079 
0.03997685507255205 -0.03610752052333622 -3.063201942369186e-05 
-0.003923946134014603 0.01505826779933893 -0.001857873705280891 
0.6271812158818555 -0.5595603440176213 -0.05908695889324208 
0.09684848025957798 -0.03438471609730590 -0.06480402472032090 
-0.05021694699991680 0.04816522471169567 -0.01799440292519960 
-0.003593036346616547 0.01536344319319979 -6.311312865981332e-05 
0.1555019243137643 -0.05952394076193451 -6.576048996307863e-05 
-0.003593036346616547 0.01536344319319979 -6.311312865981332e-05 
-0.003593036346616547 0.01536344319319979 -6.311312865981332e-05 
-0.003593036346616547 0.01536344319319979 -6.311312865981332e-05 
-0.003593036346616547 0.01536344319319979 -6.311312865981332e-05 
-0.04481415845955591 0.03505301008942856 -0.001644809246361276 
-0.04481415845955591 0.03505301008942856 -0.001644809246361276 
-0.05536116844852735 0.04946766661086152 -0.004168281748245709 
-0.05536116844852735 0.04946766661086152 -0.004168281748245709 
0.2794282156437417 -0.2851161558581616 -0.05236565638264079 
0.5875859268335751 -0.5861038101217005 -0.02570568226466491 
-0.2571243564348967 0.3206715127677635 -0.3178163122239804 
-0.2517942308396935 0.2752425073119303 -0.03749229306041654 
0.06503743459524900 0.02634795813300530 -0.009061975819089628 
-0.2882716456347548 0.3113159179068771 -0.007721865620651826 
-0.2882716456347548 0.3113159179068771 -0.007721865620651826 
-0.2882716456347548 0.3113159179068771 -0.007721865620651826 
-0.5795226266142934 0.5867553251792500 -0.1431862790210326 
-0.5795226266142934 0.5867553251792500 -0.1431862790210326 
-0.01462152837170902 0.01247130965390282 -0.01309847356721772 
-0.04896469155104407 0.05891009203237599 -0.01690122288917104 
-0.02570018189679945 0.02277057441979122 -0.003571266468783100 
-0.08605907080863297 0.1071200281661995 -0.1760564809398599 
0.5375398717640560 -0.8214141718332311 0.8006962724200530 
0.2537373110032812 -0.2724298538420064 -0.02267321064631044 
0.2697762897087446 -0.2689824262618680 -0.02045082761279969 
-0.2007139775282597 -0.3964590481146939 0.3375625529398439 
0.1565917116918355 -0.1201214211805997 -0.02109405495558888 
0.4135094459192924 -0.3585090831559911 -0.01701592849677392 
1.410620529041950 -1.409866221534442 -0.01438553899141277 
-0.1472994462168332 -0.2598523153373466 0.6859903508303002 
-0.1472994462168332 -0.2598523153373466 0.6859903508303002 
-0.1472994462168332 -0.2598523153373466 0.6859903508303002 
-0.03958204214000147 0.07195257474563894 -0.009939926430398843 
-0.03958204214000147 0.07195257474563894 -0.009939926430398843 
-0.005183074691570620 0.005340395600435361 -0.0009554441951056298 
-0.005183074691570620 0.005340395600435361 -0.0009554441951056298 
-0.02280316738290372 0.02026644478258867 -0.007273138537241647 
-0.2247371559530652 0.2458177516128005 -0.02014048246059578 
-0.06326012057964465 0.05753729681097736 -0.01829798787097834 
-0.1176405583849191 0.1811616647244926 -0.1656439976494396 
0.3714209605155143 -0.3760078678156074 -0.0006566447065847009 
0.3714209605155143 -0.3760078678156074 -0.0006566447065847009 
0.4865643035404550 -0.4997099273641636 -0.1147000454164204 
0.5169170285483362 -0.3963760228370782 -0.2589497448010485 
-0.2361249099788791 0.2623010523062710 -0.04438260897442012 
-0.02939679983119873 0.02511957026032136 -0.003625337229320403 
-0.02939679983119873 0.02511957026032136 -0.003625337229320403 
-0.01604952542101837 0.01070994509879142 -7.086871402554363e-05 
-0.01457863199029395 0.01563323118326376 -0.006317328114361582 
-0.1208450065989411 0.1521262215859495 -0.1174143659403375 
-0.1750394014964733 0.1807255099567333 -0.006017220511299174 
-0.05215439117290698 0.04448605525908887 -0.003537396994002576 
-0.01564509638957547 0.01597903757624002 -0.0004336331675682409 
-0.01564509638957547 0.01597903757624002 -0.0004336331675682409 
-0.01564509638957547 0.01597903757624002 -0.0004336331675682409 
-0.01564509638957547 0.01597903757624002 -0.0004336331675682409 
-0.004504778732075412 0.004595979691396504 -0.0007765373102507430 
-0.004504778732075412 0.004595979691396504 -0.0007765373102507430 
-0.004504778732075412 0.004595979691396504 -0.0007765373102507430 
-0.08505898607720859 0.07261173853299252 -0.01805749034525194 
-0.08505898607720859 0.07261173853299252 -0.01805749034525194 
-0.08733233786614936 0.08919752329020653 -0.03281620045332140 
-0.1785048491121959 0.1515164830408167 -0.01171900780934540 
-0.1071103064233026 0.09666384537900818 -0.01130108895576631 
-0.2363598822974594 0.2183919430114610 -0.01932356283716140 
0.2166199223832963 -0.1662992119230430 -0.1538835306248333 
0.2166199223832963 -0.1662992119230430 -0.1538835306248333 
0.2001532102983683 -0.2384602665092257 -2.901434689143008e-05 
0.2001532102983683 -0.2384602665092257 -2.901434689143008e-05 
0.2001532102983683 -0.2384602665092257 -2.901434689143008e-05 
0.2001532102983683 -0.2384602665092257 -2.901434689143008e-05 
0.5353261199463096 -0.4538877221212937 -0.02386704655941162 
0.3071048142034178 -0.3165396001971088 -0.01166180613907143 
0.1337280601347086 -0.1799442590651397 -0.03546233493996515 
0.02172041792171497 -0.07425732095063818 -0.05612985649671127 
0.2145476296162166 -0.1379057778915354 -0.0003543392665922577 
0.2145476296162166 -0.1379057778915354 -0.0003543392665922577 
0.2145476296162166 -0.1379057778915354 -0.0003543392665922577 
0.6113540790847714 -0.5279717540773325 -0.002134489463593921 
0.6013572153459299 -0.4982993421370182 -0.1868774334292684 
0.6013572153459299 -0.4982993421370182 -0.1868774334292684 
0.6626310626006479 -0.6679246195721167 -0.002158209091799028 
0.6626310626006479 -0.6679246195721167 -0.002158209091799028 
0.6626310626006479 -0.6679246195721167 -0.002158209091799028 
0.03943375560705174 -0.03220768289416010 -0.09434596716008473 
0.08574212327691305 -0.05564749255315034 -0.4265121074706970 
0.04630836766986163 -0.02343980965899013 -0.3321661403106123 
-0.2450988508456355 0.2650170304166275 -0.02541566915036640 
-0.2450988508456355 0.2650170304166275 -0.02541566915036640 
-0.5089908622620766 0.5375335516039675 -0.08234692220010895 
-0.2090339326744932 0.2392798334481737 -0.05862977364865891 
-0.1336935381860395 0.1377859648178753 -0.01188773075460025 
-0.1086300079624605 0.1344891589481703 -0.03687437361552973 
-0.03928481708032431 0.03063355887694643 -9.101359931565722e-07 
-0.03928481708032431 0.03063355887694643 -9.101359931565722e-07 
-0.03928481708032431 0.03063355887694643 -9.101359931565722e-07 
-0.03928481708032431 0.03063355887694643 -9.101359931565722e-07 
-0.01950661565698070 0.01867128545398173 -0.002606428981488758 
0.2209629389022644 -0.1789702135932975 -0.07350323787974412 
-0.1986751528490804 0.3614303787295055 -0.02626597251198028 
-0.1986751528490804 0.3614303787295055 -0.02626597251198028 
-0.3163870101589936 0.3328169935006073 -0.1044936025934117 
-0.1836354330247753 0.2220788003317512 -0.1620262893064970 
-0.1836354330247753 0.2220788003317512 -0.1620262893064970 
-0.05964810947193298 0.09667726580756360 -0.04473014391879658 
-0.05964810947193298 0.09667726580756360 -0.04473014391879658 
-0.02784037927898816 0.02753400938041635 -0.004238938887281591 
-0.02784037927898816 0.02753400938041635 -0.004238938887281591 
0.5514760527822213 -0.4652964697714598 -0.001381817995436932 
0.5514760527822213 -0.4652964697714598 -0.001381817995436932 
0.5514760527822213 -0.4652964697714598 -0.001381817995436932 
0.5514760527822213 -0.4652964697714598 -0.001381817995436932 
0.5514760527822213 -0.4652964697714598 -0.001381817995436932 
0.3394924781254718 -0.3169043469835308 -0.03308305114447987 
0.5294990352680180 -0.4999828113033724 -0.04840815921523937 
0.4776937883223550 -0.4300873450421409 -0.09615483123787567 
-0.1450706234537719 0.1760870416184109 -0.1308637399954671 
0.1976755205654483 -0.1665345935271736 -0.05638742467472500 
0.1976755205654483 -0.1665345935271736 -0.05638742467472500 
0.5148931947139402 -0.4459967563079761 -0.1228144382132511 
0.07237533915418096 -0.04067010496220321 -0.01484102149534699 
0.1215722191056817 -0.08798193278933160 -0.001927120226379491 
0.5020451207241374 -0.3615533071029634 -0.04089023569728507 
-0.04168003932189941 0.06449078708281149 -0.008373666231435303 
-0.1969928567017085 0.2001429159475211 -0.03309125477132871 
-0.2236433308685893 0.2070794319329253 -9.866791747247945e-05 
-0.2236433308685893 0.2070794319329253 -9.866791747247945e-05 
-0.1414202720340469 0.1272494734613944 -0.02977435646311163 
0.3032361612788194 0.009259969235685290 -0.1545249525081231 
0.6568776338504232 -0.5141235004060899 -0.003485256596882772 
0.6568776338504232 -0.5141235004060899 -0.003485256596882772 
-0.1112987457060193 -0.1977357661511888 0.04677041896253509 
0.1873129010345767 -0.1642978823020891 -0.001582727087415606 
0.3113785411415724 -0.2698946177034867 -0.02378826376346939 
0.3113785411415724 -0.2698946177034867 -0.02378826376346939 
0.1617383793762955 -0.1232820343142250 -0.01425753129165221 
0.5642765670745149 -0.5210503805204845 -0.06742625431033811 
0.1617383793762955 -0.1232820343142250 -0.01425753129165221 
0.3550287850423148 -0.3733985147455657 -0.002063124231758222 
0.3439827153930928 -0.3773197211636729 -0.01857544452373898 
0.3473180070980145 -0.3160773812533213 -0.03995784925869023 
-0.03629475246755694 0.07834516592849909 -0.06187836563505009 
0.6459516657709603 -0.6497334420605076 -0.01002676852437476 
0.2780973803333122 -0.2909306313402069 -0.01081505511144892 
0.2780973803333122 -0.2909306313402069 -0.01081505511144892 
0.2780973803333122 -0.2909306313402069 -0.01081505511144892 
0.02841051084182383 0.009759336414013518 -0.05456867387217857 
0.2982581314847215 -0.3138268601366080 -0.05500960650472202 
0.6820851745808838 -0.6794069151657367 -0.03527939542414166 
0.4180106597707415 -0.4173480893738396 -0.01620953508066067 
-0.1061218722040548 0.09454160605694693 -0.005179369735845398 
-0.1292495758741570 0.1217280976324528 -0.008022473881395079 
-0.1960257385440968 0.2175090477813999 -0.03700782758863812 
-0.1323573582804596 0.1253872606781114 -0.02821845237673244 
-0.005190504055632750 0.006531092045467519 -0.0004511429544070293 
0.04500721024690345 -0.02262002320300931 -0.0004991258791955878 
-0.1944201431998811 0.1968961130627388 -0.06677742622341946 
-0.2564979562256947 -0.3408082081867143 0.7658212950454046 
-0.008146826661512067 -0.8841449346830861 0.9666388352775377 
-0.4043464349883514 0.4380460319812500 -0.2720780824995067 
-0.6288680859458377 0.6283984264623983 -0.3276539529736443 
-0.2397956914867439 0.2316863860522742 -0.01595944131401439 
-0.02971287420976084 0.03959358373292672 -0.009156284154031961 
-0.02971287420976084 0.03959358373292672 -0.009156284154031961 
-0.001074892027449680 0.001466193203471425 -0.001139461741593357 
-0.001074892027449680 0.001466193203471425 -0.001139461741593357 
-0.03294724572728641 0.03794864055940424 -0.01560887635253518 
-0.2840245270687658 0.3033936361907140 -0.04982118301672611 
-0.07630934720642006 0.09238062363250757 -0.02986930648102672 
-0.1779160656468417 0.2499944509482643 -0.1484137619616593 
-0.1779160656468417 0.2499944509482643 -0.1484137619616593 
