solver_type L2R_LR
nr_class 3
label 0 1 2
nr_feature 29238
bias 0.000000000000000
w
0.3021224854071078 -0.3671991845701934 0.3359167490107745 
-0.2374712346762836 0.3412738268979613 -0.5153428722525897 
-0.5045809374362050 0.4631690781744113 -0.3557119623004367 
-0.2420845982074872 0.07592698348746323 0.1998852459633826 
0.1546360915908450 -0.09748031612811611 -0.1428042835056073 
0.1381955464562913 -0.1239454210031172 0.02086121621153389 
-0.6166608230749236 0.4363177190799048 -0.4023298018670274 
-0.06473705622707569 0.1318423817196350 -0.009787330927094072 
-0.4851107680090341 0.4370779840137969 -0.06611096910245606 
0.1801822458590858 -0.1685732905094845 -0.004594059968394093 
-0.2488919693150991 0.1925979306526152 -0.1371286412595188 
-0.2389362417157459 0.2157665967423659 -0.9960130480327032 
-0.4479912485151896 0.3187209930750436 -0.6658845983027378 
-1.147488592766265 0.9989884696772027 -1.220235537302639 
0.1557853664983577 -0.1278043844941843 -0.04154366532844117 
0.1490770179317209 -0.1086730387382192 -0.1213029949041163 
-0.3336671289352213 0.4137490097726569 -0.2664783505119037 
-0.3916856678633053 0.4317493593600529 -0.1459607234556118 
0.01199625599033560 0.1334267145372734 -0.5783039179709768 
0.01784043447334945 0.01636858799173849 -0.7094397101694012 
-0.2208080317594570 0.1885774320241938 0.04287825735900139 
0.2148405683225007 -0.1878369398681919 -0.08491422691717887 
-0.4194190021314834 0.5054439286187158 -0.1930218535344683 
0.1566575401629486 -0.1457072485497953 -0.01460040854972534 
-0.4438636491581599 0.5067649013556803 -0.2431401558189277 
-0.02091916251312814 0.08990591341080058 -0.03128810044625108 
-0.2700767880035567 0.1783786974889142 -0.2299679027683217 
0.3572092689356599 -0.4998511068656726 -0.07611850202350247 
-0.5444684769639753 0.5602931952339671 -0.1341818401561984 
-0.1301011160112087 0.1896694955680970 -0.4455425366407332 
-0.1135515129795586 0.09700698305262864 -0.08427998047969419 
-0.6304334735504931 0.4515036605314644 0.1093765801101857 
-0.3592113394700443 0.4024134948813697 -0.2029786752550999 
-0.08292175322679529 0.1019446277003030 -0.1525341382364372 
0 0 0 
-0.1688075198704230 0.3242551331900202 -0.1342931399537150 
-0.3823201385027500 0.4539350830393554 -0.4468664384840930 
0.2564192848411081 -0.1855793247508732 -0.1995014051517946 
0.1189611679939299 -0.04689203756340114 -0.2393813296870871 
-0.04931700203064006 -0.06927349280257428 0.2938163352721073 
0.2265585695243298 -0.2064078092291149 0.02755409371592177 
-0.1027657335788874 0.09374422478333097 -0.3741393227954598 
-0.4635257141929610 0.2452704173437948 0.5956590882906334 
0.9414557706476377 -0.8559887685092498 0.08865859104638031 
0 0 0 
-0.8818723172438087 0.8024511614489778 -0.2163856094666845 
0.1178400363734149 0.04004936836164359 -0.6051799453831133 
-0.2535859746778953 0.3598728779842951 -0.5047455229394703 
0.1771746563197679 -0.1814814156782918 -0.009260024477446322 
0.2455388223773284 -0.2361931249499572 -0.1258730035452969 
0.5111143219639036 -0.4325778598829570 -0.09322361359593935 
-0.5047609469991090 0.6097190388809931 -0.2173354577582597 
0.03571598144832606 -0.03474717635217563 -4.224601481358320e-06 
0.2722788072628872 -0.2271282229230323 -0.05308913744581994 
0.1210785625735651 -0.1010476896797877 -4.926206846211905e-06 
-0.1524225751899051 0.1881453232960069 -0.04013884764500574 
0.6377146152551597 -0.7634168402092512 1.074395502604269 
0.03614150648922052 -0.03510466315586309 -2.177215171251993e-06 
0.03614150648922052 -0.03510466315586309 -2.177215171251993e-06 
0.1412348571507804 -0.05959120546966638 -0.03665578466678837 
0.4805655867108998 -0.3799482705742723 -0.1949507700519833 
0.03614150648922052 -0.03510466315586309 -2.177215171251993e-06 
0.03614150648922052 -0.03510466315586309 -2.177215171251993e-06 
0.4682838232468001 -0.5577317396225270 0.1196918518973721 
-0.3283454170521788 0.4558681588116431 -0.3369949975044685 
0.1601733012986238 -0.2950776702577637 0.4399086523198187 
0.05667062974565015 -0.01082908702977899 -0.01819964278455764 
-0.4942155893688686 0.3631902112878133 -0.09438864783176630 
-0.007192207906448523 0.07260296825164604 -0.5485181083298941 
-0.7362784237342299 0.6611762659664855 -0.1306970300036421 
-0.04759334704019248 -0.02904850365045991 -0.06960102728170270 
0.1749510652120503 -0.1542503221157677 -0.1510797889423683 
-0.08593193265371424 0.01610530430599671 0.04145351701315335 
0.2287560655318912 -0.1544293294000322 -0.08817788760823240 
0.03948652531379863 -0.03595494750567130 -0.003630866438240097 
-0.4285458520984281 0.5254835159479815 -0.2735847590049841 
0.3021199669229846 -0.2464213738151676 -0.007039434840960132 
-0.05473714405277118 -0.06301386020858414 0.2596921203546705 
0.03948652531379863 -0.03595494750567130 -0.003630866438240097 
-0.4108100846604163 0.5110394371604807 -0.3879135070976996 
0.3542883403141003 -0.2429081212819757 -0.1993801431127397 
0.009429794362619918 0.04963482054907585 -0.1431174401370293 
0.4162926277877238 -0.3827715267058366 0.009308447891072848 
0.03948652531379863 -0.03595494750567130 -0.003630866438240097 
0.4230784495569209 -0.4114694250367326 -0.04066218242352281 
-0.3176917817880041 0.2796625578374742 -0.2228923141286380 
-0.01276872924904112 0.09894629225189100 -0.08749623980951987 
-0.4201261091531357 0.2513686535325090 -0.05689794510938925 
-0.8527302639427611 0.6750618296362513 0.09636473605101264 
-0.08220213685117357 0.1068882113108557 -0.06206284769003680 
-0.02799193979110079 0.03372544929591255 -0.0006568054217475879 
-0.02799193979110079 0.03372544929591255 -0.0006568054217475879 
-0.02799193979110079 0.03372544929591255 -0.0006568054217475879 
0.08521359930442016 0.01932209048195000 -0.5490868093740904 
-0.02799193979110079 0.03372544929591255 -0.0006568054217475879 
-0.1689625844672731 0.2319084933352345 -0.1668987305515008 
-0.1213673546217676 0.1443383618857629 -0.01882989649946067 
-0.03848238262309586 0.06482359481241282 -0.01654431739976568 
-0.2955620069802930 0.08984993022620860 0.2745632484423783 
-0.02784997800552074 0.1244551204542453 -0.09612812106991475 
-0.03463668999101995 0.03993845279627058 -0.008143673596212372 
-0.1224820279484558 0.1529113149153723 -0.004476644737180232 
-0.4549795701276308 0.2739605875859199 0.4537441381719766 
-0.1359900844330554 0.07056283907295170 0.1245417204536714 
0.3408272693241702 -0.2336344416157831 -0.2164696903220928 
-0.1883712468499803 0.2407734419994991 -0.07448520859894997 
-0.08753118290485933 0.1004727163242951 -0.03719062497857575 
-0.5132528189850498 0.2728349621699304 0.3889566280695346 
-0.1393350128053240 0.1808209845246974 -0.03555235574583294 
0.4210870460327534 -0.3969624128099622 -0.1341486035792123 
0.2028760380840090 -0.1650127072396104 -0.01676279577272590 
0.1386828495251684 -0.1160849279748032 -0.01676173977877522 
0.1386828495251684 -0.1160849279748032 -0.01676173977877522 
-0.8038769643329652 0.6592156841672724 -0.03326756989508832 
-0.7045015491098836 0.7605624309235900 -0.04442736323418337 
3.762791712067805e-05 0.004671867949655337 -0.04366539088489750 
-0.1812836967845196 0.1928629293572374 -0.08074544700124986 
0.06659345217817418 -0.06542258327641992 -7.740910571677986e-05 
0.06903526187212153 -0.04658413185381106 -0.05766672784861610 
0.07069167576811937 -0.06899909189602621 -8.876754363710124e-06 
0.06720040855192727 -0.06619185940378178 -8.217194908493851e-06 
0.1492370717708012 -0.1467245265136918 -0.01744534576946006 
-0.4038234744760471 0.4913211751211353 -0.3709973004717020 
-0.1013324067142809 0.1590559523083348 -0.06829388556077154 
0.06720040855192727 -0.06619185940378178 -8.217194908493851e-06 
0.06720040855192727 -0.06619185940378178 -8.217194908493851e-06 
-0.4239760922965359 -0.4191339695015182 0.7575707464421977 
-0.2205357668972489 -0.5648279040059166 0.8699227411474553 
0.2214089198421564 -0.2067354986796367 -0.007605707678265644 
0.3276219862431449 -0.3154730798420291 -0.01758774214942172 
0.7366757737908606 -0.6554495493097928 -0.06433261971427591 
0.4793648941689552 -0.4786941105009447 -0.008878501527815564 
0.1034533828026205 -0.09667426859055141 -0.0006028917090600813 
0.1034533828026205 -0.09667426859055141 -0.0006028917090600813 
-0.2376249472408919 0.2902725979920077 -0.1430913599404849 
0.004558257167320646 -0.0002443500002713133 -3.966723109553620e-05 
0.07492976423832130 -0.008143047953019424 -0.1522534328105524 
-0.08611847353280108 0.1975261303043006 -0.1331545516581269 
0.09369503854986613 -0.07342414741936376 -3.794638812472724e-06 
0.008757982465521535 -0.007481120895439192 -1.045647137512812e-06 
-0.05110686408115464 0.07198558470442355 -0.006871598152912712 
0.2084612248366959 -0.1600389452339190 -0.05168435107849514 
0.2244578655358080 -0.2027622747423631 -0.006202923921972454 
0.2652557773421619 -0.2576519314867745 -0.1902875720402879 
-0.07738550558459650 0.07731201774385148 -0.01318380211338358 
-0.1802513941087114 0.1903759475872811 -0.1263303147815842 
-0.1041457469501135 0.1084153893299345 -0.01380713707110995 
-0.3055845773770578 0.1199287340920028 0.1644004372606224 
-0.4872498701426378 0.1822762417123862 0.1220817440829107 
-0.1948424617040133 0.2476887068930305 -0.08614284428869189 
-0.07638966203139388 0.1023209082953722 -0.02518720900219503 
-0.1713319556683871 0.2172684269426447 -0.04975204265665802 
-0.004298838076096467 0.01660289881914677 -4.158707075442175e-05 
-0.6040050029500516 0.6657576651722410 -0.1504870514502431 
0.06575953164670992 -0.05081166802565143 -0.005841644326646189 
-0.3088977169881944 0.1708989477119465 0.2398177567857293 
1.098136698565140 -1.076880871008301 0.1154832236786849 
0.1439977224584447 -0.1710139476736350 0.02615361538278180 
-0.07096125828445074 0.1490004610915632 -0.05392590844499644 
0.3031216569747182 -0.2547341767520134 -0.1577267044271076 
-0.5468053897485070 0.5789603282245053 -0.1820529798837305 
-0.3263850487826654 0.4225958034717098 -0.2539553348598729 
-0.3228984064794358 0.3357937691898527 -0.03898364029887129 
-0.7098400240588109 0.6413121359569249 0.1058485455767843 
-0.07822357655341865 0.1674289740718777 -0.06657135108630934 
-0.02571164101062022 0.03772412509918614 -0.009884475326806270 
-0.01224813203109498 0.01638412150259429 -0.005465043466720410 
-0.03461931031756449 -0.04323609993344901 0.1549792195050459 
0.006619166555530722 -0.003331643366018680 -3.928265266043051e-06 
-0.004741137585953900 0.004685861573307005 -8.817579806004772e-05 
-0.05611280522197094 0.03398266026052912 -0.3129902208653710 
-0.1345095718122724 0.2013509736458604 -0.1764911244005768 
-0.6598180910477258 0.2820864863291661 0.3980683946359016 
-0.01074518030516324 0.01018289058034502 -0.001616056292660808 
8.502828528565330e-05 -5.101477719844891e-05 -1.078516837494497e-06 
-0.08288497199867174 0.07951476707335003 -0.002285579099694992 
0.006124875873350867 0.1626081543387348 -0.08542417771490661 
-0.1355743998749877 0.1772966887426739 -0.1086902536598613 
-0.1781865495523318 0.1646858974059207 -0.004175660759143324 
0.3622577173524910 -0.2603238355614804 -0.01763003033013291 
-0.1064415003789656 0.1245099673375372 -0.01029030893170066 
-0.05441959916276876 0.08062384965213731 -0.03390407076795864 
0.04366286039004289 -0.03197372740839906 -0.006570534887251716 
0.1023034826399643 -0.04108718417703836 -0.008437790508389154 
0.04366286039004289 -0.03197372740839906 -0.006570534887251716 
-0.03341422060219625 -0.03143953481413992 0.1467862784746507 
-0.2431359851889709 0.2986242856853423 -0.1421871670272573 
-0.7649303576100279 0.8778791485019223 -0.3321238562660212 
0.4265065241025257 -0.6755483200437076 0.3061897921523851 
0.6840041566918639 -0.5495849003738514 -0.1645147098989468 
0.2587777727898934 -0.2181708072584523 -0.001565291335752848 
0.3347822985822278 -0.2937679550179141 -0.002488507278112231 
0.2249146915944587 -0.2343167338979025 0.2080948277074740 
0.1092659483476269 -0.1341968654267051 0.2010688981214640 
0.02436672599710040 0.1075760793395750 -0.09408962839523576 
0.09905505522556614 -0.08384017882663945 -1.056611937349461e-06 
-0.04865352523088637 0.1379347900803664 -0.02451364534301421 
-0.2060842536799093 0.2202315299354820 -0.04242804085278694 
0.06237887676285692 -0.04412397152338028 -0.01198023559947441 
-0.5044597287626501 0.5468534925641596 -0.3036758082222483 
-0.006557799449665070 0.01078405928861834 -0.0005629593808851621 
-0.006557799449665070 0.01078405928861834 -0.0005629593808851621 
-0.1633811275738725 0.1870008201457781 -0.05531175856670938 
-0.006557799449665070 0.01078405928861834 -0.0005629593808851621 
-0.1568233281242075 0.1762167608571598 -0.05474879918582422 
0.2880124139810378 -0.3056205027133785 0.05828489374774755 
0.2739365332545461 -0.2736282344871145 -0.009765023599575300 
0.3973262205700102 -0.3831955830217664 -0.0009012316840871209 
-0.07276989567905291 0.1277381605817392 -0.04259133101955252 
0.01653887355091891 0.01971139214014420 -0.05412015655849907 
0.1059804219331045 -0.1013361098000224 -0.02696927866133446 
0.2600491720335132 -0.2235748823471430 -0.1041587383903429 
-0.4229182755719457 0.4609682827924240 -0.04468413069777866 
-0.3146085786846972 0.3698704326745724 -0.08248482812456018 
-0.1544996679123968 0.1258114747218889 0.05403981485667203 
0.03997624390604908 -0.1058053069484759 0.1142889165776119 
-0.04810860699106911 0.07751213441657358 -0.07225652045335085 
-0.02340235228318267 0.03699324139716963 -1.562075928184385e-05 
-0.02340235228318267 0.03699324139716963 -1.562075928184385e-05 
-0.7730369384133423 0.7190162323533177 0.1730470793949976 
-0.02340235228318267 0.03699324139716963 -1.562075928184385e-05 
-0.1447324660758153 0.1947688477331719 -0.05697639719018037 
-0.02340235228318267 0.03699324139716963 -1.562075928184385e-05 
-0.02340235228318267 0.03699324139716963 -1.562075928184385e-05 
-0.5245319353240913 0.4446512029040935 -0.3922553095599804 
-0.1759164291705117 0.2062072905585086 -0.04109212478738061 
-0.09174427047137380 0.1521859182470036 -0.09471734825249006 
-0.3287659800717535 0.1554246448310038 0.3207929441463342 
-0.1149382275234803 0.1183555492657121 -0.0006332141449237099 
-0.002782286555990465 0.002448682470953985 -2.272748683525006e-05 
-0.1683560563573463 0.2070520906667143 -0.02564958480876527 
-0.03732944425005592 0.02909774889771251 -0.001312094137427650 
-0.02035054844127536 0.04229962476420657 -0.05020971085416946 
-0.4118992955697081 0.5714201136704856 -0.3538486116740984 
0.2438072012960903 -0.1153069675297628 -0.2654048265866498 
-0.2673259442019281 0.2576308769977646 -0.08311075687815113 
-0.03282097955845090 0.03424470315358534 -0.004111010330049007 
-0.03282097955845090 0.03424470315358534 -0.004111010330049007 
-0.03282097955845090 0.03424470315358534 -0.004111010330049007 
-0.08297712905728030 0.08588576030058888 -0.01433958892041959 
-0.1019314103171216 0.1309385471165630 -0.03278000525413966 
-0.3445529478547535 0.3870993017082377 -0.1264493821220993 
-0.4732828455090620 0.5531749528161550 -0.1709711026038006 
-0.06171783028928110 0.06050886882837943 -0.02163497947129235 
-0.06171783028928110 0.06050886882837943 -0.02163497947129235 
-0.07600591518641131 0.08521398428047279 -0.002859098375891190 
-0.07600591518641131 0.08521398428047279 -0.002859098375891190 
-0.07600591518641131 0.08521398428047279 -0.002859098375891190 
0.4300238685093037 -0.6691115964612598 0.4904338117618058 
0.1397734592956794 -0.1494412800777682 -0.07393822837345558 
-0.3097544167477790 0.3791259297512978 -0.1346819627360090 
0.1793729434932430 -0.1765193487130015 -0.02025662791176638 
0.1147280346351862 -0.1212279167892655 -0.01433929497723771 
0.2098916866038516 -0.1315758578696525 -0.1801615307737090 
0.1147280346351862 -0.1212279167892655 -0.01433929497723771 
0.2789927010782334 -0.2502836795243612 -0.07330452937911414 
-0.007986312614407205 0.02527688618315163 -0.07625012938114392 
0.2682302514021364 -0.2166280003515644 -0.06974828466425419 
0.08268168005010075 -0.07143545059606196 -1.021685829907753e-06 
-0.1151335908249306 0.1228010907809232 -0.01878660746281586 
0.1027412914229980 -0.08656459352742579 0.05336653235215654 
0.08268168005010075 -0.07143545059606196 -1.021685829907753e-06 
0.08268168005010075 -0.07143545059606196 -1.021685829907753e-06 
0.08268168005010075 -0.07143545059606196 -1.021685829907753e-06 
0.08268168005010075 -0.07143545059606196 -1.021685829907753e-06 
0.08268168005010075 -0.07143545059606196 -1.021685829907753e-06 
-0.05380693411637447 -0.01483470453360361 0.06003230544129313 
-0.07132109041080133 0.09457930664714573 -0.03342830714484312 
0.08268168005010075 -0.07143545059606196 -1.021685829907753e-06 
-0.4766962907828491 0.5465016679896262 -0.09963077545235016 
-0.09547714063486508 0.1232655800681945 -0.01908449398556567 
0.08268168005010075 -0.07143545059606196 -1.021685829907753e-06 
-0.05419316361255557 0.09715499695620000 -0.05566220606124995 
0.2541637853918691 -0.1974989636199812 -0.1143582581690738 
-0.1146665769283735 0.1124349726948913 0.09124616305557326 
0.2708488439427056 -0.3661482718475593 0.1569950274847555 
-0.009999818175405900 -0.09270694588685842 0.1419846884483704 
0.01012033154762589 -0.01059970020089357 -1.403300033669083e-06 
0.03836204049964386 0.008325785519760247 0.09557537974551221 
0.09934667580740397 -0.09078709191126817 -0.01849724467527096 
-0.0008284143755742767 0.007219349700382946 -4.123259857459525e-05 
-0.1307729564190865 0.07685137352186847 0.1264956404388394 
-0.08869310840456772 0.1176979437541115 -0.02734380054513923 
0.01887517788857504 0.01278681053602153 0.09360290345215220 
0.05730793099671917 -0.05623257167777042 -6.860723958529422e-05 
-0.04155981865486523 0.03933637564118998 0.1135737523210323 
-0.02916470077838571 0.03706665161348253 -0.01566119211297455 
-0.01407026508687700 0.01127370854016103 -0.06201371078603921 
0.06160588386595112 -0.05774926216584823 -6.664365604543504e-05 
0.05730793099671917 -0.05623257167777042 -6.860723958529422e-05 
-0.2283437388582933 0.2529067717390519 -0.05763105451136495 
-0.5376943976928240 0.6581221239071672 -0.3494108106227973 
-0.2613490817067262 0.3086496060128202 -0.05210876197882253 
-0.1303130221520362 0.1582831198248243 -0.05972470540808949 
-0.3820029831645895 0.4184322533955452 -0.1081562632235909 
-0.2539348577205593 0.3052114234736401 -0.08958329937359621 
0.1367426944906455 -0.1256967759778605 -0.03370407314425468 
-0.1428050000764234 0.1512457505283414 -0.02109639086476514 
-0.08871368440342410 0.1025356243105994 -0.01441603079280002 
-0.2663645841512457 0.2339916054946720 0.1348033933018300 
-0.01322053666141664 0.01884662596158019 -3.148217271415601e-06 
-0.4473692073419717 0.3168497093548826 0.2545653030196225 
-0.03089278987705186 0.04778881972621586 -0.008112719909677482 
-0.01322053666141664 0.01884662596158019 -3.148217271415601e-06 
-0.01322053666141664 0.01884662596158019 -3.148217271415601e-06 
-0.01322053666141664 0.01884662596158019 -3.148217271415601e-06 
0.2224245083278469 -0.1838385651574223 -0.04412891170499860 
-0.01322053666141664 0.01884662596158019 -3.148217271415601e-06 
0.1634342567752635 -0.1128940445415576 -0.2080113896995094 
-0.1872448550465581 0.1724385491404412 -0.009373043308759650 
0.1298298919147656 -0.09567206909693472 -0.1015951239650410 
0.1456042614772102 -0.1066294142905815 -0.1141402264348208 
-0.1372014377375634 0.1323485201790420 -0.001011218795559386 
0.2669049303681563 -0.1899586268865372 -0.1147332653250296 
-0.05678721128745469 0.06290443085835166 -0.0003633898894022585 
0.1343633906021861 -0.1284856739812998 -0.003865479237194609 
-0.05678721128745469 0.06290443085835166 -0.0003633898894022585 
-0.1085114455051152 0.1304807163080539 -0.003733374168782350 
-0.2190525253044318 -0.2981158767796022 0.8366796928456707 
-0.06554811235933652 0.1205055419904428 -0.08913065799843219 
-0.1085114455051152 0.1304807163080539 -0.003733374168782350 
0.1630704085384059 -0.2052120995182536 0.1368575067823704 
-0.1085114455051152 0.1304807163080539 -0.003733374168782350 
-0.07746507650531377 0.1406269834514177 -0.07442137766336267 
-0.2040232147238450 0.2368815482302545 -0.06448582626238570 
-0.1211746358380934 0.1179915872744051 -0.01317605643448814 
-0.01384267377322320 0.01432018458319804 -2.964310730583177e-05 
0.4909091569598402 -0.4147027017372768 -0.03928999100818951 
-0.01384267377322320 0.01432018458319804 -2.964310730583177e-05 
-0.06464932039529730 0.06743121829808091 -0.008384402364844180 
-0.01384267377322320 0.01432018458319804 -2.964310730583177e-05 
-0.01384267377322320 0.01432018458319804 -2.964310730583177e-05 
-0.02284933771311729 0.03772574628070017 -0.004874727451463520 
-0.02284933771311729 0.03772574628070017 -0.004874727451463520 
0.05838193007917770 -0.1550730439917304 0.1034382689149237 
0.3247783226452857 -0.1705747489793030 -0.1452760625412274 
-0.4435255380475217 0.4348888162171491 -0.03150947515908687 
-0.01136153004582987 0.009081061730369298 -0.006315994712491648 
-0.3152388909255227 0.2992399690054201 -0.08351489484638570 
-0.05587013964210732 0.06540259464027753 -0.02913934982133449 
-0.1652726995113128 0.2138590439211599 -0.1060327005245843 
-0.2761859356793289 0.2054391810889800 0.1389760135501340 
-0.1544900691170495 0.2527908326817255 -0.1385868921331426 
-0.03206753598818481 0.07992518910210245 -0.1640311447269121 
-0.04062197728165057 0.04869606297870351 -0.02080897202583946 
0.2575978052466703 -0.2304331753366047 -0.03732566979407147 
-0.06551689733606204 -0.1491338924475940 0.3440196592239019 
0.0004758337719761074 0.1342848778688882 -0.03472371764727431 
-0.06452557115321243 0.06495507489258316 -0.008293285809808993 
-0.06452557115321243 0.06495507489258316 -0.008293285809808993 
-0.1478019646207844 0.1605882377301441 -0.04780445268348241 
0.3023203130086809 -0.2707045819259419 -0.06904804888816311 
0.3023203130086809 -0.2707045819259419 -0.06904804888816311 
0.1321462838950883 -0.09944850881846996 -0.04156450058524685 
0.2699017834360921 -0.2383527009407928 -0.03861559725112232 
0.07360824843154572 -0.03173026515050127 -0.04579326524218425 
0.4649420457482617 -0.3649038559002875 -0.1293790097292334 
-0.07592612428568851 -0.2822060798754568 0.3871626776401020 
0.06261000245975580 0.05744893768596233 -0.2293573761806474 
0.05211903511791181 -0.04463039128196138 -2.283220049731781e-06 
-0.1154779492431204 -0.2259880203563165 0.4843292255431644 
0.03740513871030662 -0.08254574195981784 0.1570172014711188 
0.2210895403301941 -0.1269337007363439 -0.1681466046225863 
-0.1368033185485255 0.1433044421756543 -0.02158892167320880 
-0.1742265274345008 0.07234790086022823 0.1289093273019855 
-0.06382488882828678 0.06006382382735857 -0.01017492380901255 
-0.03654213854007541 0.02758766248116941 -0.0007997835349663040 
-0.2534084478391234 0.2341725492596965 -0.07571870691945763 
-0.03719968994627575 0.03698985095500541 -0.0001664665858891639 
0.3376828141527956 -0.3256541806072346 -0.008012796214605601 
0.6704618592673623 -0.6436607562770604 -0.1486372880285768 
-0.06463477600546877 0.07256196474715021 -0.01035255165497068 
-0.05080664662207410 0.05311103371488288 -0.008354759257538348 
-0.05080664662207410 0.05311103371488288 -0.008354759257538348 
-0.05832887143595480 0.07093201400575244 -0.01607145300262053 
-0.05080664662207410 0.05311103371488288 -0.008354759257538348 
0.01127133614369467 -0.05897729723157003 0.1447379486664888 
0.06948618743562920 -0.04254937353628675 -0.005568481352354662 
0.2851109709012529 -0.2242147108503103 -0.01803774120550307 
-0.06012033941242410 0.08541965443662612 -0.02713691953043846 
0.06948618743562920 -0.04254937353628675 -0.005568481352354662 
0.2687676748819795 -0.2663914400825020 -0.004805519362536125 
0.2668461499912406 -0.2599765752476433 -0.004995704330857977 
-0.1504492333158447 -0.1207757633324979 0.3440496514224940 
0.03792267888078119 -0.4377820625006533 0.6422389790974504 
0.2641688291192636 -0.2261574994416238 -0.08186737306992718 
0.2701275659458400 -0.2422661106163230 -0.08172070247145524 
0.2701275659458400 -0.2422661106163230 -0.08172070247145524 
-0.08113950239496755 0.1312906236072481 -0.1808641246852068 
0.2451699388084837 -0.3637725636849275 0.1488180994179361 
0.2708951272865923 -0.2356298415355695 -0.01597901544264624 
0.04098434703619370 0.005120788920671544 -0.04031463607396690 
0.08472214494430491 -0.07453824480586475 -0.0004489806333754925 
0.08472214494430491 -0.07453824480586475 -0.0004489806333754925 
0.1074260284142896 -0.09008804552545846 -0.0007578744931548601 
0.1385619805994272 -0.1604201594303106 0.1664995464638330 
0.03675754792409021 -0.01514102829413010 -0.0004501404404118110 
0.08472214494430491 -0.07453824480586475 -0.0004489806333754925 
-0.04992138599790529 0.1496845519801809 -0.1709473129207385 
0.2501082873139569 -0.2148642771230807 -0.07883091145809144 
0.1388831783378778 -0.1323996344571062 -0.0001963171894133012 
0.1522358917272234 -0.09435080335754505 -0.003524112138666334 
0.1388831783378778 -0.1323996344571062 -0.0001963171894133012 
0.4712513222822333 -0.3885531489827138 -0.06111466144053364 
-0.1523791560064192 0.1636032347122622 -0.01641412100277188 
-0.1099689539382367 0.1262988103437639 -0.01392416609791715 
-0.02911652203982585 0.05717093373912444 -0.05480514380857369 
0.2536048900468865 -0.2280625895203235 -0.01904735550243345 
0.2153388269829830 -0.1941753204253074 -0.01904649923220644 
0.3404135394486179 -0.2302080170307333 -0.1219290510213060 
0.05683307302345187 -0.05415849819072628 -0.04452023646112146 
0.2033575365271976 -0.2201053580816194 -0.01218238223027121 
0.2874414455477157 -0.2586906733763389 -0.09207698541418073 
0.1569692699303427 -0.2821904876448380 0.1653776991437463 
0.08845733415038558 -0.07559847720756069 -0.1126784475828461 
0.09248691645302219 -0.03764545616200900 -0.02764183673368295 
0.1224939591852546 -0.09488727787225426 -0.04900436822380362 
0.2184764162243512 -0.1892462875204105 -0.05024211972525187 
-0.1697840842110718 0.1926204430632045 -0.05735941281030425 
-0.06341241415419381 0.07602827536337368 -0.01469904102190367 
0.2320762880201469 -0.1901941899873447 -0.03810907820600835 
-0.04270488997322582 0.04736403255903040 -0.003095192031649065 
0.4354524553247005 -0.4066605581362626 -0.03271752605718103 
-0.03105183033531803 0.03606726202897059 -0.002878485712902050 
-0.01548623610879698 0.03221119125679964 -0.002954071963581618 
-0.2712996233107115 0.3116740515198887 -0.1499449162370292 
-0.06715361389677224 0.07101613454966035 -0.05998029570587567 
-0.1675612392925323 0.2062321837099409 -0.03809365539473559 
-0.05073095647494757 0.04825166140994570 -0.01007395366847245 
-0.1060011239091024 0.1137776788976470 -0.01858257882064231 
-0.3019096949010843 -0.04996302838009926 0.5980731750646560 
0.05751494130562426 -0.3143735564872267 0.2095766407262909 
-0.07473780239735656 0.08307603566161839 -0.01497547503785508 
-0.2699270925703097 0.3103382722271533 -0.06862495952583081 
-0.09062343608464495 0.1053272446992872 -0.01098456906220334 
-0.3840279375732589 0.3874659150516559 -0.03634740222278711 
-0.05588686385825852 0.06103026267130122 -0.01058879692612798 
-0.07694217839897710 0.08328255498955628 -0.001146843999455113 
-0.05455980035988271 0.05847322122735404 -0.0005183972907250234 
-0.006280910497911251 0.05708349350107408 -0.1449449219467709 
-0.2995800444264054 0.3801962462094876 -0.3063942244061310 
-0.1951451950298526 0.2390324574806713 -0.03777800126525846 
-0.09123433514554088 0.08779979847453531 -0.01440672556226108 
-0.01257627088747578 0.01212985037826039 -0.007611443043967341 
-0.4680956241766563 0.4356769016988176 0.07097951169957355 
0.09225914004157934 -0.05587048532700344 -0.008525041237226133 
-0.1060662809915631 0.1214918122477984 -0.02297463023301176 
-0.007350343318651720 0.01716004448899411 -0.002855486516760156 
-0.02564683884712650 0.01914262877277860 -0.002000844186240083 
-0.05193237542279331 -0.2988297641601981 0.3996403173404846 
-0.2875337171226127 0.04062065197269625 0.3392577268718875 
-0.09687705774720891 0.1056165703462610 -0.01592187882320251 
-0.04862992405159261 0.04335763286338949 -4.334437608976520e-05 
-0.04862992405159261 0.04335763286338949 -4.334437608976520e-05 
-0.2302734443223171 0.2386070613968903 -0.04518287114838213 
-0.04482731943260911 0.04816659104623670 -0.007780075770720366 
-0.07510965864696786 0.07832401276261762 -0.007820075969994910 
-0.03682232378894861 0.04082605086796400 -0.01755483285519943 
-0.03682232378894861 0.04082605086796400 -0.01755483285519943 
-0.1194972465752129 0.1335129332825462 -0.008575455505448202 
-0.1011740502812257 0.1498280867197964 -0.1753405550553379 
-0.5136220336008726 0.6989711130624102 -0.2804853265825533 
-0.06727461296412103 0.06226766855984250 -0.02891349966385823 
0.4683363911937991 -0.4431567765452543 -0.02640925368975964 
0.04299923007720343 -0.03710729001888335 -0.005316120641574158 
0.04299923007720343 -0.03710729001888335 -0.005316120641574158 
0.04299923007720343 -0.03710729001888335 -0.005316120641574158 
0.04299923007720343 -0.03710729001888335 -0.005316120641574158 
-0.08122367408077417 0.07555340772974682 0.2400807370193349 
0.04311117876668927 -0.1601327701254300 0.2049056530275294 
0.5020567096756700 -0.4605258746719747 -0.09000559345858330 
0.4076725216738278 -0.3874140770698322 -0.09288802120373903 
0.08272709259432691 0.03453612265329685 -0.1930634516418055 
0.03887129506396862 -0.03507884778170663 -0.006953134861336988 
0.06842478945514181 -0.05239309246725685 -0.006954123029264766 
-0.1689567439119359 0.1885303156780786 -0.05344399576458044 
0.1829485292511703 -0.1774483911575497 -0.001930995211413926 
0.03710528620428979 -0.03209326827103440 -0.0009599613808092196 
-0.5532609396805065 0.6599172533932587 -0.1589529272107405 
-0.1472715441621855 0.1984762898258121 -0.09638704141359780 
-0.0008646722168559021 -0.01666198423967547 -0.04688300745555537 
-0.5646698103581027 0.4396816845985599 0.1228473487151764 
-0.1259119851132315 0.08937263043466100 0.1657233195347871 
-0.09835252408449399 0.1456049382478188 -0.06649760662351303 
-0.2319577668676209 0.2011610323680939 -0.02353094002321068 
0.4795987672846453 -0.4349645479869735 -0.1399980760346236 
0.6169575994623498 -0.5672034587677485 -0.09832691629873509 
0.1190889467222791 -0.09551253832689141 -0.09192236157382600 
0.1190889467222791 -0.09551253832689141 -0.09192236157382600 
-0.3130179670858265 0.1537955204262994 0.3247950604465388 
-0.006425726818587170 0.01021901685012735 -2.539804076564822e-05 
-0.01241291952412255 0.01875963775381742 -4.941427192436070e-05 
-0.006425726818587170 0.01021901685012735 -2.539804076564822e-05 
0.04647917001056805 -0.03857985395387995 -0.001670484029546461 
0.5565762985170447 -0.5158690109835565 -0.1142954569460385 
-0.003232901254391499 0.008349046679728873 -0.009057551803115538 
-0.2707241366303583 0.3073405710335322 -0.06537617941492152 
-0.05835167761195120 0.04843265085525349 -0.003501132974853165 
0.1399921620709814 0.003841108300911051 -0.07947813331827662 
0.09316073129942760 -0.08170891238792076 -0.01147304994208226 
-0.8226556076336429 0.8848173193961865 -0.3227804280858516 
-0.1688362185566449 0.1948712999837017 -0.08209467384761956 
-0.1402610943212584 0.1822322473735298 -0.06904560743018810 
-0.01240545365884185 0.01075292943089961 -0.0001578897964543822 
0.01784857814658506 -0.009818687224162593 -0.0001595906396049558 
-0.01252877998694054 0.01092028220118462 -0.0001589323571538220 
-0.01240545365884185 0.01075292943089961 -0.0001578897964543822 
-0.03735692847191721 0.04533041823593167 -0.01445680136804289 
-0.02630315187545625 0.02448512490440805 -0.002731672714513438 
0.1449351137386529 -0.1326228631654794 -0.05168771337376907 
-0.08802556227470466 0.09582934859984162 -0.01460567508388524 
-0.1615124795856432 0.1615846173529447 -0.02503591977822541 
-0.08779626883635501 0.08544335319129907 -0.01539463181379810 
0.1062680524057449 -0.09666658418495121 -0.01076139963156859 
-0.05608488279652060 0.06970289951147064 -0.02888213810013268 
-0.03489209373702142 0.04572991712728300 -0.02314945500845061 
-0.04759578242603064 0.07856019857236303 -0.001872097942666145 
-0.02973080697430864 0.04995086380848395 -0.001871075717040992 
-0.001340186207084650 0.04783868295035449 -0.001976489795020341 
-0.04731350061704576 0.09287322170857298 -0.05505517136858020 
-0.2036698954514315 -0.04793458812147653 0.4458489818790593 
-0.01847800536156074 0.04367126520029203 -0.001875429775163461 
-0.04015299971578821 -0.09458868462557661 0.2347283639886271 
0.1254661854151444 -0.2156312109219344 0.1746959213495445 
0.2620216466032234 -0.2195502981749026 -0.007299559663299916 
0.002438149584185979 -0.0009471033632219991 -0.002733234804698341 
0.08349097695787402 -0.08570796726348236 -0.002861571839324860 
-0.1073008181111701 0.1016858745124725 -0.008501121962998435 
0.0006793940659869267 0.002792318691819376 -0.03229630211523704 
-0.0005494553978299769 0.001655633979367105 -2.197483140870843e-05 
-0.0005494553978299769 0.001655633979367105 -2.197483140870843e-05 
-0.07992743574877054 0.08447764980143530 -0.01245726893442105 
0.05607221197521042 -0.04541950870429252 -3.895856120929647e-05 
-0.0005494553978299769 0.001655633979367105 -2.197483140870843e-05 
-0.0005494553978299769 0.001655633979367105 -2.197483140870843e-05 
-0.4276982680593455 0.4849404004797439 -0.09375413996015627 
-0.02532599091308490 0.03638823189169396 -0.01025120777169069 
-0.08622245222698079 0.1698724466685772 -0.05886319081912313 
0.1602346969976537 -0.1360056262981731 -0.007119634066240368 
-0.1520890151452990 0.1796917898136566 -0.04803004344630577 
-0.06173515668783444 0.07664813563773262 -0.001864017604203666 
-0.06441578882482679 -0.1146697344322008 0.1994826495029906 
-0.07591874364029866 0.08145757093305667 -0.009747330069243844 
-0.04325715538507081 0.04043736640896234 -0.006000207383971482 
-0.01644540670516484 0.02967429924407242 -0.01425827622220404 
-0.01644540670516484 0.02967429924407242 -0.01425827622220404 
-0.1615121549323672 0.1935790989986873 -0.03330538546226295 
-0.1015012010830550 0.1235468944463983 -0.01027041075119396 
-0.1247323004747294 0.1626442911267087 -0.06165285141448820 
-0.01461128603454164 0.02356610943730981 -0.007330170904864837 
-0.07411885922776779 0.007400878528787182 0.1923815333315541 
-0.03500777320507808 0.05271129195058647 -0.005546591352691485 
0.1451728265107382 -0.2449354631205878 0.1604306816647327 
0.0001119486894858404 -0.1230254801065466 0.2102217736691036 
-0.1691918372314463 0.1095264735718733 0.09956947488251881 
-0.1575948206449616 0.04235328518985046 0.2068670563889737 
0.06597477500850493 -0.1034656852863852 -0.07213257233557901 
0.3487186554278733 -0.2870006338421405 -0.1204556788334768 
-0.08874369201399528 0.08576466603375275 -0.001881406553010680 
-0.09538353141004542 0.1279583498865970 -0.02534987412141091 
-0.07376980687456965 0.07552522340253567 -0.02794069152316257 
-0.04291520105047679 0.04271389839644446 -0.02718845945317869 
-0.1784877762424973 0.2046941068161285 -0.04054865074003848 
-0.03330672661075930 -0.02569620343923238 0.1556460918575495 
-0.1592491305445135 0.1924386472076348 -0.1000473799521796 
-0.009807069831380329 0.01632213376906430 -7.179027793652315e-05 
-0.007694452874556081 0.007719730573703046 -0.001923060286980949 
-0.1671664911535624 0.2098294079224592 -0.08160894423278886 
-0.3331953461989335 0.2082125386429346 0.1022982599746499 
-0.1717312028601799 0.2006962996881721 -0.1134308712536870 
0.0001272814947147002 -7.928494500868759e-05 -1.251316754405544e-06 
-0.02067723013767509 0.02489481258559770 -0.0007229109933054844 
0.0001272814947147002 -7.928494500868759e-05 -1.251316754405544e-06 
-0.1461668852992439 0.1602247116334756 -0.08222752447305906 
0.1254652025264360 -0.09259995932235654 -0.004370744932070981 
0.07541121613489886 -0.05467018111012541 -0.004306467705478623 
0.05668611731098380 -0.04333391973964818 -0.003561025971923708 
-0.02552366673652290 0.03463125560870922 -0.005334855304153786 
-0.02552366673652290 0.03463125560870922 -0.005334855304153786 
-0.06227360512017630 0.07279165389287912 -0.02592961658451011 
0.1068018526514522 -0.07609991100000227 -0.03401148232650259 
0.2428390774529124 -0.2339430638200644 -0.004332529363688458 
0.2819172864625215 -0.2677475461314478 -0.0007577803232486894 
0.2978552628907955 -0.2778186813611707 -0.001572954531861570 
0.2978552628907955 -0.2778186813611707 -0.001572954531861570 
0.03579876407945597 -0.02974804961594732 -0.0006612612645508208 
0.03579876407945597 -0.02974804961594732 -0.0006612612645508208 
0.03579876407945597 -0.02974804961594732 -0.0006612612645508208 
-0.07886148469445252 0.09668803220427384 -0.02147920472486626 
-0.1116712285947456 0.1187276699107406 -0.01662546015482402 
0.2373829587619829 -0.1922070908912009 -0.004165677750379652 
0.1116726453664214 -0.09868003538956935 -0.0006619739443739872 
0.03579876407945597 -0.02974804961594732 -0.0006612612645508208 
0.05325611314570636 -0.05669702114038326 -1.546009992583686e-05 
0.05325611314570636 -0.05669702114038326 -1.546009992583686e-05 
0.05325611314570636 -0.05669702114038326 -1.546009992583686e-05 
0.05325611314570636 -0.05669702114038326 -1.546009992583686e-05 
0.07713856709554608 -0.07590209391603653 -0.1052484911123154 
0.05325611314570636 -0.05669702114038326 -1.546009992583686e-05 
0.05325611314570636 -0.05669702114038326 -1.546009992583686e-05 
0.2197643115884562 -0.1957792827235596 -0.04009718459151293 
0.2865849842911473 -0.2952777450757100 0.04125954084532697 
0.2197643115884562 -0.1957792827235596 -0.04009718459151293 
-0.4720413863674151 0.5065173652754454 -0.1456973548563651 
-0.01195043832456151 0.01417898212800350 -0.001286598416270382 
0.4776091649734135 -0.4725453158978174 -0.06409156235463596 
-0.05141762209772242 0.08260666812755470 -0.03238108211853299 
-0.05141762209772242 0.08260666812755470 -0.03238108211853299 
-0.07767755360170746 0.09621118292368855 -0.07031069312930936 
-0.009477277447461293 0.01525915491173292 -0.005166170142027091 
-0.009477277447461293 0.01525915491173292 -0.005166170142027091 
-0.05284512756349444 0.05301095425906423 -0.003801182913051452 
-0.3413129028439259 0.3080405872161194 -0.03384769748808142 
-0.2544796345056524 0.2517214414350258 -0.03199622067918410 
-0.04218672949662000 0.04250994521327919 -0.01266843446408215 
0.1331040427829474 -0.08195765974792979 -0.1184501559554457 
-0.06304886133028322 0.06900954207989210 -9.776511321069216e-05 
-0.0001573682996656497 0.0001428022548826110 -3.828574531870048e-05 
-0.0001573682996656497 0.0001428022548826110 -3.828574531870048e-05 
-0.0001573682996656497 0.0001428022548826110 -3.828574531870048e-05 
0.01998963613422550 -0.01521858083818442 -0.0002392165445545860 
-0.1060468912631681 0.1094248657925664 -0.0002676192376629459 
0.1029730761165922 -0.08827910900724133 -0.03070968618030198 
0.4878990289284964 -0.4205010520129633 -0.08891357135343139 
0.1214790407903852 -0.1188681965913323 -0.02495401662131873 
0.003491267216192097 -0.002807232492244420 -6.595594552162750e-07 
0.06963338281044898 -0.05249295175290578 -2.741072055309188e-06 
0.003491267216192097 -0.002807232492244420 -6.595594552162750e-07 
0.003491267216192097 -0.002807232492244420 -6.595594552162750e-07 
0.003491267216192097 -0.002807232492244420 -6.595594552162750e-07 
-0.1123982567936697 0.1320369073074574 -0.01875672769251442 
0.003491267216192097 -0.002807232492244420 -6.595594552162750e-07 
-0.1399217107867989 0.1460775522470163 -0.01363828670599744 
0.003491267216192097 -0.002807232492244420 -6.595594552162750e-07 
0.003491267216192097 -0.002807232492244420 -6.595594552162750e-07 
0.05502476754423880 -0.006308066770935132 -0.05494771456395819 
0.003491267216192097 -0.002807232492244420 -6.595594552162750e-07 
0.03382512947900009 -0.03113322233469672 -0.09609728291705098 
0.4503334048283371 -0.3021415107219758 -0.02778883555331379 
0.2345457143453394 -0.4055594448795231 0.3709862635473587 
0.04911284250578320 -0.02317288456273616 -0.001622794228967975 
0.06865866022014443 -0.04083067782764755 -7.952744365511148e-05 
0.2365733451912126 -0.2012105030211856 -0.02371931170792803 
-0.07599974906319021 0.1002718178278928 -0.04036624168179826 
-0.06751609073148865 0.08945370594027777 -0.03992823457010036 
-0.2682567373253008 0.2668869755313346 -0.02543539741842561 
-0.007217915106191530 0.008541899679375796 -0.0003937897987487483 
-0.007217915106191530 0.008541899679375796 -0.0003937897987487483 
-0.1718979851850702 0.2055826962124103 -0.08338984292329198 
-0.1718979851850702 0.2055826962124103 -0.08338984292329198 
-0.2465651435997969 0.2640806156974860 -0.04180592771800459 
-0.3407055557357478 0.3616672581073395 -0.06874554212358261 
-0.05844436411474396 0.06947508713614765 -0.002638349429505227 
-0.09799757706794042 0.1045523390503022 -0.02442753674364432 
-0.003962887123474368 0.005129120066316713 -0.0008403151608685193 
-0.09823015015079199 0.1066273887219119 -0.03176319604861905 
-0.07728350154662636 0.07815886063002904 -0.01115398899608922 
-0.1476067421555487 -0.01181209824984402 0.09073064241188280 
-0.1476067421555487 -0.01181209824984402 0.09073064241188280 
-0.1476067421555487 -0.01181209824984402 0.09073064241188280 
-0.03478099795828325 0.04562171212976929 -0.0001203022367970171 
0.1779480033234115 -0.2295635269282114 0.1417132339326191 
-0.1300660738539576 -0.1093205147460783 0.2183869341066899 
-0.1334322141374090 -0.1567965699813482 0.4077714039322554 
0.2220640540719948 -0.1973182727311180 -0.03254139039982876 
0.1249470919364880 -0.1201784601229177 -0.03143739844412804 
-0.06950079693641549 0.07321886356780943 -0.004190651890090260 
-0.04241020206818256 0.03730442436849830 -0.002489954904854737 
0.04798051869747691 -0.04792702353107785 -0.004103859495744997 
-0.1119134769380493 0.1055731241030076 -0.01545303282343497 
0.04798051869747691 -0.04792702353107785 -0.004103859495744997 
0.2273535732827554 -0.2075414887507269 -0.07016337940133845 
-0.3202555633652042 0.3010053224902536 0.1023333914886905 
-0.1167019303229952 0.1598820932244391 -0.04215240769656088 
-0.01621506066365280 0.04757228205556257 -0.05474452341390126 
-0.09535024945010512 0.09135912191979843 -0.001852213671454286 
-0.002283461180145932 0.02080279876948983 -0.001823614178194184 
0.3156723861340048 -0.2897586303957291 -0.03975386359799890 
0.3156723861340048 -0.2897586303957291 -0.03975386359799890 
-0.05662380034851738 0.06157287356644980 -0.005496691686532534 
-0.01266783778696927 0.02752740278141506 -0.02684099770171153 
0.2977676968492086 -0.2646222089589756 -0.02608513461310424 
-0.1740691819204423 0.1942524516421293 -0.01725058660911278 
-0.05546971695126601 0.1022779560650767 -0.1063385496575109 
-0.01536342309106669 0.02004590551333730 -0.004410171211755768 
0.1608320258370734 -0.1564988759045725 -0.01983132685693136 
0.1920988713086158 -0.1316783937207556 -0.02706823317181168 
-0.09898451858062811 0.1137670389042712 -0.01664723635271525 
-0.01536342309106669 0.02004590551333730 -0.004410171211755768 
-0.06773802151399422 0.1225958559973063 -0.08308741906034545 
-0.1260917747306866 0.1744890167590112 -0.1253665825149624 
-0.1114692399818002 0.1198668515503587 -0.007457686389413952 
-0.02904708013204589 0.02563741044984395 -0.01355525035170852 
0.0001731821491084485 -0.0001424278130035296 -2.104858756778528e-06 
0.0001731821491084485 -0.0001424278130035296 -2.104858756778528e-06 
-0.009542208952119253 0.01609687547894392 -6.429856061402188e-06 
-0.3249729892345957 0.3217035666523750 -0.03921267122045050 
-0.02389430839227809 0.02897615196807108 -0.0009620783495351594 
-0.1162132721514487 0.1360569681547418 -0.01776332596922822 
-0.09231896375917063 0.1070808161866707 -0.01680124761969306 
-0.1155638316110919 0.1385983177026561 -0.02301663158902306 
-0.08558301448789461 0.09499000907428569 -0.006907629030570358 
-0.009715391101227702 0.01623930329194746 -4.324997304623651e-06 
-0.2009023510642582 0.1705310297349845 0.1879988761964089 
0.006908779813087044 0.04145831183657333 -0.06103871305484817 
-0.009200113457627234 0.01555285764170243 -2.598367128237163e-06 
-0.08418546294071882 0.09724622219905340 -0.03013605810449393 
-0.4266965092342347 0.4942858381719936 -0.3392029185231176 
0.2924389545698899 -0.3906480345532782 0.1369726943807258 
-0.01261830421923828 0.02130718547395625 -0.001047030431587895 
-0.01261830421923828 0.02130718547395625 -0.001047030431587895 
0.3499516840285791 -0.2886187050783223 -0.07552712505163783 
-0.1231964329378983 0.1364514475606686 -0.01296284453100800 
-0.1231964329378983 0.1364514475606686 -0.01296284453100800 
-0.1494593483798214 0.1695195508324557 -0.01780410912884708 
-0.0002841905087258654 0.04521815964690821 -0.1344767155735437 
-0.1125147131073283 0.1146461651559265 -0.01769585935255229 
-0.05614272666132023 0.05742620003702936 -0.004114692998834052 
-0.04159588317925406 0.04154540596152125 -0.003167852679385616 
-0.008283862706663049 0.01140721594879533 -0.01061517275535251 
-0.008283862706663049 0.01140721594879533 -0.01061517275535251 
-0.2129080142409759 0.2358577442186484 -0.01981099990374178 
-0.1109571764064023 0.1246354741732317 -0.01064187823979615 
-0.001142341526744532 0.0007838868184319929 -1.082282285023697e-06 
-0.001142341526744532 0.0007838868184319929 -1.082282285023697e-06 
-0.007320882905885996 0.02160881849697357 -0.0002174395629049429 
-0.04947144485219291 0.05324218439080337 -0.0008476329489589648 
-0.04106772480055552 0.04208932234635270 -0.003286916166896297 
-0.05263134958029872 0.06642794102099970 -0.01276360196391784 
0.1385609650851395 -0.1253572390525660 -0.02642506628526027 
0.1202979891299570 -0.1222513039201676 -0.007836726010041793 
-0.1149964745772640 0.1466611076462980 -0.05526506016061274 
-0.04860611579662382 0.06425365406468438 -0.01268285827306539 
-0.04860611579662382 0.06425365406468438 -0.01268285827306539 
-0.04530702405501690 0.06582943164077312 -0.01760850805977963 
-0.04530702405501690 0.06582943164077312 -0.01760850805977963 
0.1832465660685355 -0.08724359827201876 -0.08408776997159759 
0.07700533839852401 -0.07535447027790240 -0.01777763109491769 
-0.1673048247553348 0.1808181873604914 -0.02746056199523731 
-0.07383639453378377 0.07072230907120101 -0.007038449038483492 
-0.1917474114100483 0.1797147026323224 -0.02780505337418527 
0.4289493850123400 -0.7096250769955512 0.4292447356831181 
-0.06331123120783233 -0.1718370608339341 0.2539221928069217 
-0.07915530849435425 0.1394623741607640 -0.1145644298143141 
0.1515124089113788 -0.1301415632431743 -0.007971916967229091 
0.1515124089113788 -0.1301415632431743 -0.007971916967229091 
0.1515124089113788 -0.1301415632431743 -0.007971916967229091 
0.1515124089113788 -0.1301415632431743 -0.007971916967229091 
-0.04013968364341781 -0.01576821802509448 0.1953664079504995 
0.01898874393099156 -0.01065586055304735 0.09289279968043904 
-0.04013968364341781 -0.01576821802509448 0.1953664079504995 
-0.04013968364341781 -0.01576821802509448 0.1953664079504995 
-0.05104699321172822 0.001473956565273786 0.1923091507709199 
0.4073487364027651 -0.3637201334131334 0.07567565730725256 
-0.04013968364341781 -0.01576821802509448 0.1953664079504995 
0.08464692704870880 -0.05301823986342306 0.1254012842503174 
-0.04013968364341781 -0.01576821802509448 0.1953664079504995 
-0.04432984598985102 -0.01081743079759108 0.1953533759647040 
-0.08651226179689951 0.04763436162540828 0.1952063231409241 
-0.04013968364341781 -0.01576821802509448 0.1953664079504995 
-0.009505771743650242 0.02357876683695888 -0.03576467026116952 
-0.1174881995914432 0.1645226082248536 -0.03984438236090970 
-0.08986125693908746 0.1021541845500316 -0.01614894341097410 
-0.08986125693908746 0.1021541845500316 -0.01614894341097410 
-0.06660869556752705 0.08573579982639436 -0.03064729526013189 
-0.06660869556752705 0.08573579982639436 -0.03064729526013189 
0.006728950531159828 0.007536381209640641 -0.0006336852999291240 
-0.1161177968856523 0.1287263964419202 -0.008382057977150500 
-0.04909270499572067 0.05983889590004706 -0.01501195653927743 
0.4169724498320075 -0.3915848127768030 -0.03058069729715748 
0.06898942593610660 -0.04453232476506692 -0.1093170657219440 
-0.01706577710385099 0.02020638653564685 -0.004341094564150333 
-0.7390860551587100 0.7290823687156557 -0.04578302128000857 
-0.1678606204948522 -0.2429661607354183 0.5871231520210523 
-0.005356232889745978 0.006243497559421606 -0.0005109503575021680 
-0.005356232889745978 0.006243497559421606 -0.0005109503575021680 
-0.005356232889745978 0.006243497559421606 -0.0005109503575021680 
-0.009622605512022148 0.01034587649570059 -0.001851984151659650 
-0.008483658331701574 0.01081811188761506 -0.0004380071116979010 
-0.04769308856378730 0.05002417471562867 -0.0009790042791746410 
-0.8943673329222882 0.9888569641562848 -0.1072192885631039 
-0.08033952834693917 0.1073187516486922 -0.02421276042204503 
-0.05386168601592666 0.07572632662887067 -0.01588408926613961 
-0.08245530529461927 0.08303917151897677 -0.01501156794051057 
-0.02921065507170042 0.03206061925895190 -0.01179544775795859 
-0.1391947368070386 0.1438051506275222 -0.02002751908760963 
-0.1391947368070386 0.1438051506275222 -0.02002751908760963 
-0.07096443935250138 0.08331785366431904 -0.01438085211679746 
-0.2271157192096751 0.2221971822486248 -0.01282534363827204 
-0.1036141985644763 0.1065715003686837 -8.506821684422866e-05 
-0.04467671379398285 0.06172805719937546 -8.609109037275717e-05 
0.08494793708735464 -0.07438303413407159 -0.02683898301866099 
-0.09301583385374124 0.1188499990324153 -0.06358391933614875 
-0.004376485430547425 0.006252245491747216 -0.0001083229442741021 
-0.004376485430547425 0.006252245491747216 -0.0001083229442741021 
-0.008551150428723063 0.01903458761166660 -0.008771348739191030 
0.2085400429666579 -0.2321505899317041 -0.0007415886333122621 
0.1337728243637020 -0.1455973177393894 -0.01279948440701683 
-0.1420435409220068 0.1630482073278741 -0.09202321511260382 
-0.01542321586347165 0.01848495182828154 -0.008575514980660715 
-0.03308751727262471 0.05258970325445780 -0.01938967867079319 
-0.03941542173885447 0.03930856771949211 -0.0007746438938445152 
-0.03941542173885447 0.03930856771949211 -0.0007746438938445152 
-0.03941542173885447 0.03930856771949211 -0.0007746438938445152 
-0.008560815914761613 0.006497242713400886 -2.241182386063481e-05 
-0.08279336309079122 0.09014342683232139 -0.006144918566609038 
-0.3560876017942243 0.3868495287922002 -0.07287826089543671 
0.1533969282221730 -0.04419147164116617 -0.1548927235734448 
-0.1021941898660380 0.1251479314608258 -0.01640309095680894 
-0.1968915537170826 0.2647430195724873 -0.09831695372859396 
-0.04545097516479022 0.05484417867755791 -0.001249467030522403 
-0.009527400998507393 0.01401761684204221 -0.001203821480742640 
0.2298090887327291 -0.2179399761834903 -0.004150344798533651 
0.2295799505536342 -0.2355593147013962 -0.0002002294340650601 
0.2338779034228662 -0.2370760051894740 -0.0001982658505252009 
0.006534138270245069 -0.003280628588820231 -2.849748428548555e-06 
-0.07117493273320642 -0.1936599301203286 0.3174146502132424 
0.006534138270245069 -0.003280628588820231 -2.849748428548555e-06 
0.006534138270245069 -0.003280628588820231 -2.849748428548555e-06 
-0.08133924663259680 -0.1717650815952872 0.3508740696993394 
-0.1567552953561575 -0.2713984219440388 0.6392965905190209 
-0.2450032670156852 0.1516073022247127 0.1873614655084224 
0.001139096098969886 -0.0006998560756767316 -1.095004417075300e-06 
0.001139096098969886 -0.0006998560756767316 -1.095004417075300e-06 
0.2762293302853724 -0.2099972988645573 -0.05945969167189298 
-0.05231820064662750 0.05462053346319047 -0.0008275231021957340 
-0.05198209047438607 0.04771731579210642 -0.005773107974937279 
-0.02235211747804964 0.02526920984945139 -0.002694319487606735 
-0.03447992091196835 0.04594514380146432 -0.004161491871873000 
-0.02031834311101468 0.06531334440120265 -0.02760244650622768 
-0.04567549469980360 0.07362150126047873 -0.04488814245735406 
0.02137877259014269 -0.01439254238666419 -0.02045021620580572 
-0.1789301356969889 0.1882506826286177 -0.02327968413226261 
-0.02109599513883550 0.02941989568432524 -0.002102418124827057 
-0.1262681019629049 0.1781808019991667 -0.02151865445269089 
-0.02972771430413534 0.03368568907204077 -0.01642462324559657 
0.02443797213563037 -0.01798670032675835 -0.0003068010996773546 
-0.2932416819086899 0.2879720818558570 -0.02488331716338204 
-0.0001641810173510205 0.0002302235239248561 -3.472012458056814e-06 
-0.004004747646031733 0.003450885472989401 -0.0003839964460701215 
-0.0001641810173510205 0.0002302235239248561 -3.472012458056814e-06 
-0.005569100561044867 0.006814607165139274 -0.0006160475383505891 
-0.1707696711177856 0.1941486097487131 -0.08736134278641908 
-0.002667776744014988 0.01043294797578710 -5.977977312552801e-05 
-0.004589301634753919 0.01684781281064578 -0.0002499647414473793 
-0.002667776744014988 0.01043294797578710 -5.977977312552801e-05 
-0.2071587564773303 0.2711754361632558 -0.1748424029645594 
-0.09005977178224925 0.09362661562648286 -0.007453485241029850 
-0.1061552086735324 0.1522541275383990 -0.1073897133388225 
-0.1061552086735324 0.1522541275383990 -0.1073897133388225 
-0.1797465210933227 0.1687043989846794 -0.02611602678253582 
-0.03924823950548211 0.06335173506184010 -0.01250749927835429 
-0.1330049881874467 0.1543613185846362 -0.02893580196841257 
-0.1529630936704347 0.2316648009093137 -0.1687968548049417 
-0.07902870714149324 0.1291860668052964 -0.1043477365666396 
0.2500252407676038 -0.2496171304760328 -0.01586162520358807 
-0.2361630663703494 0.2570549154125919 -0.03249935528694581 
-0.08106653946203140 0.1009375575234523 -0.01988287941978507 
-0.05316069738714125 0.06785695144138737 -0.003345055746176016 
-0.005746117699084050 0.007912006599195442 -2.027413671745800e-06 
-0.2200684516389758 0.2385011189433730 -0.05961370597385148 
-0.005746117699084050 0.007912006599195442 -2.027413671745800e-06 
0.1343625788907433 -0.1149930241217001 -0.05645784028323894 
-0.01370894903808870 0.01431491774137479 -0.003993724290863705 
-0.009050730534843560 0.007576472674002373 -0.0006405609238922046 
-0.009050730534843560 0.007576472674002373 -0.0006405609238922046 
0.002010675570763143 0.002410969895168408 -0.0003311727616112969 
-0.002287277298468813 0.003927660383246227 -0.0003331363451511561 
-0.002314747198944297 0.01289043247447282 -0.0008388590225547979 
-0.1803148829252785 -0.08942679333361503 0.2749985864699636 
-0.002861219740691002 0.005916662693829645 -4.150020695095580e-05 
0.2195797196934609 -0.1726576256909387 -0.06278675611474156 
-0.002861219740691002 0.005916662693829645 -4.150020695095580e-05 
-0.06200898119376519 0.06421095388869469 -0.0003608204176127467 
0.1170035353460793 -0.09959808179828956 -0.007408508758850640 
-0.05417035393096617 0.06075552264465711 -0.0005111250094237704 
0.2505708355698547 -0.2209012231412602 -0.06197088884376264 
-0.1515165772247794 0.1661507704805014 -0.04437588008121321 
-0.03692100486899223 0.04563088932856960 -0.004016066959579443 
-0.1399387681696059 0.1685588680427356 -0.03600481626102908 
-0.1899973363202193 0.1018637084484029 0.0002536589228281359 
-0.1046641734632787 -0.1312975733154776 0.2452966671006193 
0.02832169921260974 0.02443377514736007 -0.02532325696605135 
0.08183830871221322 -0.01108606730872718 -0.05663774799844089 
-0.2313186195733754 0.2880691030781269 -0.07655490704414823 
-0.06295453543835620 -1.041459348774887 1.306823676365289 
-0.09621806034002554 0.05695234072338198 0.08777093478810284 
0.03375418756209273 -0.03467007150287170 -0.01108649211458340 
0.1294141954853223 -0.09628829808031972 -0.05330132579746331 
-0.01981492595055429 0.03685249128465426 -0.006023165495038229 
-0.03047063225168081 0.05151864447219469 -0.01043684482578124 
7.059807190669927e-05 4.689912170944947e-06 -1.306078089849658e-06 
-0.05270132844897221 0.07649662532374438 -0.06899485485710170 
-0.01782445004084189 0.09469095881392844 -0.1218810398063144 
-0.1793298943235078 0.1792349111918301 -0.02454010983137932 
-0.08661786981388518 0.1071768842643273 -0.05374680414591133 
3.848153944234392e-05 0.0005839224238098905 -2.129035513618719e-06 
0.2832447584549415 -0.2781206968645827 -0.04359370397775435 
-0.003268414312744771 0.006301737848874913 -0.004100953286242516 
3.848153944234392e-05 0.0005839224238098905 -2.129035513618719e-06 
3.848153944234392e-05 0.0005839224238098905 -2.129035513618719e-06 
3.848153944234392e-05 0.0005839224238098905 -2.129035513618719e-06 
3.848153944234392e-05 0.0005839224238098905 -2.129035513618719e-06 
3.848153944234392e-05 0.0005839224238098905 -2.129035513618719e-06 
3.848153944234392e-05 0.0005839224238098905 -2.129035513618719e-06 
3.848153944234392e-05 0.0005839224238098905 -2.129035513618719e-06 
3.848153944234392e-05 0.0005839224238098905 -2.129035513618719e-06 
-0.07471627625138473 0.1049474298034260 -0.01825349996025149 
-0.07471627625138473 0.1049474298034260 -0.01825349996025149 
0.1286845081813998 -0.1130036324293407 -0.02017048347712620 
0.1286845081813998 -0.1130036324293407 -0.02017048347712620 
0.08736912165421940 -0.06832428988828859 -0.02556641208688451 
-0.04796459702021470 0.05939721651173466 -1.159807036318560e-06 
-0.04796459702021470 0.05939721651173466 -1.159807036318560e-06 
-0.04796459702021470 0.05939721651173466 -1.159807036318560e-06 
0.1565761474568157 -0.1445607729788144 -0.004254597516300986 
0.1032090039673290 -0.07686462661903298 -0.03188725365374644 
-0.09914101229495328 0.09616801987349392 -0.004213586594978315 
0.03001872048447645 -0.04451693648837668 -0.02539163018985525 
-0.03301685486838118 0.04752212833364052 -0.009315082187605926 
-0.1440739853645175 0.1450087825445617 -0.02855995557871994 
-0.06538175048441196 0.07632651303610441 -0.01184797946790100 
-0.06610924111518225 0.06700167485699014 -0.002304430056544165 
0.3669286425479456 -0.3352221248706363 -0.03220541175219908 
0.02285346390269148 0.07845227955324040 -0.2409242848668843 
-0.02403009509547193 0.03163949617118896 -0.01075950298786823 
-0.03046971975816782 0.04081540231994094 -0.03150685757960214 
-0.03347079790338418 0.04154019183140392 -0.01331916161699317 
0.1454222549601511 -0.1442506201071041 -0.005724550779720828 
0.06726926833143647 -0.06258721468560277 -0.01961864634140357 
0.2029519740159752 -0.1796982038217217 -0.02343605236569313 
0.01937507667668746 -0.009472057783312938 -1.797106836202467e-06 
0.03826606306390356 -0.03388726909501613 -8.562702270085104e-07 
0.03826606306390356 -0.03388726909501613 -8.562702270085104e-07 
0.03826606306390356 -0.03388726909501613 -8.562702270085104e-07 
0.03826606306390356 -0.03388726909501613 -8.562702270085104e-07 
0.03826606306390356 -0.03388726909501613 -8.562702270085104e-07 
-0.1130631722917715 0.1067214655954911 -0.005668132476434542 
-0.007645468358729288 0.008766360693373720 -0.003803815456021536 
-0.001496329075499832 0.001598400979398128 -9.775329093549110e-05 
-0.001496329075499832 0.001598400979398128 -9.775329093549110e-05 
-0.02783821246794073 0.02230428520393542 -1.680813723369631e-05 
-0.1217201361377505 0.1129612175514964 -0.01776876228605339 
-0.6195417610260939 0.7166483071830099 -0.1624741942095265 
-0.07393438652894144 0.1024787341040173 -0.06444911823830210 
-0.009389225436722050 0.01205404460494643 -0.02528588098108660 
-0.03882149017728659 0.06390557494798392 -0.01160767008745407 
-0.007878335339573621 0.005160045888768968 -0.01508294830284138 
0.1209575781049510 -0.1079841460322782 -0.006660084158090684 
-0.003623321365901983 0.02610558135093890 -0.1001823238375756 
-0.06445792475424522 0.07167340696972674 -0.009340808859502997 
-0.1116776111598145 0.1183775134254519 -0.002653076375088250 
-0.03424681542392953 0.02871827021235572 -0.006013786934038512 
-0.0007312525648703758 0.0008417170561398680 -1.026116845539129e-06 
-0.0007312525648703758 0.0008417170561398680 -1.026116845539129e-06 
-0.001026342131081248 0.001281615345448764 -3.119246501294040e-06 
-0.03297679749404802 0.03299662036028193 -0.006695856495162455 
-0.0007312525648703758 0.0008417170561398680 -1.026116845539129e-06 
-0.1251540403622462 0.1227707238820005 -0.02434624542403836 
-0.1266203250585351 0.1445632554995925 -0.08344770013194310 
-0.1266203250585351 0.1445632554995925 -0.08344770013194310 
0.07832877008147430 -0.07285362427489765 -0.007300204274862669 
0.05199166742821253 -0.04490685035055619 -1.074700867004114e-06 
0.05199166742821253 -0.04490685035055619 -1.074700867004114e-06 
0.05199166742821253 -0.04490685035055619 -1.074700867004114e-06 
0.05199166742821253 -0.04490685035055619 -1.074700867004114e-06 
0.08808613052160350 -0.06762312772027798 -2.100096115918964e-06 
0.09992400212329673 -0.08561479037452129 -1.835975365634884e-05 
0.05199166742821253 -0.04490685035055619 -1.074700867004114e-06 
0.05199166742821253 -0.04490685035055619 -1.074700867004114e-06 
-0.01274814862092568 0.03492384473624188 -9.321473001342888e-05 
0.05199166742821253 -0.04490685035055619 -1.074700867004114e-06 
0.4244826715999550 -0.3717529423072502 -0.08009991725887462 
0.2433273306853117 -0.2271266819234873 -0.03030779985925475 
-0.2708312545427319 -0.2003487303696160 0.5920847169272629 
-0.09645888600853730 -0.1681506846121880 0.3885110415507490 
0.2337602575775475 -0.2051982206546897 -0.05375387727722331 
0.2337602575775475 -0.2051982206546897 -0.05375387727722331 
0.01125280161274790 -0.006279598608191912 -4.354058122469182e-06 
0.01125280161274790 -0.006279598608191912 -4.354058122469182e-06 
0.01125280161274790 -0.006279598608191912 -4.354058122469182e-06 
0.01125280161274790 -0.006279598608191912 -4.354058122469182e-06 
0.01125280161274790 -0.006279598608191912 -4.354058122469182e-06 
0.01125280161274790 -0.006279598608191912 -4.354058122469182e-06 
0.3350237141579300 -0.3147618725831584 -0.03969834066132658 
0.3350237141579300 -0.3147618725831584 -0.03969834066132658 
0.2779187484616886 -0.2725025674119685 -0.04459223671649978 
0.2779187484616886 -0.2725025674119685 -0.04459223671649978 
0.1615112446056730 -0.1269163047819243 -0.04417719816737974 
0.1277544763145912 -0.1210507747316774 -0.004592134697003640 
0.1277544763145912 -0.1210507747316774 -0.004592134697003640 
0.1277544763145912 -0.1210507747316774 -0.004592134697003640 
0.1277544763145912 -0.1210507747316774 -0.004592134697003640 
0.03941981208229916 -0.04020509812706102 -0.05526277852187133 
0.2926019860625860 -0.2588878696615576 -0.1070439124819728 
-0.03587661589838521 0.03088682992553092 -0.003779982679391712 
0.2314872326544905 -0.2107112161745252 -0.02322712660404881 
-0.07039794427065099 0.08521380432817906 -0.06575860557329236 
-0.05653568222680674 0.05259715006155355 -0.002068177768437512 
-0.06168589182987298 0.05977691712671627 -0.007481531069016299 
-0.07704167516044837 0.1420833877249002 -0.05360060002526664 
0.05267612709358652 -0.03874773442656554 -0.02248234284954576 
-0.03597313353822812 0.04813565286340320 -0.02211190584361106 
0.1088325187037824 -0.07751727628166559 -0.04961826031761908 
-0.06036942851271677 0.07944122104034004 -0.01982818235221964 
-0.2532209942906373 0.2617567216320930 -0.06547944815589253 
-0.06425649278480895 0.07642470844832285 -0.006977001513140586 
-0.07937798035094056 0.08282201582206819 -0.01243529410301234 
0.2100535176871047 -0.1143984012678328 -0.1450265813897768 
-0.09495340664232889 0.1435403027776074 -0.09589460836091653 
-0.1791254598774329 0.2061806778575814 -0.07808238737882210 
-0.01481888086324856 0.01658567209086713 -0.004719102614340658 
-0.02936521450560630 0.04143511622359845 -0.008124860420417837 
0.1136034418162025 -0.09037378565456140 -0.05560298462628519 
-0.02936521450560630 0.04143511622359845 -0.008124860420417837 
-0.03536301374845333 0.04202300783170629 -0.02784962971727560 
-0.03536301374845333 0.04202300783170629 -0.02784962971727560 
-0.02012513794265775 0.02900815353840075 -0.002643732001900481 
-0.01908719357661488 0.02761607212298367 -0.002639457216893272 
-0.01908719357661488 0.02761607212298367 -0.002639457216893272 
-0.07112954996123262 0.08426258330350288 -0.008935999790184725 
-0.01767225321563522 0.02894219376463567 -0.008109571692406066 
-0.1157661976817631 0.1346767870294168 -0.01875502557235976 
-0.1157661976817631 0.1346767870294168 -0.01875502557235976 
-0.1534974557959383 0.1916978450007491 -0.02527711204013749 
-0.04622459550691404 0.06341949194129945 -0.009257847151051274 
-0.008915327455066648 0.01334224570415376 -0.004633660913678760 
0.02601136041046840 -0.001370795591023066 -0.01468391367015160 
-0.01817102893141714 0.02104368948780697 -3.478132320525523e-06 
-0.01817102893141714 0.02104368948780697 -3.478132320525523e-06 
-0.01817102893141714 0.02104368948780697 -3.478132320525523e-06 
-0.01817102893141714 0.02104368948780697 -3.478132320525523e-06 
-0.01817102893141714 0.02104368948780697 -3.478132320525523e-06 
-0.01817102893141714 0.02104368948780697 -3.478132320525523e-06 
-0.1732606321352913 0.1600550946873020 -0.006999511253814288 
-0.1280463085504500 0.1453485499320305 -0.01842111037254057 
-0.01454684348206617 0.01588079407550811 -0.0009468403194484349 
-0.04548217446074791 0.04212377945423931 -0.0008353217886433190 
-0.1272916630118465 0.1500065243108072 -0.006600410678463861 
-0.07848676107790580 0.1030179435725552 -0.004321303670446215 
-0.07848676107790580 0.1030179435725552 -0.004321303670446215 
-0.01786497545172200 0.02860933476387908 -1.022225625153416e-06 
0.1130923144992265 -0.08671547799542101 0.1578852823059280 
-0.01786497545172200 0.02860933476387908 -1.022225625153416e-06 
-0.04598498361929069 -0.09370154091289774 0.1954040522756416 
-0.04598498361929069 -0.09370154091289774 0.1954040522756416 
-0.04598498361929069 -0.09370154091289774 0.1954040522756416 
-0.04598498361929069 -0.09370154091289774 0.1954040522756416 
-0.09352723451911842 -0.2446101954623582 0.4512367590218140 
0.1288949715067350 -0.1277854500787925 -0.007720464582284333 
0.2340746676324632 -0.2164369625425628 -0.006506911464296283 
0.2340746676324632 -0.2164369625425628 -0.006506911464296283 
0.2577915988795733 -0.1916113404229648 -0.04102932173176954 
0.5782832384729140 -0.5352304519032786 -0.1048273785943362 
0.1468983811516780 -0.1345498669594167 -0.006968302861506789 
0.1468983811516780 -0.1345498669594167 -0.006968302861506789 
0.2497353128326514 -0.2009832846951895 -0.06904133552175974 
-0.01125983391915884 0.01494567608559618 -0.0005706202137886468 
-0.1096355681851453 0.1259537661201613 -0.03143564996290433 
-0.0002783972806910626 0.0006925006328957848 -1.625427460096213e-06 
-0.0002783972806910626 0.0006925006328957848 -1.625427460096213e-06 
-0.0002783972806910626 0.0006925006328957848 -1.625427460096213e-06 
-0.0002783972806910626 0.0006925006328957848 -1.625427460096213e-06 
-0.08956009839003204 0.08820725592609180 -0.003623704557136412 
-0.1543079653899557 0.1607486696585972 -0.01327429952830882 
0.1749035703620818 -0.1569350473223344 -0.02143112054990194 
-0.1239175782812214 0.1316677074876557 -0.04287074786943398 
-0.02755516886690667 0.05026069646244018 -0.03955413099911010 
-0.02755516886690667 0.05026069646244018 -0.03955413099911010 
-0.02755516886690667 0.05026069646244018 -0.03955413099911010 
0.004297952869231956 -0.001516690488077818 1.963583539859184e-06 
0.004297952869231956 -0.001516690488077818 1.963583539859184e-06 
0.004297952869231956 -0.001516690488077818 1.963583539859184e-06 
0.1949521559009129 -0.1858198221051183 -0.06932109937278161 
0.2353198692075976 -0.1781707993163436 -0.004730876810817560 
-0.1829218964617311 0.2536176786609772 -0.08199499061354470 
-0.01488658510758226 0.02052343040066617 -0.004988241357693627 
-0.2733754333930751 0.2943088510713994 -0.07560727045736997 
-0.09189669299876849 0.1130269575135767 -0.02336041378119739 
-0.1365129969531756 0.1630068688646884 -0.03302018349804541 
-0.3063072775895213 0.3338953275443428 -0.1183395635789773 
-0.02725468920438191 0.07305666111896084 -0.006797462162379113 
-0.004852228288586959 0.03179880383544154 -0.006078988629041104 
-0.05227439014192310 0.09372662467010170 -0.004024861022522071 
-0.07409462733880415 0.08610966402863330 -0.01204850248447755 
-0.05874918203259395 0.1026228201018495 -0.05275955335491366 
-0.1226384277113382 0.1124248516102620 -0.04283621068625768 
0.3563147129331054 -0.3380133055932129 -0.08394650666981343 
0.2898967898501967 -0.2534304188771236 -0.09418161249760293 
0.3427943477817678 -0.3409136885856144 -0.008273953487730638 
0.3427943477817678 -0.3409136885856144 -0.008273953487730638 
0.1250080266122154 -0.1163529270195661 -0.009966689853826954 
0.07494795814916630 -0.04324286951196341 -0.0003831224882202355 
0.07745067983753280 -0.06629704397585882 -0.0005602923703793038 
0.08086572142531906 -0.06916021912123590 -0.0001818153230773454 
0.08086572142531906 -0.06916021912123590 -0.0001818153230773454 
0.08086572142531906 -0.06916021912123590 -0.0001818153230773454 
-0.01346350897952525 0.02134000359659185 -0.004419431860085861 
-0.04480130920319361 0.06003007623199460 -0.04924149260716943 
-0.1930042972209898 0.1925673681571998 -0.02433159297028559 
-0.03133780022366835 0.03869007263540275 -0.04482206074708357 
-0.2570218518985456 0.2754840072739266 -0.05292900313181190 
-0.1443089755211522 0.1526181782627743 -0.02878663205146977 
0.2503084057546986 -0.2371210491797129 -0.04733638128435403 
-0.001734088665645656 0.002436899607164659 -2.092760102013108e-06 
-0.001734088665645656 0.002436899607164659 -2.092760102013108e-06 
-0.001734088665645656 0.002436899607164659 -2.092760102013108e-06 
-0.008407576762890164 0.01144113170196131 -0.001734821749226636 
-0.008407576762890164 0.01144113170196131 -0.001734821749226636 
-0.04228817411834349 0.04400471168807962 -0.04296855302592009 
-0.01187171975139128 0.01925714776536332 -8.923457166302182e-05 
-0.01187171975139128 0.01925714776536332 -8.923457166302182e-05 
-0.0009742566262337455 0.001270133465038907 -1.843566683614999e-06 
-0.0009742566262337455 0.001270133465038907 -1.843566683614999e-06 
-0.001037944366042867 0.001392081415417085 -4.274785007209059e-06 
-0.1244009633581018 -0.4064286537406033 0.6032379991552406 
-0.02443890971741714 -0.2148655382638445 0.2534564330507655 
-0.03824433448638964 0.04225461098065431 -6.918145155014478e-05 
0.1522139505480056 -0.1267294126960107 -0.02250626830442081 
-0.04629805166530918 0.05213465213542760 -0.007570892139738316 
-0.04629805166530918 0.05213465213542760 -0.007570892139738316 
0.03966195173434342 -0.03655516934364126 -0.007573535351321845 
-0.07417976532094306 0.08930309348449096 -0.02319234372097836 
-0.1835029162903622 -0.2689217531331016 0.3525234992364282 
-0.1561332380469561 0.04237746891326804 0.2042725715400402 
-0.09479721683594140 -0.03427356786560789 0.2040118779923338 
-0.06004279955683984 0.07848858867843506 -0.03705574083712416 
-0.02969220519598423 0.03366159812449350 -0.006972209596323895 
-0.02969220519598423 0.03366159812449350 -0.006972209596323895 
-0.05904223810989868 0.06748809312978955 -0.01224460108230865 
0.1097031610556783 -0.08668705813900063 -0.01344146901431425 
-0.05904223810989868 0.06748809312978955 -0.01224460108230865 
-0.2968570628913036 0.3266714155422168 -0.03507467563885022 
-0.004524275856462313 0.004360740871956500 -0.0002790779200775597 
-0.005904962594046531 0.006356372457874055 -0.0003811943992854859 
0.1873738459146026 -0.1858426038203607 -0.005076571483759310 
-0.04489813994157456 0.04672908893195570 -0.003753928302669753 
-0.04489813994157456 0.04672908893195570 -0.003753928302669753 
-0.01938521909135627 0.02252051075436248 -0.001526048858428582 
-0.01938521909135627 0.02252051075436248 -0.001526048858428582 
-0.1234763512692582 0.1315113973127414 -0.02674588292719457 
0.1450608778212524 -0.1219099830140411 -0.04979109200437096 
-0.03331791249736472 0.03157072260761957 -0.006686173478617445 
-0.03331791249736472 0.03157072260761957 -0.006686173478617445 
-0.02265952150179953 0.02968262213061683 -0.001375390074434900 
0.04588258981901119 -0.04786386012581452 -0.005141242448734958 
-0.004456145751486891 0.006706524672000918 -0.0003273557614719446 
-0.004456145751486891 0.006706524672000918 -0.0003273557614719446 
-0.004456145751486891 0.006706524672000918 -0.0003273557614719446 
-0.05352105158813141 -0.07252575390512027 0.1664802036283446 
-0.1233282078334860 0.1112489702261300 -0.004255456355995798 
-0.05347681557906710 0.06675157596346885 -0.02303782445949754 
-0.05347681557906710 0.06675157596346885 -0.02303782445949754 
-0.05347681557906710 0.06675157596346885 -0.02303782445949754 
-0.06383159445773340 0.07196188864305984 -0.09518147158168502 
-0.06383159445773340 0.07196188864305984 -0.09518147158168502 
0.08653015622049204 -0.02300604864996867 -0.08942242213306024 
-0.03092178250540476 0.02991483268561876 -0.002093038610758749 
-0.003454822192527383 0.005550085136607348 -1.659684147272815e-05 
-0.03995525119703484 0.05472343156413929 -0.02312213440925133 
-0.02538098716164214 0.03291659704371051 -0.001960619032789490 
0.09446821807239285 -0.08545615554978750 -0.003633164934637273 
-0.07371621074928816 0.07614126416164557 -0.009641287964427316 
-0.07371621074928816 0.07614126416164557 -0.009641287964427316 
-0.09018552079574330 0.1103297545544558 -0.01224582681324380 
-0.2416453586825076 0.2719955887145890 -0.03930984170366111 
0.2233101087374352 -0.2076714278526892 -0.03410794364663923 
-0.07446188176258234 0.08616654243899544 -0.01834216540985194 
-0.3312807690328202 0.3810302629770009 -0.2511879056996918 
0.1780457707826128 -0.1708753572049587 -0.04558645378816340 
0.08881942652283467 -0.09068796549458406 -0.02709061241292610 
-0.04639086578665340 0.07343518827507116 -0.01730845459261321 
0.2485347769446957 -0.1814807022470904 -0.1213970925692548 
0.08864926063181465 -0.08688338728996874 -0.0003704370059347003 
0.08864926063181465 -0.08688338728996874 -0.0003704370059347003 
0.5568179084058503 -0.5493415685281153 -0.08444473110509906 
-0.09444151509791564 -0.3702386231659534 0.4705535255881362 
0.1623653127881665 -0.1474726523583470 -0.08591798308773756 
-0.1913956840303876 0.1991903723380113 -0.02804754988794809 
-0.2219343631274439 0.2364732016493619 -0.03763503685536877 
-0.09123271726991013 0.1162323976463529 -0.06969332007661835 
-0.005714224600282993 0.009713092569338576 -0.006084303627015206 
-0.005714224600282993 0.009713092569338576 -0.006084303627015206 
-0.05409131567299928 0.04871012621774200 -0.006680360071965126 
-0.02050004686867172 0.02762825697618810 -0.009907672836156815 
-0.02050004686867172 0.02762825697618810 -0.009907672836156815 
-0.01024125188838433 0.01265391478512704 -0.005982405498065294 
-0.03560304943477735 0.04709349086236708 -0.004547088297499125 
-0.1206426329025323 0.1406377289991933 -0.07286740764822253 
-0.1206426329025323 0.1406377289991933 -0.07286740764822253 
-0.1250106364323947 0.1198360799816757 -0.04151844239518945 
-0.2171616783736843 0.2543352683646387 -0.05045170368347441 
-0.5582742841731184 0.5706548872867944 -0.3059772389903605 
0.2441909887316901 -0.2130119388980835 -0.007682791468955207 
0.2396093728543886 -0.2094648143248120 -0.007747160054827723 
0.2441909887316901 -0.2130119388980835 -0.007682791468955207 
0.1830974007661290 -0.1992201649864712 -0.02768823559937740 
-0.04501052386388358 0.04664824216505231 -0.02314337051031081 
0.1059931807818960 -0.1055683626961636 -0.02885368398248576 
0.3029417782220407 -0.2772917239870643 -0.008640841738606441 
0.2387631556640350 -0.2578727095096026 -0.004972541081329355 
0.2387631556640350 -0.2578727095096026 -0.004972541081329355 
0.09122708889290657 -0.1054606986101624 -0.01525837942376690 
0.1204468515681459 -0.1359462776718767 -0.02922380148656898 
0.1047744078966273 -0.1161367689571197 -0.001290183590209169 
0.2248862172592719 -0.2374832057071075 -0.002071517249286939 
0.1932788085086492 -0.1921989762782347 -0.004695377084473824 
-0.04149430113975903 0.04877504292370292 -0.01351440436587498 
0.09789658219074711 -0.08971885204873362 -0.005783249118658071 
0.2734602067236692 -0.3156249777567185 0.1480249201955962 
0.2977719905000175 -0.2938379702916847 -0.01576577823678730 
0.08300175440910428 -0.08551880389611455 -0.0001293625532759377 
0.08300175440910428 -0.08551880389611455 -0.0001293625532759377 
0.08300175440910428 -0.08551880389611455 -0.0001293625532759377 
0.05290489682915522 -0.04879887080400730 -0.001645085988780813 
0.3105689541290382 -0.3098357168146577 -0.03375533637542477 
0.6142368436539287 -0.5163118586144264 -0.07307560451992691 
0.1456461542176772 -0.1192826509610339 -0.03305599248684277 
0.2246777713859314 -0.2270503439117994 -0.002012934239613767 
0.2246777713859314 -0.2270503439117994 -0.002012934239613767 
-0.06990717524131675 0.08385935730586946 -0.02202092921879621 
-0.06376504728928425 0.06375975321592602 -0.01948917967015516 
-0.0005152776436004678 0.0006864456502450211 -1.726630176386493e-06 
-0.0005152776436004678 0.0006864456502450211 -1.726630176386493e-06 
-0.1177208866995606 0.1341680715585532 -0.03291387686789662 
0.1928994498853153 -0.1697359447840106 -0.06576398113702710 
-0.06666225716188401 0.07025135566866550 -0.007505323738249754 
-0.2227495149960206 0.2597716692214426 -0.03122790355112346 
-0.1986330045749242 0.3051327483236999 -0.08495886326874638 
-0.005958736826576451 0.01610861117469922 -0.0001466705984719464 
-0.02484972321379255 0.04052382248640241 -0.0001476114350811403 
-0.005958736826576451 0.01610861117469922 -0.0001466705984719464 
-0.05147358268368582 0.1054064478682805 -0.02530685905078181 
0.04262509456477381 -0.02902380109521600 -3.007828749640255e-06 
-0.09822150668158315 -0.07781827468269811 0.3318103035530268 
0.04262509456477381 -0.02902380109521600 -3.007828749640255e-06 
0.04262509456477381 -0.02902380109521600 -3.007828749640255e-06 
0.04262509456477381 -0.02902380109521600 -3.007828749640255e-06 
0.04262509456477381 -0.02902380109521600 -3.007828749640255e-06 
0.04262509456477381 -0.02902380109521600 -3.007828749640255e-06 
0.04262509456477381 -0.02902380109521600 -3.007828749640255e-06 
0.4220247334657965 -0.3973394674210707 -0.06900522507588350 
0.1113175306229361 -0.1219374547040775 -0.01592191847919704 
0.1113175306229361 -0.1219374547040775 -0.01592191847919704 
0.02601647790572847 -0.02962956811919433 -0.02208881986726640 
0.01243033968522385 0.02774444598380991 -0.03986736607866403 
0.07289107716736462 -0.05383479749228219 -8.711331493618137e-05 
0.07289107716736462 -0.05383479749228219 -8.711331493618137e-05 
0.07289107716736462 -0.05383479749228219 -8.711331493618137e-05 
-0.04266428721599772 0.05815109806849345 -0.02301410971419886 
-0.04593627214790915 0.06138526275310387 -0.02390086860000733 
-0.1251199842145490 0.1495467806140129 -0.03234115648337858 
-0.04270902075676857 0.04547657054976632 -0.009731231815876860 
0.5007205412109174 -0.4630497786254209 -0.03849123541187731 
0.1302433531381408 -0.1138155707176912 -0.01826607974634206 
0.1302433531381408 -0.1138155707176912 -0.01826607974634206 
0.08644107239654114 -0.06671587936082732 -0.04517437855355224 
0.08644107239654114 -0.06671587936082732 -0.04517437855355224 
-0.006336933343128976 0.006630326012221597 -0.0009384017308360039 
-0.1051602377177749 0.1384096034573839 -0.02311870963685777 
-0.01445232638113934 0.02196246837709495 -0.003784241596857011 
-0.04883629498827442 0.05976654866056113 -0.02510412348262159 
-0.09767258997654885 0.1195330973211223 -0.05020824696524318 
-0.09767258997654885 0.1195330973211223 -0.05020824696524318 
-0.08129537114018849 0.09837600213180286 -0.04897143353076758 
-0.2259050142231265 0.2409387430847322 -0.09429024686081192 
-0.06512085738733088 0.08167919982683632 -0.06450264363478107 
-0.01999335455494543 0.03180458300856624 -0.02190429743194505 
-0.01999335455494543 0.03180458300856624 -0.02190429743194505 
-0.004321451919267359 0.006530955603757830 -0.0002396937839614838 
-0.004321451919267359 0.006530955603757830 -0.0002396937839614838 
-0.004321451919267359 0.006530955603757830 -0.0002396937839614838 
0.07156246902608143 -0.05423452264369472 -0.01349461509365591 
-0.05696952951512600 0.07894624979166949 -0.03268555393428636 
-0.02467236052627923 0.03365216099066544 -0.005726238933355873 
-0.08811201053846864 0.09338664650271082 -0.006337103441782859 
-0.04587806774266043 0.04015923064340384 -0.003006794999789808 
0.4758771238373226 -0.4622161945922598 -0.1240799452538903 
0.01246944117372377 -0.009203412901308920 -0.0002514121478406487 
0.1790155059254990 -0.1561212215869405 -0.03312808790811599 
0.01246944117372377 -0.009203412901308920 -0.0002514121478406487 
0.1925592100474196 -0.1797433109618797 -0.07878576821035393 
-0.1457013625536092 0.1567084800613888 -0.08084601290500497 
0.04438743613488951 -0.04147943496615861 -0.04352606265781939 
-0.1346448511109712 0.1332042730642437 -0.001128962754759256 
-0.1346448511109712 0.1332042730642437 -0.001128962754759256 
-0.02799944859663245 0.03774738943705994 -0.005187139329730586 
-0.05012536422576693 0.05904139743069611 -0.005654655027254063 
-0.02212591562913448 0.02129400799363617 -0.0004675156975234773 
-0.02212591562913448 0.02129400799363617 -0.0004675156975234773 
-0.02212591562913448 0.02129400799363617 -0.0004675156975234773 
-0.2354942074493415 0.2507821432804584 -0.02439792652510484 
-0.1076337861859576 -0.04430063363505114 0.1308570501519200 
-0.1076337861859576 -0.04430063363505114 0.1308570501519200 
-0.1137387597746390 -0.001425646666270077 0.1219444840884828 
-0.1076337861859576 -0.04430063363505114 0.1308570501519200 
-0.1511138987474984 0.1948343751761296 -0.1062341149801272 
-6.368773980912165e-05 0.0001219479503781781 -2.431218323594059e-06 
-0.02537954254847191 -0.02820799442184583 0.1575061707656206 
-0.007497998670086478 0.01061929642589022 -0.004723692878750645 
-0.1160760900245616 0.1602387423237653 -0.06959752709625040 
-0.1160760900245616 0.1602387423237653 -0.06959752709625040 
-0.1291919012098463 0.1445957131199667 -0.07007489156583140 
-0.1291919012098463 0.1445957131199667 -0.07007489156583140 
-0.1291919012098463 0.1445957131199667 -0.07007489156583140 
-0.006206721202410421 0.007094581584143082 -2.375429495232851e-05 
-0.006206721202410421 0.007094581584143082 -2.375429495232851e-05 
-0.006206721202410421 0.007094581584143082 -2.375429495232851e-05 
-0.006206721202410421 0.007094581584143082 -2.375429495232851e-05 
-0.006206721202410421 0.007094581584143082 -2.375429495232851e-05 
-0.05260783157751547 0.05249553752304655 -0.004149072918014795 
-0.1871769333625426 0.1853419660133505 -0.006357076447514538 
-0.09346843022155107 0.1100958782892904 -0.02042211295675382 
-0.03607497914143606 0.04211158401061432 -0.004614121596142789 
0.1225860658485398 -0.05282994727214948 -0.2203232463724547 
0.3972949947251467 -0.3789126743860248 -0.04961118400776039 
0.1084770491076550 -0.1233790293494248 -0.003460842745564985 
0.09970650701327244 -0.07363650419886213 -0.009017285528249000 
0.2625578065787295 -0.2308388272554651 -0.009225896626840117 
0.2745523347201646 -0.2544779859432805 -0.02602744902379134 
0.2818947420854555 -0.2743990587977510 -0.06734571465964137 
0.1696067293811389 -0.1332085361022445 -0.04020772229403546 
-0.05207045240130467 0.06802708125720641 -0.03943548832786663 
0.07812746642290460 -0.06226120525270672 -0.003287992426490863 
-0.01388719174723105 -0.04829555255671897 0.1612728333176547 
-0.01388719174723105 -0.04829555255671897 0.1612728333176547 
0.004837907076684022 -0.05963181392719621 0.1605273915840998 
-0.01388719174723105 -0.04829555255671897 0.1612728333176547 
-0.01388719174723105 -0.04829555255671897 0.1612728333176547 
-0.01388719174723105 -0.04829555255671897 0.1612728333176547 
0.2773585634191120 -0.2889647669448113 -0.01040860465150333 
0.2773585634191120 -0.2889647669448113 -0.01040860465150333 
0.06419318855884064 -0.04892777926480716 -1.055993950674898e-06 
0.06419318855884064 -0.04892777926480716 -1.055993950674898e-06 
0.06419318855884064 -0.04892777926480716 -1.055993950674898e-06 
0.06419318855884064 -0.04892777926480716 -1.055993950674898e-06 
0.06419318855884064 -0.04892777926480716 -1.055993950674898e-06 
0.06419318855884064 -0.04892777926480716 -1.055993950674898e-06 
-0.03160996211374436 0.05642357613087209 -0.01253647298882737 
0.02816454853082401 -0.008923198826102133 -1.006931597387152e-05 
0.02816454853082401 -0.008923198826102133 -1.006931597387152e-05 
0.02816454853082401 -0.008923198826102133 -1.006931597387152e-05 
0.02816454853082401 -0.008923198826102133 -1.006931597387152e-05 
0.02816454853082401 -0.008923198826102133 -1.006931597387152e-05 
0.08671497036131300 -0.07558847793618655 -0.09770134205067700 
-0.3750975130804136 0.3946472746698321 -0.1730704026243990 
-0.006178541379141464 0.02082493167854158 -0.0002163572806199193 
-0.06357125564899019 0.09282233445928349 -0.03741043509201377 
-0.006178541379141464 0.02082493167854158 -0.0002163572806199193 
-0.001921524890738932 0.006414864834858682 -0.0001901849683218513 
-0.001921524890738932 0.006414864834858682 -0.0001901849683218513 
-0.1229938175938605 0.1292475163989852 -0.01953532469096765 
-0.1179110168762646 0.1089923935611214 -0.02076660433570178 
-0.2231743633129673 0.2205099402709170 -0.006833974328623812 
-0.2231743633129673 0.2205099402709170 -0.006833974328623812 
0.2370372679750050 -0.2143331261787872 -0.01956502757629462 
0.2370372679750050 -0.2143331261787872 -0.01956502757629462 
0.2370372679750050 -0.2143331261787872 -0.01956502757629462 
-0.1055663725301056 0.1360055580049213 -0.05580936005277517 
-0.0001233263280986960 0.0001673527702850125 -1.042560699439866e-06 
-0.02038543882806019 0.02164668809874879 -0.005726727205896341 
-0.008375525319125745 0.006820524201763631 -0.001180886419650500 
-0.04257634502978965 0.04226401184775873 -0.01166653274895628 
-0.002854494466873159 0.002832460570107369 -0.0004685831036790624 
-0.1177488130825201 0.1314426690546224 -0.03918316360390460 
-0.1177488130825201 0.1314426690546224 -0.03918316360390460 
-0.09351843998531650 0.1147579288015283 -0.03495593111281294 
-0.001132982872281666 0.001926676350568066 -0.0001431829932149931 
-0.1709254969433966 0.1737652072286473 -0.02924178839263312 
0.2850604109296274 -0.2544354054136991 -0.08712890951164531 
-0.02988294810350060 0.03043264934866705 -0.002369890325830594 
0.07946709571647709 -0.08112235964107084 -0.01849492265885556 
-0.04762835176677181 0.06331037831104284 -0.007389669685551905 
-0.04762835176677181 0.06331037831104284 -0.007389669685551905 
-0.1935081402786632 0.03084908753471486 0.3116703034671219 
-0.1935081402786632 0.03084908753471486 0.3116703034671219 
-0.1534355017862236 0.1617399737359851 -0.03978254593234885 
-0.01550708606109280 0.02366769472812766 -0.03902466698845179 
-0.07419739553136102 0.09780545507306955 -0.02315611936595489 
-0.09472216717729551 0.1040914563726844 -0.02952101057185321 
-0.05409279760969191 0.06908480557270577 -0.04469731692357890 
-0.05101592355278373 0.05137707792901663 -0.01208127031584494 
-0.05168106720745556 0.05569055804343012 -0.01446157387546841 
0.2847327583802250 -0.2409416064745376 -0.006596406436836542 
-0.06443191230694527 -0.2262199371593511 0.2903187688898974 
0.03687509577148216 -0.02457561510819382 -0.01645069458074827 
0.02921976267523930 -0.03048557906171431 -0.01396542206280209 
0.1569982418080940 -0.1401203649431197 -0.02168300988576441 
0.02921976267523930 -0.03048557906171431 -0.01396542206280209 
0.02580830981538542 -0.002203760815207582 -0.05352225447176659 
-0.03924088344674675 -0.1960567399436716 0.3777501505137093 
-0.07482136186829684 -0.003788344070543001 0.1690546285383909 
-0.07482136186829684 -0.003788344070543001 0.1690546285383909 
-0.07482136186829684 -0.003788344070543001 0.1690546285383909 
-0.07482136186829684 -0.003788344070543001 0.1690546285383909 
0.1140912475326580 -0.1825046204387178 0.1401342204716624 
-0.07482136186829684 -0.003788344070543001 0.1690546285383909 
0.1921217853431802 -0.1876081877568131 -0.006788313943252678 
0.1684299626146686 -0.1610662708437831 -0.02363805763409653 
0.3281482747018057 -0.3196595583849743 -0.03531045814004591 
0.07455271860596388 -0.05895649920720258 -0.004534504624013622 
0.07455271860596388 -0.05895649920720258 -0.004534504624013622 
0.07455271860596388 -0.05895649920720258 -0.004534504624013622 
-0.01035940652866879 0.009656877433780790 -0.0004422525409950586 
-0.02934522889500348 0.03661144568469195 -0.006039193774188744 
-0.05527016743415479 0.06552601748770130 -0.008508625152169860 
-0.05527016743415479 0.06552601748770130 -0.008508625152169860 
-0.05527016743415479 0.06552601748770130 -0.008508625152169860 
-0.05527016743415479 0.06552601748770130 -0.008508625152169860 
-0.02841255129121834 0.03253555847238780 -0.008185745866445672 
0.02062019104326052 0.0001094861919505018 -0.007816904502822854 
0.07587388128696540 -0.06893198577362203 -7.126798231663312e-07 
-0.08510670963105608 0.1022210212582430 -0.009205295907998200 
-0.1646689616732479 0.1916930391392161 -0.03356791484267906 
-0.07458511415055434 0.08481865234520995 -0.02030315852071581 
-0.1101635302287401 0.1417575296949547 -0.06669441225871349 
-0.002931614987708734 0.003400778108455591 -0.0002962829380288461 
-0.003548043090764054 0.004179612063877493 -0.0003072802894376717 
-0.06703877567400124 0.09531766128364840 -0.01416055865779587 
-0.1023857724364977 0.1110982008187961 -0.04700090868111251 
-0.2163159726056640 0.2331458659337326 -0.05072460663093788 
-0.1378005712999951 0.1578047528299879 -0.01747318597095677 
-0.1378005712999951 0.1578047528299879 -0.01747318597095677 
-0.03168412274922695 0.03837171555006468 -0.002015014471778861 
-0.0006725912641517439 0.0004436081636813665 -9.393289227022079e-06 
-0.0006725912641517439 0.0004436081636813665 -9.393289227022079e-06 
-0.002320760320106810 0.001428049145138607 -2.353590177038116e-05 
-0.1252169998027912 0.1001902652409177 -0.009390827531792698 
0.1964529970295930 -0.1815688044936492 -0.1695926570376149 
-0.01339693821392964 0.01721952694682328 -0.0001012761601383832 
-0.01339693821392964 0.01721952694682328 -0.0001012761601383832 
-0.1312580563724101 0.1557218869003200 -0.03087607130960965 
-0.001373218873760723 0.002367727373023477 -0.0003322076256007491 
-0.001373218873760723 0.002367727373023477 -0.0003322076256007491 
-0.006608247409309158 0.008324877456299676 -0.0007136982539754036 
-0.04540410320146032 0.05622792900302995 -0.004079218828797113 
-0.08070322826285216 0.09124231682525347 -0.01256863757897127 
-0.03454715769406546 0.02664906642675852 -0.001289366650592400 
0.1084118471070107 -0.1089335344775345 -0.003832599194787778 
0.1084118471070107 -0.1089335344775345 -0.003832599194787778 
0.01340507972086169 -0.009039934458330554 4.432308732449552e-06 
0.08875184591781717 -0.06745133851246742 -0.0007579931546230537 
0.01340507972086169 -0.009039934458330554 4.432308732449552e-06 
0.004014338023046761 0.003265137320206249 -0.0001441114292960415 
0.2447320314215825 -0.2395964415595535 -0.01983382025515361 
0.1080260110775994 -0.1101097489115845 -0.02132710265649947 
-0.02704013403852332 0.02637403004939950 -0.01041541074574719 
3.961088422513752e-05 0.0001441058811753468 7.613140550868320e-08 
0.05897709565471854 -0.04469933728813290 -9.467421230198428e-07 
3.961088422513752e-05 0.0001441058811753468 7.613140550868320e-08 
3.961088422513752e-05 0.0001441058811753468 7.613140550868320e-08 
3.961088422513752e-05 0.0001441058811753468 7.613140550868320e-08 
3.961088422513752e-05 0.0001441058811753468 7.613140550868320e-08 
-0.01153647536654500 0.009938412324571539 -0.0004835612673438978 
-0.01153647536654500 0.009938412324571539 -0.0004835612673438978 
-0.02925684977115022 0.03546840639350495 -0.002774909333131345 
-0.02925684977115022 0.03546840639350495 -0.002774909333131345 
0.1526970704516973 -0.1570334299633568 -0.01721490257195064 
0.2186180690749228 -0.2164126216191423 -0.01220785639089714 
-0.2242521693759353 0.2910315533194235 -0.2536247538746332 
-0.09717864213774662 0.1119021609539004 -0.01756341182109103 
0.01377341830814592 1.614620254193513e-05 -0.003119555291029727 
-0.04117873444527632 0.05519131131592377 -0.001058407168583438 
-0.04117873444527632 0.05519131131592377 -0.001058407168583438 
-0.04117873444527632 0.05519131131592377 -0.001058407168583438 
-0.1660736776065568 0.1859190978786081 -0.04844097962012232 
-0.1660736776065568 0.1859190978786081 -0.04844097962012232 
-0.008232819403893357 0.008056862457861006 -0.005238798326528929 
-0.01039472170708391 0.01303651877016671 -0.003530429000697260 
-0.01117469717464748 0.009649620082383476 -0.001502088278754106 
-0.1176498250951453 0.1120749054892239 -0.03187386708984987 
0.1254753077024726 -0.2143823391164435 0.2147482009466346 
0.03647373697877742 -0.03541263554892882 -0.01306712924174626 
0.1597183120871372 -0.1585932875411912 -0.01167240050594937 
-0.04581241951993656 -0.1362610444440653 0.1947071437231420 
0.01672468941967975 -0.003302798668986646 -0.01176993868333811 
0.09246548592086710 -0.08134672131691555 -0.008865506258122989 
0.7551635213635263 -0.7324343025880738 -0.006123613016185458 
-0.02578785242806087 -0.1103793324687212 0.1910036512268830 
-0.02578785242806087 -0.1103793324687212 0.1910036512268830 
-0.02578785242806087 -0.1103793324687212 0.1910036512268830 
-0.02019816872384962 0.03122455774518199 -0.003747542468297568 
-0.02019816872384962 0.03122455774518199 -0.003747542468297568 
-0.002485304568656404 0.003350602311848499 -0.0004125446024946114 
-0.002485304568656404 0.003350602311848499 -0.0004125446024946114 
-0.01150074354052730 0.01340048481914315 -0.006200354743002259 
-0.07775149677513231 0.08422731079766096 -0.01449402517905760 
-0.01453183753082099 0.01455344727393936 -0.007025244248584762 
-0.07472246891090753 0.1173388313453063 -0.09396777215465126 
0.1543553168766763 -0.1514348675688751 -0.0002934283971567881 
0.1543553168766763 -0.1514348675688751 -0.0002934283971567881 
0.1597528216914440 -0.1463708434531240 -0.07247943168757603 
0.1795942411191809 -0.1548466798005332 -0.07803748116992305 
-0.1317785065160878 0.1484696022251255 -0.02837351157235103 
-0.01945331023600615 0.01745312936509174 -0.001548665231713223 
-0.01945331023600615 0.01745312936509174 -0.001548665231713223 
-0.004581615877301501 0.003547124573271472 -6.436858587251723e-05 
-0.006921975393688492 0.007165213318153937 -0.001462060386077070 
-0.09272229821896467 0.1213375173156086 -0.06423980783598680 
-0.04674446604911935 0.05034337270754653 -0.0008265971638558762 
-0.008092983613347487 0.008083421087549267 -0.001476599229900676 
-0.002752194510866340 0.003642335191994045 -0.0001422464587631098 
-0.002752194510866340 0.003642335191994045 -0.0001422464587631098 
-0.002752194510866340 0.003642335191994045 -0.0001422464587631098 
-0.002752194510866340 0.003642335191994045 -0.0001422464587631098 
-0.03854148578437248 0.03606847392888351 -0.0003537513007627230 
-0.03854148578437248 0.03606847392888351 -0.0003537513007627230 
-0.03854148578437248 0.03606847392888351 -0.0003537513007627230 
-0.05079267256843154 0.05432417763017539 -0.01124389893231288 
-0.05079267256843154 0.05432417763017539 -0.01124389893231288 
-0.1122288142146772 0.1210794740037553 -0.02963828425450372 
-0.05825988013945454 0.05949170715628568 -0.01014195477348469 
-0.04375352248396386 0.04457654364240192 -0.009939151394598344 
-0.1033413652486113 0.1036065183732717 -0.01615030262456236 
0.06009029173505309 -0.04852890441073761 -0.07112593952663963 
0.06009029173505309 -0.04852890441073761 -0.07112593952663963 
0.08596000339965260 -0.08868982147906887 -2.643211583529694e-06 
0.08596000339965260 -0.08868982147906887 -2.643211583529694e-06 
0.08596000339965260 -0.08868982147906887 -2.643211583529694e-06 
0.08596000339965260 -0.08868982147906887 -2.643211583529694e-06 
0.1333770670623778 -0.1093420120451364 -0.008894832838959883 
0.1378402311638169 -0.1247558030228032 -0.007860822925281438 
0.1153597091594454 -0.1317085246708586 -0.01855701870605522 
0.06236559298358968 -0.07432401929280302 -0.04257570925513655 
0.08493705608434460 -0.06594302652392457 -2.748991674959913e-06 
0.08493705608434460 -0.06594302652392457 -2.748991674959913e-06 
0.08493705608434460 -0.06594302652392457 -2.748991674959913e-06 
0.2536824552499216 -0.2201181777927148 -0.001199616923680559 
0.2343157214292836 -0.2002090213615728 -0.08353699586556647 
0.2343157214292836 -0.2002090213615728 -0.08353699586556647 
0.3479083200536459 -0.3373524745532802 -0.003436584502679058 
0.3479083200536459 -0.3373524745532802 -0.003436584502679058 
0.3479083200536459 -0.3373524745532802 -0.003436584502679058 
0.005266840297964140 -0.003589640011871574 -0.03574301508616668 
0.01740361613529520 -0.008841181165362077 -0.1496188591050392 
0.01213677583733106 -0.005251541153490504 -0.1138758440188725 
-0.09340796759901765 0.1038487112394319 -0.008847148837630932 
-0.09340796759901765 0.1038487112394319 -0.008847148837630932 
-0.2428375019797430 0.2707065089592419 -0.03972327055339075 
-0.1552082057613973 0.1675593624463128 -0.04336695222196197 
-0.06940877754073697 0.07134644373093857 -0.01258474889563848 
-0.07419028132743210 0.1068020180526461 -0.04398517033965761 
-0.01889098638721610 0.02441521131170319 -9.408366091939567e-07 
-0.01889098638721610 0.02441521131170319 -9.408366091939567e-07 
-0.01889098638721610 0.02441521131170319 -9.408366091939567e-07 
-0.01889098638721610 0.02441521131170319 -9.408366091939567e-07 
-0.003213559696520254 0.002775456068492588 -0.0005054167486896850 
0.08574613588710604 -0.05249934129733860 -0.05297753945948498 
-0.06473981604913821 0.07983069508679808 -9.214002914642477e-05 
-0.06473981604913821 0.07983069508679808 -9.214002914642477e-05 
-0.1759691849717035 0.2058135350408697 -0.1017742565245720 
-0.1699794631652447 0.2027561059129581 -0.1704997655777886 
-0.1699794631652447 0.2027561059129581 -0.1704997655777886 
-0.05951128996492958 0.06851615534557895 -0.01468819597138216 
-0.05951128996492958 0.06851615534557895 -0.01468819597138216 
-0.01296825242851401 0.01413431289173073 -0.002371700881784683 
-0.01296825242851401 0.01413431289173073 -0.002371700881784683 
0.2551174789133311 -0.2175256832368711 -0.001668136959480036 
0.2551174789133311 -0.2175256832368711 -0.001668136959480036 
0.2551174789133311 -0.2175256832368711 -0.001668136959480036 
0.2551174789133311 -0.2175256832368711 -0.001668136959480036 
0.2551174789133311 -0.2175256832368711 -0.001668136959480036 
0.1485490610332507 -0.1365783980136017 -0.02234241104162473 
0.1985751214684740 -0.1771178237276970 -0.02594165467079088 
0.2817425786626222 -0.2584894248736084 -0.06246915089514959 
-0.1112466861423787 0.1117018190516129 -0.02597885550325301 
0.05079307066265272 -0.04385291452108559 -0.009671047323897545 
0.05079307066265272 -0.04385291452108559 -0.009671047323897545 
0.1618731686900550 -0.1003073783849193 -0.08913713620987249 
0.03874693283492622 -0.02532341651319973 -0.0008157014225217329 
0.05484496866388664 -0.04277665277760770 -6.461727746490680e-06 
0.05811771737542219 -0.03293679508965942 -0.005474965337660283 
-0.01084845507904768 0.02232046771086582 -0.008398245122133127 
-0.07431135485714953 0.08131413823290676 -0.02053489001001259 
-0.04866487724802582 0.04865020902732740 -1.377448599290662e-05 
-0.04866487724802582 0.04865020902732740 -1.377448599290662e-05 
-0.06058030732298785 0.04855985702991157 -0.007425386138948459 
-0.006104973588681406 0.04287498696878107 -0.008912566063437223 
0.1012525362954094 -0.07173560504660310 -0.0002701616237409247 
0.1012525362954094 -0.07173560504660310 -0.0002701616237409247 
-0.07560660467780284 -0.2176844086207906 0.2366209789900561 
0.09625812629942301 -0.09104025092546038 -0.0005418744610115424 
0.1277784791328547 -0.1096347858814054 -0.007717587822962319 
0.1277784791328547 -0.1096347858814054 -0.007717587822962319 
0.02803232827369353 -0.02300782420184044 -0.001796141938617383 
0.3205358104898039 -0.2969032882996782 -0.05296548474112376 
0.02803232827369353 -0.02300782420184044 -0.001796141938617383 
0.1201118093626446 -0.1213464367499878 -0.0007813336590777702 
0.1365500004703673 -0.1442333733065348 -0.01041706050711768 
0.2910869521866688 -0.2805537745633507 -0.01142962319479786 
-0.01053687606997167 0.01565272822644950 -0.008954234211820358 
