24332: -1327.6274995498534
2347: -1162.090661303662
24330: -1157.8815028724357
24317: -1127.939139845949
238: -1070.9156355844182
25975: -1053.9130940728205
1776: -1013.4266494970096
5956: -981.3751915571737
24312: -975.2359488210791
955: -974.2368134894898
66: -951.9549800825579
24439: -943.0172108278397
607: -937.1838260557028
24318: -936.6337087050093
65: -924.8166540457128
253: -921.3582361682172
24988: -893.0873335461209
27115: -892.8134126014229
186: -890.5745385963259
6856: -879.4043860663238
669: -877.5299197543591
24336: -857.7115229160561
6094: -855.4866401341908
26988: -839.60257142937
6720: -838.5948568748356
366: -837.2184266826662
2077: -828.765798420939
24338: -827.0054069053328
26398: -813.8802134766811
2638: -808.6425973571588
24314: -798.73774303367
24296: -798.7008000194984
27392: -796.102762725932
5268: -794.5977984665077
24609: -779.7844485542258
27288: -766.3858517337699
1672: -748.3924700386692
20707: -744.8108035737172
20710: -744.8108035737172
20713: -744.8108035737172
26680: -733.4959288845265
298: -732.9333496289644
5389: -732.9333496289644
24294: -731.3236191951513
1063: -728.2586003676811
26725: -725.9733312770645
26579: -715.7254495883328
27015: -715.1543201792545
27000: -714.5891694106418
27235: -712.0925255821853
5193: -710.4312853891023
24300: -709.1716442309523
1492: -709.1502067772633
24299: -708.4824101722648
7026: -707.1436162693753
1275: -703.2260603498595
7009: -700.9459550308324
1293: -695.3375377828914
26079: -692.193812666134
5296: -692.1501012494914
24571: -691.7491322152557
537: -691.6274716371688
14470: -691.1783266014361
25760: -684.2245348560502
5178: -673.3777842751473
26629: -673.2354875219952
5952: -670.24644532775
264: -669.9156019192376
1411: -668.7673077230098
26765: -666.9077422795672
4966: -665.8792455517258
375: -659.92433777789
24339: -659.4297611002812
24405: -656.2744592989999
24325: -653.5716534438417
26668: -650.2855870724258
5362: -647.374801527558
6102: -646.613577503834
25992: -645.5467890923502
24326: -643.9737656909903
24320: -643.6792153085576
24805: -642.6139677563643
24409: -628.9443712838556
25180: -627.6888397866151
5473: -622.6936399360659
1309: -620.759030732372
345: -619.6138768974586
445: -617.3347720330623
2199: -611.3142927776224
8035: -611.008765452334
4585: -610.9779068873304
682: -610.0831465776852
1000: -607.7601512601839
304: -606.950176437705
1266: -599.9920275510832
3946: -598.265838330978
24335: -595.6010708716526
8283: -595.4051172310665
24603: -595.0373048375584
916: -591.1893819993309
24298: -589.0604248574632
27231: -587.5281823923091
340: -584.5284753960756
26746: -583.4358198290083
2175: -582.5165375692616
402: -582.4051049689143
25324: -580.611254886343
700: -580.2945894420905
25138: -579.3652033631308
5608: -573.7017309074296
25712: -572.5910414932622
25764: -571.6819913074976
1539: -571.3881979259454
84: -571.288234694354
18268: -571.2489887151467
26592: -569.0570330941523
27058: -568.8697868325827
9981: -565.0857623537607
22828: -564.8351637392708
22831: -564.8351637392708
4657: -564.8351637392708
25004: -564.487573234555
26626: -562.155390886725
24826: -560.5217360041371
27247: -559.5946245179755
27060: -558.1559690180167
24489: -555.1417525345087
910: -553.099767467612
25763: -551.9104806361029
5499: -551.1270179534705
1891: -549.1114346378499
24949: -547.9760015971667
1243: -546.4891221361361
228: -543.4148800825071
60: -543.2916406326701
5007: -540.8857122371916
1303: -538.8760123134844
460: -537.9565371097264
1900: -537.1853266837171
744: -536.3163847292544
26856: -535.4343827218786
24334: -534.6988834490846
91: -533.0646317669433
1215: -530.6733254817066
27334: -530.2954125059273
26461: -529.4303426158142
26893: -525.1091674836084
27174: -522.1281759285904
267: -519.802777325435
12922: -517.7032368356586
25718: -515.2203408133793
27063: -514.3017425299074
26731: -513.9368553822993
26644: -513.2866298006107
7795: -512.6335413962622
87: -512.0282124106373
25165: -511.0632047593614
151: -510.0154111012342
1240: -508.6030330112836
7786: -508.6030330112836
11194: -508.31822972827155
295: -506.7339299289566
5380: -506.7339299289566
24321: -504.075457146351
5094: -501.2352438071031
3331: -500.6499981143059
918: -500.2311412704146
1005: -498.60243791148093
4978: -498.1181312685497
11835: -498.05670213633095
14382: -497.86312770399326
16960: -496.22662464306916
3073: -495.8940742013928
14592: -495.74847472952325
14595: -495.74847472952325
10522: -495.1838606004244
25110: -495.0728766059295
24449: -494.24765932224784
15304: -492.8344903316729
15307: -492.8344903316729
15310: -492.8344903316729
3160: -492.8344903316729
15784: -491.6512882962699
15787: -491.6512882962699
5643: -491.40749079808137
27111: -491.2281011940606
1162: -490.99038156556804
10509: -489.73562251892804
24562: -489.5942246132481
8424: -489.3507699586665
2442: -488.0329088654277
13957: -483.94289376958875
246: -483.215843872077
828: -481.7527638181037
7500: -481.73038997660177
5092: -481.46535309199993
24430: -480.80326669757136
24538: -479.9130695412713
25716: -478.8950517666074
9378: -478.55233549214546
694: -478.1123346991401
2953: -478.1056024248124
55: -477.2851350887993
25697: -475.8273319739188
24447: -474.76247069941627
14137: -474.571804671553
14140: -474.571804671553
2884: -474.571804671553
9486: -473.83988044470385
5083: -473.29293365865834
25517: -472.1533374320681
26961: -471.65282502959957
26704: -470.4144543532749
25954: -468.7778003691383
25112: -468.40841853982545
20968: -467.7763546002373
27065: -467.6970104348366
23947: -467.6471791607027
23950: -467.6471791607027
23953: -467.6471791607027
23956: -467.6471791607027
23959: -467.6471791607027
4900: -467.6471791607027
25177: -467.6456441543292
26497: -466.9812946291207
12736: -464.9855536421398
10809: -464.8432676893496
6366: -463.432064359778
11035: -463.3434876073744
11038: -463.3434876073744
11041: -463.3434876073744
11044: -463.3434876073744
11047: -463.3434876073744
5728: -463.1416787635754
525: -461.19353565395886
19534: -460.79907141416606
19537: -460.79907141416606
19540: -460.79907141416606
4021: -460.79907141416606
11152: -460.47789381261197
3562: -458.3940764870239
8410: -456.4547679772083
8: -456.13662537564636
3181: -456.0458383498628
5746: -452.9219826702974
12466: -452.7761600091269
5326: -451.0839851288088
722: -450.5245615311562
25515: -449.924515943405
510: -449.90805905916153
1737: -449.86136028863905
1222: -449.82628823765276
7747: -449.82628823765276
24387: -449.5190638173179
1188: -449.0911836352272
25990: -448.7661963194756
12201: -447.7548383733699
14491: -445.1061941418278
18271: -444.9823323352414
18274: -444.9823323352414
3766: -444.9823323352414
2781: -444.0331362144129
26385: -443.3478652021227
26985: -442.13942169097754
3703: -441.84939942977945
5395: -440.28477800646755
1669: -437.4203513255193
1075: -436.682856206911
27261: -436.60850249498327
20845: -436.33919910737376
20848: -436.33919910737376
4980: -436.0269726567337
27056: -435.4500335425127
6760: -434.9447467153645
26587: -434.8695573651824
86: -434.46299725989275
42: -432.13197016477704
46: -430.7840069738122
118: -430.54497202638237
301: -429.13189499645904
6832: -428.9219629709138
904: -428.7539881484701
27310: -428.7095580650414
7963: -428.2872371218836
14: -428.1776565384618
8317: -427.8995190715012
8257: -427.895090755224
24999: -427.37921081445813
24705: -427.11468213435893
24594: -424.85732695476315
1525: -423.7885840978976
269: -422.0409885880354
27171: -421.24571508306076
27128: -420.50602860430905
11110: -419.64004382232946
11113: -419.64004382232946
2194: -419.64004382232946
126: -418.6740198866964
24402: -418.5407491276918
27301: -418.1204243588215
24838: -418.0358870099174
831: -417.80674346763936
6213: -417.3379735324084
13675: -417.2690737631078
2815: -417.2690737631078
1644: -416.77345069099727
2263: -416.64433789584734
7363: -415.33415098748253
2683: -414.9798968717304
11518: -414.3270926370085
11521: -414.3270926370085
11524: -414.3270926370085
11533: -414.3270926370085
416: -414.2266051882551
26917: -413.6881884241475
153: -412.7056585941018
25766: -411.9385047967558
5316: -411.6928367044069
552: -411.65000283720246
23413: -410.95174059219846
23416: -410.95174059219846
1173: -410.7022533734474
3231: -410.3329987024584
1762: -409.8314957757422
26464: -409.1502557560827
206: -409.0088870677537
24520: -408.5744496326508
82: -408.5688820288391
381: -408.0320047185515
5356: -407.27772369770435
3756: -406.27524935079197
25014: -406.25779884587035
24963: -406.22785445937035
24965: -404.78530192112623
1140: -402.4456304764915
25744: -401.47453705321703
7302: -401.2988070157604
8094: -400.12562865849185
4543: -399.9227486804294
2772: -399.79957839927
27374: -399.39004300997607
591: -398.75181053444584
24898: -398.3491594957682
14980: -398.34586851964144
8329: -397.12663414727444
8332: -397.12663414727444
26882: -395.80882953819383
19486: -394.984985576594
19489: -394.984985576594
19492: -394.984985576594
25006: -394.06923285758944
27177: -393.7123073339901
13401: -392.9298722974257
13404: -392.9298722974257
13407: -392.9298722974257
13410: -392.9298722974257
2766: -392.9298722974257
11873: -392.69453728560273
1054: -392.25881903350387
2887: -391.83621571412806
145: -390.87563528752577
5107: -390.87563528752577
8926: -389.6595167365912
17467: -389.52421794467045
17326: -388.85506828183327
17329: -388.85506828183327
17332: -388.85506828183327
25681: -388.85506828183327
22117: -388.5976729687912
22120: -388.5976729687912
528: -388.16932026245786
24547: -387.7533797258376
1032: -386.6643267159024
139: -386.6430394023869
399: -386.1016031889299
25272: -385.35372804914334
24796: -385.1479264765783
160: -384.8644387801697
390: -384.65627833849686
1269: -384.5472439339237
760: -384.36385334692056
11881: -383.52417034829944
24377: -382.47295447052363
3489: -382.3281048021953
26929: -381.8282151261101
20392: -380.6246821809843
20395: -380.6246821809843
20398: -380.6246821809843
20401: -380.6246821809843
4192: -380.6246821809843
16098: -380.40374640426427
5919: -380.31268475573927
12204: -380.05248709300565
570: -379.3861496922381
25073: -379.10630021865865
1089: -378.86671866055275
24730: -378.50110610651933
16510: -378.27322366277014
22180: -377.18593248607897
18853: -376.6597950213224
18856: -376.6597950213224
18859: -376.6597950213224
18862: -376.6597950213224
3883: -376.6597950213224
3886: -376.6597950213224
1675: -375.3967778528671
2818: -374.7880781174003
10512: -373.8264241998407
10515: -373.8264241998407
10518: -373.8264241998407
2073: -373.8264241998407
24827: -373.74570222506287
8884: -373.62329667755307
17863: -372.35281590081985
17866: -372.35281590081985
25594: -372.3504473178397
12636: -371.97990467154784
212: -371.87840048122405
22123: -371.7242092798961
22126: -371.52990779036946
4522: -371.52990779036946
7612: -371.4422067654526
23296: -370.96343003850205
23299: -370.96343003850205
23302: -370.96343003850205
24288: -370.6466449623638
13551: -370.1942740287439
27045: -368.8208345842802
4282: -368.69311830748507
27005: -367.7601136746858
5080: -367.62550571667964
1111: -367.5026534362576
15313: -367.4958196372033
38: -367.12187913174387
11527: -366.99505673161497
1017: -366.7261638454743
19546: -366.49358480713335
26972: -366.217229299068
12765: -366.0168713452821
2583: -366.0168713452821
24601: -365.4560983450254
1878: -364.7704865757225
11530: -363.93635121161554
25664: -363.81332659389324
7135: -363.793809293788
1831: -363.493791043558
26467: -362.4867550322804
13681: -361.99858984914687
13684: -361.99858984914687
5779: -361.93932663697245
24810: -361.8983021624588
26676: -361.7971702172968
8074: -361.6468699967193
106: -361.2680953394675
457: -360.774360624766
307: -360.31460988808243
5470: -359.9281452038321
25341: -359.3456628291036
73: -359.12658178053067
8920: -358.9773215121269
24813: -358.96522866910277
3169: -358.76014823169345
26877: -357.3938120342401
544: -357.2245806685769
20161: -356.53524750830627
20164: -356.53524750830627
11128: -355.73912369260694
164: -355.61947974847845
21688: -354.94716922365774
4450: -354.94716922365774
16459: -354.8768529817151
3433: -354.8768529817151
24532: -354.719723378694
13473: -352.0374256834896
24862: -351.6609259235636
472: -351.58647613054467
6823: -351.14767303845423
6826: -351.14767303845423
901: -351.14767303845423
12799: -351.0685343651615
12802: -351.0685343651615
2596: -351.0685343651615
2599: -351.0685343651615
1458: -350.9555583505567
1246: -350.10904486693084
17452: -349.30827772565925
8151: -349.1837350881452
19378: -348.00173143876634
19381: -348.00173143876634
26541: -347.8278089467543
1069: -346.4436595828948
21703: -345.9680962511132
21709: -345.9680962511132
21712: -345.9680962511132
21715: -345.9680962511132
4456: -345.9680962511132
7473: -345.74773136494287
21685: -344.1137426751713
25016: -343.9515744172598
14923: -343.3178597415667
14149: -342.40264793342845
14152: -342.40264793342845
14155: -342.40264793342845
2890: -342.40264793342845
2893: -342.40264793342845
27031: -340.87826566044293
20: -340.43808725275414
377: -340.27489089289793
25146: -339.673451925361
24930: -338.53669485865464
21706: -338.27212554346187
13533: -338.0648460723599
13536: -338.0648460723599
13539: -338.0648460723599
7066: -337.71680409755317
16600: -337.5947378165004
16603: -337.5947378165004
2361: -336.71316844338463
8724: -336.22388205695495
4964: -336.13991889228623
24508: -335.904436568961
15525: -335.85651881824003
15528: -335.85651881824003
15531: -335.85651881824003
15534: -335.85651881824003
15537: -335.85651881824003
15540: -335.85651881824003
3186: -335.85651881824003
689: -335.0971929862502
6868: -332.779284115086
7836: -331.89046275152356
25462: -331.7840008180729
576: -330.9383325136738
3874: -330.45465820282504
24958: -330.2005511352432
15205: -330.0433500729383
15208: -330.0433500729383
15211: -330.0433500729383
3136: -330.0433500729383
15184: -329.9115873750843
25817: -329.12992876951864
5721: -327.7951104690136
3193: -327.6809092518495
25206: -327.5733335729038
10807: -327.4992360458041
26826: -327.1524518204632
26798: -326.5578211350299
26994: -326.45528718153963
24997: -326.4383209063575
6853: -326.4383209063575
6859: -326.4383209063575
6862: -326.4383209063575
913: -326.4383209063575
26979: -326.2378034473514
7450: -326.09792337922636
27214: -325.8912875662868
3220: -325.260091527067
1479: -325.21637855212094
27097: -324.304120540196
24344: -323.6006289112612
21664: -323.3914309410325
21667: -323.3914309410325
21670: -323.3914309410325
21673: -323.3914309410325
21676: -323.3914309410325
21679: -323.3914309410325
6555: -322.9162106132868
25211: -322.85863788108475
2428: -322.6932515223434
26970: -322.594903310593
23251: -322.4650101262779
23254: -322.4650101262779
2017: -321.9579457897267
26832: -321.2518952162814
162: -320.4110902775016
1429: -320.37698166289215
8619: -319.82898978049184
27075: -319.25683040714983
15400: -318.8341305193387
15403: -318.8341305193387
15406: -318.8341305193387
15409: -318.8341305193387
15412: -318.8341305193387
3172: -318.8341305193387
3175: -318.8341305193387
2197: -318.34955523973167
12196: -318.2449133168052
25307: -317.80464523295353
15646: -317.7074592571876
14461: -317.4111050122942
6357: -316.6889259359171
26767: -316.3888487520892
708: -316.26063223053393
18795: -316.1656251248876
24904: -315.8212725647014
15036: -315.6894732259581
15039: -315.6894732259581
15042: -315.6894732259581
15045: -315.6894732259581
15048: -315.6894732259581
15051: -315.6894732259581
15054: -315.6894732259581
3096: -315.6894732259581
3099: -315.6894732259581
22507: -315.66585703848045
22510: -315.66585703848045
22513: -315.66585703848045
4600: -315.66585703848045
8770: -315.57161244678133
3067: -315.3136988844278
18838: -315.2573546600023
18841: -315.2573546600023
18844: -315.2573546600023
3877: -315.2573546600023
3880: -315.2573546600023
23638: -315.1780087680707
23641: -315.1780087680707
4816: -315.1780087680707
6651: -314.8645736550337
27395: -314.8340401758317
10773: -314.6540542569955
14998: -314.2742882338497
3091: -314.2742882338497
430: -313.8273324461505
8557: -313.78705975015663
25749: -313.4705260012558
12535: -313.3973196323364
7315: -313.03045476235366
12: -312.94660366006036
12268: -312.74713794813533
12271: -312.74713794813533
12274: -312.74713794813533
2461: -312.74713794813533
26927: -312.48422945305526
8295: -312.20481794059754
20922: -311.79171900848996
3592: -311.2650472793959
18277: -311.23611562867785
18280: -311.23611562867785
27109: -310.82679848394014
22099: -310.7170333027559
22102: -310.7170333027559
22105: -310.7170333027559
22108: -310.7170333027559
920: -310.5762910873382
25188: -310.47958645569406
18645: -309.644674594732
18651: -309.644674594732
18654: -309.644674594732
231: -309.56495937424825
20389: -308.9512792701031
4189: -308.9512792701031
27294: -308.6376701720524
685: -308.57991943639
26768: -308.5464510529335
27081: -308.52927436919526
2854: -308.0548405792567
6259: -307.83309956017087
2305: -307.4895690837109
24960: -307.23998626536155
687: -307.2388884642851
1131: -307.20288774099095
25192: -307.18274700102484
27267: -307.0380092590024
11670: -306.99553334949746
1027: -306.2768699926985
5610: -306.0814862676947
6799: -305.430562613739
24849: -305.31613891432966
7479: -305.19031925197424
4960: -303.9583181685805
26959: -303.032266078145
24304: -303.0308025836843
27049: -302.95044166246936
787: -302.6090854050909
25849: -302.062130700582
1281: -301.9905241396731
11566: -301.8485453400657
12955: -301.6611631579744
27040: -301.63104030275014
6699: -301.20557742803175
178: -301.1573660724228
12150: -301.13789583923665
12153: -301.13789583923665
24420: -300.855082191132
48: -299.8872711464869
24893: -299.3873206923718
27222: -299.272614943383
4503: -298.6337074132779
11619: -297.4605289862928
7615: -297.44593611734393
1393: -296.7533313857308
2341: -296.41682098124784
23806: -296.0051152291628
2974: -295.5083479138853
25956: -295.2557331856477
2323: -295.03708694086487
26564: -294.9471208945259
18216: -294.762650413419
18219: -294.762650413419
4855: -294.4311378046586
13759: -294.3469873904947
27093: -293.68821452681885
26898: -293.50837546144993
5254: -293.2170503941454
1117: -292.84924429739425
14464: -292.6966009542957
2866: -292.6035878017477
93: -292.6032896462794
25738: -292.4809107049724
2052: -292.3288209168973
26934: -292.11519866953455
24558: -291.83573649000397
24655: -291.43205989375053
19477: -291.18809563761556
4006: -291.18809563761556
25635: -290.98559829081603
25539: -290.73786115964896
25012: -290.70391555737814
8174: -290.54617673559466
27070: -290.28362627323077
1101: -290.21422445827767
378: -290.19395849920096
10944: -289.8327045359307
14013: -289.81156950175546
13761: -289.6095283578683
26671: -289.4415378179433
6595: -289.4346212095184
28: -288.9706449745655
7502: -288.7387595123548
294: -288.48172527572655
5379: -288.48172527572655
12963: -288.2217512640673
25151: -288.13062808961433
9430: -287.9241435767673
8337: -287.5718717780863
26885: -287.53494561431205
26726: -287.2214656981633
128: -286.726103970534
27355: -286.67600829574195
835: -286.5048029745844
9132: -286.3442140692472
615: -286.0639610092415
5297: -285.86229150661325
25605: -285.21908149172805
12928: -285.1556265836883
24343: -285.085527748956
3903: -285.0027909357333
27357: -284.9905117937859
16014: -284.94219401379013
3799: -284.93099139577816
419: -284.8570412465822
75: -284.82588040285657
14395: -284.8247388841023
17293: -284.61789838227446
17296: -284.61789838227446
17299: -284.61789838227446
17305: -284.61789838227446
1824: -284.38651039573705
27388: -284.34895114115346
27397: -284.34895114115346
22324: -284.21087062261563
546: -283.95436532186477
619: -283.6166403432892
17302: -283.5337192391943
12931: -283.3877847249203
13828: -282.8376958473995
2578: -282.1428956935037
44: -281.30377834230205
26860: -281.21185560885766
15223: -281.12566399690587
3139: -281.12566399690587
63: -280.9583263120629
2256: -280.80344718091624
18912: -280.03140266316314
3912: -280.03140266316314
1378: -279.74316687773046
12439: -278.9833271635027
12442: -278.9833271635027
12445: -278.9833271635027
12448: -278.9833271635027
12454: -278.9833271635027
12457: -278.9833271635027
6736: -278.8840311892276
14334: -278.833335174717
24970: -278.4890431765674
9660: -278.2935258154832
27062: -278.0099248616465
12049: -277.5227925744192
10476: -277.4500293700947
1638: -277.4155617258682
24376: -277.1329030316672
6701: -277.0585704503243
7191: -276.90536845004175
8667: -276.88157518299425
1810: -276.7747394502356
13942: -276.51281560449223
13945: -276.51281560449223
143: -276.1929774580508
26866: -275.75207660725624
9135: -275.6854489835792
936: -275.5852171139917
184: -275.33945949453346
5173: -275.33945949453346
1108: -274.8059265267591
8602: -274.72503849807146
1711: -274.64116726415904
9394: -274.64116726415904
24967: -274.6015696337933
25812: -274.56155827687064
6958: -274.2139195512166
1471: -273.933733383761
8002: -273.762894335649
25994: -273.6025055580676
27371: -273.2651471373873
26850: -273.0372245277019
1072: -273.0366232645536
433: -272.928705706688
26512: -272.8904738927385
448: -272.8655073059513
26977: -272.86467537799837
5814: -272.5356645810988
6757: -272.4949454807518
7737: -272.4947113170838
175: -272.24005063081074
25569: -271.98840988655746
11217: -271.73821984559305
11220: -271.73821984559305
11229: -271.73821984559305
1866: -271.5768091181008
5703: -271.49936324585224
18469: -271.3792202554588
18472: -271.3792202554588
2784: -271.25753114033296
11833: -271.17178846399014
2332: -271.17178846399014
640: -271.01414635189167
10393: -270.80277599484657
10880: -270.77478382099594
451: -270.5197409228828
5737: -270.5197409228828
5740: -270.5197409228828
5743: -270.5197409228828
5749: -270.5197409228828
1533: -270.3635810206429
15067: -269.85320512302746
1314: -269.62212333180565
11104: -269.59982872868517
11107: -269.59982872868517
2191: -269.59982872868517
5392: -269.58986202158997
5157: -269.5276786210434
1003: -269.2531624726566
172: -269.19826146443523
27147: -269.06518941163205
5734: -268.6048877804112
24736: -268.0159477534114
130: -267.95343350125904
240: -267.7923008138284
25504: -267.7161177303666
13960: -267.3506986712042
25702: -267.3165329809871
14182: -267.2066101398505
236: -267.122016885886
858: -267.0466393530307
142: -266.70727777171044
26399: -266.4764641081855
8341: -266.0824465490564
19657: -266.04260529752736
19660: -266.04260529752736
19663: -266.04260529752736
5845: -265.86506449010136
10564: -265.6205687440885
26776: -265.4049160925669
3619: -265.2577272340876
20185: -264.89360884414634
24372: -264.78433783937044
12348: -264.7253249988446
286: -264.6544007832388
26913: -264.62238784824035
9762: -264.5963589803463
18949: -264.38792619860595
6325: -264.3480673041117
5013: -264.2023480917189
2212: -264.0171619593577
25669: -263.84147573449303
13531: -263.6119598894247
7216: -263.27304672554123
17544: -263.2601201479309
8452: -262.9405089830988
1323: -262.6333262964748
26805: -262.5813063744456
26688: -262.19400512162565
15853: -262.1408561167586
3298: -262.04081024146234
14005: -261.8921692993925
8350: -261.6557231043277
6772: -261.63647589422015
8691: -261.5417977187829
7476: -260.8692554939064
23766: -260.51498325602654
23769: -260.51498325602654
23772: -260.51498325602654
4842: -260.51498325602654
23677: -260.4468364562095
23680: -260.4468364562095
4828: -260.4468364562095
4831: -260.4468364562095
25620: -260.3820574315778
24790: -260.15480527857795
14170: -260.06800331840054
14173: -260.06800331840054
14176: -260.06800331840054
14179: -260.06800331840054
14188: -260.06800331840054
14191: -260.06800331840054
14194: -260.06800331840054
2812: -259.3969078545943
6841: -259.05331960381096
6844: -259.05331960381096
25916: -258.97570795632157
8214: -258.9702375493682
496: -258.8635190935295
1912: -258.7737338338998
811: -258.54935261338284
12913: -258.1946937037503
26990: -257.8394357583676
27228: -257.8368466814345
25074: -257.72760498780775
18648: -257.68182519749126
12471: -257.42572657231887
7717: -257.19926871303005
7618: -257.1052407593711
95: -256.3623082931284
26757: -256.26201960757805
277: -256.08391637703164
27010: -255.85003895891612
499: -255.59933896762948
13837: -255.4815550610563
15157: -255.46093899651345
15160: -255.46093899651345
25613: -255.44302921336913
13566: -255.37423056871006
5415: -255.3171938236654
18238: -255.30088485748587
18241: -255.30088485748587
18244: -255.30088485748587
18247: -255.30088485748587
931: -254.88169531771155
26828: -254.79145324771167
26044: -254.74637470736894
423: -254.3003113093386
1978: -254.1255132089672
1425: -253.98577512846165
25003: -253.9396351020647
6032: -253.59415892512953
68: -253.22385434158824
27264: -252.68045057187643
10636: -252.45200729839402
2221: -252.39313922242684
96: -252.08271225191754
27017: -252.0682797681096
27376: -251.99643834465786
11614: -251.7751332276164
1306: -251.63075843580245
25224: -251.34735601879893
790: -251.25766748914285
11176: -250.98631350006247
2572: -250.89520769464596
22594: -250.5732397140068
5612: -250.56497015064517
27163: -250.52327257137102
27306: -250.15707248244996
414: -249.7949052787565
25226: -249.64442616645383
13711: -249.53689518641437
5327: -248.8394462261217
11848: -248.72362944970334
11851: -248.72362944970334
11854: -248.72362944970334
9164: -248.60001254205963
25811: -248.52522280201796
16450: -248.39971984129016
1708: -247.95985191756952
25479: -247.45041149401794
20542: -247.19752749626693
20545: -247.19752749626693
487: -246.82540645061528
490: -246.82540645061528
502: -246.82540645061528
5833: -246.82540645061528
5836: -246.82540645061528
5839: -246.82540645061528
5842: -246.82540645061528
5851: -246.82540645061528
5854: -246.82540645061528
5857: -246.82540645061528
5860: -246.82540645061528
2934: -246.76253667478
3238: -246.66897600826843
26774: -246.22095358481585
924: -245.85222743673745
26421: -245.83683113582035
14200: -245.8244063727079
14203: -245.8244063727079
14206: -245.8244063727079
15058: -245.54264155281894
15061: -245.54264155281894
15064: -245.54264155281894
15001: -245.45477135954357
15004: -245.45477135954357
15007: -245.45477135954357
15010: -245.45477135954357
25161: -245.26404685273596
23578: -244.6901250431065
4804: -244.6901250431065
5664: -244.6828319534551
11334: -244.6212507140532
11337: -244.6212507140532
11340: -244.6212507140532
11343: -244.6212507140532
11346: -244.6212507140532
11349: -244.6212507140532
11352: -244.6212507140532
11355: -244.6212507140532
11358: -244.6212507140532
24394: -244.5882296533893
7320: -244.41646900654132
26896: -243.92517190154157
7096: -243.67619386682674
26904: -243.4370918975453
573: -243.1520908850747
25339: -243.13644464394852
7311: -242.6995135011356
9034: -242.4187466668229
8923: -242.2742103571069
5562: -242.2707262860389
2904: -242.26218785032108
26796: -242.21022574776185
18546: -242.11121195518726
18549: -242.11121195518726
18552: -242.11121195518726
18555: -242.11121195518726
23632: -241.83696766401926
9360: -241.83638630235794
24981: -241.70276923961006
2451: -241.64888378608023
7243: -241.59057249303874
6774: -241.56634550687914
11548: -241.50062438777957
10263: -241.3976424282027
11905: -241.3728793085065
11908: -241.3728793085065
2353: -241.3728793085065
24843: -241.22420524754807
213: -240.72660615646305
15286: -240.39707108835037
3154: -240.39707108835037
6800: -239.9696961974215
18226: -239.9223195459112
3760: -239.9223195459112
1946: -239.85875833472113
23401: -239.84701528788233
14458: -239.4822445637846
852: -239.44413734629188
26082: -239.3194327630787
11161: -239.24491385501426
10837: -239.2437724481449
10840: -239.2437724481449
10843: -239.2437724481449
2149: -239.2437724481449
2043: -239.23738849505563
20140: -239.1981567162244
27256: -239.0460159239868
1845: -238.89306620306957
723: -238.84205829416598
1800: -238.77737717667557
27225: -238.4829238783005
26481: -237.4815816624386
10156: -237.25176569190728
1951: -237.25176569190728
8263: -237.02349874875244
10395: -236.95165594167528
2031: -236.95165594167528
25320: -236.83628545973477
778: -236.53397371115
3529: -235.93928175894533
25821: -235.85392006446446
2314: -235.74673433094853
24411: -235.5307000776991
2358: -235.4834889757524
786: -235.31711131412771
26334: -235.20962525252227
26890: -235.06840056967087
26686: -234.7530566848201
22152: -234.63950024610847
4527: -234.63950024610847
22420: -234.13339856018658
22423: -234.13339856018658
22426: -234.13339856018658
22429: -234.13339856018658
22432: -234.13339856018658
22435: -234.13339856018658
4576: -234.13339856018658
4579: -234.13339856018658
10596: -234.12149572747248
25776: -234.1073115459902
22713: -233.98448298278572
22716: -233.98448298278572
22719: -233.98448298278572
22722: -233.98448298278572
22725: -233.98448298278572
22728: -233.98448298278572
4644: -233.98448298278572
4647: -233.98448298278572
2130: -233.7913136145096
11667: -233.7739027818263
11673: -233.7739027818263
11676: -233.7739027818263
1989: -233.62804832786406
1725: -233.1656850516195
9450: -233.1656850516195
7896: -233.1530541364867
25973: -233.12197937229828
27072: -233.0750912509119
1654: -233.0477181160891
9205: -233.0477181160891
9208: -233.0477181160891
9211: -233.0477181160891
9042: -232.8321794247983
10050: -232.80136955081164
10053: -232.80136955081164
10056: -232.80136955081164
5077: -232.79299411703164
2824: -232.56484236571336
13948: -232.5013491726435
13951: -232.5013491726435
13954: -232.5013491726435
13963: -232.5013491726435
13966: -232.5013491726435
13969: -232.5013491726435
24565: -232.5013491726435
23452: -232.18651178577053
23455: -232.18651178577053
4777: -232.18651178577053
863: -231.70312800209555
16972: -231.70231182663932
16975: -231.70231182663932
16978: -231.70231182663932
16981: -231.70231182663932
16984: -231.70231182663932
3535: -231.70231182663932
6487: -231.6425529183939
1614: -231.59042367819418
2652: -231.31434985360983
24370: -231.16204413587607
116: -231.07428306392083
26784: -230.74952476198823
13834: -230.61007280478177
4116: -230.29100926532988
5217: -229.99445092324655
7692: -229.71454368360105
1722: -229.71057814957584
9447: -229.71057814957584
25305: -229.6599887907018
26931: -229.29109635008348
18778: -229.23263423611223
18784: -229.23263423611223
11622: -228.99004575845112
2271: -228.99004575845112
18781: -228.8727637963842
3868: -228.8727637963842
18162: -228.52681529861493
18165: -228.52681529861493
373: -228.40647300115378
25321: -228.31772320140317
15619: -228.21758846593525
8442: -228.1162271912154
26840: -228.02371785813668
17473: -227.8216876266517
19749: -227.41661740418914
1271: -227.3408955162624
26869: -227.21899280606166
25728: -227.19392536725758
1057: -227.12674862367703
1060: -227.12674862367703
7186: -227.12674862367703
7189: -227.12674862367703
7201: -227.12674862367703
7204: -227.12674862367703
7210: -227.12674862367703
7213: -227.12674862367703
17164: -227.12474866784933
17167: -227.12474866784933
17170: -227.12474866784933
17173: -227.12474866784933
27219: -226.89740971737382
5293: -226.89570896062935
135: -226.86415088686044
16830: -226.62475969390889
25654: -226.3765435067985
15733: -226.19062373007068
15736: -226.19062373007068
952: -226.1015913263797
24925: -226.06912516812892
6696: -225.7209581474932
24327: -225.6761318952538
25695: -225.42925658003048
957: -225.40941009748403
17175: -225.34377829067412
17178: -225.34377829067412
17181: -225.34377829067412
17184: -225.34377829067412
17187: -225.34377829067412
17190: -225.34377829067412
17193: -225.34377829067412
17196: -225.34377829067412
17199: -225.34377829067412
17202: -225.34377829067412
17205: -225.34377829067412
17208: -225.34377829067412
17211: -225.34377829067412
17217: -225.34377829067412
17220: -225.34377829067412
17223: -225.34377829067412
17226: -225.34377829067412
17229: -225.34377829067412
3579: -225.34377829067412
3582: -225.34377829067412
3585: -225.34377829067412
3588: -225.34377829067412
3594: -225.34377829067412
1124: -225.32051320219801
12280: -225.2403107226444
2464: -225.2403107226444
1795: -225.0838183915409
9703: -225.0838183915409
22444: -224.62283126127826
22447: -224.62283126127826
22450: -224.62283126127826
979: -224.59770937903062
2868: -224.2767054604202
12073: -224.13952015185538
12076: -224.13952015185538
12079: -224.13952015185538
12082: -224.13952015185538
2410: -224.13952015185538
2413: -224.13952015185538
24712: -224.11184134020976
165: -223.99915311966882
15145: -223.82513195117448
15148: -223.82513195117448
15151: -223.82513195117448
15154: -223.82513195117448
3121: -223.82513195117448
3127: -223.82513195117448
17083: -223.7533781868996
17086: -223.7533781868996
17089: -223.7533781868996
1601: -223.30585274158503
1779: -223.22338507287665
7138: -223.1435487119199
6976: -223.01732274770725
12117: -222.91403159285045
11697: -222.74809747852964
1608: -222.73378189568183
1611: -222.73378189568183
9075: -222.73378189568183
9078: -222.73378189568183
9081: -222.73378189568183
26274: -222.6189898645159
24892: -222.59277359010844
7467: -222.46608399303207
2343: -222.19532016418282
2445: -221.77700309958084
11205: -221.66142398448022
16878: -221.2590360175003
11860: -220.32575629010364
2545: -220.087466156044
14935: -219.98838938984355
7990: -219.96767465987512
19275: -219.81505152731916
25660: -219.76564744716947
1755: -219.62374338125346
1758: -219.62374338125346
9558: -219.62374338125346
9564: -219.62374338125346
9567: -219.62374338125346
9570: -219.62374338125346
9573: -219.62374338125346
9576: -219.62374338125346
27092: -219.57227630480824
6951: -219.12556012620274
1077: -218.9865966437473
26747: -218.94429578022405
25600: -218.74111738834475
7221: -218.47776124549364
551: -218.40105741378952
5620: -217.95242613080092
25777: -217.5873560962924
12742: -217.54542240778144
12745: -217.54542240778144
12748: -217.54542240778144
12751: -217.54542240778144
3324: -217.48920350096932
12165: -217.41058174056047
7954: -217.3414575349163
7960: -217.3414575349163
10797: -216.7901372639959
2848: -216.5396129005833
25752: -216.53332833938236
21207: -216.41697201159326
21210: -216.41697201159326
21213: -216.41697201159326
21216: -216.41697201159326
4353: -216.41697201159326
4359: -216.41697201159326
7731: -216.17470538154808
27018: -216.09231420829306
9601: -215.8378974325236
23796: -215.60105952987752
23799: -215.60105952987752
4848: -215.60105952987752
4851: -215.60105952987752
3388: -215.57003034361546
25470: -215.46324786345016
4144: -215.26211957772833
5012: -215.01602729219485
21118: -214.98457679851043
21121: -214.98457679851043
21124: -214.98457679851043
21127: -214.98457679851043
4333: -214.98457679851043
8631: -214.8182356705839
1029: -213.45234740588523
25740: -213.16993267236995
5846: -213.1169813936994
2346: -213.06022456211832
27298: -212.85402229703925
27105: -212.69033668200234
24932: -212.4406256780632
343: -212.33546480238152
23593: -212.29015089620748
23596: -212.29015089620748
4807: -212.29015089620748
10493: -212.2220878353259
6300: -212.15931264362007
16011: -212.07196864340904
16017: -212.07196864340904
16020: -212.07196864340904
3309: -212.07196864340904
3312: -212.07196864340904
14557: -212.06299712728494
181: -212.03950540080479
26649: -212.02173524149674
6953: -211.97605763106694
19635: -211.90279792547193
13980: -211.5575478600581
23809: -211.54332042480416
23812: -211.54332042480416
23815: -211.54332042480416
4858: -211.54332042480416
4861: -211.54332042480416
14820: -211.4851647845099
26938: -211.23523390857193
15792: -210.86337930062516
3255: -210.86337930062516
11875: -210.84433138382542
242: -210.84077671989348
997: -210.75279496038374
26718: -210.0013980945331
15709: -209.67503180784092
15712: -209.67503180784092
15715: -209.67503180784092
3241: -209.67503180784092
26582: -209.6313141487543
10119: -209.43270477772973
7435: -209.37538816215155
17637: -209.15998626197126
25148: -208.72994551149935
7470: -208.60222807566993
7482: -208.60222807566993
7485: -208.60222807566993
15595: -208.55069663487598
344: -208.30189778628184
10491: -208.08348071801518
14185: -207.96217511196306
5592: -207.88800747762022
3058: -207.81493080512072
25335: -207.53345808855417
17076: -207.40096372688694
17079: -207.40096372688694
3558: -207.40096372688694
8005: -207.26177772835743
17074: -207.25917677232925
7838: -207.18989762268478
15292: -206.94252470039694
15295: -206.94252470039694
15298: -206.94252470039694
15301: -206.94252470039694
3157: -206.94252470039694
6322: -206.65905834615165
2196: -206.51132599400142
3124: -206.16884443337753
25136: -205.85543049202803
1401: -205.73023745688994
6319: -205.5977309024112
11870: -205.34867455490098
11508: -204.83144924329181
11511: -204.83144924329181
2259: -204.83144924329181
5256: -204.82729797800417
18430: -204.10081978754286
18433: -204.10081978754286
18439: -204.10081978754286
18442: -204.10081978754286
18445: -204.10081978754286
3793: -204.10081978754286
3796: -204.10081978754286
27353: -204.00589900565345
10590: -203.80298338322288
26799: -203.7759137680463
6639: -203.64934764641558
11763: -203.4977631040077
31: -203.32998855386853
34: -203.32998855386853
4942: -203.32998855386853
4945: -203.32998855386853
4948: -203.32998855386853
4951: -203.32998855386853
4954: -203.32998855386853
4957: -203.32998855386853
4969: -203.32998855386853
26655: -203.30808083086043
2952: -203.29029608484134
1785: -203.26503671167794
13840: -203.23856648822616
8628: -202.9342297995976
24886: -202.9156254777564
8721: -202.897633768125
7207: -202.84902136210678
22297: -202.83996084962402
22300: -202.83996084962402
22309: -202.83996084962402
147: -202.66488411291144
1948: -202.47417979391975
1558: -202.47213905878817
1403: -202.39099656944623
5152: -202.1877074688641
26955: -202.09074594189207
27034: -202.07286120106122
1080: -202.06754777554326
26302: -201.90783686672236
27008: -200.9847308666158
873: -200.9007148783245
2002: -200.80127605317264
23433: -200.73374390156891
23436: -200.73374390156891
23439: -200.73374390156891
23442: -200.73374390156891
23445: -200.73374390156891
4773: -200.73374390156891
6874: -200.40988644617795
102: -199.9601085665829
7984: -199.9095475393225
26023: -199.45646292100798
1503: -199.43433456863642
25315: -199.27586399207516
11616: -199.2547745285195
10998: -198.96018352723522
19367: -198.9315715895648
18283: -198.36232145108528
2338: -198.33449781684791
24437: -198.20581349283165
14463: -198.14565250135794
5865: -198.11811409861087
2844: -198.0743111234234
15823: -197.71184200387128
3268: -197.71184200387128
224: -197.66011686165155
5704: -197.55570962665817
10935: -197.4434559087112
6829: -197.2196511442745
6835: -197.2196511442745
21564: -197.19584333830082
21567: -197.19584333830082
600: -196.98515480965557
603: -196.98515480965557
6078: -196.98515480965557
6081: -196.98515480965557
6084: -196.98515480965557
6087: -196.98515480965557
1105: -196.92820182234544
14460: -196.53906307004289
26997: -196.46587416833802
3805: -196.26435602765412
3117: -196.0955776367853
5619: -195.33434094164159
5931: -195.1242365229974
2277: -195.11821708109292
8202: -195.1175130959684
25945: -195.06678349064592
1804: -194.91375077683432
12981: -194.86484492889358
25666: -194.28423018104658
17919: -193.96448555904686
17922: -193.96448555904686
26975: -193.7861806275035
575: -193.68696076381764
1740: -193.43411790617742
9495: -193.43411790617742
7269: -193.37699526732334
549: -193.29972030515322
10648: -193.16123112466147
2107: -193.16123112466147
22662: -193.00168116514766
22665: -193.00168116514766
24371: -192.98611250432884
1261: -192.91660853678098
12891: -192.83338506852417
13542: -192.44216342574657
13548: -192.44216342574657
13554: -192.44216342574657
13560: -192.44216342574657
13563: -192.44216342574657
13569: -192.44216342574657
13572: -192.44216342574657
13575: -192.44216342574657
13578: -192.44216342574657
13581: -192.44216342574657
13590: -192.44216342574657
2787: -192.44216342574657
20184: -192.30840347301367
4482: -192.2958998992549
24413: -192.21549856669213
26835: -192.00151027799245
8049: -191.87806731539908
11539: -191.8029603160511
17988: -191.77262184854888
1011: -191.57409819029417
24605: -191.48518511639597
1052: -191.29441294073416
24917: -191.26287416482484
801: -191.07283792674664
5143: -190.90373070168732
5317: -190.66942833078915
26963: -190.60787143040756
18286: -190.4940755919036
18289: -190.4940755919036
18292: -190.4940755919036
18295: -190.4940755919036
18298: -190.4940755919036
18301: -190.4940755919036
18304: -190.4940755919036
3769: -190.4940755919036
3772: -190.4940755919036
18061: -190.2578473011231
18064: -190.2578473011231
18067: -190.2578473011231
18070: -190.2578473011231
18073: -190.2578473011231
3733: -190.2578473011231
843: -189.59962046556774
24479: -189.51641814160746
19182: -189.46513751009516
23278: -189.41986676303713
6477: -189.1916029695706
6480: -189.1916029695706
2935: -189.04561789449943
1768: -188.99903074679295
5981: -188.81338543145256
26981: -188.38194926435963
4683: -188.29586235982464
19364: -188.1342470470045
19370: -188.1342470470045
19373: -188.1342470470045
19376: -188.1342470470045
11313: -188.04093698176845
26226: -187.95355312292423
11580: -187.87041928241933
2268: -187.87041928241933
27344: -187.75489406745785
15126: -187.4465695795033
1821: -187.23271866565915
25827: -186.93445514658623
24378: -186.83168166655926
25647: -186.109044354586
1527: -185.77137451960306
7509: -185.6487855170261
3400: -185.30654467471248
6648: -185.1401772137494
18918: -185.010450670883
3915: -185.010450670883
494: -184.9193839452245
1203: -184.78420958383333
1206: -184.78420958383333
1209: -184.78420958383333
7677: -184.78420958383333
7680: -184.78420958383333
7686: -184.78420958383333
7695: -184.78420958383333
7698: -184.78420958383333
14379: -184.7758199861113
20007: -184.71734886947408
8106: -184.59824369266445
27240: -184.58558723035148
7029: -184.36043800064243
1339: -184.12369909526333
11857: -183.97444310812205
24738: -183.78819767737303
1194: -183.6232237317859
7638: -183.6232237317859
7641: -183.6232237317859
839: -183.60001020736794
1217: -183.5566386586435
5098: -183.5105324934636
401: -183.35518329855518
27068: -182.5818962227449
10101: -182.40272093334295
26325: -182.3302510870771
24072: -181.70412976775557
24075: -181.70412976775557
24078: -181.70412976775557
14343: -181.69579725433627
24383: -181.45864220428058
14224: -180.94708774128455
17214: -180.88775997615312
8177: -180.8593716176717
5913: -180.7972120538097
5916: -180.7972120538097
26665: -180.79633089177096
13705: -180.7696371565042
13708: -180.7696371565042
13714: -180.7696371565042
13717: -180.7696371565042
2827: -180.7696371565042
5240: -180.43821861707644
4140: -180.36990879536833
5928: -180.2382121767203
836: -180.13418720431414
25630: -179.98578425499446
10767: -179.84146206275284
10770: -179.84146206275284
10776: -179.84146206275284
846: -179.79469001749393
24123: -179.78922144767822
24126: -179.78922144767822
4929: -179.78922144767822
3339: -179.78568214645787
26715: -179.38283077320034
6678: -179.3762801498191
861: -179.02502804805988
22602: -178.96605181865303
4620: -178.96605181865303
1362: -178.6912727966245
6076: -178.66104340497654
7878: -178.44759593615305
20172: -178.4309456909449
239: -178.3539937108156
798: -178.22899748296874
5565: -178.18135637530992
18463: -177.59376090676125
3802: -177.59376090676125
24611: -177.48516867531504
7718: -177.46827891035525
25713: -177.28958210595806
3148: -177.2811276176024
25185: -176.99095556281975
11320: -176.78323656786367
7707: -176.6513895465855
18342: -176.31368463529367
18345: -176.31368463529367
18348: -176.31368463529367
27316: -176.30560127317943
5364: -176.26312318941
468: -176.1424377220463
1231: -176.05203174685806
20203: -175.96734349967392
20206: -175.96734349967392
20209: -175.96734349967392
4150: -175.96734349967392
1237: -175.89551465300445
7780: -175.89551465300445
14253: -175.88691275918782
14256: -175.88691275918782
24291: -175.7741116338648
9610: -175.77144492166113
9613: -175.77144492166113
9616: -175.77144492166113
9619: -175.77144492166113
24475: -175.75557177697334
1530: -175.6053419307423
8799: -175.6053419307423
22453: -175.55627939467453
22456: -175.55627939467453
22459: -175.55627939467453
22462: -175.55627939467453
22465: -175.55627939467453
22468: -175.55627939467453
22471: -175.55627939467453
22474: -175.55627939467453
4588: -175.55627939467453
4591: -175.55627939467453
17748: -175.5495471359125
3690: -175.5495471359125
1599: -175.0798702433413
25218: -174.84423589631263
1764: -174.75149980506254
6005: -174.58783153059707
25803: -174.56730055258012
74: -174.54018219431057
2955: -174.54013081417696
26841: -174.44126484202255
14556: -174.40236295164001
1128: -173.83860742836632
7419: -173.83860742836632
11031: -173.7497758249875
5673: -173.73277874657535
26733: -173.71041614048158
25814: -173.58676417906574
24414: -173.49780939687764
27238: -173.48504783585736
9051: -173.35770015391608
18757: -173.33220236790095
18760: -173.33220236790095
18763: -173.33220236790095
18766: -173.33220236790095
3865: -173.33220236790095
9655: -173.33127110679428
2284: -173.28427025881663
13528: -173.02336501326943
7935: -173.0153550114597
11484: -172.99530353962712
11487: -172.99530353962712
2250: -172.99530353962712
270: -172.95443629237747
2177: -172.91042900260896
27078: -172.61085793425798
25823: -172.59358925596186
13434: -172.44214002448476
6381: -172.4324085986653
5001: -172.36803913453778
26887: -172.25148881036262
24382: -172.21357312614307
27133: -172.0563700846877
849: -171.8188938210417
2028: -171.75395842321606
14164: -171.5264039018404
24853: -171.5264039018404
26571: -171.4905286403571
18: -171.22750990267676
133: -171.12514685747053
611: -171.0897514102912
16933: -171.03658011332092
3523: -171.03658011332092
14472: -170.91031333493626
599: -170.872941737604
26218: -170.66146083273185
14305: -170.59853903815068
19236: -170.4339092340742
19239: -170.4339092340742
3969: -170.4339092340742
3654: -170.3548654953189
1147: -170.0807870990597
672: -169.93197782254967
27154: -169.66361904066744
773: -168.9668177532813
734: -168.85375195117348
10341: -168.63166490205444
10344: -168.63166490205444
10347: -168.63166490205444
10350: -168.63166490205444
10353: -168.63166490205444
10356: -168.63166490205444
10359: -168.63166490205444
10362: -168.63166490205444
10365: -168.63166490205444
10368: -168.63166490205444
10371: -168.63166490205444
10377: -168.63166490205444
10380: -168.63166490205444
10383: -168.63166490205444
10386: -168.63166490205444
10398: -168.63166490205444
10401: -168.63166490205444
10404: -168.63166490205444
2013: -168.63166490205444
2025: -168.63166490205444
2034: -168.63166490205444
8314: -168.56893892823948
8320: -168.56893892823948
8323: -168.56893892823948
1589: -168.52646345746373
5255: -168.225851856253
26281: -167.5964843872337
23305: -167.43991843322823
23308: -167.43991843322823
23311: -167.43991843322823
23314: -167.43991843322823
23317: -167.43991843322823
23320: -167.43991843322823
23323: -167.43991843322823
2185: -167.35305523635105
2209: -167.25933681819527
477: -167.02387492109114
1099: -166.6904687405843
10374: -166.61685062336466
2022: -166.61685062336466
24305: -166.61032024221072
7951: -166.54854302266102
1869: -166.40202285455604
9879: -166.40202285455604
9882: -166.40202285455604
9885: -166.40202285455604
9888: -166.40202285455604
14274: -166.38936013834515
7032: -166.2362420947728
3251: -166.18290015905163
3142: -166.11526759743276
6337: -166.04976191055394
9951: -165.83027392292107
7792: -165.82133141019713
3906: -165.81207765300488
20694: -165.79786612179507
20697: -165.79786612179507
15492: -165.76078922238747
25197: -165.68641032207313
15232: -165.68391566196757
6978: -165.5485059044918
1: -165.4381165076078
21091: -165.43734633825233
21094: -165.43734633825233
21097: -165.43734633825233
21100: -165.43734633825233
21103: -165.43734633825233
21106: -165.43734633825233
21109: -165.43734633825233
21112: -165.43734633825233
4324: -165.43734633825233
4327: -165.43734633825233
27285: -165.3069936432458
8478: -165.14479880498016
1752: -165.07831856176722
2664: -164.97595170391696
25220: -164.90698650878036
7848: -164.6431067639177
3079: -164.61733240754197
1126: -164.5364584795936
4994: -164.48221634749783
2265: -164.43630643866513
1902: -164.3282377450542
1905: -164.3282377450542
9987: -164.3282377450542
9990: -164.3282377450542
12210: -164.2289476052225
25986: -164.0825347107967
5676: -164.024905499005
5679: -164.024905499005
9960: -163.90518273139338
13435: -163.8934163260365
5970: -163.5277109743442
12969: -163.43691249123353
6375: -163.2623408174262
2658: -163.06125550457824
1079: -162.7122548345738
8260: -162.4859309748903
1179: -162.35228434849463
26263: -162.12392262095995
27271: -162.05465895985748
19141: -161.9638612123988
19144: -161.9638612123988
19147: -161.9638612123988
7674: -161.87376622543823
16725: -161.79481119979872
16728: -161.79481119979872
16731: -161.79481119979872
16734: -161.79481119979872
25938: -161.79481119979872
3486: -161.79481119979872
548: -161.31580754265414
10527: -161.26034296654328
10530: -161.26034296654328
10533: -161.26034296654328
2079: -161.26034296654328
2082: -161.26034296654328
735: -161.1840623130691
8181: -161.11087623626395
26557: -161.01607723480552
10303: -160.9807210557494
10306: -160.9807210557494
10309: -160.9807210557494
10312: -160.9807210557494
10315: -160.9807210557494
10318: -160.9807210557494
10321: -160.9807210557494
10324: -160.9807210557494
10327: -160.9807210557494
10330: -160.9807210557494
10333: -160.9807210557494
1999: -160.9807210557494
2005: -160.9807210557494
2008: -160.9807210557494
2011: -160.9807210557494
92: -160.92029017769352
5934: -160.86586468784577
5271: -160.67392034501518
27192: -160.6302256407039
16986: -160.4838227754927
531: -160.41688697740943
534: -160.41688697740943
5925: -160.41688697740943
5937: -160.41688697740943
5940: -160.41688697740943
5943: -160.41688697740943
5946: -160.41688697740943
5949: -160.41688697740943
5958: -160.41688697740943
5961: -160.41688697740943
5964: -160.41688697740943
5973: -160.41688697740943
5976: -160.41688697740943
1380: -160.3853402995894
26900: -160.21137698560167
25274: -160.126550077754
10270: -159.97050697655982
1034: -159.9370611641349
454: -159.75340251037733
17833: -159.72758091646872
11368: -159.60217116944492
11374: -159.60217116944492
11377: -159.60217116944492
11380: -159.60217116944492
11383: -159.60217116944492
11386: -159.60217116944492
11389: -159.60217116944492
11392: -159.60217116944492
27340: -159.502561768677
27145: -159.42846656715477
3427: -159.33087137397797
27351: -159.29643613814204
19651: -159.19563691687296
13248: -159.01176107844216
2712: -159.01176107844216
18174: -158.9569858791706
25184: -158.8760300592449
7198: -158.8547840840989
5061: -158.56878354307244
26282: -158.43086457993633
4357: -158.32149333970716
19135: -158.3184999276858
19138: -158.3184999276858
25573: -158.3184999276858
26941: -158.3184999276858
4330: -158.04315965699507
20463: -157.95808697910965
1566: -157.72264650405185
11871: -157.52880783318201
7981: -157.46293690852397
925: -157.17168848361797
3565: -157.16598158210448
19710: -157.13053658602982
2444: -157.10455201371667
1025: -156.91021385040602
19411: -156.73462964663932
19414: -156.73462964663932
19417: -156.73462964663932
19420: -156.73462964663932
3991: -156.73462964663932
3994: -156.73462964663932
27028: -156.66864092956382
27095: -156.65297098393492
2516: -156.57046384794145
290: -156.43818152430748
8653: -156.350785012681
16122: -156.18997022749508
16125: -156.18997022749508
16128: -156.18997022749508
16131: -156.18997022749508
3342: -156.18997022749508
3345: -156.18997022749508
3348: -156.18997022749508
19263: -156.08667745824812
20137: -156.06483543544581
20143: -156.06483543544581
20146: -156.06483543544581
20149: -156.06483543544581
20152: -156.06483543544581
20155: -156.06483543544581
20158: -156.06483543544581
1368: -156.0148477131024
8274: -156.0148477131024
8277: -156.0148477131024
8280: -156.0148477131024
8286: -156.0148477131024
8289: -156.0148477131024
8292: -156.0148477131024
8298: -156.0148477131024
8301: -156.0148477131024
20764: -156.01180989072267
20767: -156.01180989072267
8977: -155.9481316084065
2831: -155.93057326352078
10593: -155.91490250921697
26205: -155.7364693220244
9436: -155.71102859352277
4041: -155.70125662883805
25208: -155.6306807105504
561: -155.59038248090138
17631: -155.49949092981737
26653: -155.42817587387412
9604: -155.42817587387412
9607: -155.42817587387412
1517: -155.3693993881844
27170: -155.3548425357461
474: -155.2106386821535
26829: -155.1805015360526
2152: -154.8803299945867
18967: -154.83836312176052
27274: -154.76585418418102
14277: -154.7417431448826
320: -154.49919793229404
18222: -154.38790826533784
13693: -154.32930062090844
13696: -154.32930062090844
13699: -154.32930062090844
2821: -154.32930062090844
6738: -154.1594783116864
7972: -153.93904770222815
10258: -153.92802189417978
10261: -153.92802189417978
10267: -153.92802189417978
10273: -153.92802189417978
10279: -153.92802189417978
1993: -153.92802189417978
24975: -153.84363302303032
2210: -153.69604956587312
12342: -153.60119152678917
1806: -153.51497695646273
2449: -153.39981084595033
7255: -153.29507148199073
703: -153.26559933006735
16357: -153.25473368582544
22303: -153.11120418099918
22306: -153.11120418099918
280: -152.87152523428531
27378: -152.79895395041106
24607: -152.64243082814508
17443: -152.61708100425474
17446: -152.61708100425474
17449: -152.61708100425474
17458: -152.61708100425474
17461: -152.61708100425474
17464: -152.61708100425474
17500: -152.61708100425474
2575: -152.58373621279756
1561: -152.5810979317468
1564: -152.5810979317468
8932: -152.5810979317468
8935: -152.5810979317468
8938: -152.5810979317468
8941: -152.5810979317468
19242: -152.5260217921921
19245: -152.5260217921921
19248: -152.5260217921921
19251: -152.5260217921921
3972: -152.5260217921921
5867: -152.45007048799184
24478: -152.44048579846802
9156: -152.41221480272733
14974: -152.40478339902992
14977: -152.40478339902992
14983: -152.40478339902992
14986: -152.40478339902992
14989: -152.40478339902992
14992: -152.40478339902992
3088: -152.40478339902992
7683: -152.32709005591815
8199: -152.29730895680075
369: -152.24807158716146
25649: -152.22943519477369
6605: -152.15618210359636
25213: -152.0833567535691
5615: -152.02746259288017
514: -151.89590454947142
14668: -151.70086266873108
14671: -151.70086266873108
14674: -151.70086266873108
2998: -151.70086266873108
3001: -151.70086266873108
6894: -151.68999468242447
18436: -151.61130319571643
7234: -151.52722962322275
7237: -151.52722962322275
7240: -151.52722962322275
7246: -151.52722962322275
7252: -151.52722962322275
7258: -151.52722962322275
7261: -151.52722962322275
7264: -151.52722962322275
7276: -151.52722962322275
225: -151.46551858443144
1606: -151.3355158746146
12507: -151.22291773892943
5985: -151.20436038989942
167: -151.10086577614408
11583: -151.0380805899382
11586: -151.0380805899382
5988: -150.9390389560987
5991: -150.9390389560987
27002: -150.53713565513928
837: -150.43346896604723
9129: -150.291562748005
22749: -150.21581823793775
22752: -150.21581823793775
4653: -150.21581823793775
9388: -150.17540115793122
11122: -150.04021509364426
497: -149.49777665252688
8146: -149.21261237936648
5063: -149.14537800294318
6966: -149.03463438402997
6969: -149.03463438402997
6972: -149.03463438402997
948: -149.03463438402997
4218: -148.787150534172
3217: -148.64725946525394
12619: -148.26185490065237
12622: -148.26185490065237
12625: -148.26185490065237
12628: -148.26185490065237
2542: -148.26185490065237
25661: -148.25900755015962
15862: -148.03524272107677
15865: -148.03524272107677
15868: -148.03524272107677
1627: -148.00065085221098
14926: -147.89234276262647
14929: -147.89234276262647
3076: -147.89234276262647
26580: -147.83356998334332
22: -147.76956189873397
259: -147.5445977729787
262: -147.5445977729787
5305: -147.5445977729787
5308: -147.5445977729787
5311: -147.5445977729787
5314: -147.5445977729787
2875: -147.3532569676682
1783: -147.29562386782186
9640: -147.29562386782186
9643: -147.29562386782186
9646: -147.29562386782186
24580: -147.2707149194829
25524: -146.98271705358107
10458: -146.90434743872459
10461: -146.90434743872459
16048: -146.89824507165133
16051: -146.89824507165133
16054: -146.89824507165133
16057: -146.89824507165133
16060: -146.89824507165133
16063: -146.89824507165133
12111: -146.89129408890534
7156: -146.85609847929325
9168: -146.81652569461235
25686: -146.66269418056663
20122: -146.6580051866792
20125: -146.6580051866792
20128: -146.6580051866792
20131: -146.6580051866792
19444: -146.5989323931381
19447: -146.5989323931381
19450: -146.5989323931381
19453: -146.5989323931381
19456: -146.5989323931381
4000: -146.5989323931381
24395: -146.3286019982856
27029: -146.247340773059
11245: -146.2238467521056
2227: -146.2238467521056
25615: -145.92309940936693
21228: -145.89182024336316
21231: -145.89182024336316
21234: -145.89182024336316
5544: -145.57117619786862
24993: -145.53889522876054
119: -145.3798828990917
24534: -145.2688381976564
13317: -145.26065521296553
1512: -145.25452866298238
10275: -145.02060997372158
15690: -144.90729119938754
24108: -144.8738062028781
24111: -144.8738062028781
24114: -144.8738062028781
24117: -144.8738062028781
4926: -144.8738062028781
9723: -144.6984806347725
9726: -144.6984806347725
9729: -144.6984806347725
3045: -144.68428583442045
27125: -144.59936406983908
222: -144.53341416715756
16348: -144.47877990792526
16351: -144.47877990792526
16354: -144.47877990792526
3412: -144.47877990792526
20481: -144.47375504101694
5568: -144.4222605071805
11226: -144.33641056385179
2733: -144.3229513607041
5329: -144.267304457859
24914: -144.0444002639247
21133: -143.94156778760097
4339: -143.94156778760097
26538: -143.82498921600487
2319: -143.77112241438516
6630: -143.68791774574373
6633: -143.68791774574373
6636: -143.68791774574373
825: -143.68791774574373
24307: -143.43079903486492
18939: -143.4067020232766
18942: -143.4067020232766
18945: -143.4067020232766
18951: -143.4067020232766
18954: -143.4067020232766
18957: -143.4067020232766
18960: -143.4067020232766
18969: -143.4067020232766
18972: -143.4067020232766
18975: -143.4067020232766
18978: -143.4067020232766
3918: -143.4067020232766
3921: -143.4067020232766
3924: -143.4067020232766
3927: -143.4067020232766
6160: -143.3564237779323
6163: -143.3564237779323
6169: -143.3564237779323
6172: -143.3564237779323
6175: -143.3564237779323
6178: -143.3564237779323
6181: -143.3564237779323
6184: -143.3564237779323
6187: -143.3564237779323
6190: -143.3564237779323
6193: -143.3564237779323
6196: -143.3564237779323
6199: -143.3564237779323
6202: -143.3564237779323
6205: -143.3564237779323
6208: -143.3564237779323
6211: -143.3564237779323
6217: -143.3564237779323
6220: -143.3564237779323
6235: -143.3564237779323
6238: -143.3564237779323
6241: -143.3564237779323
6244: -143.3564237779323
6247: -143.3564237779323
6250: -143.3564237779323
6256: -143.3564237779323
649: -143.3564237779323
652: -143.3564237779323
655: -143.3564237779323
658: -143.3564237779323
661: -143.3564237779323
667: -143.3564237779323
676: -143.3564237779323
5687: -143.19127672343103
1288: -143.13774861280956
5890: -143.13752164609897
27263: -143.0718362626681
26834: -142.92050471603497
731: -142.8381391554668
26638: -142.81579767467903
5713: -142.78887941068575
1249: -142.73207236808713
7813: -142.73207236808713
22203: -142.5451914335143
4536: -142.5451914335143
243: -142.52407027186172
7387: -142.24738563226705
25609: -142.1495024106316
4629: -142.06040333344143
1150: -142.0574859315189
19140: -142.01585132153917
19143: -142.01585132153917
19146: -142.01585132153917
26982: -141.93773860168153
1374: -141.62797265412024
6872: -141.58541286161747
24567: -141.51664802659764
25325: -141.4970476779429
26888: -141.37022485915824
13743: -141.0550157394955
5243: -141.03941919590537
24978: -140.83709506327105
1797: -140.51270346878903
13587: -140.47931402850585
628: -140.47507063911138
449: -140.41588053476144
7804: -140.40585682659392
24186: -140.3747421480812
24189: -140.3747421480812
24192: -140.3747421480812
24195: -140.3747421480812
24198: -140.3747421480812
24201: -140.3747421480812
24204: -140.3747421480812
24207: -140.3747421480812
24210: -140.3747421480812
24213: -140.3747421480812
6226: -140.29771825793284
25721: -140.24127277656905
10005: -140.17525994025124
1908: -140.17525994025124
9999: -140.17525994025124
23082: -140.02029295164184
23085: -140.02029295164184
23088: -140.02029295164184
23091: -140.02029295164184
23094: -140.02029295164184
23097: -140.02029295164184
23100: -140.02029295164184
23103: -140.02029295164184
23106: -140.02029295164184
23109: -140.02029295164184
23112: -140.02029295164184
23115: -140.02029295164184
4707: -140.02029295164184
4710: -140.02029295164184
4713: -140.02029295164184
4716: -140.02029295164184
4719: -140.02029295164184
4722: -140.02029295164184
1347: -139.88799933868384
9130: -139.7281816499001
12408: -139.63739239472335
12411: -139.63739239472335
12414: -139.63739239472335
2496: -139.63739239472335
5241: -139.62582061620637
51: -139.34516464270422
6390: -139.32326607893035
6393: -139.32326607893035
7069: -139.25057463291054
7072: -139.25057463291054
7075: -139.25057463291054
7078: -139.25057463291054
7081: -139.25057463291054
15072: -139.04953821967845
3102: -139.04953821967845
26925: -138.9270142478017
6232: -138.5667154522095
24348: -138.56236654205696
5723: -138.48222109698224
26760: -138.44627685434858
1515: -138.37872649153172
7957: -138.27143265277127
10947: -138.0623997759034
9441: -138.053630393058
9444: -138.053630393058
1811: -137.71250937276417
12721: -137.708483948994
12724: -137.708483948994
12727: -137.708483948994
12730: -137.708483948994
12733: -137.708483948994
15643: -137.6728956016187
5613: -137.6030084468261
19254: -137.55060893740344
19257: -137.55060893740344
19260: -137.55060893740344
19266: -137.55060893740344
19269: -137.55060893740344
19278: -137.55060893740344
19281: -137.55060893740344
19284: -137.55060893740344
19287: -137.55060893740344
19290: -137.55060893740344
19293: -137.55060893740344
19296: -137.55060893740344
19299: -137.55060893740344
19302: -137.55060893740344
3975: -137.55060893740344
3978: -137.55060893740344
15640: -137.52143862750643
25810: -137.3731125411275
16249: -137.33211685198447
22438: -137.1083344788376
22441: -137.1083344788376
4582: -137.1083344788376
1815: -136.86611138839538
1272: -136.74019485837786
5780: -136.71339106034523
1031: -136.46427495265047
1125: -136.44300036370788
7899: -136.3668239838091
1788: -135.99924721000752
6271: -135.8441810119501
24977: -135.82029597678542
8479: -135.7215872397757
27084: -135.6398067641182
16989: -135.63710792293801
3537: -135.63710792293801
8964: -135.61383065766358
1823: -135.57867418670503
8400: -135.54960821104362
1097: -135.38683748385205
994: -135.34541662366973
1641: -134.99405201527733
10664: -134.88274592007815
25125: -134.83526340100852
12720: -134.79604927719848
12723: -134.79604927719848
12726: -134.79604927719848
12729: -134.79604927719848
12732: -134.79604927719848
23601: -134.62825041858056
23604: -134.62825041858056
23607: -134.62825041858056
2673: -134.43808678933928
12151: -134.26661336914188
12154: -134.26661336914188
12495: -134.10388917345395
12910: -133.93736709237234
6954: -133.9085799860362
6370: -133.8096938676085
8532: -133.786681343125
25230: -133.7729119106698
8733: -133.7460741776559
11898: -133.70780127900096
9134: -133.66668548089135
17586: -133.64123257873058
17589: -133.64123257873058
3660: -133.64123257873058
3663: -133.64123257873058
26271: -133.6161868172599
4252: -133.4586701400432
1449: -133.4153442212695
7407: -133.31767124804296
341: -133.15292460848116
22197: -132.9248522122172
22200: -132.9248522122172
22206: -132.9248522122172
22209: -132.9248522122172
1860: -132.86606864456292
1863: -132.86606864456292
9864: -132.86606864456292
9867: -132.86606864456292
9870: -132.86606864456292
9873: -132.86606864456292
14212: -132.80312957801326
14215: -132.80312957801326
14218: -132.80312957801326
14221: -132.80312957801326
14227: -132.80312957801326
14230: -132.80312957801326
14233: -132.80312957801326
14236: -132.80312957801326
14239: -132.80312957801326
14242: -132.80312957801326
26751: -132.75657582845292
17784: -132.64487626130733
6766: -132.630655416496
6869: -132.54909597114025
26292: -132.49410954877033
1482: -132.27559007241146
8682: -132.27559007241146
646: -132.25910766558138
234: -132.2322656699046
593: -132.11865680707888
24733: -131.99657913890906
12844: -131.92175429849894
16167: -131.80437259241629
16170: -131.80437259241629
12847: -131.77029732438666
12850: -131.77029732438666
12853: -131.77029732438666
2614: -131.77029732438666
1628: -131.75330177308177
24597: -131.6868876225707
22866: -131.6035066266713
22869: -131.6035066266713
22872: -131.6035066266713
22875: -131.6035066266713
22878: -131.6035066266713
4668: -131.6035066266713
4671: -131.6035066266713
517: -131.4561136253809
15172: -131.35932160249118
3130: -131.35932160249118
540: -131.28925216031948
24418: -131.2683909544959
1681: -131.04703129082446
11056: -131.045849278936
11059: -131.045849278936
2182: -131.045849278936
766: -130.95168616040928
5848: -130.88470346291422
1176: -130.8595346675098
7506: -130.84925979969876
22008: -130.66692565012886
22011: -130.66692565012886
2896: -130.6225489911472
24555: -130.45956530090982
14209: -130.4487107049915
25294: -130.32902063134767
10608: -130.2675231437422
5263: -130.08121642123984
596: -130.03857164665303
1441: -130.03636178937984
975: -129.95343655343407
1137: -129.93594983261588
7452: -129.93594983261588
1233: -129.93452888659795
249: -129.84329093228394
16857: -129.8060504770737
20365: -129.7955017131055
20368: -129.7955017131055
20371: -129.7955017131055
20374: -129.7955017131055
20377: -129.7955017131055
20380: -129.7955017131055
20383: -129.7955017131055
4186: -129.7955017131055
1995: -129.71169406543777
12054: -129.68645245215953
5223: -129.5506557127472
25745: -129.46114612206154
26393: -129.3255663634815
1212: -129.30337812037277
6489: -129.15200826838043
6492: -129.15200826838043
6495: -129.15200826838043
6498: -129.15200826838043
6504: -129.15200826838043
768: -129.15200826838043
7993: -129.05832850607655
16827: -128.8858659130142
16836: -128.8858659130142
16839: -128.8858659130142
16845: -128.8858659130142
16848: -128.8858659130142
16851: -128.8858659130142
16854: -128.8858659130142
3513: -128.8858659130142
8188: -128.6960033849236
22578: -128.43307759535523
22581: -128.43307759535523
22584: -128.43307759535523
22587: -128.43307759535523
22590: -128.43307759535523
22596: -128.43307759535523
22599: -128.43307759535523
4617: -128.43307759535523
462: -128.40090219145375
14529: -128.30934862485262
15175: -128.29591453562264
483: -128.26399741702406
5817: -128.26399741702406
5820: -128.26399741702406
5823: -128.26399741702406
5826: -128.26399741702406
18454: -128.2378642400095
16842: -128.19333417233608
7866: -128.14992999268637
25092: -128.08122223704984
27024: -127.99324894119873
6384: -127.8428600233415
5726: -127.7337848292118
27224: -127.55638905015188
26340: -127.47377609945002
12900: -127.18482474773401
12903: -127.18482474773401
12906: -127.18482474773401
12915: -127.18482474773401
26615: -127.01971960272718
25796: -126.94147569831057
11109: -126.84276362998537
11112: -126.84276362998537
2193: -126.84276362998537
4982: -126.84144320784368
27363: -126.82941092996428
5667: -126.67621927481682
971: -126.6567811917339
1770: -126.5278436563839
26769: -126.48797360327424
26705: -126.4635753754335
10663: -126.25010990308489
6739: -126.24697248992042
25019: -126.05994731727066
6792: -126.05171603820634
885: -126.05171603820634
1291: -126.02114502814199
7975: -126.02114502814199
13594: -125.90220421451606
13597: -125.90220421451606
13600: -125.90220421451606
13606: -125.90220421451606
13609: -125.90220421451606
13612: -125.90220421451606
13615: -125.90220421451606
13618: -125.90220421451606
2791: -125.90220421451606
2794: -125.90220421451606
2797: -125.90220421451606
24919: -125.87568288618941
3540: -125.59070777812981
6229: -125.45404125275687
12895: -125.44128525810297
2632: -125.44128525810297
15199: -125.26567458108634
15202: -125.26567458108634
3133: -125.26567458108634
947: -125.20821323015474
5905: -125.09722234206055
10068: -124.98579876890089
16884: -124.85058023298689
16887: -124.85058023298689
16890: -124.85058023298689
16893: -124.85058023298689
14010: -124.80296815149502
15187: -124.7942351466444
6051: -124.71018073378065
25512: -124.66778268749407
15382: -124.595484303643
10173: -124.33188615108305
27007: -124.31770915342494
18675: -124.2259311945405
14941: -124.21969660356092
14953: -124.21969660356092
14959: -124.21969660356092
14962: -124.21969660356092
14965: -124.21969660356092
14968: -124.21969660356092
3082: -124.21969660356092
11743: -124.19980872791673
2299: -124.19980872791673
19695: -124.10501070521491
19698: -124.10501070521491
19701: -124.10501070521491
19704: -124.10501070521491
19707: -124.10501070521491
4044: -124.10501070521491
18993: -123.78816297429154
18996: -123.78816297429154
2334: -123.78611337473332
18351: -123.56002969813831
18354: -123.56002969813831
18357: -123.56002969813831
26208: -123.54549980501363
24234: -123.33341188322682
24237: -123.33341188322682
24240: -123.33341188322682
17: -123.30035448226018
14560: -123.2935264158944
14563: -123.2935264158944
14569: -123.2935264158944
14572: -123.2935264158944
14575: -123.2935264158944
14578: -123.2935264158944
26573: -123.2053667665892
9685: -123.1201903475248
1474: -123.02417582934038
26374: -123.02417582934038
8599: -123.02417582934038
8605: -123.02417582934038
8608: -123.02417582934038
8611: -123.02417582934038
8644: -123.02417582934038
19029: -122.94932068284481
19032: -122.94932068284481
19035: -122.94932068284481
19038: -122.94932068284481
6030: -122.81544334719172
3847: -122.59048166954376
1408: -122.57516163877635
17455: -122.49024563651994
2715: -122.23031463171478
18906: -122.13147603284638
3909: -122.13147603284638
6567: -122.07468191640169
13603: -121.98596587511318
27381: -121.94991403772576
19125: -121.84451582890486
3844: -121.82694189488225
10860: -121.7674944795047
2154: -121.7674944795047
1268: -121.6106087133858
3177: -121.55106557865292
12168: -121.52221695104645
7995: -121.34221359203313
12197: -121.30921708083942
19644: -121.29270115579588
4035: -121.29270115579588
26584: -121.22034515872397
466: -121.17588228645225
14121: -121.17130654586799
14124: -121.17130654586799
2880: -121.17130654586799
5121: -121.10206024520205
24819: -121.05642161501073
26847: -121.02891460192204
1765: -121.00988836291178
27166: -120.99507918287303
1826: -120.96686563767679
2514: -120.93700844311127
10238: -120.90276040761788
1379: -120.85116245076469
7086: -120.79414377632051
1542: -120.77408160380878
5270: -120.72239714794291
5995: -120.6928759468733
5110: -120.35589436464296
5113: -120.35589436464296
5116: -120.35589436464296
5119: -120.35589436464296
5125: -120.35589436464296
25958: -120.28718699741475
13831: -120.28206283507694
15111: -120.21102785591066
3114: -120.21102785591066
19366: -120.20487387145718
758: -120.14518167129452
26284: -120.11212174141887
10120: -119.99781635387079
27090: -119.94135916434493
6503: -119.93479299529622
26499: -119.87966969157041
25761: -119.85430437980774
13843: -119.84207918594005
1546: -119.80876014670282
8869: -119.80876014670282
8872: -119.80876014670282
8875: -119.80876014670282
8878: -119.80876014670282
8881: -119.80876014670282
11582: -119.7744070407641
2270: -119.7744070407641
5010: -119.74789988626894
12289: -119.74155178256292
12292: -119.74155178256292
12295: -119.74155178256292
12301: -119.74155178256292
12307: -119.74155178256292
12316: -119.74155178256292
12319: -119.74155178256292
12322: -119.74155178256292
12325: -119.74155178256292
12328: -119.74155178256292
12331: -119.74155178256292
12334: -119.74155178256292
12337: -119.74155178256292
2473: -119.74155178256292
2476: -119.74155178256292
2479: -119.74155178256292
11589: -119.67384694369404
1158: -119.4555317080984
5286: -119.45494002808884
14566: -119.38836840665357
24714: -119.3682313701842
13846: -119.33850847153228
26343: -119.30636042432333
13245: -119.23673924492897
13251: -119.23673924492897
13254: -119.23673924492897
13257: -119.23673924492897
13260: -119.23673924492897
2718: -119.23673924492897
24980: -119.19698577842101
24364: -119.10194284293775
27074: -119.0359305004975
17991: -118.91161510727153
17994: -118.91161510727153
25114: -118.90267121037127
18999: -118.87328382405464
19002: -118.87328382405464
19005: -118.87328382405464
19008: -118.87328382405464
19011: -118.87328382405464
19014: -118.87328382405464
19017: -118.87328382405464
19020: -118.87328382405464
19023: -118.87328382405464
19026: -118.87328382405464
3933: -118.87328382405464
26279: -118.8698923164517
5546: -118.84985254493694
25780: -118.78684236067069
17872: -118.73893408047029
17875: -118.73893408047029
17878: -118.73893408047029
17881: -118.73893408047029
17884: -118.73893408047029
1001: -118.71561701665567
11188: -118.6284261810455
11191: -118.6284261810455
7521: -118.4930618482873
131: -118.46556730838674
855: -118.29221320813278
25617: -118.28076334537026
158: -118.20911195610067
23668: -118.05321120241783
23671: -118.05321120241783
12222: -118.00661267863826
11778: -117.90457834112118
11781: -117.90457834112118
11784: -117.90457834112118
11787: -117.90457834112118
11790: -117.90457834112118
2310: -117.90457834112118
23: -117.86679061749415
4039: -117.65614285462883
712: -117.64257501018936
20753: -117.51071044491835
20756: -117.51071044491835
20759: -117.51071044491835
20762: -117.51071044491835
4268: -117.51071044491835
19465: -117.24015858512968
19468: -117.24015858512968
4003: -117.24015858512968
11887: -117.10188673731851
11896: -117.10188673731851
2350: -117.10188673731851
24966: -116.88774338647396
10971: -116.77808448368582
14859: -116.57508762372606
14862: -116.57508762372606
14865: -116.57508762372606
3054: -116.57508762372606
15816: -116.5519131213343
15819: -116.5519131213343
3261: -116.5519131213343
3264: -116.5519131213343
12893: -116.42375763011341
27290: -116.36970353214447
2360: -116.30112797538564
12966: -116.29608289313164
27266: -116.16738254920861
27296: -116.15672089012541
25707: -115.85273259938292
11404: -115.81367078822288
17667: -115.6082665122286
17670: -115.6082665122286
2306: -115.36857962424065
24883: -115.12557171200797
27243: -114.97078405329331
20046: -114.92430960904701
1456: -114.88416576069012
8545: -114.88416576069012
8548: -114.88416576069012
8551: -114.88416576069012
8554: -114.88416576069012
8560: -114.88416576069012
5195: -114.87308517012697
283: -114.83821908379012
292: -114.83821908379012
5332: -114.83821908379012
5335: -114.83821908379012
5338: -114.83821908379012
5344: -114.83821908379012
5347: -114.83821908379012
5350: -114.83821908379012
5353: -114.83821908379012
5359: -114.83821908379012
5368: -114.83821908379012
5371: -114.83821908379012
5374: -114.83821908379012
21243: -114.8099449451492
21246: -114.8099449451492
4365: -114.8099449451492
7131: -114.79989945012953
7458: -114.77785879063786
23982: -114.71053656034574
8115: -114.60516484461121
11605: -114.57639633792746
9162: -114.32599615880717
7224: -114.31792920756958
1901: -114.18907287799965
205: -114.16715821190854
16744: -114.15405506344196
16747: -114.15405506344196
16750: -114.15405506344196
16753: -114.15405506344196
16756: -114.15405506344196
16759: -114.15405506344196
16762: -114.15405506344196
16768: -114.15405506344196
16771: -114.15405506344196
3493: -114.15405506344196
3496: -114.15405506344196
6579: -114.14457312190879
804: -114.14457312190879
89: -113.95142645422807
15394: -113.90094738742313
15397: -113.90094738742313
24832: -113.90094738742313
24452: -113.85972193018343
15897: -113.83428357716276
15900: -113.83428357716276
15903: -113.83428357716276
1535: -113.82734667557108
5267: -113.82446010638733
26022: -113.71071207349941
6531: -113.68416020146974
780: -113.68416020146974
360: -113.64217450394838
12212: -113.55988008078693
1373: -113.49640047950489
7031: -113.46699726695148
6253: -113.41199654369537
274: -113.4052456459479
5341: -113.4052456459479
19185: -113.39629765787595
9658: -113.37867683607836
9664: -113.37867683607836
9667: -113.37867683607836
9670: -113.37867683607836
9673: -113.37867683607836
9676: -113.37867683607836
9682: -113.37867683607836
9688: -113.37867683607836
9691: -113.37867683607836
9694: -113.37867683607836
25052: -113.37155734714939
4080: -113.36215805980424
12767: -113.28468607197912
2585: -113.28468607197912
7102: -113.22499120939922
7425: -113.06840503251581
15721: -112.90404276221943
15724: -112.90404276221943
15727: -112.90404276221943
3244: -112.90404276221943
5987: -112.88655392309984
15376: -112.8528615052889
520: -112.84794112104922
5884: -112.84794112104922
5887: -112.84794112104922
5893: -112.84794112104922
5896: -112.84794112104922
5899: -112.84794112104922
5902: -112.84794112104922
5908: -112.84794112104922
386: -112.78854689947796
1284: -112.72684187226814
7944: -112.72684187226814
7272: -112.67769564180291
17538: -112.64793728448446
17541: -112.64793728448446
6222: -112.38537058349645
11757: -112.38529545397529
11760: -112.38529545397529
6368: -112.35681591000197
26969: -112.30424130331882
530: -112.2651930280589
10986: -112.09926907165946
1720: -112.08504065149418
11371: -112.02039943829958
16100: -111.9373442211018
22323: -111.82418729518935
245: -111.78585198902087
13584: -111.75860024202652
22041: -111.51259893737293
22044: -111.51259893737293
22047: -111.51259893737293
22050: -111.51259893737293
4509: -111.51259893737293
25750: -111.49007904040869
27248: -111.47774663997122
27087: -111.38237936813148
24270: -111.17595044371588
24273: -111.17595044371588
24276: -111.17595044371588
27324: -111.172381492337
334: -111.02369860549156
3510: -111.00977190625296
27233: -110.99790631973326
1009: -110.87306428881345
1015: -110.87306428881345
7093: -110.87306428881345
7099: -110.87306428881345
7105: -110.87306428881345
7108: -110.87306428881345
7111: -110.87306428881345
7114: -110.87306428881345
7117: -110.87306428881345
7120: -110.87306428881345
20497: -110.86333813716737
20500: -110.86333813716737
20503: -110.86333813716737
20506: -110.86333813716737
1609: -110.82909171410886
1612: -110.82909171410886
9076: -110.82909171410886
9079: -110.82909171410886
9082: -110.82909171410886
421: -110.78942432440186
25920: -110.7754714958947
19215: -110.77293494835739
19224: -110.77293494835739
1485: -110.66725924378268
1514: -110.47598424106792
15508: -110.35041188754401
20413: -110.32800996970482
20416: -110.32800996970482
20419: -110.32800996970482
20422: -110.32800996970482
20425: -110.32800996970482
20428: -110.32800996970482
4198: -110.32800996970482
12451: -110.29392215037142
12681: -110.19153728675555
11284: -110.0213272755927
5244: -109.80652737390875
7617: -109.78955289590239
7662: -109.77379157774313
8459: -109.75641009833627
1021: -109.65572650595558
22140: -109.62836976560315
22143: -109.62836976560315
22146: -109.62836976560315
4524: -109.62836976560315
2662: -109.38842990086658
8205: -109.34943634022719
8208: -109.34943634022719
26523: -109.33003998253673
11505: -109.32998537291692
25757: -109.3029365666667
17787: -109.19466208921959
19272: -109.19363642843935
26501: -109.15750114971911
1881: -109.02656909774016
24492: -108.9693777148503
14850: -108.96681339998763
4491: -108.96112952494937
5990: -108.90225834019442
5993: -108.90225834019442
24737: -108.77075673681968
1093: -108.64795979179776
2535: -108.52923465485905
26922: -108.5270168621138
27308: -108.48632135830952
11127: -108.38118114010852
2070: -108.34807634420659
1008: -108.34259316760699
1014: -108.34259316760699
7092: -108.34259316760699
7098: -108.34259316760699
7104: -108.34259316760699
7107: -108.34259316760699
7110: -108.34259316760699
7113: -108.34259316760699
7116: -108.34259316760699
7119: -108.34259316760699
7725: -108.29034739602868
21462: -108.27420532930383
21465: -108.27420532930383
4416: -108.27420532930383
4419: -108.27420532930383
26773: -108.26863160470289
2136: -108.12127884303676
10032: -108.02480320463944
10035: -108.02480320463944
10038: -108.02480320463944
10041: -108.02480320463944
10044: -108.02480320463944
10047: -108.02480320463944
1920: -108.02480320463944
266: -107.9528266878238
26492: -107.89198844040219
26652: -107.86546440671881
9603: -107.86546440671881
9606: -107.86546440671881
6669: -107.60881144244007
26630: -107.53020486981734
12206: -107.51249425707584
5237: -107.45652405127511
22885: -107.42254698304451
22888: -107.42254698304451
22891: -107.42254698304451
22894: -107.42254698304451
22897: -107.42254698304451
22900: -107.42254698304451
22903: -107.42254698304451
4675: -107.42254698304451
4678: -107.42254698304451
14877: -107.366821768646
3060: -107.366821768646
1709: -107.32314875399935
25839: -107.28678925810364
15484: -107.26706722335771
15487: -107.26706722335771
27003: -107.04928332565204
606: -107.028522068193
763: -107.02479141393411
27011: -106.94228727946148
15166: -106.91477470351798
15169: -106.91477470351798
15178: -106.91477470351798
15181: -106.91477470351798
6690: -106.84767432343858
6693: -106.84767432343858
6702: -106.84767432343858
6705: -106.84767432343858
6708: -106.84767432343858
6516: -106.57174544944691
6519: -106.57174544944691
6522: -106.57174544944691
6525: -106.57174544944691
6528: -106.57174544944691
774: -106.57174544944691
1096: -106.55163645586318
14469: -106.5173599931882
321: -106.44290081241998
5921: -106.29565839268152
25933: -106.22745169310116
11134: -106.10031270428091
11124: -106.02497260359043
21048: -105.96829014205292
21051: -105.96829014205292
21054: -105.96829014205292
24582: -105.96829014205292
4314: -105.96829014205292
2433: -105.93218783632061
800: -105.89585779525153
11125: -105.78784818800371
26876: -105.72425386600581
9764: -105.61319723301078
857: -105.50146584410847
14400: -105.4437223433072
11149: -105.41560073645948
11155: -105.41560073645948
11158: -105.41560073645948
2206: -105.41560073645948
27365: -105.40260522793571
3063: -105.3894488672176
1587: -105.35817832549765
6698: -105.20643540561368
17082: -105.17478626354479
17085: -105.17478626354479
17088: -105.17478626354479
1944: -105.00006973803455
10766: -104.86036387414376
20484: -104.81802289969391
20487: -104.81802289969391
20490: -104.81802289969391
20493: -104.81802289969391
4209: -104.81802289969391
4212: -104.81802289969391
21598: -104.64715435277492
21601: -104.64715435277492
21604: -104.64715435277492
21607: -104.64715435277492
21610: -104.64715435277492
21613: -104.64715435277492
21616: -104.64715435277492
4441: -104.64715435277492
25668: -104.55092447048118
26487: -104.45158054600988
928: -104.34934167588263
25675: -104.26208185928166
14823: -104.19596295755069
14826: -104.19596295755069
14829: -104.19596295755069
14832: -104.19596295755069
3048: -104.19596295755069
1773: -104.15983203792406
9621: -104.15983203792406
9624: -104.15983203792406
9627: -104.15983203792406
9630: -104.15983203792406
9633: -104.15983203792406
8344: -104.11858533665759
8347: -104.11858533665759
11874: -103.9986121001927
9031: -103.66752428292807
8247: -103.66080392857346
13000: -103.6315109685881
24573: -103.56066486952942
5429: -103.53786615000898
6515: -103.50318415682537
1350: -103.46612369609645
8190: -103.46612369609645
8193: -103.46612369609645
15764: -103.43272513254938
7388: -102.97847018154421
1615: -102.93544458847678
7801: -102.9115173706639
7807: -102.9115173706639
7810: -102.9115173706639
7816: -102.9115173706639
12171: -102.90785787768085
25215: -102.8854987119094
8657: -102.87266103662324
25458: -102.74588662290921
9519: -102.61493239359008
6692: -102.35178767286097
6695: -102.35178767286097
6704: -102.35178767286097
6707: -102.35178767286097
6710: -102.35178767286097
13763: -102.33426867342926
24345: -102.3231226804025
6604: -102.2781052663104
2335: -102.18962069844858
956: -102.01822560115366
612: -101.97343902494165
7614: -101.94501816427355
4404: -101.89378618962903
16358: -101.73132932034412
24483: -101.71792378546188
14028: -101.61710406447392
874: -101.60272503740171
595: -101.59774261166164
12483: -101.54230953902537
12486: -101.54230953902537
12489: -101.54230953902537
2511: -101.54230953902537
21027: -101.32045045482965
21030: -101.32045045482965
26867: -101.25345055163326
24992: -101.20447111540165
11: -101.15754214554309
6749: -101.15235949637668
3563: -101.05079604136233
643: -100.97711651469959
614: -100.95178326855071
1502: -100.70593698425895
13800: -100.6729460996108
27207: -100.604963677195
22734: -100.60326684800945
27113: -100.39074647734552
11000: -100.38392530532862
14273: -100.33401150956352
26748: -100.3338603035716
8623: -100.24259658394256
8626: -100.24259658394256
8638: -100.24259658394256
8641: -100.24259658394256
20751: -100.17502433681959
20754: -100.17502433681959
20757: -100.17502433681959
20760: -100.17502433681959
4266: -100.17502433681959
24955: -100.06330096716685
6777: -100.05766280425199
257: -100.00059450188846
18253: -99.98523022316378
18256: -99.98523022316378
18259: -99.98523022316378
18262: -99.98523022316378
18265: -99.98523022316378
3763: -99.98523022316378
1416: -99.8576706930245
8427: -99.8576706930245
8430: -99.8576706930245
26357: -99.8437099583199
26372: -99.83457554364936
18564: -99.78834406583205
1984: -99.78714176914447
26490: -99.76036783292652
24410: -99.75842329118686
26391: -99.74373307085106
26563: -99.73042573495428
12399: -99.3907006268504
12402: -99.3907006268504
12405: -99.3907006268504
2493: -99.3907006268504
27123: -99.3863278858824
21775: -99.36958869997865
21778: -99.36958869997865
21781: -99.36958869997865
21784: -99.36958869997865
21787: -99.36958869997865
4471: -99.36958869997865
4474: -99.36958869997865
4477: -99.36958869997865
14883: -99.33056389353642
10095: -99.32888872271973
15832: -99.27454335309722
6467: -99.05433443495217
21438: -99.03626691000902
8097: -98.98773281925519
16349: -98.79743384588164
16352: -98.79743384588164
16355: -98.79743384588164
3413: -98.79743384588164
27162: -98.7899990241589
1431: -98.77212722214269
14474: -98.66953309150001
19806: -98.55888790416212
4065: -98.55888790416212
4068: -98.55888790416212
13734: -98.36979337341234
27303: -98.2149102665741
21558: -98.16005689256919
7481: -98.12438114149812
2376: -98.06919554185828
10257: -97.99094040492608
10260: -97.99094040492608
10266: -97.99094040492608
10272: -97.99094040492608
10278: -97.99094040492608
1992: -97.99094040492608
25169: -97.9222303198078
22020: -97.89996351170898
22023: -97.89996351170898
22026: -97.89996351170898
22029: -97.89996351170898
22032: -97.89996351170898
4500: -97.89996351170898
1559: -97.86751600393106
10610: -97.7880060858277
26307: -97.78779550707726
12203: -97.78307203031328
20103: -97.7388937808947
20106: -97.7388937808947
20109: -97.7388937808947
20112: -97.7388937808947
20115: -97.7388937808947
20118: -97.7388937808947
25679: -97.62440116684456
11403: -97.4391839170921
26690: -97.27833525171225
8924: -97.22463491051008
21336: -97.20623392398285
8614: -97.19961521786918
8617: -97.19961521786918
20052: -96.8580811417629
21405: -96.78623015267762
21408: -96.78623015267762
21411: -96.78623015267762
21414: -96.78623015267762
21417: -96.78623015267762
21420: -96.78623015267762
21423: -96.78623015267762
21426: -96.78623015267762
21429: -96.78623015267762
21432: -96.78623015267762
24947: -96.72140674546945
8297: -96.699921375533
2020: -96.68515357910289
2684: -96.61721763818588
7733: -96.5928061119568
14793: -96.4853334410151
14796: -96.4853334410151
14799: -96.4853334410151
14802: -96.4853334410151
14805: -96.4853334410151
14808: -96.4853334410151
3039: -96.4853334410151
3042: -96.4853334410151
27137: -96.3659807110379
20169: -96.36105964837128
20175: -96.36105964837128
1371: -96.27785901119363
21555: -96.17875399039043
21694: -96.113485922107
21697: -96.113485922107
26290: -96.113485922107
4453: -96.113485922107
1042: -96.04274385237416
8679: -95.85611858478651
1914: -95.74365713516544
4038: -95.73945586148191
1316: -95.72888340389925
11973: -95.70403100523414
11976: -95.70403100523414
11979: -95.70403100523414
11982: -95.70403100523414
11985: -95.70403100523414
11988: -95.70403100523414
11991: -95.70403100523414
11994: -95.70403100523414
11997: -95.70403100523414
12000: -95.70403100523414
12003: -95.70403100523414
12006: -95.70403100523414
12009: -95.70403100523414
12012: -95.70403100523414
12015: -95.70403100523414
12018: -95.70403100523414
12021: -95.70403100523414
12024: -95.70403100523414
12027: -95.70403100523414
12030: -95.70403100523414
12033: -95.70403100523414
12036: -95.70403100523414
2370: -95.70403100523414
2379: -95.70403100523414
2382: -95.70403100523414
2385: -95.70403100523414
2388: -95.70403100523414
2391: -95.70403100523414
2394: -95.70403100523414
2397: -95.70403100523414
2400: -95.70403100523414
27117: -95.68343496135942
18684: -95.60112361705163
18687: -95.60112361705163
26253: -95.60112361705163
3840: -95.60112361705163
1277: -95.59476860553075
24934: -95.49371431452349
24775: -95.43265262498564
21791: -95.42527774699967
21794: -95.42527774699967
21797: -95.42527774699967
4481: -95.42527774699967
1695: -95.40502583421276
10949: -95.40028395229167
25023: -95.2800005435836
21351: -95.21833358940415
21354: -95.21833358940415
4398: -95.21833358940415
25018: -95.06918569246903
5175: -95.04118291125477
114: -94.86652301725654
2274: -94.85123601220674
25988: -94.8208991020598
425: -94.81833958737998
10952: -94.64908435479624
335: -94.58981096904965
26370: -94.57456867784295
25694: -94.56279580131314
16342: -94.44984100056351
3409: -94.44984100056351
1367: -94.44255493319459
8270: -94.44255493319459
14402: -94.42886433489933
1842: -94.29710761233356
26601: -94.25088795965287
19387: -94.08930229558165
19390: -94.08930229558165
19399: -94.08930229558165
19402: -94.08930229558165
19405: -94.08930229558165
27195: -93.98682777649906
5881: -93.95606587155461
22944: -93.85318168266232
10974: -93.84279493892775
10977: -93.84279493892775
10980: -93.84279493892775
10983: -93.84279493892775
10989: -93.84279493892775
10992: -93.84279493892775
24552: -93.84279493892775
11095: -93.7105393812779
932: -93.68055930865768
26737: -93.63303041300335
10521: -93.5845541689894
26909: -93.58329210969217
21933: -93.54835298159254
21936: -93.54835298159254
21939: -93.54835298159254
21942: -93.54835298159254
24575: -93.54762404306473
3542: -93.50449875600013
23644: -93.45953713177082
23647: -93.45953713177082
23650: -93.45953713177082
23653: -93.45953713177082
23656: -93.45953713177082
23659: -93.45953713177082
23662: -93.45953713177082
23665: -93.45953713177082
4819: -93.45953713177082
4822: -93.45953713177082
4825: -93.45953713177082
2899: -93.37696771433679
1251: -93.23525017256243
1254: -93.23525017256243
1257: -93.23525017256243
7839: -93.23525017256243
7842: -93.23525017256243
7845: -93.23525017256243
7851: -93.23525017256243
7854: -93.23525017256243
1087: -93.22199986174132
7331: -93.21379682805113
13779: -93.12201559563469
14115: -93.0557142084731
1923: -92.94539640497918
24899: -92.9201029243578
20180: -92.85981286333593
20183: -92.85981286333593
11153: -92.78070459742749
1932: -92.766892814723
25673: -92.68216640965056
12968: -92.60041163970745
14950: -92.59834568126537
26755: -92.40243549737839
22065: -92.37777254109012
3482: -92.37227475950884
16953: -92.19370906430485
16956: -92.19370906430485
16962: -92.19370906430485
16965: -92.19370906430485
3531: -92.19370906430485
1778: -92.17861812455182
23135: -92.16311244813843
8267: -92.1029969772084
18027: -92.06617896297236
6675: -92.01954056151584
18897: -92.00110977058561
18900: -92.00110977058561
169: -91.99426896773728
5149: -91.99426896773728
5487: -91.96843062832633
27360: -91.93415855668368
1727: -91.81933217840408
9452: -91.81933217840408
8726: -91.7677353416216
25461: -91.73077666213614
7: -91.58836963389737
13281: -91.54146273868956
2727: -91.54146273868956
24357: -91.46257467661782
6960: -91.44198870926456
305: -91.41763960296447
1724: -91.3274267505005
9449: -91.3274267505005
13553: -91.29553826500265
966: -91.28458532018713
23688: -91.2650481969444
23691: -91.2650481969444
23694: -91.2650481969444
23697: -91.2650481969444
4118: -91.2378335912342
22959: -91.15838148750372
22962: -91.15838148750372
22965: -91.15838148750372
22968: -91.15838148750372
22971: -91.15838148750372
22974: -91.15838148750372
22977: -91.15838148750372
22980: -91.15838148750372
22983: -91.15838148750372
22986: -91.15838148750372
22989: -91.15838148750372
22992: -91.15838148750372
22995: -91.15838148750372
4692: -91.15838148750372
4695: -91.15838148750372
4698: -91.15838148750372
9044: -91.07396807900363
5139: -91.02142373221659
6977: -90.99535912685242
26627: -90.99147985889873
22998: -90.95772909636767
8250: -90.8756046259171
8253: -90.8756046259171
11814: -90.87190413520166
2325: -90.87190413520166
17075: -90.83452031578084
5725: -90.7504511075213
26314: -90.68774556069532
13523: -90.67399641513995
2780: -90.67399641513995
19638: -90.61009676967605
25160: -90.60682490189073
7002: -90.58098962068442
25340: -90.53892588199328
11302: -90.52849190892067
15693: -90.40661977181983
15696: -90.40661977181983
15699: -90.40661977181983
15702: -90.40661977181983
3234: -90.40661977181983
12090: -90.15926149169772
12093: -90.15926149169772
12096: -90.15926149169772
12099: -90.15926149169772
12102: -90.15926149169772
12105: -90.15926149169772
12108: -90.15926149169772
12114: -90.15926149169772
12120: -90.15926149169772
12123: -90.15926149169772
12126: -90.15926149169772
2418: -90.15926149169772
2421: -90.15926149169772
2424: -90.15926149169772
24403: -90.14186117520484
24444: -90.0788125421344
3170: -90.02563880933288
12603: -89.99316613401439
12606: -89.99316613401439
24928: -89.91577435367616
6751: -89.91577435367616
6754: -89.91577435367616
6763: -89.91577435367616
6769: -89.91577435367616
6743: -89.83586363603719
872: -89.83586363603719
2755: -89.74789499456134
15747: -89.73311587690601
22761: -89.70128742774564
22764: -89.70128742774564
22767: -89.70128742774564
22770: -89.70128742774564
13481: -89.69355809586592
15468: -89.66451507085208
19187: -89.52687071490554
1754: -89.52120025655462
13461: -89.51436781978764
9561: -89.49818790994453
13545: -89.4814266282631
8108: -89.40284298847271
6268: -89.39324101604721
17352: -89.38985213374036
7195: -89.30666318268241
980: -89.24256516328352
630: -89.2166580277842
715: -89.16754345828762
348: -89.15439894994418
5478: -89.15439894994418
5481: -89.15439894994418
5484: -89.15439894994418
5490: -89.15439894994418
336: -89.01906174570097
14345: -89.0113581652063
1883: -88.97557935343808
12709: -88.93134648224716
12712: -88.93134648224716
12715: -88.93134648224716
2569: -88.93134648224716
24497: -88.91922386977502
7285: -88.85643002803694
7288: -88.85643002803694
7291: -88.85643002803694
7297: -88.85643002803694
7300: -88.85643002803694
13666: -88.79836881644363
24631: -88.79836881644363
1464: -88.69873120272158
2056: -88.44394854121636
20331: -88.41189275084047
1749: -88.37157983515198
13935: -88.32212938687438
24942: -88.31116005820222
10494: -88.26326785431881
25942: -88.21259309638171
1990: -88.14997741023994
3249: -88.12202531539631
15774: -88.06763731173304
15777: -88.06763731173304
27311: -87.978972754332
19077: -87.94514135711967
25725: -87.94514135711967
25739: -87.89940304877956
11880: -87.82542542536905
6435: -87.74974905781701
741: -87.74974905781701
1640: -87.71743541356578
22385: -87.59847715605102
4568: -87.59847715605102
11628: -87.51288435052098
11631: -87.51288435052098
11634: -87.51288435052098
11637: -87.51288435052098
25133: -87.49217144459467
5396: -87.37166190875124
15651: -87.35615991319602
15654: -87.35615991319602
907: -87.20661535009553
8189: -87.03052474275769
315: -86.94359403021359
8079: -86.88842097940355
26: -86.85579431342597
6328: -86.85029819944883
6331: -86.85029819944883
6334: -86.85029819944883
6340: -86.85029819944883
6343: -86.85029819944883
6346: -86.85029819944883
6349: -86.85029819944883
6352: -86.85029819944883
718: -86.85029819944883
564: -86.8271686267348
6680: -86.77834807440539
19563: -86.74509838926028
19566: -86.74509838926028
19569: -86.74509838926028
19572: -86.74509838926028
19575: -86.74509838926028
4026: -86.74509838926028
14286: -86.66561970009913
14289: -86.66561970009913
2907: -86.66561970009913
13044: -86.54803821713199
194: -86.49336928594762
1968: -86.48209023017334
27129: -86.44997761677784
27050: -86.36775206805267
507: -86.35332945349438
25232: -86.33917155432279
7635: -86.14534864961168
24816: -86.131919658284
508: -86.08987634385039
24926: -86.08447907201396
1477: -85.98160738152414
25804: -85.87434810343144
27327: -85.85107819995976
1986: -85.83832522359505
4962: -85.74893127034177
2660: -85.69032375090433
13164: -85.58378186460915
27086: -85.57852943634627
1949: -85.52700051570939
3: -85.51453481562015
17006: -85.49776182742185
10269: -85.48778167078862
1278: -85.41029829574691
18363: -85.32115824728481
18366: -85.32115824728481
18369: -85.32115824728481
18372: -85.32115824728481
22647: -85.19822399433441
4635: -85.19822399433441
12262: -85.07929570650546
12265: -85.07929570650546
1376: -85.04448515372485
25715: -85.00280062358456
4992: -84.91200304170033
7267: -84.78903800208451
23153: -84.78136974495533
1153: -84.78121273709093
26614: -84.72057971094027
6742: -84.67343821856875
871: -84.67343821856875
11916: -84.63076561349123
11919: -84.63076561349123
12477: -84.60353469559459
12480: -84.60353469559459
674: -84.58892083059385
16997: -84.51201812704456
17000: -84.51201812704456
17003: -84.51201812704456
17009: -84.51201812704456
23821: -84.4617948043586
23824: -84.4617948043586
23827: -84.4617948043586
23830: -84.4617948043586
4864: -84.4617948043586
4505: -84.45086569426005
356: -84.44000017226666
5504: -84.44000017226666
18180: -84.36640953043795
18183: -84.36640953043795
18186: -84.36640953043795
3744: -84.36640953043795
3747: -84.36640953043795
411: -84.36403309994706
5646: -84.36403309994706
5649: -84.36403309994706
5652: -84.36403309994706
13038: -84.34823335141634
13041: -84.34823335141634
17806: -84.24572455765453
17809: -84.24572455765453
17812: -84.24572455765453
17815: -84.24572455765453
17818: -84.24572455765453
17821: -84.24572455765453
3697: -84.24572455765453
24962: -84.11502540864142
5122: -84.08467526356499
41: -83.98437537713758
12814: -83.95944799172544
12820: -83.95944799172544
12829: -83.95944799172544
12832: -83.95944799172544
12835: -83.95944799172544
2608: -83.95944799172544
2611: -83.95944799172544
1597: -83.92810918937853
9037: -83.92810918937853
1365: -83.86064810887827
8268: -83.86064810887827
14403: -83.8375091058742
27012: -83.83565430229869
11162: -83.829548983591
11913: -83.77411598834665
2355: -83.77411598834665
26683: -83.73708060701367
22176: -83.73276758297767
17775: -83.69910075923463
17778: -83.69910075923463
3693: -83.69910075923463
1370: -83.69714330284752
8276: -83.69714330284752
8279: -83.69714330284752
8282: -83.69714330284752
8288: -83.69714330284752
8291: -83.69714330284752
8294: -83.69714330284752
8300: -83.69714330284752
8303: -83.69714330284752
16794: -83.61336911574058
767: -83.58074463425864
26285: -83.5754220116267
17742: -83.50196552657675
26462: -83.47332172704509
1674: -83.3609663094271
10878: -83.33282954514374
22833: -83.30197693504411
11228: -83.24976554358052
22579: -83.13332128077857
22582: -83.13332128077857
22585: -83.13332128077857
22588: -83.13332128077857
22591: -83.13332128077857
22597: -83.13332128077857
22600: -83.13332128077857
4618: -83.13332128077857
13558: -83.08522305284096
2835: -83.06179753301186
25020: -83.01535111466391
18769: -82.9565036531492
18772: -82.9565036531492
18775: -82.9565036531492
24723: -82.92787392976655
14550: -82.8685581141005
7789: -82.86482775704795
4337: -82.8539436198506
24355: -82.85104607635611
2574: -82.83319987995776
13974: -82.78566869566936
20293: -82.77726657282689
20296: -82.77726657282689
20299: -82.77726657282689
20302: -82.77726657282689
4171: -82.77726657282689
12597: -82.713420300352
24791: -82.699819346425
7671: -82.64805853632303
22847: -82.63328310528775
20097: -82.63101501447362
20100: -82.63101501447362
19212: -82.52820559231318
26112: -82.52820559231318
2225: -82.48378453206695
16714: -82.42034551266896
16717: -82.42034551266896
16720: -82.42034551266896
24888: -82.34719077982223
13155: -82.32932735370152
