solver_type L2R_LR_DUAL
nr_class 3
label 1 -1 0
nr_feature 30719
bias 0.000000000000000
w
0.2383961071055631 -0.2471743165121551 -0.2283439651667949 
0.2079112577702785 -0.1250425153347625 -0.3043062089569932 
0.2383961071055631 -0.2471743165121551 -0.2283439651667949 
0.07773845045351277 -0.06099927661183343 -0.02472442475284114 
0.3055757912064375 -0.1510682541288766 -0.1903714531619912 
0.07773845045351277 -0.06099927661183343 -0.02472442475284114 
0.1532297496672350 0.02917413260646494 -0.6280773927560790 
-0.2831085115297828 0.3933185767457353 -0.05413272136137980 
0.2411029583708839 -0.2523297902473033 -0.01898476012971484 
0.07773845045351277 -0.06099927661183343 -0.02472442475284114 
0.07773845045351277 -0.06099927661183343 -0.02472442475284114 
0.07773845045351277 -0.06099927661183343 -0.02472442475284114 
0.07773845045351277 -0.06099927661183343 -0.02472442475284114 
0.07773845045351277 -0.06099927661183343 -0.02472442475284114 
0.07773845045351277 -0.06099927661183343 -0.02472442475284114 
0.07773845045351277 -0.06099927661183343 -0.02472442475284114 
0.1007300074989311 0.02025200891841882 -0.1523774478762883 
0.07773845045351277 -0.06099927661183343 -0.02472442475284114 
-0.6255481043432859 -0.8562148189193303 0.4561879239420896 
0.2001742815881244 -0.1160457138134314 -0.08032280074670223 
0.07773845045351277 -0.06099927661183343 -0.02472442475284114 
0.07773845045351277 -0.06099927661183343 -0.02472442475284114 
0.07773845045351277 -0.06099927661183343 -0.02472442475284114 
-0.4140150592361087 0.5762061787254472 -0.3233924198913014 
-0.1704940208165541 0.2099939258356349 -0.3559178148071489 
0.07773845045351277 -0.06099927661183343 -0.02472442475284114 
0.01227006559220263 -0.2223686557624677 0.1069905414203758 
0.003847013187401494 0.04714770390496505 -0.04969460374158483 
-0.005937013701330207 -0.1214785671663266 0.1036303754033666 
0.1104411263414862 -0.1786711867259260 -0.03830896567511542 
-0.08176437915073850 -0.2431938159414540 0.4015901458314835 
0.2930996155064686 -0.1770133431488535 -0.1261544936726659 
0.02118656541423809 -0.04791885296318210 0.008673234593753687 
-0.08825455176514534 -0.1862538987478893 0.06753002728307675 
0.02118656541423809 -0.04791885296318210 0.008673234593753687 
0.02118656541423809 -0.04791885296318210 0.008673234593753687 
0.02983623427089131 0.2259866023610666 -0.1412359150100334 
0.02118656541423809 -0.04791885296318210 0.008673234593753687 
0.02118656541423809 -0.04791885296318210 0.008673234593753687 
0.02118656541423809 -0.04791885296318210 0.008673234593753687 
-0.04128284089389226 -0.1729214265314598 0.1762138489812494 
-0.03873470046203190 0.1909809483539831 -0.1307845942574740 
0.02118656541423809 -0.04791885296318210 0.008673234593753687 
0.5771209874157415 -0.4863019021008316 -0.1954200432052324 
-0.4007209749664459 -0.6080226556515638 0.4193651892309394 
0.1210064710374112 -0.04215616608480251 -0.07461626071492218 
0.1210064710374112 -0.04215616608480251 -0.07461626071492218 
-0.1308573251922306 0.2458052620242205 -0.1069540016620771 
0.1210064710374112 -0.04215616608480251 -0.07461626071492218 
0.06344924331736296 -0.07924301328993291 0.006645437844193816 
0.1210064710374112 -0.04215616608480251 -0.07461626071492218 
0.1210064710374112 -0.04215616608480251 -0.07461626071492218 
-0.1182715647791358 -0.4334557078332980 0.5694794646862534 
-0.5067415447454457 0.8198020549969356 -0.6831283147237208 
0.1210064710374112 -0.04215616608480251 -0.07461626071492218 
-0.03541632094250646 0.1885226834475844 -0.01927406942881683 
0.2753641813081689 -0.1338222321080698 -0.1741340066122197 
0.1210064710374112 -0.04215616608480251 -0.07461626071492218 
0.07271048306424632 0.03500865164131850 -0.1052311626706662 
0.07500414526341940 -0.1822891787288199 0.09720131477824859 
0.1210064710374112 -0.04215616608480251 -0.07461626071492218 
0.1210064710374112 -0.04215616608480251 -0.07461626071492218 
0.07900750616591654 -0.01277194181108724 -0.09148829796181178 
-0.001748321399934472 -0.3627280057431853 0.1623825370919528 
0.07900750616591654 -0.01277194181108724 -0.09148829796181178 
0.07900750616591654 -0.01277194181108724 -0.09148829796181178 
0.06259388625199216 0.004409285360065447 -0.09825304592587130 
0.07900750616591654 -0.01277194181108724 -0.09148829796181178 
0.07900750616591654 -0.01277194181108724 -0.09148829796181178 
0.003535101833848375 -0.09710844567057375 0.05436821957759484 
0.02110222459702565 0.1346544248318631 -0.2041024485442544 
0.4182382133038817 -0.05969473164955531 -0.4663794512254524 
0.07900750616591654 -0.01277194181108724 -0.09148829796181178 
0.07157358246135799 -0.1467919225270809 0.1494908805651367 
0.1326265372234115 0.02161725860799799 -0.1881953993311249 
0.07900750616591654 -0.01277194181108724 -0.09148829796181178 
0.07900750616591654 -0.01277194181108724 -0.09148829796181178 
0.06592728697943780 -0.2016186850230348 0.04012568317491033 
0.3631919723208164 -0.2301680098052410 -0.1669274302372973 
0.1768457030306791 -0.2781564764567975 -0.01517387372178957 
0.1943233300301113 -0.1217825022933658 -0.1255308027344465 
0.1943233300301113 -0.1217825022933658 -0.1255308027344465 
0.05780060638031268 -0.01666018819875395 -0.03737183697679788 
0.1943233300301113 -0.1217825022933658 -0.1255308027344465 
0.2419891971661929 0.2593702391378941 -0.3761564008565436 
-0.1979261267301878 -0.2596820594413264 0.2482837248980067 
0.4202421115148610 -0.4548556424200835 -0.1065887387637452 
0.1426621476054625 -0.08740666032201246 -0.07930419049865070 
0.1242701527717970 0.04522622720059363 -0.2311307735609474 
0.1426621476054625 -0.08740666032201246 -0.07930419049865070 
-0.3112432373355769 -0.1459711023610295 0.2456767175750551 
-0.04926422540393290 0.2062773276379769 -0.1973393680040355 
0.1097977621738081 -0.01481638953466148 -0.1148279341021443 
0.1426621476054625 -0.08740666032201246 -0.07930419049865070 
0.2135802143649421 -0.1208823479777437 -0.1249953574373957 
0.1426621476054625 -0.08740666032201246 -0.07930419049865070 
0.007885128546400146 0.1254920105737323 -0.1376789680044026 
0.1566585300452888 0.09780871534449109 -0.2941561735714661 
0.3119090725490590 0.09002937961645956 -0.4051329241789544 
0.06070271004985760 -0.03580316407847369 -0.02150194418578038 
0.1979186927347369 -0.2349638999220512 -0.08011074483627541 
0.2969388525308157 -0.2094607402159000 -0.1509325369830655 
-0.07548120839418647 0.3332576110955391 -0.3969928726303321 
0.06070271004985760 -0.03580316407847369 -0.02150194418578038 
-0.1423165317815973 0.2784129798846688 -0.2051563941950946 
0.06070271004985760 -0.03580316407847369 -0.02150194418578038 
0.06070271004985760 -0.03580316407847369 -0.02150194418578038 
0.06007099367306375 0.02382837611704504 -0.1213242116976743 
0.005465533842848674 -0.06826748846443786 0.06679483554202137 
-0.4679586735949164 -0.8269890325416862 0.6984840373634321 
0.005356215031812356 -0.07447231126958198 0.05830064585444098 
0.06070271004985760 -0.03580316407847369 -0.02150194418578038 
0.3247599433975348 -0.1446942612465459 -0.2226472881724413 
0.1146115969174016 -0.05467993487745844 -0.09959645791407293 
0.1146115969174016 -0.05467993487745844 -0.09959645791407293 
0.06465401231711021 0.08278281930823966 -0.1549292094927240 
0.07892091397743656 -0.05060311118423495 -0.08187584333513784 
-0.4082048513498712 0.1035889940993835 0.08693599284181533 
0.03956296482532300 -0.07166937713110516 0.01424614819710588 
0.1031787029863587 -0.005489745692380293 -0.09875796712315342 
0.1146115969174016 -0.05467993487745844 -0.09959645791407293 
0.2720673897732515 -0.09859665945094796 -0.2314187495321907 
0.1146115969174016 -0.05467993487745844 -0.09959645791407293 
0.1219632273049003 -0.2665022220672578 0.05192205648494662 
0.4988132208623833 -0.1633579848120918 -0.2519226185929596 
0.6124567962180972 -0.6998477769328407 0.1165713975468627 
0.4561281689266861 -0.1966433243288685 -0.3495295223140613 
0.2270788092434714 -0.2284443588571484 -0.1097527665298323 
0.2109225665248935 -0.04420629240384037 -0.1344042083327686 
-0.2248301484217609 -0.1797845373805788 0.2042009179854324 
0.07648368380086236 -0.03329185924813317 -0.05739482838862926 
-0.05824307954636863 0.06580919683599298 -0.1058757034393569 
0.07648368380086236 -0.03329185924813317 -0.05739482838862926 
0.3832421820089580 -0.2154806576143482 -0.2839425065113098 
0.2145067884090383 -0.0001846677495654951 -0.2466070988617334 
0.07648368380086236 -0.03329185924813317 -0.05739482838862926 
0.002372171345091531 -0.1489646341519840 0.08061524951712265 
-0.2511728187733766 0.3076434668205488 -0.1289600243570589 
0.01523348217997494 -0.07015492168268062 0.03644673015344301 
0.03051898157708533 -0.2345951259665536 0.1161272283942213 
-0.07273232984877033 -0.004083959224542692 -0.06409504697848172 
0.1371977562542248 -0.06876983064732008 -0.09665634852733390 
0.04037775427268468 -0.05543979315743266 -0.01775925215748834 
0.1046222275598092 0.2570788937008310 -0.4674277212257667 
0.07648368380086236 -0.03329185924813317 -0.05739482838862926 
0.07648368380086236 -0.03329185924813317 -0.05739482838862926 
-0.2463815237002799 -0.06695804992689237 0.3311566187105025 
0.3162008859535141 0.1031733424850851 -0.2829246777883830 
0.05253075251309065 -0.02313173006590621 -0.02858578036020060 
0.05253075251309065 -0.02313173006590621 -0.02858578036020060 
0.05253075251309065 -0.02313173006590621 -0.02858578036020060 
0.05253075251309065 -0.02313173006590621 -0.02858578036020060 
0.3007992329220247 -0.001875236134598519 -0.1874636830078001 
0.3196656030944531 0.1379364736455808 -0.4160901397205569 
-0.1006556326162077 0.01426069245957695 0.06959948008914538 
-0.1517796318039551 0.1519216804675682 -0.003582951785659098 
0.2989240833797471 -0.09962471492481685 -0.1715187785198920 
0.06426957283490817 -0.2642758829607837 2.092781933275834e-05 
0.4456797961088848 -0.4168630848329555 -0.001285966492326737 
0.05253075251309065 -0.02313173006590621 -0.02858578036020060 
0.05253075251309065 -0.02313173006590621 -0.02858578036020060 
0.05253075251309065 -0.02313173006590621 -0.02858578036020060 
0.1699008705931670 -0.07099209263426604 -0.1213916982389535 
-0.1179106713011088 0.1471801953808548 -0.01205081162276407 
0.05253075251309065 -0.02313173006590621 -0.02858578036020060 
0.1536012012339461 -0.07018768903173883 -0.07311359159764894 
0.03976284850801830 0.09971670026014175 -0.1437145991781322 
0.03372543813242212 0.05703598784156107 -0.08407532910295830 
0.2262099742747789 -0.1084747793537866 -0.1365790574949735 
0.2262099742747789 -0.1084747793537866 -0.1365790574949735 
0.1170401895088156 -0.08294384552686088 -0.07860616200297592 
0.3046559047191032 -0.2698870144287690 -0.1473577947172970 
0.4091323250686547 -0.3892198995508939 -0.1490931121729137 
0.3046559047191032 -0.2698870144287690 -0.1473577947172970 
0.2720479289391852 -0.2325743101185631 -0.1380210523366463 
0.4283703381232876 -0.2766676655064359 -0.1589760811229566 
-0.1621750989308592 -0.02554880008651213 0.1482446503865471 
0.1335794368164294 -0.04405200479870901 -0.1221365823895242 
-0.07062422301450025 0.009861719888152853 0.04515908969688883 
0.1588071176207761 -0.1913992435138402 -0.01819965297004023 
-0.2634357633586456 -0.1447985125614857 0.2124230036700472 
-0.4868712083390123 0.2592016665540272 0.2038817382184001 
0.1441994185241407 -0.01434454225113616 -0.1241019054130792 
0.1441994185241407 -0.01434454225113616 -0.1241019054130792 
0.2498657969696126 -0.1071119607118694 -0.1036669131307275 
0.3712491047023867 -0.06351934651028770 -0.2546397031571056 
0.1441994185241407 -0.01434454225113616 -0.1241019054130792 
0.02714786938380594 -0.2766047489095864 0.2167241676049275 
0.06910209872863639 -0.04463718955603166 -0.03509450136123168 
0.1441994185241407 -0.01434454225113616 -0.1241019054130792 
-0.08009452898810215 -0.1083417411741586 0.1363383089913438 
0.0009174318334543574 -0.07731978521460706 0.04616797430660009 
0.08985040397458703 -0.02352532049268550 -0.05919394823282998 
0.07151467726441482 -0.06083303161947738 -0.007912691254387632 
0.1470384381667791 -0.06945026355390674 -0.03386964774294785 
0.08985040397458703 -0.02352532049268550 -0.05919394823282998 
0.07879438595238165 -0.2009255881481853 0.03722813311905476 
0.08985040397458703 -0.02352532049268550 -0.05919394823282998 
0.08985040397458703 -0.02352532049268550 -0.05919394823282998 
0.2878171305646443 -0.07882819319470072 -0.1944886002696369 
0.4451786063489296 -0.2566939292871054 -0.2915373792983293 
0.08985040397458703 -0.02352532049268550 -0.05919394823282998 
0.04113175586285525 -0.06889695292573860 0.02740102109356683 
0.08985040397458703 -0.02352532049268550 -0.05919394823282998 
0.08985040397458703 -0.02352532049268550 -0.05919394823282998 
0.2006191806002987 0.4242616988284176 -0.9906913342049027 
0.1101345034673421 -0.4263642666232023 0.3491583299489672 
0.1564642606392103 -0.07754264841042405 -0.09704180069320716 
-0.1583661400579750 0.09873672998458424 0.01693277763638476 
0.004940110168525479 0.2536053773270246 -0.2779893134408336 
0.1417838800994786 -0.06648909749980372 -0.04716100048134041 
0.2065695838176839 -0.008521817342394116 -0.2340997946795691 
0.1230866996854780 0.05348442908246032 -0.3061339732033731 
0.1979911238472981 -0.05811983072693627 -0.1489364017455715 
0.2960885894673935 -0.1320788647208210 -0.1884210829249722 
0.1763932056831659 -0.2520736793416011 -0.0004534958805660037 
0.1979911238472981 -0.05811983072693627 -0.1489364017455715 
0.1979911238472981 -0.05811983072693627 -0.1489364017455715 
0.1979911238472981 -0.05811983072693627 -0.1489364017455715 
0.1122294350255089 -0.07678998223141566 -0.03603184179855063 
0.09813915204745358 -0.09038695211144407 -0.03231131641706374 
0.1041876505845905 -0.04619442572086738 -0.03063060894760556 
0.07497384468470208 -0.08428235666210754 0.04939260862994880 
-0.1777126906710136 -0.03059916272786278 0.1751220865746066 
-0.05294691083635298 0.02748277914134253 -0.001715370045093156 
-0.05461957141059384 0.04949939497887754 -0.02067182231367615 
0.05496012609954393 -0.08765862331635699 0.03524164374875303 
0.1789754244884073 -0.1109867888107877 -0.1526023523102275 
0.3742273957302871 -0.1401086441393488 -0.2631152591589507 
0.1789754244884073 -0.1109867888107877 -0.1526023523102275 
0.09737465548243733 -0.1424073750024345 -0.04813603970062699 
0.1575979813673502 -0.03335187566519138 -0.1930090044367436 
0.1374902579184103 0.06730479087056218 -0.2877138870904468 
0.1467679091844462 -0.04921578006531863 -0.1016730427389167 
0.1467679091844462 -0.04921578006531863 -0.1016730427389167 
-0.02413360304376687 -0.1974784705431478 -0.07523113511507740 
0.1467679091844462 -0.04921578006531863 -0.1016730427389167 
0.1181361289305808 -0.1323770380462140 0.02662209326909083 
0.1884572056787607 -0.02662519759267304 -0.09633967561512770 
0.1884572056787607 -0.02662519759267304 -0.09633967561512770 
0.1198956894367481 0.08853903371308960 -0.1766094073420099 
0.1884572056787607 -0.02662519759267304 -0.09633967561512770 
0.1884572056787607 -0.02662519759267304 -0.09633967561512770 
-0.008727845703702743 -0.1872070173202339 0.2257249717463977 
0.1884572056787607 -0.02662519759267304 -0.09633967561512770 
-0.09917820816826119 -0.02988997826439431 0.03002236886843363 
0.07216163100410522 0.1383807155438777 -0.3995362894806125 
0.07917302016708500 0.01081244561029479 -0.1336890349745092 
0.2538168669263021 -0.1096567613805674 -0.06849125522612189 
0.08142295285827666 0.002200439864197930 -0.07877777091421903 
0.04776556409893126 0.02521047480422430 -0.09863228460253850 
0.1613237593970411 -0.04357415149042365 -0.1464614490970503 
0.09333089101186084 -0.009342710494609687 -0.07449165343084889 
-0.03984920019326078 -0.3383417331902999 0.4011042319824212 
0.2538168669263021 -0.1096567613805674 -0.06849125522612189 
0.09333089101186084 -0.009342710494609687 -0.07449165343084889 
-0.3350549655860004 -0.1490449925812722 0.2414007859887385 
0.1563624468825762 -0.1556931884778513 -0.06449724473117553 
0.1196463365343176 -0.1440724984629685 0.03107948039136248 
-0.1697504214105789 -0.3452135693556081 0.3602048218972495 
0.3373456144366822 -0.6884122425120356 0.1705015420178727 
0.07999210090385069 -0.02201015273407880 -0.06172538973940157 
0.07999210090385069 -0.02201015273407880 -0.06172538973940157 
0.005297446755757072 0.06498449445448108 -0.01664689737010314 
0.1966973972371210 -0.1223015601554613 -0.08606634309232620 
0.07999210090385069 -0.02201015273407880 -0.06172538973940157 
0.07999210090385069 -0.02201015273407880 -0.06172538973940157 
0.07999210090385069 -0.02201015273407880 -0.06172538973940157 
0.1818916939796382 -0.03070353863617574 -0.1959271528693403 
0.1465955209097821 0.1041433400452612 -0.4830935084953046 
-0.04728391375860820 -0.02955156341349564 0.03275874217504463 
-0.1514891041080186 -0.1582665370842048 0.2206221486029281 
0.07756993814286758 -0.2638177149371691 0.07607969512990627 
-0.02868525697646050 0.02733939975157291 0.03959862368582148 
0.1603627471796447 -0.1977719647367809 -0.1010032859514970 
0.1451275391841305 -0.1408438279617146 -0.1028587245620763 
0.2656264147075144 -0.6054153105325520 0.2091170367758015 
0.07999210090385069 -0.02201015273407880 -0.06172538973940157 
0.07999210090385069 -0.02201015273407880 -0.06172538973940157 
0.1825878498389333 -0.03894883789662937 -0.1660234290003561 
0.1825878498389333 -0.03894883789662937 -0.1660234290003561 
0.1825878498389333 -0.03894883789662937 -0.1660234290003561 
0.1825878498389333 -0.03894883789662937 -0.1660234290003561 
0.1825878498389333 -0.03894883789662937 -0.1660234290003561 
0.1825878498389333 -0.03894883789662937 -0.1660234290003561 
0.2429049807197907 -0.1253381292777137 -0.1479406504728690 
0.1526003255126759 -0.09407490221683228 -0.08952033584953503 
0.1150986010877204 -0.03853651229105507 -0.09970456459002710 
0.1150986010877204 -0.03853651229105507 -0.09970456459002710 
0.1150986010877204 -0.03853651229105507 -0.09970456459002710 
0.1150986010877204 -0.03853651229105507 -0.09970456459002710 
0.1150986010877204 -0.03853651229105507 -0.09970456459002710 
0.1150986010877204 -0.03853651229105507 -0.09970456459002710 
0.1150986010877204 -0.03853651229105507 -0.09970456459002710 
0.1150986010877204 -0.03853651229105507 -0.09970456459002710 
0.1150986010877204 -0.03853651229105507 -0.09970456459002710 
0.1509204682215428 -0.08876417252784717 -0.1287451437730958 
0.1150986010877204 -0.03853651229105507 -0.09970456459002710 
0.1758126735410829 -0.07401448369024195 -0.1389660847287316 
0.03935782975252655 0.04755286073603336 -0.1334335421248420 
-0.006848464448906473 -0.0009247299214607055 -0.04888285967797065 
0.1088106269763972 -0.04511046609129166 -0.08717319180957724 
0.1088106269763972 -0.04511046609129166 -0.08717319180957724 
0.1088106269763972 -0.04511046609129166 -0.08717319180957724 
-0.2236128298949642 0.2333450715600378 -0.05755117248305014 
0.1088106269763972 -0.04511046609129166 -0.08717319180957724 
0.3069051337863255 -0.06753736063044985 -0.3162261502877700 
0.1088106269763972 -0.04511046609129166 -0.08717319180957724 
0.1088106269763972 -0.04511046609129166 -0.08717319180957724 
-0.3498194999626160 0.07548589017871338 0.1365114032017966 
0.1088106269763972 -0.04511046609129166 -0.08717319180957724 
0.1397453834962315 -0.08736706285021383 -0.07370017268093228 
-0.1261053355689047 0.5680011450091211 -0.3901745520504104 
0.08270486992419229 0.05247492780926771 -0.1419154430381343 
0.1088106269763972 -0.04511046609129166 -0.08717319180957724 
0.07746188659484707 -0.06314787362745270 -0.06229743407660839 
0.07746188659484707 -0.06314787362745270 -0.06229743407660839 
0.07746188659484707 -0.06314787362745270 -0.06229743407660839 
0.07746188659484707 -0.06314787362745270 -0.06229743407660839 
0.07746188659484707 -0.06314787362745270 -0.06229743407660839 
0.07746188659484707 -0.06314787362745270 -0.06229743407660839 
0.07746188659484707 -0.06314787362745270 -0.06229743407660839 
0.02986028185166966 -0.1023276169090151 0.01137270532580437 
0.01456442961553630 -0.2403375985787927 0.1555717511871295 
0.08151179328236010 -0.03953219147903354 -0.05776454689271536 
0.08151179328236010 -0.03953219147903354 -0.05776454689271536 
0.2315288489159210 -0.07066421158438452 -0.1553960566169965 
0.08151179328236010 -0.03953219147903354 -0.05776454689271536 
0.08151179328236010 -0.03953219147903354 -0.05776454689271536 
0.09240349935809879 -0.01898093231102917 -0.1724767197501040 
0.08151179328236010 -0.03953219147903354 -0.05776454689271536 
0.08151179328236010 -0.03953219147903354 -0.05776454689271536 
0.06100311086356286 -0.002427588396026113 -0.07574989323759664 
0.2038105665528165 -0.04444550848923747 -0.2311708323576873 
0.05364908011602886 -0.04784785005259178 0.01217401558539298 
0.07091806675947963 -0.03347568765573120 -0.04569116693874498 
0.2004983187106203 -0.1049848178157020 -0.1160500463064357 
0.02089359186160898 0.07560305044060435 -0.09404011418933558 
0.07091806675947963 -0.03347568765573120 -0.04569116693874498 
0.07091806675947963 -0.03347568765573120 -0.04569116693874498 
0.07091806675947963 -0.03347568765573120 -0.04569116693874498 
0.07091806675947963 -0.03347568765573120 -0.04569116693874498 
0.2767494760745336 -0.007879870186118177 -0.2013726296225674 
0.06011923056078522 0.06201545676349395 -0.1805844255537473 
0.1445722243706537 -0.08328597329556757 -0.08901619309608673 
0.06011923056078522 0.06201545676349395 -0.1805844255537473 
0.02481350971713825 0.0002677425819845140 -0.09335476945405072 
0.08228355744191973 -0.03611863930447839 -0.06325950659565953 
0.08228355744191973 -0.03611863930447839 -0.06325950659565953 
-0.04024147885279801 0.1136295403585103 -0.2190239287485050 
-0.05692090434567582 -0.05257615375456240 0.07121987616172262 
0.1999638348556749 -0.08858864194033456 -0.1042492277060717 
0.09553206899582745 0.05473187267286263 -0.1820258122742229 
-0.4308278732816231 -0.01245978561007169 0.1933544085568058 
0.08228355744191973 -0.03611863930447839 -0.06325950659565953 
0.08228355744191973 -0.03611863930447839 -0.06325950659565953 
0.08228355744191973 -0.03611863930447839 -0.06325950659565953 
0.08228355744191973 -0.03611863930447839 -0.06325950659565953 
-0.1825078490611141 -0.01357325887594003 0.05994150276800195 
0.08228355744191973 -0.03611863930447839 -0.06325950659565953 
0.08228355744191973 -0.03611863930447839 -0.06325950659565953 
0.08228355744191973 -0.03611863930447839 -0.06325950659565953 
0.1835516201195605 -0.4478022608985838 0.1170416211691826 
-0.2179415357578300 0.08107026219932993 -0.1325962608435097 
0.04065475020669968 -0.02649350341656868 -0.09337152775892558 
0.1320878565756176 0.03412754241720422 -0.2623197787909729 
0.1052374832561490 -0.1326457251739199 -0.03866403151874660 
-0.006283509278894685 -0.1145036015926678 0.02867398474838809 
-0.2098432436574738 -0.004604334395037431 0.1810896373906132 
0.07643838761388692 -0.05765145524283741 -0.02899768612474833 
0.07643838761388692 -0.05765145524283741 -0.02899768612474833 
0.07643838761388692 -0.05765145524283741 -0.02899768612474833 
0.08969865404576853 -0.03708174519690165 -0.09622791241105076 
0.2556189156349667 -0.1328663287722647 -0.1606879575018855 
0.08969865404576853 -0.03708174519690165 -0.09622791241105076 
0.08969865404576853 -0.03708174519690165 -0.09622791241105076 
0.2645466587560685 0.1061912826486834 -0.3982446196552621 
0.08969865404576853 -0.03708174519690165 -0.09622791241105076 
-0.04866406672706305 -0.04581687087246970 0.006795617343238592 
0.1218542190366276 -0.1164593231391677 -0.08432602669263299 
0.08969865404576853 -0.03708174519690165 -0.09622791241105076 
0.1608960426995290 -0.1487787511261325 -0.09244973554825656 
0.08969865404576853 -0.03708174519690165 -0.09622791241105076 
0.2110215060103016 -0.1311727857587681 -0.1709731474183227 
-0.1353086889188080 -0.3698436218586239 0.2993700954000328 
0.08852820006998557 0.01236032827306135 -0.08624162280388205 
0.06539201779715594 -0.05726594641243841 -0.04274849232892376 
0.1667562678552692 -0.03480284939802499 -0.1157377065171556 
0.04922053997079081 0.1948679031816584 -0.2209159569239899 
0.08852820006998557 0.01236032827306135 -0.08624162280388205 
0.1313728697046328 0.03695937101902094 -0.1773765812300750 
0.1218984000645859 0.06490496642059178 -0.1758790124010480 
0.1218984000645859 0.06490496642059178 -0.1758790124010480 
0.1667562678552692 -0.03480284939802499 -0.1157377065171556 
0.1667562678552692 -0.03480284939802499 -0.1157377065171556 
0.3647656664091623 -0.1486841998990262 -0.2105607985886603 
0.1457764226535796 -0.002542563965252015 -0.1339560817277897 
0.2133935858459485 -0.1321196744644700 -0.2345222566351628 
-0.008696638532506174 0.001169209783632025 -0.01015688715042263 
-0.07469514937485783 0.09952601622959946 -0.1775239800464652 
0.1247110632717566 -0.1219804670587577 -0.03858837485968126 
0.1247110632717566 -0.1219804670587577 -0.03858837485968126 
0.1247110632717566 -0.1219804670587577 -0.03858837485968126 
0.1903832527287312 -0.06937313415654840 -0.1830830993383847 
0.08973363945492865 -0.04080845214806941 -0.1183043886328871 
0.08973363945492865 -0.04080845214806941 -0.1183043886328871 
0.2469174225422975 -0.1020705975476260 -0.2060997982542241 
0.08973363945492865 -0.04080845214806941 -0.1183043886328871 
0.08973363945492865 -0.04080845214806941 -0.1183043886328871 
0.08973363945492865 -0.04080845214806941 -0.1183043886328871 
0.08973363945492865 -0.04080845214806941 -0.1183043886328871 
0.08973363945492865 -0.04080845214806941 -0.1183043886328871 
0.09719306319851977 -0.1382188758257669 -0.003301107549301949 
0.04511602169792735 -0.03886753721647419 -0.03476799310370603 
0.04511602169792735 -0.03886753721647419 -0.03476799310370603 
0.04511602169792735 -0.03886753721647419 -0.03476799310370603 
0.1459437247203279 -0.3623081029154827 -0.03826583882347408 
0.04511602169792735 -0.03886753721647419 -0.03476799310370603 
0.04511602169792735 -0.03886753721647419 -0.03476799310370603 
-0.3395976395461672 -0.5533548956184850 0.7368421910034272 
0.009179877333152730 -0.06126570236765152 0.03616511242485164 
0.04511602169792735 -0.03886753721647419 -0.03476799310370603 
0.2706581732615466 -0.1939791167051702 -0.1906393376389101 
0.04511602169792735 -0.03886753721647419 -0.03476799310370603 
0.04511602169792735 -0.03886753721647419 -0.03476799310370603 
0.3582029054670997 -0.07247468735320137 -0.3286012344392230 
-0.05770729729561838 -0.07790428983889765 0.1011852935399195 
0.04511602169792735 -0.03886753721647419 -0.03476799310370603 
0.04511602169792735 -0.03886753721647419 -0.03476799310370603 
0.04511602169792735 -0.03886753721647419 -0.03476799310370603 
0.2025355437851938 -0.2200054745859897 -0.02657317225067920 
0.04600374855624199 0.05584469293707009 -0.1040383856474785 
0.3764038512038105 -0.1436843040432374 -0.1763585741651953 
0.06503897476504938 -0.02826494178647609 -0.06691410967605063 
0.06503897476504938 -0.02826494178647609 -0.06691410967605063 
0.06503897476504938 -0.02826494178647609 -0.06691410967605063 
0.06503897476504938 -0.02826494178647609 -0.06691410967605063 
-0.02070353677166855 -0.2197472354719779 0.1426690317621946 
-0.07212749427892846 0.03501500528897951 0.09087645597136662 
0.06503897476504938 -0.02826494178647609 -0.06691410967605063 
-0.01571880664307142 0.06696770450834343 -0.1063504124698984 
-0.4079273056552820 0.5018736370045973 -0.1911586135748570 
0.1664692884463086 -0.1017658193728983 -0.09368221035969312 
0.09048762546216423 -0.04855565627535225 -0.09281907221390415 
0.06546077756485694 0.08920190740226784 -0.2136551821088292 
0.2535899692071614 -0.2784644894999006 -0.01713241450944203 
0.09048762546216423 -0.04855565627535225 -0.09281907221390415 
0.1457857704808001 -0.1157005241501150 -0.1014310460354757 
0.09048762546216423 -0.04855565627535225 -0.09281907221390415 
0.09048762546216423 -0.04855565627535225 -0.09281907221390415 
0.09048762546216423 -0.04855565627535225 -0.09281907221390415 
0.1478126237651678 -0.4711432839595711 0.2344325918731892 
0.09048762546216423 -0.04855565627535225 -0.09281907221390415 
0.09048762546216423 -0.04855565627535225 -0.09281907221390415 
0.09048762546216423 -0.04855565627535225 -0.09281907221390415 
0.09048762546216423 -0.04855565627535225 -0.09281907221390415 
0.1001019009500477 -0.2423382251414855 0.08603709077097842 
0.2519027276586074 -0.1625421748173080 -0.1060596890978259 
0.2519027276586074 -0.1625421748173080 -0.1060596890978259 
0.2519027276586074 -0.1625421748173080 -0.1060596890978259 
0.2519027276586074 -0.1625421748173080 -0.1060596890978259 
0.2519027276586074 -0.1625421748173080 -0.1060596890978259 
-0.09686696312659998 -0.2093848023038340 0.2461947107728884 
-0.06784042691475514 -0.04018521099383329 0.05354371465249054 
0.07172042382561225 -0.07716831275243918 -0.009453319738248978 
-0.5077909180497799 -0.01196339363203857 0.3342208076033979 
0.1753100877635555 -0.07411810002894215 -0.1135277576400878 
0.09496457618015020 -0.03755261704372473 -0.07398517348586464 
0.09496457618015020 -0.03755261704372473 -0.07398517348586464 
-0.001809309678618039 0.07884902837740501 -0.06229603486058423 
0.09496457618015020 -0.03755261704372473 -0.07398517348586464 
0.05294863463937466 -0.05355823563366315 -0.04298366008548020 
0.2091563019403974 -0.1709163017043892 -0.09791971359884957 
0.1334271644754003 -0.1231529531810727 -0.05731584701794315 
0.2085668026109024 -0.2030030960962967 -0.06081457990216507 
-0.1524869079677953 -0.03633731132023831 -0.02445802555192507 
0.1334271644754003 -0.1231529531810727 -0.05731584701794315 
0.001776464702566621 0.1237702213324082 -0.1621779035898627 
0.3589048625406752 -0.01770368500591262 -0.4836174772300681 
-0.05954366901056739 0.02338634666668198 -0.05512919681288292 
-0.7101800515680827 0.1879411536723981 0.1557584361344808 
0.1325365637739744 -0.4716557355245478 0.2249038766424559 
-0.01329272092167648 -0.008956859581277670 -0.03404870576701954 
-0.1949311995507646 0.1057828675227851 0.09707896231686670 
0.1026589120609344 -0.09076111187128229 -0.02760865760960857 
0.2026646124812454 -0.1091113133856061 -0.1161621465941166 
0.1026589120609344 -0.09076111187128229 -0.02760865760960857 
0.1026589120609344 -0.09076111187128229 -0.02760865760960857 
0.07731673346326692 0.06912846430051695 -0.1891824292733533 
0.06996933165612655 -0.02145204219980056 -0.1841227535276488 
0.1026589120609344 -0.09076111187128229 -0.02760865760960857 
0.01626524950007865 0.03970812637578154 -0.08591641968558097 
0.06607171119210353 -0.03501221953852973 -0.04646889671910420 
0.1026589120609344 -0.09076111187128229 -0.02760865760960857 
0.1026589120609344 -0.09076111187128229 -0.02760865760960857 
0.1026589120609344 -0.09076111187128229 -0.02760865760960857 
0.1026589120609344 -0.09076111187128229 -0.02760865760960857 
-0.01068140651631565 -0.1933574437505247 0.3172699774801044 
0.1026589120609344 -0.09076111187128229 -0.02760865760960857 
0.1026589120609344 -0.09076111187128229 -0.02760865760960857 
0.1035714756153699 -0.05868908328920217 -0.07167192563178788 
0.04575055105252104 -0.1265349046751413 0.08832106486355867 
0.04216751293553823 0.009139620258882469 -0.03101318321811971 
-0.05076873050527081 0.1079010278226226 -0.001713574751481550 
0.1265162699157875 -0.009229764881303622 -0.1512492763969638 
0.009906869135346892 -0.09051405130357640 0.06086158685872922 
0.09193974488784244 -0.03886782784175246 -0.03897650383603082 
0.5591600643088143 -0.3246381879864358 -0.2385347982542769 
0.09193974488784244 -0.03886782784175246 -0.03897650383603082 
0.09193974488784244 -0.03886782784175246 -0.03897650383603082 
0.09193974488784244 -0.03886782784175246 -0.03897650383603082 
0.2054294544917512 0.02089221828138660 -0.2678193281236486 
0.09193974488784244 -0.03886782784175246 -0.03897650383603082 
0.09193974488784244 -0.03886782784175246 -0.03897650383603082 
0.08384987096827609 -0.05886511033169330 -0.03502310512420931 
0.08384987096827609 -0.05886511033169330 -0.03502310512420931 
0.01873379361039831 0.2075883075006922 -0.4400174365446705 
-0.1792599960482371 -0.1353124587474749 0.08969641826957467 
0.3551576463714327 -0.1707176145473457 -0.1956251421335281 
0.08384987096827609 -0.05886511033169330 -0.03502310512420931 
0.01386330952503320 0.01337950385968689 -0.06682812650302457 
0.08384987096827609 -0.05886511033169330 -0.03502310512420931 
0.02915741696154162 -0.02327375278389453 -0.01199806739334514 
0.02915741696154162 -0.02327375278389453 -0.01199806739334514 
0.02915741696154162 -0.02327375278389453 -0.01199806739334514 
0.04885633586297483 0.1636584802559671 -0.2646568529840341 
0.1812381532616332 -0.08040910091467665 -0.07726043897833270 
0.5192680680976607 -0.1284441415353807 -0.4583004282415863 
0.02915741696154162 -0.02327375278389453 -0.01199806739334514 
0.06933296824730428 -0.07565077250772645 -0.03398499390646426 
-0.06359678219476725 -0.02176052640667424 0.05172826230444214 
0.02915741696154162 -0.02327375278389453 -0.01199806739334514 
0.02915741696154162 -0.02327375278389453 -0.01199806739334514 
0.02915741696154162 -0.02327375278389453 -0.01199806739334514 
0.03237479510121538 -0.1508852356267491 0.03337126735931592 
0.08122504208295911 -0.01855725415446462 -0.05246971926708847 
0.09878146259197074 0.03306577194681849 -0.1822160753900204 
0.08122504208295911 -0.01855725415446462 -0.05246971926708847 
0.08122504208295911 -0.01855725415446462 -0.05246971926708847 
0.08122504208295911 -0.01855725415446462 -0.05246971926708847 
0.1640932192287495 0.03432454141412338 -0.1393086288096353 
0.08122504208295911 -0.01855725415446462 -0.05246971926708847 
0.04047546331160486 -0.1731508551851680 0.1019542596408520 
0.08122504208295911 -0.01855725415446462 -0.05246971926708847 
0.02793806596799849 0.09581882514339621 -0.09223485608720987 
0.1407641763600911 0.06176793454960249 -0.1953554767213822 
-0.07650064056110673 0.2599309221427143 -0.2050195358471970 
-0.04332091402118309 -0.2603391659733010 0.3654224742319360 
0.1239324918795040 -0.1094319420459145 -0.01763833257580471 
0.08122504208295911 -0.01855725415446462 -0.05246971926708847 
0.08122504208295911 -0.01855725415446462 -0.05246971926708847 
0.08122504208295911 -0.01855725415446462 -0.05246971926708847 
0.1479124159390492 -0.1777109580870289 -0.08290486965375883 
0.2211323607350047 -0.1284128739767092 -0.1437852403277837 
0.2211323607350047 -0.1284128739767092 -0.1437852403277837 
0.2684790435971799 -0.1579047693719743 -0.2606012691288466 
0.1529194903997071 0.003956117441534318 -0.1910962789836573 
0.2211323607350047 -0.1284128739767092 -0.1437852403277837 
0.1395899840183831 -0.02410273981803400 -0.1412920453631115 
-0.01421770251047217 -0.03804643099545982 -0.01588157133754565 
0.04892511137780915 0.07138258218601885 -0.1159017624268350 
-0.09441813081689986 0.1335093340038190 -0.03142332043797922 
0.06540803976456312 -0.04666289117748537 -0.03655385738945382 
0.4936776320183496 -0.2142496745435522 -0.3737999687126434 
-0.06870212939660504 0.2764917094799766 -0.1903571508443101 
0.09274481619939182 0.1011450377464045 -0.1890820366544139 
0.06540803976456312 -0.04666289117748537 -0.03655385738945382 
0.06540803976456312 -0.04666289117748537 -0.03655385738945382 
0.2109733486150487 -0.09738747547410155 -0.1829365741580913 
0.2109733486150487 -0.09738747547410155 -0.1829365741580913 
0.2109733486150487 -0.09738747547410155 -0.1829365741580913 
0.2109733486150487 -0.09738747547410155 -0.1829365741580913 
0.1023863314805791 -0.1625666046921450 -0.07169283334517423 
0.1539376573230801 -0.06399214164729251 -0.06779611913056599 
0.1539376573230801 -0.06399214164729251 -0.06779611913056599 
0.1539376573230801 -0.06399214164729251 -0.06779611913056599 
0.1539376573230801 -0.06399214164729251 -0.06779611913056599 
-0.2290104732385029 0.1515009326869063 0.006160579347943845 
0.2046748594586704 -0.07650943446239589 -0.1037460232114723 
0.01380092344205561 -0.06461896836674011 0.02245539225555352 
0.1202970404235404 -0.1119437811897702 -0.1446618392989154 
0.2084129449514221 -0.1360003675777599 -0.03585311177995958 
0.1402000746161248 -0.003631376159516465 -0.08316415043583329 
-0.01706822006348311 -0.1390905377239555 0.1787752214053340 
0.07685319138448085 -0.04234517973029382 -0.08452800040764410 
0.07685319138448085 -0.04234517973029382 -0.08452800040764410 
0.1437240922690896 -0.06220361133803858 -0.1419880868075567 
0.07685319138448085 -0.04234517973029382 -0.08452800040764410 
0.1252735512431059 -0.09950386233129062 -0.08501767922450301 
-0.01913500576644669 -0.1191657974493045 0.03373694936751655 
0.2491094517418472 -0.1128755548460419 -0.2046650857666152 
0.03298346394488173 0.1140970977129347 -0.1829088517898698 
0.1260206364373454 -0.1323854087525759 -0.05808363492978188 
0.007766573581934180 -0.08288263479605909 0.03099629823083702 
0.02364695062076381 -0.1175750042606061 0.1107002954665441 
0.07685319138448085 -0.04234517973029382 -0.08452800040764410 
0.01433670885943358 -0.05279714373134443 0.005044410020682948 
0.07685319138448085 -0.04234517973029382 -0.08452800040764410 
0.1000057004203110 -0.01835020151432384 -0.08855348898450799 
0.1000057004203110 -0.01835020151432384 -0.08855348898450799 
0.1000057004203110 -0.01835020151432384 -0.08855348898450799 
0.1000057004203110 -0.01835020151432384 -0.08855348898450799 
0.1000057004203110 -0.01835020151432384 -0.08855348898450799 
0.1000057004203110 -0.01835020151432384 -0.08855348898450799 
0.1000057004203110 -0.01835020151432384 -0.08855348898450799 
0.1000057004203110 -0.01835020151432384 -0.08855348898450799 
0.1000057004203110 -0.01835020151432384 -0.08855348898450799 
0.1000057004203110 -0.01835020151432384 -0.08855348898450799 
0.1000057004203110 -0.01835020151432384 -0.08855348898450799 
-0.1816032215287857 -0.1773584503705602 0.2534701140348620 
0.1000057004203110 -0.01835020151432384 -0.08855348898450799 
0.2090706705954799 0.1358127778203200 -0.3152665527090177 
0.1021399854794086 -0.01138129209326216 -0.07953618979733383 
0.1021399854794086 -0.01138129209326216 -0.07953618979733383 
0.04058880298656413 0.08505210442189817 -0.1283953648160672 
0.1021399854794086 -0.01138129209326216 -0.07953618979733383 
0.1021399854794086 -0.01138129209326216 -0.07953618979733383 
0.07279833426493257 0.1059519226317518 -0.1242494239837436 
0.1021399854794086 -0.01138129209326216 -0.07953618979733383 
0.1021399854794086 -0.01138129209326216 -0.07953618979733383 
0.1021399854794086 -0.01138129209326216 -0.07953618979733383 
-0.3116653868107817 0.2090522709527183 -0.09439275154806820 
0.02012873124757580 -0.2560145860684072 0.2078677906059953 
0.1021399854794086 -0.01138129209326216 -0.07953618979733383 
0.04513689300655244 -0.09138418151280579 -0.01028418584648982 
0.1021399854794086 -0.01138129209326216 -0.07953618979733383 
0.01799167213392491 0.1007528443980482 -0.1248422719723840 
0.4989715645897145 -0.09845565227318740 -0.4353130729523626 
0.03087175867183306 0.007955906124628879 -0.05702330374825085 
0.01748805608659300 0.1298519188422128 -0.1332806645321866 
0.08880671836430100 -0.06257915367960892 -0.01352134904546540 
0.01424877359831132 -0.1225701713025278 0.1210757015029942 
0.2007166310742972 -0.1196374776828054 -0.04214320769199925 
0.04359982149460231 0.05617276169722110 -0.1035979821212215 
-0.2236385402733949 0.1706450602108888 -0.04284102163902506 
0.08880671836430100 -0.06257915367960892 -0.01352134904546540 
0.08880671836430100 -0.06257915367960892 -0.01352134904546540 
0.08880671836430100 -0.06257915367960892 -0.01352134904546540 
0.08880671836430100 -0.06257915367960892 -0.01352134904546540 
0.08880671836430100 -0.06257915367960892 -0.01352134904546540 
0.08880671836430100 -0.06257915367960892 -0.01352134904546540 
0.06732515205840948 -0.04678431364764445 -0.08585147185483925 
0.06732515205840948 -0.04678431364764445 -0.08585147185483925 
0.06732515205840948 -0.04678431364764445 -0.08585147185483925 
0.1490549673764189 -0.07885438743499512 -0.1272564279886494 
0.06732515205840948 -0.04678431364764445 -0.08585147185483925 
0.06732515205840948 -0.04678431364764445 -0.08585147185483925 
0.06732515205840948 -0.04678431364764445 -0.08585147185483925 
0.06732515205840948 -0.04678431364764445 -0.08585147185483925 
-0.08932317269682152 -0.1020508557054292 0.03834241137247282 
0.06732515205840948 -0.04678431364764445 -0.08585147185483925 
0.06732515205840948 -0.04678431364764445 -0.08585147185483925 
0.06732515205840948 -0.04678431364764445 -0.08585147185483925 
0.2198649870068191 -0.05686667401487774 -0.1788006580937901 
0.2198649870068191 -0.05686667401487774 -0.1788006580937901 
0.1048135589568859 -0.1628173725601789 -0.03889920921940611 
0.1470681202591224 -0.03633298003869237 -0.1148786983304713 
0.05869129385564610 -0.09756492949692924 0.006924233013214459 
0.05869129385564610 -0.09756492949692924 0.006924233013214459 
0.1209623632069175 0.06125241386186700 -0.1696209495590286 
0.09661527154684574 -0.09621989167414667 0.002659244128883471 
0.1470681202591224 -0.03633298003869237 -0.1148786983304713 
0.1470681202591224 -0.03633298003869237 -0.1148786983304713 
0.08719472271912909 -0.03007661199074631 -0.1601110374754285 
0.1347904210521659 -0.06213769104608773 -0.1099311799832379 
0.1980372971566705 -0.04209777557138546 -0.1132253744443293 
-0.004784892871087798 -0.1631630232580857 0.06890298936256083 
0.09940702290152953 0.009624529370958180 -0.1715700546961572 
0.1347904210521659 -0.06213769104608773 -0.1099311799832379 
0.1086824550858454 -0.1047916680392453 -0.03002346511793020 
0.1347904210521659 -0.06213769104608773 -0.1099311799832379 
0.1347904210521659 -0.06213769104608773 -0.1099311799832379 
0.09698521369041806 -0.04037719192750001 -0.07954730696374822 
0.09698521369041806 -0.04037719192750001 -0.07954730696374822 
0.09698521369041806 -0.04037719192750001 -0.07954730696374822 
0.01125682770290971 -0.05987148579035279 -0.001372286597135237 
0.08164733293062937 0.07677059533109455 -0.2091554878143287 
0.09698521369041806 -0.04037719192750001 -0.07954730696374822 
0.09698521369041806 -0.04037719192750001 -0.07954730696374822 
0.09698521369041806 -0.04037719192750001 -0.07954730696374822 
0.09698521369041806 -0.04037719192750001 -0.07954730696374822 
0.3071931646274617 -0.2366354662613410 -0.1599309921688080 
0.3644888696627526 -0.4834636008689436 -0.08151854972779330 
0.03829401001776669 -0.1755624376295677 0.07480574166850965 
0.1008498165963522 -0.06245636775792963 -0.01209094093541645 
0.1614866792905924 -0.1515845366978086 0.03175104558964720 
-0.3052374524559051 0.2748806664376832 -0.08407820988874821 
0.02067523636755053 0.1365814903281306 -0.1524265873899194 
0.1008498165963522 -0.06245636775792963 -0.01209094093541645 
0.03183719647237009 0.09960803422536504 -0.08279718947114355 
-0.07123585664588977 0.08106981616206484 -0.01858908115516790 
0.01091261375188512 0.03590366090598866 -0.03636709656323763 
0.1008498165963522 -0.06245636775792963 -0.01209094093541645 
0.04379977741300789 -0.1076229215124811 0.05304170101640045 
0.1008498165963522 -0.06245636775792963 -0.01209094093541645 
0.1094635508249059 -0.02984552807958937 -0.05221722835852799 
0.1094635508249059 -0.02984552807958937 -0.05221722835852799 
-0.06129097442971165 -0.03425992170441215 0.05416317274934596 
-0.03940573885989926 -0.04944551450021423 0.05762376848334708 
-0.09304034532876093 -0.004356704840318805 0.03180650273730164 
-0.03940573885989926 -0.04944551450021423 0.05762376848334708 
-0.03940573885989926 -0.04944551450021423 0.05762376848334708 
-0.1212031711241065 -0.1121978773925686 0.1898835036670774 
0.5637939904197130 -0.5793776362725880 -0.03581225947018096 
0.08768370537163206 -0.09373616731258051 -0.05373772481921357 
-0.006632068719257155 0.08093831640577175 -0.08247508425589425 
0.08768370537163206 -0.09373616731258051 -0.05373772481921357 
0.03937275882814127 -0.03972815790026951 -0.06753782203138800 
-0.2278436091432443 -0.1166638553763170 0.09238251775006376 
0.08768370537163206 -0.09373616731258051 -0.05373772481921357 
0.08768370537163206 -0.09373616731258051 -0.05373772481921357 
0.07994901999951147 -0.02282985003712531 -0.09756885176599760 
-0.002413648641522784 -0.01363729155355411 -0.05759695842681607 
0.07994901999951147 -0.02282985003712531 -0.09756885176599760 
0.07994901999951147 -0.02282985003712531 -0.09756885176599760 
-0.02743193209208808 0.1415448797308804 -0.1486539512575386 
0.1117662713099229 0.05212014777895503 -0.2084868148868306 
0.09723559851790353 -0.02346087208146295 -0.05680159249916235 
0.09723559851790353 -0.02346087208146295 -0.05680159249916235 
-0.4146001939786870 0.6005059017288146 -0.3273929458687843 
-0.01959683337632972 -0.1825866273093672 0.2376680823355523 
0.09723559851790353 -0.02346087208146295 -0.05680159249916235 
0.1538266227389450 -0.1066948683251514 -0.1108989455603635 
-0.1579900091171591 -0.1538459823320791 0.2541084914651661 
0.09723559851790353 -0.02346087208146295 -0.05680159249916235 
0.1381276178295819 0.1008768283302340 -0.2525948826440309 
0.09723559851790353 -0.02346087208146295 -0.05680159249916235 
0.1006496132738026 -0.02856468200847899 -0.06477871070549775 
0.1006496132738026 -0.02856468200847899 -0.06477871070549775 
0.1006496132738026 -0.02856468200847899 -0.06477871070549775 
0.06646349908581915 -0.3332714129739094 0.3454670732464681 
0.1006496132738026 -0.02856468200847899 -0.06477871070549775 
0.1006496132738026 -0.02856468200847899 -0.06477871070549775 
0.1237842241341657 -0.07645031100462846 -0.06854593925301719 
0.2544567953742311 -0.1248725632674170 -0.1090750545767373 
0.3706630612402316 -0.2253817091700203 -0.1671715246297330 
0.1006496132738026 -0.02856468200847899 -0.06477871070549775 
0.03881023455805778 -0.01427611364244839 -0.01892215422694708 
-0.2119547597059844 0.1548345942114238 0.1557744518799833 
0.07572913746499715 -0.04776334852331646 -0.04060386658090651 
-0.004432490085781712 0.02778511231509018 -0.04973185392792948 
-0.1936872429017301 -0.1026222312869434 0.2162822602745123 
0.07572913746499715 -0.04776334852331646 -0.04060386658090651 
-0.08410000556992009 -0.07695203635174705 0.1239553628996778 
-0.02659849776944438 -0.08567764399195721 0.04802842511650480 
-0.1610396983524613 0.2139612312124149 -0.2380395398693003 
0.07572913746499715 -0.04776334852331646 -0.04060386658090651 
0.2070971347994036 -0.1779329412196293 0.01778473614679629 
-0.02753008210834201 0.05537404355959179 -0.05328158017989439 
0.1184926413660498 -0.1988288432043805 0.05758229315600481 
0.07572913746499715 -0.04776334852331646 -0.04060386658090651 
0.1159046887507598 -0.1001403682471485 -0.06259079309402561 
0.1177082281215513 -0.05022992201828713 -0.07912880578101410 
0.1199283255563063 -0.02916178330011948 -0.1186383119679898 
-0.06045589175606687 -0.5261087702148718 0.4846924103049476 
0.1177082281215513 -0.05022992201828713 -0.07912880578101410 
0.1177082281215513 -0.05022992201828713 -0.07912880578101410 
0.1177082281215513 -0.05022992201828713 -0.07912880578101410 
0.04298797763811156 0.01860950250050473 -0.08455886068892140 
0.1177082281215513 -0.05022992201828713 -0.07912880578101410 
0.1279877894118487 -0.03623761337439620 -0.06607283438238061 
0.1279877894118487 -0.03623761337439620 -0.06607283438238061 
0.1279877894118487 -0.03623761337439620 -0.06607283438238061 
0.1279877894118487 -0.03623761337439620 -0.06607283438238061 
0.1279877894118487 -0.03623761337439620 -0.06607283438238061 
0.07676744160220820 0.04087023614733275 -0.1602238033818061 
0.1279877894118487 -0.03623761337439620 -0.06607283438238061 
0.1279877894118487 -0.03623761337439620 -0.06607283438238061 
0.1279877894118487 -0.03623761337439620 -0.06607283438238061 
-0.1837247094511052 0.09528705960719877 0.03981065595048448 
0.1543856255991100 -0.04750136690175363 -0.07273242146231405 
-0.09118851427041351 -0.1049679125550088 0.1231694884410047 
0.08916087055950060 -0.01498729464944801 -0.08213505558568455 
0.08916087055950060 -0.01498729464944801 -0.08213505558568455 
0.08916087055950060 -0.01498729464944801 -0.08213505558568455 
0.08916087055950060 -0.01498729464944801 -0.08213505558568455 
0.08916087055950060 -0.01498729464944801 -0.08213505558568455 
0.08916087055950060 -0.01498729464944801 -0.08213505558568455 
0.03628960507746620 0.1274661690364323 -0.2037920673969004 
0.08916087055950060 -0.01498729464944801 -0.08213505558568455 
0.08916087055950060 -0.01498729464944801 -0.08213505558568455 
0.08916087055950060 -0.01498729464944801 -0.08213505558568455 
0.08916087055950060 -0.01498729464944801 -0.08213505558568455 
0.08916087055950060 -0.01498729464944801 -0.08213505558568455 
0.08916087055950060 -0.01498729464944801 -0.08213505558568455 
0.08916087055950060 -0.01498729464944801 -0.08213505558568455 
0.08916087055950060 -0.01498729464944801 -0.08213505558568455 
-0.002378904940789777 0.3572212128338627 -0.4516426236539417 
0.1728297752100203 -0.08252840354638136 -0.07627331874266749 
0.1174572623408177 -0.03681577737857562 -0.07011726304913103 
-0.004068848696509114 -0.007140370868003145 0.006462473883310144 
0.1174572623408177 -0.03681577737857562 -0.07011726304913103 
0.1174572623408177 -0.03681577737857562 -0.07011726304913103 
0.2786431079320302 -0.08447434737350745 -0.1645832943293697 
0.1174572623408177 -0.03681577737857562 -0.07011726304913103 
0.1174572623408177 -0.03681577737857562 -0.07011726304913103 
0.1174572623408177 -0.03681577737857562 -0.07011726304913103 
0.1174572623408177 -0.03681577737857562 -0.07011726304913103 
0.05199994402067392 -0.09416723074298405 0.04184235566379521 
0.1174572623408177 -0.03681577737857562 -0.07011726304913103 
0.1174572623408177 -0.03681577737857562 -0.07011726304913103 
-0.005548045587915998 -0.2238303367221730 0.2214703885719744 
0.1538071821004282 -0.09630788125893798 -0.04429634387123960 
0.09757468819582252 0.009810368688539031 -0.09217613168592964 
0.1029603432710964 0.04243019120512470 -0.1479004029278722 
0.1538071821004282 -0.09630788125893798 -0.04429634387123960 
0.1045149118856827 -0.06056047494207911 -0.01152212583461627 
-0.1277509390452985 0.1429034561878001 -0.01014746006146024 
0.1968308318012292 0.07009343201961330 -0.2737551601023235 
0.1341043968595044 0.004924695747462307 -0.1167410457811980 
-0.2243189903314215 0.6144118109233090 -0.4925323067963616 
0.2038999933593837 -0.1400429330134871 -0.1319671341507725 
0.1538071821004282 -0.09630788125893798 -0.04429634387123960 
0.1538071821004282 -0.09630788125893798 -0.04429634387123960 
0.1538071821004282 -0.09630788125893798 -0.04429634387123960 
0.1116497117691263 -0.02814944160532785 -0.04551358624209888 
0.1076672574339351 0.04758700252074487 -0.1188966101429131 
-0.1364025498481590 -0.2358180802719768 0.3281285048047855 
-0.06255439812088708 0.02932119070078907 0.06452939881959854 
0.1442406482889547 0.001114384959321754 -0.08890328937822395 
0.04814789503058589 -0.05306200104965479 0.01320565990056909 
-0.1607513066474240 0.1756832665241555 -0.01010113632472367 
-0.04809627392985934 0.2020384437366931 -0.2553442435792789 
0.1116497117691263 -0.02814944160532785 -0.04551358624209888 
0.1025442440469389 0.04527460549844369 -0.09115482110620168 
0.09077028149370574 0.04112050873807097 -0.06959778473161557 
-0.05913361368063022 0.003350149092129164 0.05990206991758541 
0.08257634463663537 -0.002387019206481815 -0.06114412625967326 
0.2146313488306808 -0.1245545192508703 -0.1117740538458222 
0.09754873228344105 -0.1437375075295306 0.01841768400790860 
0.1167843564709339 -0.09532409634653657 -0.04235337280441623 
0.1167843564709339 -0.09532409634653657 -0.04235337280441623 
0.1167843564709339 -0.09532409634653657 -0.04235337280441623 
-0.02400132100173672 -0.05555126474737056 0.03022916317764329 
0.1167843564709339 -0.09532409634653657 -0.04235337280441623 
0.1167843564709339 -0.09532409634653657 -0.04235337280441623 
0.03729024469550360 0.05700060266020594 -0.1178139529106407 
-0.4760345696404406 0.5083309853987917 -0.3348307724935481 
0.1167843564709339 -0.09532409634653657 -0.04235337280441623 
0.1167843564709339 -0.09532409634653657 -0.04235337280441623 
-0.0002756186008080128 0.2443560361119426 -0.2586744051758646 
0.1092886726248616 -0.05067404850045737 -0.06386871167030920 
0.1092886726248616 -0.05067404850045737 -0.06386871167030920 
0.1092886726248616 -0.05067404850045737 -0.06386871167030920 
0.1092886726248616 -0.05067404850045737 -0.06386871167030920 
0.1092886726248616 -0.05067404850045737 -0.06386871167030920 
0.1092886726248616 -0.05067404850045737 -0.06386871167030920 
0.1092886726248616 -0.05067404850045737 -0.06386871167030920 
0.1092886726248616 -0.05067404850045737 -0.06386871167030920 
0.1092886726248616 -0.05067404850045737 -0.06386871167030920 
0.1092886726248616 -0.05067404850045737 -0.06386871167030920 
0.07028014206689640 -0.05929727597997984 -0.03385893885559276 
0.1092886726248616 -0.05067404850045737 -0.06386871167030920 
-0.2973358191660213 0.3188988850599830 -0.1330508622634360 
0.1069788348023571 -0.03382302699648511 -0.05999449559073532 
0.1069788348023571 -0.03382302699648511 -0.05999449559073532 
0.1069788348023571 -0.03382302699648511 -0.05999449559073532 
0.1069788348023571 -0.03382302699648511 -0.05999449559073532 
0.1069788348023571 -0.03382302699648511 -0.05999449559073532 
0.1069788348023571 -0.03382302699648511 -0.05999449559073532 
0.1069788348023571 -0.03382302699648511 -0.05999449559073532 
0.3682010771997336 -0.1975921433937005 -0.2304680655780171 
0.3876053213096584 -0.1573369083208473 -0.2542133525100433 
0.4679508328930639 -0.1939023913060646 -0.2937559366642666 
0.3876053213096584 -0.1573369083208473 -0.2542133525100433 
0.1321044799309977 -0.04668579338557365 -0.09502561553048762 
0.1321044799309977 -0.04668579338557365 -0.09502561553048762 
0.1321044799309977 -0.04668579338557365 -0.09502561553048762 
0.1321044799309977 -0.04668579338557365 -0.09502561553048762 
0.2440143926409939 -0.1037441173887700 -0.1236474741770215 
0.1321044799309977 -0.04668579338557365 -0.09502561553048762 
0.1321044799309977 -0.04668579338557365 -0.09502561553048762 
0.01293152793262769 0.2285607916972313 -0.2435800518563048 
0.1321044799309977 -0.04668579338557365 -0.09502561553048762 
0.08485934253980883 -0.01246037233734516 -0.01801318637791061 
-0.09821412632957774 -0.1175456647348637 0.2309387827196183 
-0.02017784851249832 -0.04901541874275770 0.09590845533642037 
-0.02017784851249832 -0.04901541874275770 0.09590845533642037 
-0.1016489063032282 0.05211458457618583 0.08057345455738715 
0.06735993993466281 0.07760984241083467 -0.1222230203271994 
0.01848982783197500 -0.05123483509625457 0.01260068167301926 
-0.02017784851249832 -0.04901541874275770 0.09590845533642037 
-0.02017784851249832 -0.04901541874275770 0.09590845533642037 
0.1488309977253927 -0.02352016090810889 -0.1068880195481662 
-0.02017784851249832 -0.04901541874275770 0.09590845533642037 
-0.08764072472726837 -0.07973277907419783 0.1991754180997430 
-0.02017784851249832 -0.04901541874275770 0.09590845533642037 
0.03065466397049309 0.04010045179607503 -0.06506999413314779 
0.1011080906047353 -0.02142491404341142 -0.06865211671962540 
0.1011080906047353 -0.02142491404341142 -0.06865211671962540 
0.08271176396620371 -0.02332296057787428 -0.06169506872597554 
0.1603499516857681 0.04650315420089617 -0.1551473583085705 
0.1011080906047353 -0.02142491404341142 -0.06865211671962540 
0.04648344075316988 -0.03327834876753974 -0.02514447915707381 
0.1011080906047353 -0.02142491404341142 -0.06865211671962540 
0.1011080906047353 -0.02142491404341142 -0.06865211671962540 
0.1011080906047353 -0.02142491404341142 -0.06865211671962540 
-0.001607287490700750 -0.1417027385671655 0.1240373057273738 
0.1011080906047353 -0.02142491404341142 -0.06865211671962540 
0.1011080906047353 -0.02142491404341142 -0.06865211671962540 
0.1692301754718014 -0.08452238209086953 -0.09500388642144349 
0.06500022552917233 -0.03318089422613359 -0.006313801643504297 
0.06500022552917233 -0.03318089422613359 -0.006313801643504297 
0.06500022552917233 -0.03318089422613359 -0.006313801643504297 
-0.04829041217050835 -0.06991468249751132 0.1219061920385947 
0.06500022552917233 -0.03318089422613359 -0.006313801643504297 
0.02444805232907264 -0.09043318065450415 0.07222896958730960 
0.06500022552917233 -0.03318089422613359 -0.006313801643504297 
0.08914391693075340 -0.05257562603629636 -0.09210954430742639 
0.08914391693075340 -0.05257562603629636 -0.09210954430742639 
0.08914391693075340 -0.05257562603629636 -0.09210954430742639 
0.08914391693075340 -0.05257562603629636 -0.09210954430742639 
0.08914391693075340 -0.05257562603629636 -0.09210954430742639 
0.08914391693075340 -0.05257562603629636 -0.09210954430742639 
0.2287953023141486 -0.1610968950647123 -0.2120276559952269 
0.08914391693075340 -0.05257562603629636 -0.09210954430742639 
0.1626625546341430 -0.06011895318589355 -0.09680172399997579 
-0.03623025386210536 0.05543714793049277 -0.03758853022242169 
0.1626625546341430 -0.06011895318589355 -0.09680172399997579 
0.1626625546341430 -0.06011895318589355 -0.09680172399997579 
0.07141213050968026 -0.09010682367343426 -0.1057628169668873 
0.1340024529383196 0.02235520571734280 -0.1538795560177200 
0.1626625546341430 -0.06011895318589355 -0.09680172399997579 
0.1626625546341430 -0.06011895318589355 -0.09680172399997579 
0.07780224745721087 -0.02433148022667480 -0.04370624133252734 
0.07780224745721087 -0.02433148022667480 -0.04370624133252734 
0.003253332676260795 0.08007513989655057 -0.1094372165271936 
0.1017306413377679 0.03309463244454899 -0.1931063360355272 
-0.001514756484764691 0.05218775438785678 0.02645810478407377 
0.07780224745721087 -0.02433148022667480 -0.04370624133252734 
0.07780224745721087 -0.02433148022667480 -0.04370624133252734 
0.07780224745721087 -0.02433148022667480 -0.04370624133252734 
0.07780224745721087 -0.02433148022667480 -0.04370624133252734 
0.1535089398739660 -0.07532343950602999 -0.1190655699219225 
0.1456165420397799 -0.05983926284877260 -0.1162267982015824 
0.1428373551898058 -0.09286271290839813 -0.05261675841273257 
0.1153201612404947 -0.1638394205366832 0.02103919710584022 
0.2529050231684341 -0.1431747035969382 -0.1446533798171937 
0.04344127189533753 -0.02501144881749014 -0.02702894851746144 
0.04344127189533753 -0.02501144881749014 -0.02702894851746144 
0.03013922371139469 0.08439591640018729 -0.1701704352316049 
0.08314648004604937 -0.06190390875423599 -0.04046016127630334 
0.08314648004604937 -0.06190390875423599 -0.04046016127630334 
0.1429960554239012 -0.06771134378165572 -0.1053532181508921 
0.03256462698902044 -0.07137781511097815 0.01881902293778724 
0.1489550893707640 -0.05016724722786915 -0.2374923173354936 
0.08314648004604937 -0.06190390875423599 -0.04046016127630334 
0.08314648004604937 -0.06190390875423599 -0.04046016127630334 
0.08314648004604937 -0.06190390875423599 -0.04046016127630334 
0.04485966301913840 -0.1353993576724060 0.05751307810675190 
0.08314648004604937 -0.06190390875423599 -0.04046016127630334 
0.06057044921539748 -0.03753233267970601 -0.04547536015416591 
0.06057044921539748 -0.03753233267970601 -0.04547536015416591 
0.06057044921539748 -0.03753233267970601 -0.04547536015416591 
0.06057044921539748 -0.03753233267970601 -0.04547536015416591 
0.06057044921539748 -0.03753233267970601 -0.04547536015416591 
0.06057044921539748 -0.03753233267970601 -0.04547536015416591 
0.06057044921539748 -0.03753233267970601 -0.04547536015416591 
-0.3434987205512447 0.2229190604074648 0.1694977024712694 
0.06057044921539748 -0.03753233267970601 -0.04547536015416591 
0.06057044921539748 -0.03753233267970601 -0.04547536015416591 
0.06057044921539748 -0.03753233267970601 -0.04547536015416591 
0.06057044921539748 -0.03753233267970601 -0.04547536015416591 
0.06057044921539748 -0.03753233267970601 -0.04547536015416591 
0.1254906767391011 -0.06344258270607250 -0.07058915294296851 
-0.1643807953674532 -0.1477605384766083 0.2564670089635117 
0.1254906767391011 -0.06344258270607250 -0.07058915294296851 
0.1254906767391011 -0.06344258270607250 -0.07058915294296851 
0.05804083903144632 0.06282623963362696 -0.1349076921862789 
0.1254906767391011 -0.06344258270607250 -0.07058915294296851 
0.1254906767391011 -0.06344258270607250 -0.07058915294296851 
0.1781840438010866 -0.1487152726444005 -0.07048251362121584 
0.1387608838374697 -0.06110952782189662 -0.1145808037193429 
0.1387608838374697 -0.06110952782189662 -0.1145808037193429 
0.1387608838374697 -0.06110952782189662 -0.1145808037193429 
0.1387608838374697 -0.06110952782189662 -0.1145808037193429 
0.07064480280956639 -0.02314617338155533 -0.07172345536049618 
0.1183403355040850 -0.06408612728153854 -0.07975970561023939 
0.3525652979927055 -0.01702190801127431 -0.3016854222955533 
0.1183403355040850 -0.06408612728153854 -0.07975970561023939 
0.1183403355040850 -0.06408612728153854 -0.07975970561023939 
0.1183403355040850 -0.06408612728153854 -0.07975970561023939 
0.1183403355040850 -0.06408612728153854 -0.07975970561023939 
0.1032408504684186 0.006840811344458415 -0.07660604118603016 
0.1192329877452343 -0.03659853600086636 -0.07493151197136001 
0.1192329877452343 -0.03659853600086636 -0.07493151197136001 
-0.08734035561900139 0.4341111659385093 -0.3442051177512645 
-0.1093180244045997 0.3547501776550798 -0.2132753357966537 
0.1192329877452343 -0.03659853600086636 -0.07493151197136001 
0.1192329877452343 -0.03659853600086636 -0.07493151197136001 
-0.04840526195990665 0.07049446995745083 -0.02992215562197056 
0.1192329877452343 -0.03659853600086636 -0.07493151197136001 
0.1192329877452343 -0.03659853600086636 -0.07493151197136001 
0.08141086583989135 -0.02154444624524373 -0.07740376390700783 
0.1192329877452343 -0.03659853600086636 -0.07493151197136001 
0.07912857153081063 -0.05483534518312944 0.01123746976772667 
-0.3974162818353650 0.08354115209775204 0.2961806888127570 
0.1023727238853486 -0.01521964947441504 -0.05329438397988901 
-0.2048100272138551 0.08406714282155177 0.07921698577656330 
0.1023727238853486 -0.01521964947441504 -0.05329438397988901 
-0.003977055632544628 0.01241225252677181 0.01914390212929248 
0.1023727238853486 -0.01521964947441504 -0.05329438397988901 
0.1023727238853486 -0.01521964947441504 -0.05329438397988901 
0.4336474798802530 -0.2524451812876098 -0.2060600448681721 
0.1023727238853486 -0.01521964947441504 -0.05329438397988901 
0.1520807363000916 -0.05713534813078213 -0.06526237158498757 
0.1520807363000916 -0.05713534813078213 -0.06526237158498757 
0.1520807363000916 -0.05713534813078213 -0.06526237158498757 
0.1520807363000916 -0.05713534813078213 -0.06526237158498757 
0.1520807363000916 -0.05713534813078213 -0.06526237158498757 
0.03266211479371096 -0.03480977633347930 0.02709015096354782 
0.1520807363000916 -0.05713534813078213 -0.06526237158498757 
0.1216903541120460 0.1103465414627136 -0.1638861377550674 
0.1520807363000916 -0.05713534813078213 -0.06526237158498757 
-0.1334681302580162 -0.08216505382259355 0.3009828325879582 
0.1520807363000916 -0.05713534813078213 -0.06526237158498757 
-0.009786669600692945 -0.1778264643289758 0.1654079578349819 
0.06812208486706607 -0.06309746804745810 -0.02635176970181812 
0.1721949164376563 -0.1084760583418460 -0.1031253018772814 
0.09797240464227232 -0.1654751247982548 0.01201151127298862 
-0.2812422125285047 0.3504601579673599 -0.2210056547632219 
0.06812208486706607 -0.06309746804745810 -0.02635176970181812 
0.06812208486706607 -0.06309746804745810 -0.02635176970181812 
0.06812208486706607 -0.06309746804745810 -0.02635176970181812 
0.3937594134394981 -0.2257131195813770 -0.2673678437895625 
-0.1879656345806596 -0.2036686523975105 0.3485565532788442 
0.07924512252262822 -0.02255363183929695 -0.04702934144670815 
0.07924512252262822 -0.02255363183929695 -0.04702934144670815 
0.07924512252262822 -0.02255363183929695 -0.04702934144670815 
0.07924512252262822 -0.02255363183929695 -0.04702934144670815 
0.02544032935976281 -0.05394528344720514 0.02954935784141224 
0.4373374624636103 0.01933309396402002 -0.4693943867968958 
0.008161448891185495 -0.04277110924092823 0.02876636879659901 
0.04406078836637586 0.03466911438520087 -0.08026186288154510 
0.07924512252262822 -0.02255363183929695 -0.04702934144670815 
0.1585976051007179 -0.07261774127097825 -0.09566017603638866 
0.1427593160969074 -0.1563521149486870 0.04328276778262700 
0.1585976051007179 -0.07261774127097825 -0.09566017603638866 
0.1585976051007179 -0.07261774127097825 -0.09566017603638866 
0.1585976051007179 -0.07261774127097825 -0.09566017603638866 
0.1585976051007179 -0.07261774127097825 -0.09566017603638866 
0.1028917637658354 -0.1335965033174791 0.02395495519688549 
0.2114175642100114 -0.1350815243244161 -0.03552551080512351 
0.2114175642100114 -0.1350815243244161 -0.03552551080512351 
0.2658333262490362 0.08193053289941044 -0.2600437232663431 
0.3807087578687594 -0.2933406441283256 -0.04472974843990241 
0.2114175642100114 -0.1350815243244161 -0.03552551080512351 
0.1206983828114295 -0.02284818632516466 -0.08652387360702592 
0.1392004810898082 -0.04554791542004134 -0.06663195754151618 
0.1645972458377128 0.2000955257382613 -0.3907948768173037 
-0.01346120271665249 -0.4767466414666573 0.5289377746556156 
-0.1530929354568697 -0.2225861947806740 0.4027202794918941 
0.1611858455912125 -0.04765856999493182 -0.09446603128023882 
0.1611858455912125 -0.04765856999493182 -0.09446603128023882 
-0.3356616180972282 0.4329931204084246 -0.1930292182988806 
0.1611858455912125 -0.04765856999493182 -0.09446603128023882 
0.1611858455912125 -0.04765856999493182 -0.09446603128023882 
0.1611858455912125 -0.04765856999493182 -0.09446603128023882 
0.1611858455912125 -0.04765856999493182 -0.09446603128023882 
0.06037986932330522 0.07637189300282687 -0.2127616125202040 
0.1140619943105582 -0.07186617675429392 -0.02805470235709187 
0.1140619943105582 -0.07186617675429392 -0.02805470235709187 
0.1140619943105582 -0.07186617675429392 -0.02805470235709187 
0.1140619943105582 -0.07186617675429392 -0.02805470235709187 
0.04139383866225047 0.03232736416687641 -0.1018724691955756 
0.1140619943105582 -0.07186617675429392 -0.02805470235709187 
-0.06913233616987524 0.1795521459417212 -0.1729232843674977 
0.1140619943105582 -0.07186617675429392 -0.02805470235709187 
0.004121281408121093 -0.0004203605138516156 -0.04429352431063730 
0.05305256314691900 -0.08112460809127478 0.04015926706708514 
0.1140619943105582 -0.07186617675429392 -0.02805470235709187 
0.07366693828633397 -0.09649616917034355 0.005126026687001729 
0.1571837830873688 -0.06126214539955658 -0.08779540962133699 
0.1571837830873688 -0.06126214539955658 -0.08779540962133699 
0.1571837830873688 -0.06126214539955658 -0.08779540962133699 
0.1571837830873688 -0.06126214539955658 -0.08779540962133699 
0.1571837830873688 -0.06126214539955658 -0.08779540962133699 
0.1571837830873688 -0.06126214539955658 -0.08779540962133699 
0.1424446984895326 -0.01265278825916125 -0.1168530413095619 
0.2430051247510440 -0.1549102978766967 -0.1636365462587008 
0.2430051247510440 -0.1549102978766967 -0.1636365462587008 
0.1931552002121833 -0.03028933989036491 -0.2551748656930993 
0.2430051247510440 -0.1549102978766967 -0.1636365462587008 
0.09057753869365753 -0.05985800402852795 -0.03171510534793268 
0.08560480256943642 0.08457645580671190 -0.1007763891442990 
0.1387517010519802 -0.07424487696205333 -0.02007879003824934 
0.08638445091607158 -0.09013153994952061 0.01635241943820611 
0.1387517010519802 -0.07424487696205333 -0.02007879003824934 
0.07649175676090068 -0.03256352614311221 -0.06503703239898125 
0.1568372683443062 -0.06912900912832953 -0.1045796165532044 
-0.3521951051021613 -0.1299803953972789 0.3051242710248702 
0.07649175676090068 -0.03256352614311221 -0.06503703239898125 
0.07649175676090068 -0.03256352614311221 -0.06503703239898125 
-0.1955340225479687 0.1596578539382759 -0.01999068195828722 
0.07649175676090068 -0.03256352614311221 -0.06503703239898125 
0.07649175676090068 -0.03256352614311221 -0.06503703239898125 
0.07649175676090068 -0.03256352614311221 -0.06503703239898125 
0.07649175676090068 -0.03256352614311221 -0.06503703239898125 
-0.09674935291385495 -0.02275603447220645 0.1320057839119442 
-0.05252198871346893 -0.1128475157444027 0.2001642550712928 
0.07649175676090068 -0.03256352614311221 -0.06503703239898125 
0.07649175676090068 -0.03256352614311221 -0.06503703239898125 
-0.03995128216488983 0.05572616286122148 -0.02923494454592557 
0.1085808047142651 -0.04865086414180829 -0.04693172288282563 
0.1085808047142651 -0.04865086414180829 -0.04693172288282563 
0.1080239155566885 0.03533904856412742 -0.08804463920597824 
0.1085808047142651 -0.04865086414180829 -0.04693172288282563 
0.1085808047142651 -0.04865086414180829 -0.04693172288282563 
0.1085808047142651 -0.04865086414180829 -0.04693172288282563 
0.1085808047142651 -0.04865086414180829 -0.04693172288282563 
0.1085808047142651 -0.04865086414180829 -0.04693172288282563 
0.1085808047142651 -0.04865086414180829 -0.04693172288282563 
0.01231190709843756 -0.04051894500659956 0.04834519603865151 
0.01231190709843756 -0.04051894500659956 0.04834519603865151 
0.01231190709843756 -0.04051894500659956 0.04834519603865151 
0.08572409326254778 -0.01514075303861017 -0.08619357377877701 
0.03550095087617427 -0.04771790384422070 0.03430142948377835 
0.09806583224096126 -0.08066401406220200 -0.03049367575321158 
0.08572409326254778 -0.01514075303861017 -0.08619357377877701 
0.1714780184050716 -0.05528582209421269 -0.1650324455706401 
0.08572409326254778 -0.01514075303861017 -0.08619357377877701 
-0.02868834116969342 0.2735682329306126 -0.2079802431898907 
-0.06138657648869142 -0.04384240597794585 0.03039240992889711 
0.08572409326254778 -0.01514075303861017 -0.08619357377877701 
0.08572409326254778 -0.01514075303861017 -0.08619357377877701 
-0.0004791634958975048 -0.1290578965605619 0.1007309712767460 
0.02294466764529832 -0.001484028376677958 -0.04643855404065340 
0.08780183955785528 0.01943897303895903 -0.09951080634412421 
0.1308130193883085 -0.06942422209517897 -0.05585007277345302 
0.04777903066393421 0.1224719422975586 -0.2523200026185605 
0.07714565263637606 -0.03980415641215711 -0.06283027948162710 
0.03638407431763906 -0.06133228560065591 0.07769077542016127 
-0.2064201391973951 0.3336398143961490 -0.1691782964304094 
-0.06689232578657739 0.3052161170845453 -0.1455015129433079 
0.2189660452477125 -0.06148502745959220 -0.1148208898892647 
0.1097962604817493 -0.03595409363266654 -0.05684799439726723 
0.1097962604817493 -0.03595409363266654 -0.05684799439726723 
0.1097962604817493 -0.03595409363266654 -0.05684799439726723 
0.1097962604817493 -0.03595409363266654 -0.05684799439726723 
0.1097962604817493 -0.03595409363266654 -0.05684799439726723 
0.1097962604817493 -0.03595409363266654 -0.05684799439726723 
0.1097962604817493 -0.03595409363266654 -0.05684799439726723 
0.1097962604817493 -0.03595409363266654 -0.05684799439726723 
0.1097962604817493 -0.03595409363266654 -0.05684799439726723 
0.1015624300424852 -0.04061562964449422 -0.07972865508089998 
0.2715057863034225 -0.1532317742314573 -0.1874882510240979 
0.1015624300424852 -0.04061562964449422 -0.07972865508089998 
0.1015624300424852 -0.04061562964449422 -0.07972865508089998 
0.1015624300424852 -0.04061562964449422 -0.07972865508089998 
-0.2234376558800410 -0.2332228430841352 0.2694746232575930 
0.1015624300424852 -0.04061562964449422 -0.07972865508089998 
0.1015624300424852 -0.04061562964449422 -0.07972865508089998 
0.1015624300424852 -0.04061562964449422 -0.07972865508089998 
-0.03171959365685191 -0.1146079162847136 0.04533804865142090 
0.1015624300424852 -0.04061562964449422 -0.07972865508089998 
0.1015624300424852 -0.04061562964449422 -0.07972865508089998 
0.06354883708254454 -0.01605682548865651 -0.03632975723076688 
0.06354883708254454 -0.01605682548865651 -0.03632975723076688 
0.06354883708254454 -0.01605682548865651 -0.03632975723076688 
0.06354883708254454 -0.01605682548865651 -0.03632975723076688 
0.06354883708254454 -0.01605682548865651 -0.03632975723076688 
0.06354883708254454 -0.01605682548865651 -0.03632975723076688 
0.02302203527649032 -0.04524241247370599 0.01737964195741760 
0.06354883708254454 -0.01605682548865651 -0.03632975723076688 
0.01832105891372172 -0.03837879213350240 0.04417776382226214 
0.07633448922938174 0.04081140094166923 -0.1308423256068047 
0.02140446541995567 -0.05072331240260440 0.03143250492194158 
0.06354883708254454 -0.01605682548865651 -0.03632975723076688 
0.06354883708254454 -0.01605682548865651 -0.03632975723076688 
0.1642296307372484 -0.1252997237043211 -0.007533437349381993 
0.1119099127099963 -0.05705832400319643 -0.02862185864653384 
-0.1078227787830710 0.2377226602549102 -0.06987682822818278 
0.1894166855663345 -0.07814519853956063 -0.06287529849865395 
0.1119099127099963 -0.05705832400319643 -0.02862185864653384 
0.09473415401904606 -0.1403961465157295 0.07766375691649838 
0.1119099127099963 -0.05705832400319643 -0.02862185864653384 
0.08314457785745893 -0.09777294756946663 0.04926693267200645 
-0.06851676377532173 -0.4300707495480876 0.3297141920769056 
0.1692634970882361 -0.07805355496116996 -0.05017296104276645 
0.2036368651837500 -0.07485155615016391 -0.09594560180450604 
0.2036368651837500 -0.07485155615016391 -0.09594560180450604 
0.2036368651837500 -0.07485155615016391 -0.09594560180450604 
0.2036368651837500 -0.07485155615016391 -0.09594560180450604 
0.1658558549043780 -0.1163016219608224 -0.02701553029981708 
0.1041157570744839 -0.02429491540257723 -0.08866316382808540 
0.1041157570744839 -0.02429491540257723 -0.08866316382808540 
0.1041157570744839 -0.02429491540257723 -0.08866316382808540 
0.004097795352879557 -0.04217657421908051 0.009560578410808117 
0.2217960344882390 -0.07676491803843338 -0.1296528849384975 
-0.03384832520666551 0.08363783229354972 -0.06802653965075658 
0.1041157570744839 -0.02429491540257723 -0.08866316382808540 
0.1041157570744839 -0.02429491540257723 -0.08866316382808540 
0.1041157570744839 -0.02429491540257723 -0.08866316382808540 
-0.02033195575003760 -0.1199343739086784 0.1086454028011869 
0.1041157570744839 -0.02429491540257723 -0.08866316382808540 
0.1041157570744839 -0.02429491540257723 -0.08866316382808540 
0.1041157570744839 -0.02429491540257723 -0.08866316382808540 
0.05082522790689509 -0.02809833682939084 -0.04377875099999366 
0.05082522790689509 -0.02809833682939084 -0.04377875099999366 
0.07710434643797108 -0.02569686743302514 -0.03449514849478570 
0.05800088155220995 -0.03076022436342036 -0.01585742723645038 
0.07710434643797108 -0.02569686743302514 -0.03449514849478570 
0.07710434643797108 -0.02569686743302514 -0.03449514849478570 
0.1336882689654921 -0.07351954674484880 -0.04330671658667426 
0.1336882689654921 -0.07351954674484880 -0.04330671658667426 
0.2938299698401204 -0.1447331481636263 -0.1407549154675163 
0.1336882689654921 -0.07351954674484880 -0.04330671658667426 
0.1336882689654921 -0.07351954674484880 -0.04330671658667426 
0.08383834442663150 0.05110141124148297 -0.1348450360210723 
0.1336882689654921 -0.07351954674484880 -0.04330671658667426 
0.08074317899724057 -0.1887015869480264 0.1382168570749103 
0.1336882689654921 -0.07351954674484880 -0.04330671658667426 
0.1038558140459026 -0.3619687325468800 0.4193512129878669 
0.09118755636168690 -0.03346181853021948 -0.05987831457795449 
0.09118755636168690 -0.03346181853021948 -0.05987831457795449 
0.03827857223945902 -0.08331354779420352 0.01951443275957399 
0.03809435712450883 0.1327737863581609 -0.1652659736090709 
0.09118755636168690 -0.03346181853021948 -0.05987831457795449 
0.09118755636168690 -0.03346181853021948 -0.05987831457795449 
0.09118755636168690 -0.03346181853021948 -0.05987831457795449 
0.09118755636168690 -0.03346181853021948 -0.05987831457795449 
0.09118755636168690 -0.03346181853021948 -0.05987831457795449 
0.1988537694069846 -0.06303407104023576 -0.1185924833210241 
0.09118755636168690 -0.03346181853021948 -0.05987831457795449 
0.09118755636168690 -0.03346181853021948 -0.05987831457795449 
-0.07184212905725752 0.1730577982877552 -0.1823005186594896 
-0.3953938837395151 0.1706672962074445 0.08730481864151725 
0.05529814501863577 -0.06714486787476275 -0.008611973821571544 
0.05529814501863577 -0.06714486787476275 -0.008611973821571544 
0.05529814501863577 -0.06714486787476275 -0.008611973821571544 
0.05529814501863577 -0.06714486787476275 -0.008611973821571544 
-0.003683440003566137 0.1932076783256232 -0.1698069908233922 
0.05529814501863577 -0.06714486787476275 -0.008611973821571544 
0.05529814501863577 -0.06714486787476275 -0.008611973821571544 
0.03496007878364189 -0.08871898702703762 0.03766425809743730 
0.1597746592823387 -0.08369778052563975 -0.1166496888174335 
0.1597746592823387 -0.08369778052563975 -0.1166496888174335 
0.1597746592823387 -0.08369778052563975 -0.1166496888174335 
-0.2196597332681851 0.1662528505745365 -0.04158110379790152 
0.1597746592823387 -0.08369778052563975 -0.1166496888174335 
0.1597746592823387 -0.08369778052563975 -0.1166496888174335 
0.09084005292673641 -0.05859724195013914 -0.03759391415976468 
0.09084005292673641 -0.05859724195013914 -0.03759391415976468 
0.09084005292673641 -0.05859724195013914 -0.03759391415976468 
0.09084005292673641 -0.05859724195013914 -0.03759391415976468 
0.09784821327832058 0.02975839681024006 -0.1789389256333197 
0.07820903033345164 -0.1184393411946252 0.06502478908169798 
0.09084005292673641 -0.05859724195013914 -0.03759391415976468 
-0.09808843332947478 0.04534998645546208 0.06808004993371092 
-0.1884889454682169 -0.05964863328660753 0.2025920693358812 
0.09084005292673641 -0.05859724195013914 -0.03759391415976468 
0.09084005292673641 -0.05859724195013914 -0.03759391415976468 
0.08034551158340553 -0.03656548298521736 -0.03954258415422313 
0.1552455202451009 -0.06252826440332278 -0.09061318281852923 
0.08034551158340553 -0.03656548298521736 -0.03954258415422313 
-0.06184029618063738 -0.1875667780890361 0.2234899633532981 
0.08034551158340553 -0.03656548298521736 -0.03954258415422313 
0.006860117497166703 -0.08152385177138147 0.06841944555845203 
0.08034551158340553 -0.03656548298521736 -0.03954258415422313 
0.08034551158340553 -0.03656548298521736 -0.03954258415422313 
-0.05280642828500687 -0.04515493400692792 0.009764855976096484 
0.08034551158340553 -0.03656548298521736 -0.03954258415422313 
0.1671460788583240 -0.1117590204468239 -0.05350753192042504 
0.08310696126133377 -0.02974951605815054 -0.01374730357238158 
0.08310696126133377 -0.02974951605815054 -0.01374730357238158 
0.02549983192550715 -0.05860482514814216 0.1125392474268066 
0.08310696126133377 -0.02974951605815054 -0.01374730357238158 
0.08310696126133377 -0.02974951605815054 -0.01374730357238158 
0.08310696126133377 -0.02974951605815054 -0.01374730357238158 
0.4898778117301422 -0.3553861939370857 -0.1150199022595584 
0.1987825192042255 -0.1461637731856274 -0.02864465130572243 
0.08310696126133377 -0.02974951605815054 -0.01374730357238158 
0.08310696126133377 -0.02974951605815054 -0.01374730357238158 
0.08310696126133377 -0.02974951605815054 -0.01374730357238158 
-0.2174637204757736 0.4002674839595470 -0.2074278907101259 
0.08310696126133377 -0.02974951605815054 -0.01374730357238158 
0.08310696126133377 -0.02974951605815054 -0.01374730357238158 
0.1274515636095590 -0.06698524883496597 -0.07301175840714606 
0.1274515636095590 -0.06698524883496597 -0.07301175840714606 
0.05727192173629189 0.2001446176658672 -0.2563305580007075 
0.07416458749459835 0.04739083046289486 -0.1127768952272674 
0.1274515636095590 -0.06698524883496597 -0.07301175840714606 
0.1274515636095590 -0.06698524883496597 -0.07301175840714606 
0.08237178874026099 -0.01502843737371037 -0.1232805605030602 
0.06592599985748007 -0.003924503533691955 -0.09474192616920670 
0.06592599985748007 -0.003924503533691955 -0.09474192616920670 
0.1259648864163771 -0.02010331703002475 -0.09447105815509142 
0.1259648864163771 -0.02010331703002475 -0.09447105815509142 
0.1259648864163771 -0.02010331703002475 -0.09447105815509142 
0.01340442149533325 0.08145893071556612 -0.09865846729528835 
0.02841688812062168 -0.01305065240333045 0.007126344331673400 
0.1259648864163771 -0.02010331703002475 -0.09447105815509142 
0.1259648864163771 -0.02010331703002475 -0.09447105815509142 
0.1182838889376769 0.1894532687086468 -0.2751298968935524 
0.1259648864163771 -0.02010331703002475 -0.09447105815509142 
0.1888183630111448 -0.1005144770893087 -0.1308609472617746 
0.1063537098426112 -0.06156260534179167 -0.09002549096522386 
0.1063537098426112 -0.06156260534179167 -0.09002549096522386 
0.1063537098426112 -0.06156260534179167 -0.09002549096522386 
0.1063537098426112 -0.06156260534179167 -0.09002549096522386 
0.1063537098426112 -0.06156260534179167 -0.09002549096522386 
-0.1408068058401429 0.08346200764802335 0.06918414547988731 
0.01547010025322163 -0.08499830701382219 0.06334071516017702 
0.03603582562234453 -0.04854105412036125 0.01426161418052141 
0.03603582562234453 -0.04854105412036125 0.01426161418052141 
0.03603582562234453 -0.04854105412036125 0.01426161418052141 
0.03603582562234453 -0.04854105412036125 0.01426161418052141 
0.03603582562234453 -0.04854105412036125 0.01426161418052141 
0.03603582562234453 -0.04854105412036125 0.01426161418052141 
-0.02386006498311886 -0.06966613312757584 0.09282476539436575 
0.03603582562234453 -0.04854105412036125 0.01426161418052141 
0.03654165917587982 -0.1119922469403644 0.07353327527629859 
-0.008158781027238750 0.1056117300549382 -0.07956898275895599 
0.03603582562234453 -0.04854105412036125 0.01426161418052141 
0.03603582562234453 -0.04854105412036125 0.01426161418052141 
-0.01963860840935307 -0.1107757433473795 0.1170546189256260 
0.03603582562234453 -0.04854105412036125 0.01426161418052141 
0.03603582562234453 -0.04854105412036125 0.01426161418052141 
0.05493277074967762 -0.05591962917502933 -0.06363007016494436 
0.07378086069304844 -0.04128371473584061 -0.08893204792006583 
0.07378086069304844 -0.04128371473584061 -0.08893204792006583 
0.07378086069304844 -0.04128371473584061 -0.08893204792006583 
-0.001326728501937956 -0.07969071107433826 0.04076883158183252 
0.07378086069304844 -0.04128371473584061 -0.08893204792006583 
0.07378086069304844 -0.04128371473584061 -0.08893204792006583 
0.07378086069304844 -0.04128371473584061 -0.08893204792006583 
0.06997713455733993 -0.05440996705161420 -0.03723206976901412 
0.06997713455733993 -0.05440996705161420 -0.03723206976901412 
0.06997713455733993 -0.05440996705161420 -0.03723206976901412 
0.06997713455733993 -0.05440996705161420 -0.03723206976901412 
0.06997713455733993 -0.05440996705161420 -0.03723206976901412 
0.06997713455733993 -0.05440996705161420 -0.03723206976901412 
0.06997713455733993 -0.05440996705161420 -0.03723206976901412 
-0.1767131538121302 0.1357820048295564 0.008218025381149897 
0.06997713455733993 -0.05440996705161420 -0.03723206976901412 
0.1373824203319475 -0.06571963110486434 -0.07324413198029249 
0.1373824203319475 -0.06571963110486434 -0.07324413198029249 
0.1373824203319475 -0.06571963110486434 -0.07324413198029249 
0.1057991521465033 -0.03811642927916129 -0.06226197975371584 
0.1057991521465033 -0.03811642927916129 -0.06226197975371584 
0.1057991521465033 -0.03811642927916129 -0.06226197975371584 
0.1057991521465033 -0.03811642927916129 -0.06226197975371584 
0.1057991521465033 -0.03811642927916129 -0.06226197975371584 
0.1057991521465033 -0.03811642927916129 -0.06226197975371584 
0.1057991521465033 -0.03811642927916129 -0.06226197975371584 
0.1057991521465033 -0.03811642927916129 -0.06226197975371584 
-0.001951980170710820 -0.09594264157593407 0.08921564806805121 
0.03588133022660536 0.1296762473939584 -0.2030163672927502 
-0.1770470175864040 0.06350644035487424 0.04847142064632508 
0.09939608329446825 -0.06785126409090801 -0.02558780989527111 
0.04808919947598166 -0.02145205267959566 -0.04225109837528283 
0.04808919947598166 -0.02145205267959566 -0.04225109837528283 
0.1284791633847813 -0.08595315683250596 -0.08450260993524218 
0.1294229982118195 -0.2258114804639146 0.02021060101496680 
0.1284791633847813 -0.08595315683250596 -0.08450260993524218 
0.01296576292313113 0.05543277300289479 -0.1469474475403818 
0.1284791633847813 -0.08595315683250596 -0.08450260993524218 
-0.1411191022369241 -0.09773417832730366 0.1493592641995350 
0.1284791633847813 -0.08595315683250596 -0.08450260993524218 
0.1399719811863465 -0.04502932023382025 -0.08724212199603741 
0.07079989004331172 -0.06938440170265608 0.03708292675638601 
0.08648412757595698 -0.1238429471620847 0.03957504775460322 
0.1399719811863465 -0.04502932023382025 -0.08724212199603741 
0.3367809527782034 0.1290462263558673 -0.3738517312802432 
0.1460248119970336 -0.1104065344910509 -0.03144013001296785 
0.1042153937361651 -0.1673311537710123 0.05337369126452191 
0.1460248119970336 -0.1104065344910509 -0.03144013001296785 
0.1460248119970336 -0.1104065344910509 -0.03144013001296785 
0.2211735494516952 -0.1319515904228351 -0.05742410088713700 
0.1471213826445384 -0.1244082055590647 0.04023540772622543 
0.2076782378659728 -0.05040699432684041 -0.09649856659110470 
0.1471213826445384 -0.1244082055590647 0.04023540772622543 
0.1957858963835492 -0.09670890274275977 -0.06108513900460839 
0.06687090088460894 -0.01985843160774476 -0.05746008639991267 
0.2669681228286772 -0.05925829107602004 -0.1876982141255328 
0.1937938593136859 -0.1854408033409165 -0.007856571671111008 
0.1391083923134183 -0.08093696234875340 -0.05422391207294834 
0.1776163597996269 -0.1680278440584522 -0.02035124874436666 
0.1937938593136859 -0.1854408033409165 -0.007856571671111008 
0.1937938593136859 -0.1854408033409165 -0.007856571671111008 
0.2733000059054846 -0.1155053959648575 -0.1437982083453665 
0.3688683774662013 -0.02778803026141321 -0.3006332448449446 
0.1937938593136859 -0.1854408033409165 -0.007856571671111008 
0.1407285723334331 -0.09359850963990174 -0.03607662503410890 
0.3523404513156767 -0.2919885439538893 -0.1796443396746036 
0.01234173897841349 -0.06552326102359182 0.05569989802556541 
0.08575392514252370 -0.04014506905560250 -0.07883887179186311 
0.1839652344513953 -0.1254144239302713 -0.01388240512964345 
0.1359398479389313 -0.05418133060612437 -0.06654283417912951 
0.004974778512585668 0.02950376904079637 -0.06475308730008315 
-0.04152988026788517 0.4616762915471278 -0.4221402144054950 
0.2026886580815378 -0.04956175467906357 -0.1424409631276941 
0.2026886580815378 -0.04956175467906357 -0.1424409631276941 
0.2026886580815378 -0.04956175467906357 -0.1424409631276941 
0.2026886580815378 -0.04956175467906357 -0.1424409631276941 
0.2026886580815378 -0.04956175467906357 -0.1424409631276941 
0.1640461439286951 -0.06286696778199312 -0.07369368109715006 
0.04677862854952351 -0.1307560812875133 0.1073632535282796 
0.1640461439286951 -0.06286696778199312 -0.07369368109715006 
0.1640461439286951 -0.06286696778199312 -0.07369368109715006 
0.1640461439286951 -0.06286696778199312 -0.07369368109715006 
0.09305487320788740 -0.1544531893653658 0.03558151784956745 
0.2000972219440685 -0.03939985946827529 -0.1302381277256201 
0.2000972219440685 -0.03939985946827529 -0.1302381277256201 
0.07613601112612930 0.3418813313629109 -0.2644393581457772 
0.07137132398563295 -0.01629624949299523 -0.01811851822164891 
-0.1585505414367768 0.1878083883627149 -0.06411542899778258 
0.07137132398563295 -0.01629624949299523 -0.01811851822164891 
0.07137132398563295 -0.01629624949299523 -0.01811851822164891 
0.07137132398563295 -0.01629624949299523 -0.01811851822164891 
-0.04612434451444196 0.04069379270382129 0.03448029983651488 
0.07137132398563295 -0.01629624949299523 -0.01811851822164891 
0.2250966873430807 -0.08837427238249503 -0.1433297208954381 
0.05852447534793094 0.09721519265039273 -0.1651329694661564 
0.3096513911460608 -0.02479461483188715 -0.1360151469037507 
0.2250966873430807 -0.08837427238249503 -0.1433297208954381 
0.1650581514550817 -0.06347594875383374 -0.1054008777969650 
0.1650581514550817 -0.06347594875383374 -0.1054008777969650 
0.05487606724587345 -0.1148628342541195 -0.01310894774993638 
0.1650581514550817 -0.06347594875383374 -0.1054008777969650 
0.08252894923452511 -0.03173806411889140 -0.05270029624161578 
0.09973012773294467 -0.1325008006636879 0.03291216688319003 
0.1650581514550817 -0.06347594875383374 -0.1054008777969650 
0.1650581514550817 -0.06347594875383374 -0.1054008777969650 
0.1650581514550817 -0.06347594875383374 -0.1054008777969650 
0.2565209703332401 -0.03397198080858767 -0.1345967535761059 
0.1650581514550817 -0.06347594875383374 -0.1054008777969650 
-0.2876706565744611 0.1555730579353041 -0.02131175109646332 
0.1650581514550817 -0.06347594875383374 -0.1054008777969650 
0.1650581514550817 -0.06347594875383374 -0.1054008777969650 
0.08252920222055671 -0.03173788463494238 -0.05270058155534924 
-0.01923846419364451 0.09894132801148682 -0.05776328878240027 
0.1473337478015052 -0.08664813702140095 -0.03596004021168194 
0.1473337478015052 -0.08664813702140095 -0.03596004021168194 
0.2116997697882829 -0.1279389920312996 -0.07317364712361807 
0.1137516725376337 -0.07870054090294566 -0.02213512119674733 
0.1473337478015052 -0.08664813702140095 -0.03596004021168194 
0.1473337478015052 -0.08664813702140095 -0.03596004021168194 
0.1473337478015052 -0.08664813702140095 -0.03596004021168194 
0.3132540093907034 -0.1824327205967639 -0.1004200853025169 
0.1224358311346116 -0.05504643720159802 -0.05559837599386114 
0.1224358311346116 -0.05504643720159802 -0.05559837599386114 
0.1224358311346116 -0.05504643720159802 -0.05559837599386114 
0.1150901683181467 -0.2677509693414173 0.1161221731154365 
0.1224358311346116 -0.05504643720159802 -0.05559837599386114 
0.03357528805933054 -0.03353559517509835 -0.03590614366046999 
0.03357528805933054 -0.03353559517509835 -0.03590614366046999 
-0.1418345165826790 -0.001740247454530983 0.1193274535175026 
-0.02090551796541250 0.1149566342618608 -0.1478640560718323 
0.03357528805933054 -0.03353559517509835 -0.03590614366046999 
0.1745464650636282 -0.02466914871795370 -0.3958608188742169 
0.03357528805933054 -0.03353559517509835 -0.03590614366046999 
-0.05740086213417668 -0.2252152952724791 0.1665245591788563 
-0.002274086264108532 -0.1958710055374210 0.1224277352201248 
0.06484058911656743 -0.03620455179767765 -0.05936079906279634 
0.06484058911656743 -0.03620455179767765 -0.05936079906279634 
0.06484058911656743 -0.03620455179767765 -0.05936079906279634 
0.06484058911656743 -0.03620455179767765 -0.05936079906279634 
0.06484058911656743 -0.03620455179767765 -0.05936079906279634 
0.06484058911656743 -0.03620455179767765 -0.05936079906279634 
0.02452148769875511 -0.07627574213822796 0.006028015760270004 
-0.05005153574673061 0.1544862895893262 -0.1364537504707606 
0.06484058911656743 -0.03620455179767765 -0.05936079906279634 
0.3506386619872431 -0.3769455079389985 -0.06589918332238233 
-0.007543158327963730 0.1622914379583538 -0.3680471504768610 
0.3506386619872431 -0.3769455079389985 -0.06589918332238233 
0.04671684672131118 0.01767826598911296 -0.1447021831963714 
0.1466838858434267 -0.1609628694117180 0.06995626378748115 
0.1625038221965587 -0.08846379627073885 -0.07097720411531859 
0.1625038221965587 -0.08846379627073885 -0.07097720411531859 
0.1625038221965587 -0.08846379627073885 -0.07097720411531859 
0.07256661935209162 0.009896232393179445 -0.09525335974313977 
0.04138867672067701 0.1512611334131416 -0.2024723273564771 
-0.1252538395157094 0.06569784716674681 -0.02394164898597723 
0.1104364690855617 -0.05977695633588824 -0.05771020208703031 
0.1104364690855617 -0.05977695633588824 -0.05771020208703031 
0.1104364690855617 -0.05977695633588824 -0.05771020208703031 
0.03390167256081487 -0.1496772125999349 0.07507712203821450 
0.1104364690855617 -0.05977695633588824 -0.05771020208703031 
0.1104364690855617 -0.05977695633588824 -0.05771020208703031 
0.1104364690855617 -0.05977695633588824 -0.05771020208703031 
0.1468278387832551 0.05057701845808735 -0.1908442318670038 
0.1104364690855617 -0.05977695633588824 -0.05771020208703031 
-0.03589551385349447 -0.1610351496106059 0.1848939847641306 
0.06644961864234097 -0.2841399407210873 0.1824258647738692 
0.06436602198677772 -0.04129085500989865 -0.03721360691193616 
-0.04135481786530711 -0.01678409907186761 0.04346910713516019 
-0.1763519346720876 0.4254003472298416 -0.3542857821269020 
0.04580586440642966 0.1196859026325346 -0.1442865192723616 
-0.07361254498405524 -0.1375164181975127 0.1972186862315968 
0.06436602198677772 -0.04129085500989865 -0.03721360691193616 
0.02342252884195945 -0.1997427073426930 0.1654238983203540 
-0.03417250594362600 -0.08600132037947547 0.09591984245480939 
0.06436602198677772 -0.04129085500989865 -0.03721360691193616 
0.06940634900222382 -0.06286948247044415 -0.03035432394325333 
0.06940634900222382 -0.06286948247044415 -0.03035432394325333 
0.06940634900222382 -0.06286948247044415 -0.03035432394325333 
0.06940634900222382 -0.06286948247044415 -0.03035432394325333 
0.06940634900222382 -0.06286948247044415 -0.03035432394325333 
0.06940634900222382 -0.06286948247044415 -0.03035432394325333 
0.06940634900222382 -0.06286948247044415 -0.03035432394325333 
0.06940634900222382 -0.06286948247044415 -0.03035432394325333 
0.06940634900222382 -0.06286948247044415 -0.03035432394325333 
0.06940634900222382 -0.06286948247044415 -0.03035432394325333 
0.3284172178513246 -0.1308880590269137 -0.2824543723610790 
0.3284172178513246 -0.1308880590269137 -0.2824543723610790 
0.3563209301204307 -0.06665496180424980 -0.3660882002406338 
0.1498669937379766 -0.09895416119192656 -0.06008598410628555 
0.1498669937379766 -0.09895416119192656 -0.06008598410628555 
0.1498669937379766 -0.09895416119192656 -0.06008598410628555 
0.1498669937379766 -0.09895416119192656 -0.06008598410628555 
0.1498669937379766 -0.09895416119192656 -0.06008598410628555 
0.08363260584871522 -0.03039228326640932 -0.06505568773014331 
0.06348157882208270 -0.01749180284618939 -0.04396483798561082 
0.06348157882208270 -0.01749180284618939 -0.04396483798561082 
0.06348157882208270 -0.01749180284618939 -0.04396483798561082 
0.06348157882208270 -0.01749180284618939 -0.04396483798561082 
0.06348157882208270 -0.01749180284618939 -0.04396483798561082 
0.06348157882208270 -0.01749180284618939 -0.04396483798561082 
0.01712028808570650 0.07685416336376642 -0.07755611424919422 
0.1143532148600598 -0.05686071050853971 -0.08802351615484921 
0.1143532148600598 -0.05686071050853971 -0.08802351615484921 
0.1143532148600598 -0.05686071050853971 -0.08802351615484921 
0.1143532148600598 -0.05686071050853971 -0.08802351615484921 
-0.04721937067907034 0.005440145936592547 -0.03072389376077588 
0.09869071018698042 0.02465461573102516 -0.1583950537766448 
0.1143532148600598 -0.05686071050853971 -0.08802351615484921 
-0.1080138840392727 0.2129406802840367 -0.1447743981626870 
0.1143532148600598 -0.05686071050853971 -0.08802351615484921 
0.03260797577991798 -0.03731270431020568 -0.009336742380650775 
0.1678563306932259 -0.2786149592285608 0.03649370206967890 
0.2244015751185959 0.06618595326371061 -0.2260430250869364 
0.1238986770879774 -0.01617740354399993 -0.08182504000498715 
0.1238986770879774 -0.01617740354399993 -0.08182504000498715 
0.1238986770879774 -0.01617740354399993 -0.08182504000498715 
0.1238986770879774 -0.01617740354399993 -0.08182504000498715 
0.1238986770879774 -0.01617740354399993 -0.08182504000498715 
0.1511773676148638 -0.04338224643634963 -0.09992717961641498 
0.1511773676148638 -0.04338224643634963 -0.09992717961641498 
0.1511773676148638 -0.04338224643634963 -0.09992717961641498 
0.04015212100809931 0.01441456698473702 -0.06606092848461323 
0.1511773676148638 -0.04338224643634963 -0.09992717961641498 
0.02166088384427201 -0.1003586828600486 0.1008331988764716 
0.07514873745466150 -0.02154505593178411 -0.02598397087416912 
0.07514873745466150 -0.02154505593178411 -0.02598397087416912 
0.07514873745466150 -0.02154505593178411 -0.02598397087416912 
0.07514873745466150 -0.02154505593178411 -0.02598397087416912 
0.07514873745466150 -0.02154505593178411 -0.02598397087416912 
0.1476371474340975 -0.03769312553403095 -0.07036176285871923 
0.1476371474340975 -0.03769312553403095 -0.07036176285871923 
0.1423497714069177 -0.1177804976776633 0.02082685615962087 
0.1476371474340975 -0.03769312553403095 -0.07036176285871923 
0.1476371474340975 -0.03769312553403095 -0.07036176285871923 
0.09003001809827088 -0.06654843462402260 0.05592478814046895 
0.1476371474340975 -0.03769312553403095 -0.07036176285871923 
0.1476371474340975 -0.03769312553403095 -0.07036176285871923 
-0.09566647781069522 0.2735444240338135 -0.2548518635613247 
0.09316101910379379 -0.1080537926756439 -0.04677411294957779 
0.09316101910379379 -0.1080537926756439 -0.04677411294957779 
0.09316101910379379 -0.1080537926756439 -0.04677411294957779 
0.1966655050775200 -0.1582906918332946 -0.08553924637856306 
0.09316101910379379 -0.1080537926756439 -0.04677411294957779 
0.09316101910379379 -0.1080537926756439 -0.04677411294957779 
0.01830899116340129 0.02056902179641228 -0.09013077093007688 
0.09316101910379379 -0.1080537926756439 -0.04677411294957779 
-0.09534828769856288 0.04805834035178097 -0.09790524197133980 
0.09316101910379379 -0.1080537926756439 -0.04677411294957779 
0.09848951523714838 -0.04936578007578223 -0.08225465170907602 
0.1293721363892851 -0.07772628080525527 -0.06860300106285762 
0.1155456410990104 -0.08879801199492054 -0.02484531685347975 
0.09848951523714838 -0.04936578007578223 -0.08225465170907602 
0.08938404751496093 0.02405826702798933 -0.1278958865731789 
0.05634514357455952 -0.08403226698973010 -0.01449238955636756 
0.09848951523714838 -0.04936578007578223 -0.08225465170907602 
0.09848951523714838 -0.04936578007578223 -0.08225465170907602 
0.09848951523714838 -0.04936578007578223 -0.08225465170907602 
0.1813614196228011 -0.08393820474813883 -0.06933237594335596 
0.1813614196228011 -0.08393820474813883 -0.06933237594335596 
0.1813614196228011 -0.08393820474813883 -0.06933237594335596 
0.1813614196228011 -0.08393820474813883 -0.06933237594335596 
0.1294207740709306 -0.1525535197270094 0.02576410625413166 
0.07937019195303184 0.06198232611789988 -0.1347952563213098 
0.1233563742802032 -0.1167357720832585 -0.01191957930222160 
0.1813614196228011 -0.08393820474813883 -0.06933237594335596 
0.1813614196228011 -0.08393820474813883 -0.06933237594335596 
-0.02508198806161981 0.08490393792341899 -0.06366084406345952 
0.1507382326145633 -0.04951707694386039 -0.06133514875675841 
0.07750677285633827 -0.02108687453636419 -0.03425343985212007 
0.02422701852248013 -0.07874807132597303 0.06450539664987635 
0.07750677285633827 -0.02108687453636419 -0.03425343985212007 
0.07750677285633827 -0.02108687453636419 -0.03425343985212007 
0.07750677285633827 -0.02108687453636419 -0.03425343985212007 
0.07750677285633827 -0.02108687453636419 -0.03425343985212007 
0.07750677285633827 -0.02108687453636419 -0.03425343985212007 
0.03781835645688798 -0.1147799514428877 0.03994415565858599 
-0.2412948985691201 -0.1758905517823008 0.3607828425365062 
0.1040728315705904 -0.04537859029438784 -0.07677353217546337 
0.1040728315705904 -0.04537859029438784 -0.07677353217546337 
0.05678191523415647 0.01315038166565342 -0.09776775990252169 
0.1040728315705904 -0.04537859029438784 -0.07677353217546337 
0.06605928549240356 0.09170355719261236 -0.1318437691296641 
0.04614237057280615 0.02149852205354166 -0.1323022318470782 
-0.2119913868546752 0.03401279301641617 0.1860293007172911 
0.1749602756363055 -0.08118807500713103 -0.1656527800857519 
0.1899432695087409 -0.2219997266573016 -0.01645140802622689 
0.1899432695087409 -0.2219997266573016 -0.01645140802622689 
0.1899432695087409 -0.2219997266573016 -0.01645140802622689 
0.1899432695087409 -0.2219997266573016 -0.01645140802622689 
0.1899432695087409 -0.2219997266573016 -0.01645140802622689 
0.1718909886681939 -0.1594338384532922 -0.01394916749377059 
0.1718909886681939 -0.1594338384532922 -0.01394916749377059 
0.1718909886681939 -0.1594338384532922 -0.01394916749377059 
0.1718909886681939 -0.1594338384532922 -0.01394916749377059 
0.1061905613800161 -0.008758405017364752 -0.09186123079730757 
0.1061905613800161 -0.008758405017364752 -0.09186123079730757 
