solver_type L2R_LR
nr_class 3
label 1 -1 0
nr_feature 25685
bias 0.000000000000000
w
-0.9002025946752465 -0.6148650090104342 0.3557732657549889 
0.3952771641005108 -0.1080690811712022 -0.5127065092768400 
0.1524402179136587 0.01543885782713402 -0.2521880911654300 
-0.09407203044134421 0.01816995928122739 -0.3908562444246415 
0 0 0 
0.1698899586231269 -0.03217622877502666 -0.09532476557569357 
-0.4557469899431677 -0.1569558058756399 0.1270118161202302 
0.1578475223101854 -0.01110598581688747 -0.1391725141444156 
0.1349920335099437 -0.09214871755208746 0.0005912649846688914 
-0.1984192444452573 -0.2193364871860457 0.01553486608911696 
0.1820708729045845 -0.07060831082256332 -0.08079490336345667 
-0.2181024482797576 -0.4888194702448254 0.3430719436029461 
-0.09818851211343257 0.3650566791643760 -0.2815350789628827 
0.1818964940011209 -0.06554627233447712 -0.08775477545551255 
0.1820708729045845 -0.07060831082256332 -0.08079490336345667 
0.1820708729045845 -0.07060831082256332 -0.08079490336345667 
-0.1551000905346701 -0.1030340721971312 -0.1573668005098727 
0.1770986059541039 -0.1196983003594940 -0.01928042109991494 
0.1158495813608738 0.09702475679428313 -0.4061926982820198 
0.1247995222260728 -0.03903860066280424 -0.3355110681616267 
-0.4495849482767506 -0.5425414428521300 -0.04398148444420050 
-0.4575658860572505 -0.09341898291632077 0.06352497493270697 
0.1134354158559345 -0.03474091483656931 -0.001340430470602443 
-0.07663030818704382 -0.03573057415738555 0.1537092929743774 
0.1514050429249024 -0.08377542607077193 -0.05882342818769396 
-0.3875847911455401 0.07982492552807789 -0.09363185523223340 
0.1514050429249024 -0.08377542607077193 -0.05882342818769396 
-0.2163030741865603 0.1439087913830072 -0.1823928141581535 
0.03629844058325676 0.1512683744549832 -0.1759364573017785 
0.4977863737885341 -0.1793380809583564 -0.2873734594082858 
0.05137681567378185 0.1165713245059527 -0.1972183768139026 
-0.6251148266209188 0.0005991187576342349 0.1771076024327472 
0.1426304795281181 -0.1289788118832730 -0.001601674466803785 
0.3463077193871140 -0.3489691675492161 -0.05123279139044313 
0.1514050429249024 -0.08377542607077193 -0.05882342818769396 
0.1514050429249024 -0.08377542607077193 -0.05882342818769396 
-0.3178161647818026 -0.5711351457930512 0.4882615216921342 
-0.09764767787257722 -0.3292290748111562 0.3880829020626537 
-0.2320809988739030 0.1874607226272824 -0.2389300231811163 
-0.9654002262435308 0.3238075268113705 0.1139677323672820 
0.07837237768813093 -0.2166889601318628 0.1524243157844929 
0.1095708040986668 -0.1130392343340640 0.01032342348411467 
0.5148137379059471 -0.5083149239207072 -0.1409600437594787 
0.2591474799728460 -0.2553905733209932 -0.07253734585424886 
0.1872540074396477 -0.5681513001011816 0.4505043181494069 
0.1095708040986668 -0.1130392343340640 0.01032342348411467 
0.1095708040986668 -0.1130392343340640 0.01032342348411467 
0.02693692170810658 0.04834580950948336 -0.1219485547300411 
-0.1570181418530782 -0.06829898011466924 0.1661377661129263 
0.06195810685186196 -0.04122745920883374 0.003619398637012675 
0.03325891177039370 0.1255876427872178 -0.1802285394371145 
0.1655393769006636 -0.2858653842763295 0.06827186709026310 
-0.1259006091246484 -0.4149491626149046 0.3839668537623726 
-0.07421282839666564 0.1262157949122809 -0.1110116372212072 
0.2138796682159524 -0.2885380130140151 -0.06001653940136083 
1.040749637924500 -0.2516706562925011 -0.9071121881174165 
-0.02240787526182761 -0.1117094511634213 -0.01115593801504619 
0.2901962474475324 -0.06304075907418080 -0.2909250300243181 
0.2231658916660037 -0.02466970411903971 -0.3078224625571407 
0.08851158737888686 -0.03241369539484001 -0.05105724912946110 
-0.1100461636972782 -0.06264990329477799 0.1371080359443609 
0.2533681976568923 -0.2588042201304424 -0.08913175652322142 
0.3154834736683100 -0.09997303527289490 -0.2437877970331353 
-0.1704230604196603 -0.2780862023047042 0.1811615620053077 
0.1526969291082906 -0.2786190328903790 0.1001639991544952 
0.2080461726068270 -0.1621492519252280 -0.04429617114974032 
0.1171464978904143 -0.07511415659564795 -0.08337010331964080 
0.1703311080994852 -0.1385957907400716 -0.06814274760161560 
0.08934285636914734 0.07533070579295408 -0.1921614680416293 
0.1458313236772332 0.09331839006530321 -0.3178971301325420 
0.1502203422726561 -0.09356477135278736 -0.08719108500081428 
0.1505540736642854 -0.08020603628294802 -0.07278091769590960 
0.1440110522183408 0.01782279370402650 -0.1559243713097656 
0.1505540736642854 -0.08020603628294802 -0.07278091769590960 
0.1446182213674525 -0.02439793177136240 -0.1110472777359139 
0.1505540736642854 -0.08020603628294802 -0.07278091769590960 
0.1890660729700508 -0.1538998168925292 -0.09437741749210672 
0.2689327296887116 -0.05059809939746419 -0.1704014817242054 
-0.4090820813024733 0.3892682915663494 -0.2872435750997978 
0.3366446449738493 -0.1601868499469349 -0.1561700626735945 
0.3662416436981538 -0.1193133630825265 -0.1863361928412938 
0.01907068962503405 0.1780301505326457 -0.2404569689110956 
0.1505540736642854 -0.08020603628294802 -0.07278091769590960 
0.2742110583765591 0.03794070780698355 -0.2556622824084465 
0.4614724348083631 -0.1761558858964247 -0.2506701650854631 
0.3077659058880309 -0.07983203665080985 -0.1978497469509600 
0.2938488961205940 -0.1780793242876511 -0.1052266029352221 
0.4782432709192028 -0.3916609789457878 0.1643545724334120 
0.3839575350143811 -0.4918451259171376 0.2335509446937465 
-1.076698421924326 -0.3212008133916515 0.7742932899479825 
-0.5439759855954723 -0.01774441100015884 -0.02338857175887451 
0.08566497183263251 -0.1816777951388593 0.08644898950696685 
-0.08838608624499915 -0.2176080786138836 0.2711632995224045 
0.1098806863485685 -0.02711750895279244 -0.07368824826079802 
-0.4033779806021915 -0.06523562740014757 0.2885310573556181 
0.1311307933413731 -0.1444052706394073 0.09944287294480075 
-0.006654913265356093 -0.2623535607486868 0.2854446937267063 
0.02402498778813182 0.01391321953659130 -0.07706767365252186 
0.1620537731255394 0.1740752831380262 -0.2909090828822600 
-0.06155937009490261 0.1116640953085192 -0.07063279499349240 
0.1098806863485685 -0.02711750895279244 -0.07368824826079802 
-0.07002189404220965 0.04500202561492502 -0.04222282876837189 
0.2540611849488485 0.02999149813354510 -0.3059298680649389 
0.004616972222792106 -0.1759971354005768 0.1241146408252465 
-0.1431295919817024 -0.1598683049985413 0.2119290043884892 
0.03790343247706445 0.1315438516036038 -0.1935227718710287 
0.01121042768652728 0.01590300072311086 -0.008653286325526444 
0.2243409462297695 0.3323594095328692 -0.4998438036378597 
0.05732278753353245 -0.1575084797106932 0.1120109988945919 
0.1038872109137373 -0.1953225220160006 0.07541274387652641 
-0.1822242203447233 -0.5364857297510505 0.3793648719815884 
-0.1920634780549086 -0.1038082652512201 -0.1468418619582443 
0.1098806863485685 -0.02711750895279244 -0.07368824826079802 
0.1098806863485685 -0.02711750895279244 -0.07368824826079802 
0.1098806863485685 -0.02711750895279244 -0.07368824826079802 
0.1098806863485685 -0.02711750895279244 -0.07368824826079802 
0.1796578233426734 -0.1502952967945228 -0.05203148690617355 
-0.3374542499826561 0.3117224818462464 -0.3397215464392495 
0.09511742068850837 -0.04204047647684724 -0.09210731115908188 
0.01932357851640287 -0.3175045223270089 0.1533451307793284 
-0.06185275249626816 -0.07318853665972790 -0.02282241915234109 
0.2764484647156021 -0.1771641392590624 -0.1919179195763498 
0.09511742068850837 -0.04204047647684724 -0.09210731115908188 
-0.09051861309627725 -0.2943531874945370 0.3533656051035229 
0.01724554055998022 -0.2813279200693985 0.2348176123710116 
0.3068913021050888 -0.05071857097727373 -0.3070588517301145 
-0.03592703186878074 -0.1231923107174083 0.1075269114855603 
0.02737178710149498 -0.2921895326695481 0.2510277031863983 
-0.3975736178273714 -0.04024308262031810 0.04978765041471762 
0.05002847930955368 -0.4210521598795786 0.2510758946891101 
0.1645802664047120 -0.1148214316027798 -0.08054935988587480 
0.1857639930530104 0.03608843855760513 -0.1748109021609609 
0.2012840962642948 -0.1370927333254686 -0.07552993763298083 
0.1463521831915495 -0.08621884476755577 -0.06203935067763831 
0.1463521831915495 -0.08621884476755577 -0.06203935067763831 
0.1463521831915495 -0.08621884476755577 -0.06203935067763831 
0.09484855992706237 -0.2990136303687647 0.1688807124030454 
0.1463521831915495 -0.08621884476755577 -0.06203935067763831 
0.1463521831915495 -0.08621884476755577 -0.06203935067763831 
0.1463521831915495 -0.08621884476755577 -0.06203935067763831 
0.1463521831915495 -0.08621884476755577 -0.06203935067763831 
0.1686585251403426 -0.04917183746665308 -0.1267281708656487 
0.01447833362713278 -0.1309596752429528 0.1228667215150173 
0.06824853319376392 -0.1030068146018929 0.01072500517754233 
0.06824853319376392 -0.1030068146018929 0.01072500517754233 
-0.09696417947157591 -0.2231114825820102 0.2593978954824939 
0.1788163099752002 -0.1526504758775527 -0.01322522066836427 
0.1323687144233354 -0.1787075639255263 0.05721278040655246 
-0.08549987564297058 -0.3118492759857892 0.2946318504981853 
0.02396752700694469 -0.07289719442696291 0.04707224494585532 
-0.06817129783249612 0.05331968241146243 -0.03733726758341418 
0.3524974576109755 -0.1085715659826185 -0.2881178623151506 
0.3524974576109755 -0.1085715659826185 -0.2881178623151506 
0.2419296808295392 -0.05892790470695863 -0.2641676364692440 
0.2041109572256287 -0.09253761637367414 -0.2010810451790481 
0.1293552858586218 -0.1012334584898713 -0.1682367140887409 
0.07047347244122354 -0.3242681125821473 0.1704886975942804 
0.4182035312234441 -0.3890299425507117 -0.02513347314935236 
0.3170577170378971 -0.08424101074857863 -0.2483582611380802 
0.09422230116421798 -0.1000752396904635 -0.01924288960838306 
0.3809821157629685 0.02091079965163128 -0.4608289418906522 
0.09422230116421798 -0.1000752396904635 -0.01924288960838306 
0.1870904752105235 -0.08730664481230091 -0.08488394864599307 
0.09422230116421798 -0.1000752396904635 -0.01924288960838306 
0.1344739766059662 0.2995948523044970 -0.4562848860552565 
0.07767769131127678 -0.5035060378285380 0.4789421824624082 
0.1947124305873986 -0.2044163266766949 -0.01248370670688731 
0.1312865312796795 -0.09343061370411886 -0.03253513763107390 
0.1312865312796795 -0.09343061370411886 -0.03253513763107390 
0.1312865312796795 -0.09343061370411886 -0.03253513763107390 
0.1851799223922961 -0.1236609331233954 -0.06572152868171688 
0.1312865312796795 -0.09343061370411886 -0.03253513763107390 
0.008820250032308753 0.2247930158700144 -0.2103133269092476 
0.09507762729824850 0.009329881731842479 -0.09737999839861630 
0.03895510796136132 -0.2202605085092073 0.1390323957197409 
0.01750794476089043 0.3323332086540390 -0.3879784172702684 
0.4077009330572676 -0.2677752954267845 -0.2253810062904472 
0.1449273226758689 -0.03417768579748032 -0.09157321241254465 
-0.01123554695073734 -0.06660179913602860 0.05172892038513029 
0.4240413995906397 -0.2457169699788781 -0.2007586054493314 
0.03791715865966949 0.2303771076498146 -0.2421298588141897 
0.1160925752264815 0.02024494675442243 -0.1168608607755341 
0.1449273226758689 -0.03417768579748032 -0.09157321241254465 
0.1309022819777384 0.02759141604413597 -0.1519737598183406 
0.1449273226758689 -0.03417768579748032 -0.09157321241254465 
0.1449273226758689 -0.03417768579748032 -0.09157321241254465 
0.1449273226758689 -0.03417768579748032 -0.09157321241254465 
0.1449273226758689 -0.03417768579748032 -0.09157321241254465 
0.1449273226758689 -0.03417768579748032 -0.09157321241254465 
0.1449273226758689 -0.03417768579748032 -0.09157321241254465 
0.06168898960361475 -0.06662807762353051 -0.002887441122197217 
0.02786663637086391 -0.3575682565381030 0.2867857594628723 
0.001439936825821285 -0.2791294171149288 0.2769555849720871 
0.1131645471702868 -0.1186612977952052 -0.06316968235132850 
0.1185962592607731 -0.01717613016988465 -0.07888140218383440 
0.1146759276866513 -0.05254822782129864 -0.04204654454554203 
0.1146759276866513 -0.05254822782129864 -0.04204654454554203 
0.1146759276866513 -0.05254822782129864 -0.04204654454554203 
0.2446651685741153 -0.07121875161118153 -0.1525410340445448 
0.3524641159937049 0.9135694971124185 -1.081426663053576 
0.09972206709766669 -0.09690599888979787 0.01432813526349678 
0.05428592351622003 -0.05480823180168491 -0.02265729311584930 
0.06333356112884178 0.1369724918194892 -0.2186702806702337 
-0.4552372070953748 -0.01099931062710965 0.08141662467974338 
0.1093501762342147 -0.1049585335691327 0.02413206623156842 
0.1146759276866513 -0.05254822782129864 -0.04204654454554203 
0.1146759276866513 -0.05254822782129864 -0.04204654454554203 
0.09286817404630550 0.01276859487816260 -0.06564105903761001 
-0.09162110352465450 -0.3077275294017198 0.2054771792318656 
0.07274905317752582 -0.08325337294237536 0.03913636544428933 
0.3824227742133730 -0.1661668042991602 -0.1400000979506352 
0.06686805468776469 0.2084861149418083 -0.2555268411152210 
0.01334741174151738 -0.3467209462752261 0.3214492055523007 
0.2483493440482904 0.2273510764495135 -0.4323144476086402 
0.3194159493354451 -0.2676729511895157 -0.01200714879251831 
0.1548487829682556 -0.07975328145058981 -0.06029746561421960 
0.04287981771822684 -0.1504716413001258 0.1414937124325186 
0.02404042219328820 -0.3293103809796505 0.1342728288104343 
0.1750216773560168 0.06294826266038392 -0.1616918664600369 
0.05097296641980451 -0.3599553360874360 0.3498111906622657 
0.1418628028619437 -0.1635173307086908 0.05524041623390189 
-0.2189086175262749 -0.1156089239227327 0.2145606656440813 
0.1278346500878528 -0.2319976023836643 0.1611231344229258 
0.1859267795176730 -0.06410035685700752 -0.06725401929901363 
0.1859267795176730 -0.06410035685700752 -0.06725401929901363 
0.1479937697000464 -0.08276046345373926 -0.02105209782069997 
0.1820405891602142 -0.01199695720177226 -0.1029671305209069 
-0.1172876990573678 0.7730956408469495 -0.6618200031674625 
0.1100235744353998 -0.1834289702888264 0.1918896901562256 
0.07028188602171712 0.02835750238704581 -0.001693055244299425 
0.1615430890013178 0.09889470359136843 -0.1984498323871067 
0.1859267795176730 -0.06410035685700752 -0.06725401929901363 
0.1842021978247246 -0.01417039372068228 -0.1210049145433736 
-0.5462769981153089 -0.3774531048317901 0.4398487255272114 
0.1361211138198817 -0.06520984070247038 -0.04023500031815314 
0.008753479666790987 0.03811332429133109 0.002927858325684992 
0.09610508570097254 0.5353076038740381 -0.8782132029555908 
0.2627239973225419 0.2448833089460330 -0.3886186692135909 
-0.02878652244719198 -0.3369017258547064 0.3643065624978317 
0.1361211138198817 -0.06520984070247038 -0.04023500031815314 
0.04847427011180885 0.08205887871084543 -0.05983320532108979 
0.07116901542186349 -0.004601996455264009 -0.01474068554640508 
0.06190509934505230 0.01052643405339679 -0.03731268997160241 
-0.1441518489847008 -0.005749602916867926 0.02155367294909778 
0.1361211138198817 -0.06520984070247038 -0.04023500031815314 
0.07939339257853431 0.1104175901576590 -0.1598845130644085 
0.1361211138198817 -0.06520984070247038 -0.04023500031815314 
0.1361211138198817 -0.06520984070247038 -0.04023500031815314 
0.1382166203146905 -0.1856960464225940 0.04799328109041236 
0.1361211138198817 -0.06520984070247038 -0.04023500031815314 
0.07137444134676188 -0.3956281465085877 0.4319818882927642 
0.1361211138198817 -0.06520984070247038 -0.04023500031815314 
-0.1816452141025289 -0.1536564044012048 0.2106181222863771 
0.1429248767369710 -0.1593209375017272 -0.05821318501704910 
0.06133895351155996 0.02257760193887271 -0.05932206495477332 
0.1361211138198817 -0.06520984070247038 -0.04023500031815314 
0.1414396917587521 -0.1142870414336396 0.004837681524129407 
0.07871162464840463 -0.2176310834320531 0.1271369098663548 
0.1494470815770109 -0.07186175051741565 -0.04817507656349372 
0.1494470815770109 -0.07186175051741565 -0.04817507656349372 
-0.1676462179720263 -0.05849605636443802 0.3082372971709080 
0.1494470815770109 -0.07186175051741565 -0.04817507656349372 
0.1494470815770109 -0.07186175051741565 -0.04817507656349372 
0.02980527076959550 0.2467482418441719 -0.2947246204860935 
0.1361000131672057 -0.1481936913875856 0.05009551105728638 
0.08515978628896045 0.02804433872621610 -0.007776681073336860 
0.1494470815770109 -0.07186175051741565 -0.04817507656349372 
0.1494470815770109 -0.07186175051741565 -0.04817507656349372 
0.05340356229939394 0.04372394915146178 -0.03281425738142316 
0.1211071977256488 -0.4228160612232850 0.3516023036754631 
0.1494470815770109 -0.07186175051741565 -0.04817507656349372 
0.1302055048172685 -0.007654209753320766 -0.08194772905664455 
0.08560359167438776 -0.2745980422537919 0.1819121905797940 
0.05690990510175539 0.01987229334482292 -0.08223514310316773 
0.1240535390889672 -0.07382758833092990 -0.05951124736705631 
0.07014560473400408 0.06181114812833238 -0.1421879635761540 
0.01817341005857725 -0.02399622407191212 -0.01490868050275027 
0.1240535390889672 -0.07382758833092990 -0.05951124736705631 
-0.1769222355015551 -0.3471272682329352 0.2913124448938962 
0.08936041849294572 -0.2332164429972744 0.08799094225702418 
0.1240535390889672 -0.07382758833092990 -0.05951124736705631 
0.1747128243692778 0.2934023459840442 -0.5329419764109970 
-0.07714631836141975 0.04662230068956952 -0.03537641653593729 
0.08765271594641505 -0.08310260908723552 -0.08992453300902985 
0.08765271594641505 -0.08310260908723552 -0.08992453300902985 
0.07994387667674640 -0.1279578262447822 -0.03539044191958563 
0.08765271594641505 -0.08310260908723552 -0.08992453300902985 
0.08765271594641505 -0.08310260908723552 -0.08992453300902985 
0.08765271594641505 -0.08310260908723552 -0.08992453300902985 
0.08765271594641505 -0.08310260908723552 -0.08992453300902985 
0.1523353381930148 -0.2272598831546648 0.04490571850918059 
0.08765271594641505 -0.08310260908723552 -0.08992453300902985 
0.08765271594641505 -0.08310260908723552 -0.08992453300902985 
0.08765271594641505 -0.08310260908723552 -0.08992453300902985 
0.08765271594641505 -0.08310260908723552 -0.08992453300902985 
0.05147555756667203 -0.05203322017167465 -0.06028224122913128 
0.07390586414275196 0.1638131071505838 -0.3280886619433409 
0.02254609949462832 -0.08862409080729877 0.01658725320910785 
0.05147555756667203 -0.05203322017167465 -0.06028224122913128 
0.05147555756667203 -0.05203322017167465 -0.06028224122913128 
0.1552074041935675 0.02675343602771912 -0.1987432932037732 
-0.1667352078986245 -0.01557777062745511 0.03455901441228190 
0.05147555756667203 -0.05203322017167465 -0.06028224122913128 
0.05147555756667203 -0.05203322017167465 -0.06028224122913128 
0.05147555756667203 -0.05203322017167465 -0.06028224122913128 
0.05147555756667203 -0.05203322017167465 -0.06028224122913128 
0.05147555756667203 -0.05203322017167465 -0.06028224122913128 
0.05147555756667203 -0.05203322017167465 -0.06028224122913128 
0.05147555756667203 -0.05203322017167465 -0.06028224122913128 
0.05147555756667203 -0.05203322017167465 -0.06028224122913128 
0.1341124976556456 -0.2071272733663237 0.02750533060650745 
0.1341124976556456 -0.2071272733663237 0.02750533060650745 
0.1172573934714831 0.006900176104811644 -0.1938178789073023 
0.1369815450961996 -0.08119428040421320 -0.1144291956378186 
0.1369815450961996 -0.08119428040421320 -0.1144291956378186 
0.1369815450961996 -0.08119428040421320 -0.1144291956378186 
0.1369815450961996 -0.08119428040421320 -0.1144291956378186 
0.1369815450961996 -0.08119428040421320 -0.1144291956378186 
-0.2528502244573272 -0.1121085012616289 0.1936407303157486 
0.1369815450961996 -0.08119428040421320 -0.1144291956378186 
0.1369815450961996 -0.08119428040421320 -0.1144291956378186 
0.1369815450961996 -0.08119428040421320 -0.1144291956378186 
0.1369815450961996 -0.08119428040421320 -0.1144291956378186 
0.03068140921192157 0.1599017498312894 -0.1767892075775027 
-0.1740972432372553 0.3786764971035707 -0.2525398784625475 
-0.009670405411364368 -0.1494391163023744 0.1605682978278976 
0.06123290572896179 0.2049004892671161 -0.2521924809416006 
0.5896840682350283 0.06206691088318014 -0.4693452790914340 
0.3497361680102782 -0.3525009842336784 -0.07563533386086455 
0.1249814842147786 -0.04345580324162798 -0.03746532265858107 
0.1249814842147786 -0.04345580324162798 -0.03746532265858107 
0.1249814842147786 -0.04345580324162798 -0.03746532265858107 
-0.07428130812657749 -0.02068844279220709 0.06637674265792734 
0.02201831709873054 -0.08064118384385674 0.03031365121061348 
-0.1468153398585144 0.3810387794914755 -0.2683592977909314 
0.2027637977074969 -0.1242996403449991 -0.03145935578308221 
0.1249814842147786 -0.04345580324162798 -0.03746532265858107 
0.1793388883394682 -0.1117415757505316 -0.02775037758577093 
0.1437622449263843 0.02070376214696170 -0.07261816399246342 
-0.008066269840553680 -0.2060768240177412 0.1883397508271255 
0.1047995936859116 0.01899798931300158 -0.07551820306649884 
0.1751807356916619 -0.06517559036315801 -0.06984658470379640 
-0.04874370543938743 -0.4858968819056144 0.4314819107067575 
0.1793388883394682 -0.1117415757505316 -0.02775037758577093 
0.1793388883394682 -0.1117415757505316 -0.02775037758577093 
0.1793388883394682 -0.1117415757505316 -0.02775037758577093 
0.07338688710976826 0.01682691768495360 -0.08187629139888203 
0.1793388883394682 -0.1117415757505316 -0.02775037758577093 
0.1793388883394682 -0.1117415757505316 -0.02775037758577093 
0.1330124373275206 -0.06006837519865969 -0.03117584185721341 
0.1141260321733215 -0.1031164258914918 0.02189796624964628 
0.1330124373275206 -0.06006837519865969 -0.03117584185721341 
0.09672715925402300 0.007022545557661410 -0.07360999117143588 
-0.03162862051223109 0.1641616937356977 0.003677688182485778 
0.1330124373275206 -0.06006837519865969 -0.03117584185721341 
0.1330124373275206 -0.06006837519865969 -0.03117584185721341 
0.07112596720472435 -0.02241735902171919 -0.004390147884400869 
0.07466241698835507 0.1657622952663888 -0.2006932208154046 
0.3236883975130313 -0.2844575262235405 -0.05472105684904272 
0.1712257466934272 0.07058969426709402 -0.2308384468026153 
0.1330124373275206 -0.06006837519865969 -0.03117584185721341 
0.008875051620355033 -0.1594739029810743 0.06226031601061711 
0.2238753270760465 -0.1946937885526787 -0.08283932649321010 
0.4802417452741878 -0.3347569932746415 -0.1514350402560718 
-0.001253472435127470 0.06956044427797035 -0.08440580640405732 
0.1756300452075312 0.2288864555164154 -0.3547559344627113 
-0.09234258569218073 0.2341544109599228 -0.1578217692415691 
0.1693849126221600 -0.06988089326865086 -0.1984441357306466 
0.2218500903082719 -0.1409462576962028 -0.1499252038475447 
0.2905434279673906 -0.2608926608276240 -0.2314433307277515 
0.2905434279673906 -0.2608926608276240 -0.2314433307277515 
0.1613948217769624 -0.09346993051790684 -0.02893057459988795 
0.1394576563234974 -0.3535219418562319 0.2049014915829972 
0.1634928509264139 -0.06722801415672819 -0.05716081151553180 
0.1248262572195491 -0.4464291888587048 0.3946178873172524 
-0.07560909096863717 0.3081213506159659 -0.2638573884176066 
0.1525953345273319 -0.1629102679960099 0.07351517242965859 
-0.2054317755283656 -0.02538032928523265 0.08674840120960882 
0.1554323321154670 -0.03355819729130039 -0.1058508119121470 
0.03212329454603648 -0.08222959748146097 0.05895711997066349 
0.1300476642259906 -0.2479776137866432 0.1176318095539467 
0.1634928509264139 -0.06722801415672819 -0.05716081151553180 
0.1634928509264139 -0.06722801415672819 -0.05716081151553180 
-0.1179403973044994 -0.1599598735933355 0.2081274168876096 
0.1634928509264139 -0.06722801415672819 -0.05716081151553180 
0.1634928509264139 -0.06722801415672819 -0.05716081151553180 
0.1634928509264139 -0.06722801415672819 -0.05716081151553180 
-0.06284918857002122 -0.1004650664217637 0.2120531909218754 
0.06302985747533670 -0.01803218553782538 -0.08052023325247824 
0.06302985747533670 -0.01803218553782538 -0.08052023325247824 
0.06302985747533670 -0.01803218553782538 -0.08052023325247824 
0.06302985747533670 -0.01803218553782538 -0.08052023325247824 
0.06302985747533670 -0.01803218553782538 -0.08052023325247824 
-0.2485599176252343 -0.3108597386510349 0.3665273085706388 
0.06302985747533670 -0.01803218553782538 -0.08052023325247824 
0.07386728972442426 -0.4541870616633368 0.2007185538488086 
0.06302985747533670 -0.01803218553782538 -0.08052023325247824 
0.03835042161729092 0.1146292203954352 -0.1981248327338861 
0.06302985747533670 -0.01803218553782538 -0.08052023325247824 
0.06755939907332839 0.2975364288931316 -0.3639563452197388 
0.1503790559717749 -0.3401142949248603 0.03114623415585564 
0.1931336334143143 -0.1243632600222484 -0.09444719118345250 
0.06302985747533670 -0.01803218553782538 -0.08052023325247824 
0.06302985747533670 -0.01803218553782538 -0.08052023325247824 
0.06302985747533670 -0.01803218553782538 -0.08052023325247824 
0.1259075906510174 -0.009991759306714889 -0.07382688496555047 
-0.2902719144663534 -0.1093990455027082 0.2990493992089428 
0.1211949372201394 -0.06571585733898717 -0.03003577202972100 
0.09981702138943056 -0.06076088203077141 0.01502651719991551 
0.2256353159133194 -0.08208011054936850 -0.1021252829396529 
-0.04587993392530233 0.2947360898357057 -0.3048100486485891 
0.1371717588384460 -0.05316432807313554 -0.05095112426893442 
0.1371717588384460 -0.05316432807313554 -0.05095112426893442 
0.1371717588384460 -0.05316432807313554 -0.05095112426893442 
0.1371717588384460 -0.05316432807313554 -0.05095112426893442 
0.2248068824595622 -0.09577779964119425 -0.1381528640716821 
0.2342374889360607 -0.1131076187438173 -0.1887122466982697 
0.1044956443432323 -0.08076073085353137 -0.09376842879891390 
0.6459349238570717 -0.4217462935137151 -0.5318100226306888 
0.1044956443432323 -0.08076073085353137 -0.09376842879891390 
0.1044956443432323 -0.08076073085353137 -0.09376842879891390 
0.2114513797254606 -0.4343370884963022 0.1906418396454525 
0.2616790345473123 -0.07508780920759030 -0.3922632414989419 
0.2174292302073004 -0.06479350865841256 -0.2962156364590201 
0.1459403408232697 -0.03313142051712001 -0.1898494136740614 
0.1191454564832147 -0.5466702296902370 0.1775506242419885 
0.1135388171226752 -0.07509395988030548 -0.05710143685151091 
0.003984039595456841 -0.2804912644465029 0.2172983480645191 
0.06026050866930762 -0.2278331371951017 0.1718603478093722 
0.1938438136922357 -0.1582129630078700 -0.07222951142154780 
0.1139038150544464 -0.08033494256510271 -0.05071417647173970 
0.1139038150544464 -0.08033494256510271 -0.05071417647173970 
0.1139038150544464 -0.08033494256510271 -0.05071417647173970 
-0.2431538688304324 -0.01033874177353725 0.1389845215518641 
0.02432517695575455 -0.5318613199471410 0.3442128108510111 
0.1363933567507084 -0.1018208576444095 -0.01305608440350213 
0.1363933567507084 -0.1018208576444095 -0.01305608440350213 
0.1363933567507084 -0.1018208576444095 -0.01305608440350213 
-0.01472693246220024 0.1428928548196993 -0.1763410096274625 
-0.02631559884030474 -0.2449165051459271 0.2230963217696723 
0.1643696721295588 -0.3714754981406794 0.2214260335958248 
0.04276266750578212 -0.001442713232994267 -0.006590974015654250 
0.1356780370772815 -0.07314197650224151 -0.05675271788147100 
0.1437869566281457 -0.4202119658234474 0.1128754636371752 
0.01344034578776044 -0.3339755811079899 0.3450731990819481 
0.1363933567507084 -0.1018208576444095 -0.01305608440350213 
0.1363933567507084 -0.1018208576444095 -0.01305608440350213 
0.4264369079247987 -0.1470160493147156 -0.1797593589209117 
0.05666911864475843 0.05599191333923193 -0.1208748147624149 
0.1363933567507084 -0.1018208576444095 -0.01305608440350213 
0.4141653288085001 -0.1710519600361430 -0.1411590033081092 
0.1363933567507084 -0.1018208576444095 -0.01305608440350213 
0.1075112539901661 -0.03634243597092611 -0.04047821084203541 
0.1860905713095639 -0.07998081366398689 -0.08338914497768495 
-0.07833794642252805 -0.1395942216903494 0.1848992287662586 
0.1860905713095639 -0.07998081366398689 -0.08338914497768495 
0.1326321101059174 0.1530272833303902 -0.2498629311698351 
0.2229439460809278 -0.08348671882604675 -0.1166082646896931 
0.1917191462380225 -0.4141586922619803 0.3770700279365369 
0.1075112539901661 -0.03634243597092611 -0.04047821084203541 
-0.03558827051668233 -0.3882961228973403 0.4103661120222558 
-0.03183002409726674 -0.2011524831200336 0.1992177358834025 
-0.08199187651655648 -0.2425780930316368 0.2454099521268897 
0.3044475810338233 -0.1039881201307670 -0.3407960965147325 
0.1452021782865932 -0.07450231319593155 -0.1510765380259239 
0.1063780073438706 -0.2021113050750877 0.009816004557189985 
0.05210325724462041 -0.003521703754610995 -0.08086341002186209 
0.05210325724462041 -0.003521703754610995 -0.08086341002186209 
0.1713121409640959 -0.05645662557878255 -0.1375581491385343 
0.1807213559752565 0.1193918849340274 -0.2923920655060656 
0.1300537014222045 -0.2021060722283939 0.05820517163380825 
0.05210325724462041 -0.003521703754610995 -0.08086341002186209 
-0.4628354081169057 -0.2919134650265715 0.4282744126666063 
-0.07873406069776750 0.08329513757145955 -0.09448373805050489 
0.1196983613797946 -0.2642014392607096 0.1384403268419142 
0.2515467420129612 -0.1258699590976975 -0.1533559050923126 
0.2533414463363204 -0.1390121829019406 -0.1425811596329819 
0.1563308435058577 -0.2602952764216214 0.1048310777495155 
0.1418057901547987 -0.02771832589715094 -0.07628545451490465 
-0.4566384452482113 0.1059873226688474 0.1313354292820115 
-0.01635934848029140 -0.06069616144697951 0.01806836504566342 
0.1418057901547987 -0.02771832589715094 -0.07628545451490465 
0.1418057901547987 -0.02771832589715094 -0.07628545451490465 
0.005920160488563868 -0.1408417815802904 0.1726389073499606 
0.09486949609225874 -0.1038131235338142 0.04884692151608372 
0.03634321448440207 0.04378534563779462 -0.05598112740820813 
0.08913998845205993 0.2802149689342687 -0.3132553999380846 
0.2013459294473772 -0.1424385663503940 -0.01454449276696861 
0.07993999863778936 -0.07787802044276727 -0.02151533494980811 
0.07993999863778936 -0.07787802044276727 -0.02151533494980811 
0.1737991974809852 -0.1193211619793599 -0.05780311750242902 
0.07993999863778936 -0.07787802044276727 -0.02151533494980811 
0.2432489165231647 -0.05803358662480320 -0.1034473242225353 
0.2729618387898044 0.07287769786451523 -0.1815037326947761 
0.2350294960473090 -0.03673302076177967 -0.1236055226579645 
0.2240073397634222 0.006173954139291685 -0.1372199767156861 
0.3604858202796727 -0.1080072011667341 -0.1842487753723182 
0.1494002648205954 0.06896841373005509 -0.1326219754295276 
0.1584694054594450 -0.2285337806569391 0.1589613755774357 
0.1990508037862321 -0.1515324910292050 0.006470338073546458 
0.2432489165231647 -0.05803358662480320 -0.1034473242225353 
-0.06233282416080618 0.4289131383681618 -0.3862244898013287 
0.1823983175235068 -0.08893907508808885 -0.05945550319567967 
-0.1904578569176707 -0.1039724250048998 0.1787150629683800 
0.1823983175235068 -0.08893907508808885 -0.05945550319567967 
0.1582196711307694 -0.02534597077057695 -0.1146315287907443 
0.1733475549027659 0.01174089703746647 -0.1243204283312487 
0.1823983175235068 -0.08893907508808885 -0.05945550319567967 
0.1823983175235068 -0.08893907508808885 -0.05945550319567967 
0.1823983175235068 -0.08893907508808885 -0.05945550319567967 
0.1823983175235068 -0.08893907508808885 -0.05945550319567967 
0.1761487798979753 -0.1137874435192817 -0.09303825819688408 
0.1574581421117466 -0.06243186090849748 -0.1435560167626597 
0.1761487798979753 -0.1137874435192817 -0.09303825819688408 
0.2649740594078985 -0.1520551947546568 -0.1476896930771412 
0.03879148507618843 -0.1434962201609309 0.09829408347819527 
0.03879148507618843 -0.1434962201609309 0.09829408347819527 
-0.1040740700767808 0.2417207602930508 -0.1321237447270551 
0.03879148507618843 -0.1434962201609309 0.09829408347819527 
0.03879148507618843 -0.1434962201609309 0.09829408347819527 
0.1093692713599223 -0.04329596374145068 -0.06403013679549333 
0.1646370553178578 -0.2694885934163236 0.1594748331054119 
0.03879148507618843 -0.1434962201609309 0.09829408347819527 
0.03879148507618843 -0.1434962201609309 0.09829408347819527 
0.3873965463950463 -0.1977953483914744 -0.07906060426587821 
0.4891385076255268 0.1384477776748671 -0.4646603001964040 
0.01989874755184281 -0.04327757794126885 0.06706009402591485 
0.1462734461182817 -0.03384774961800579 -0.06716544282500383 
0.07598524620234362 0.007458374394018037 -0.03830292251367366 
-0.2376666166627939 -0.2412795880000113 0.4510193732929073 
0.09878505015056468 -0.07607671857106929 0.01581548708291777 
0.1408672705524874 0.03626048665191637 -0.1428577714298503 
0.4690784377545018 -0.4566379671782504 0.2546253467678645 
0.1321175311110255 0.02801700976010587 -0.1173345708535468 
0.1462734461182817 -0.03384774961800579 -0.06716544282500383 
0.1462734461182817 -0.03384774961800579 -0.06716544282500383 
0.1462734461182817 -0.03384774961800579 -0.06716544282500383 
0.1380971057262468 -0.03863961889363331 -0.06857836198807454 
0.1060023299962262 -0.04343986207641282 -0.03343524467510881 
0.1264183513838356 -0.07991356550673329 0.01705300548935271 
0.1380971057262468 -0.03863961889363331 -0.06857836198807454 
0.2271282423574093 0.2122270080168189 -0.2879033706005841 
0.1380971057262468 -0.03863961889363331 -0.06857836198807454 
0.1380971057262468 -0.03863961889363331 -0.06857836198807454 
0.1380971057262468 -0.03863961889363331 -0.06857836198807454 
0.04921880078977949 0.02738781241764472 -0.02311277380833074 
0.01790709986733700 -0.06709333363670096 0.02061639897741973 
0.1380971057262468 -0.03863961889363331 -0.06857836198807454 
0.03879483146678434 -0.0006168459349056108 -0.01355735800111237 
0.08394335236201214 0.07429668280824615 -0.1413771228719908 
0.2677347577364379 -0.1897006959057720 0.1122321204248882 
0.1380971057262468 -0.03863961889363331 -0.06857836198807454 
0.1091440897905161 0.01547629465591236 -0.1133586286293624 
0.1380971057262468 -0.03863961889363331 -0.06857836198807454 
0.3640547920364195 -0.1633817021787085 -0.2392625676545039 
0.01564572182403362 0.1139131711685446 -0.09590230405084485 
0.1242463402731132 -0.07147238137715943 -0.02745015010946535 
0.04155025829030628 -0.003631895982533846 0.01123240517410324 
0.1242463402731132 -0.07147238137715943 -0.02745015010946535 
0.2874293893093614 -0.1557434796007232 -0.2824514785545895 
0.3776364051772569 -0.2116474147977027 -0.1180359397074932 
0.1242463402731132 -0.07147238137715943 -0.02745015010946535 
0.09605739856973046 -0.07784914284802080 0.03063768990238344 
0.1242463402731132 -0.07147238137715943 -0.02745015010946535 
0.2586239465138300 -0.1274722442045042 -0.1236806865339816 
0.1242463402731132 -0.07147238137715943 -0.02745015010946535 
-0.2236836366099842 0.5729450479445659 -0.4093973336566161 
-0.08146290979483363 0.1163185765813216 -0.04099304524800962 
-0.1096907091240870 0.06381147690812775 0.03131120995136581 
-0.01876020426648134 -0.09259640154335015 0.05115415148053093 
0.08640176823612888 -0.09607706134830339 -0.04404888348602177 
0.1172504427417011 -0.05399401833070640 -0.1011814516012107 
0.1949449660790974 -0.1208447237653163 -0.08409857430266786 
0.1018887966285525 -0.2257272751603525 0.09190931499463284 
0.05801035138904347 -0.009492572411865446 -0.1051462015358374 
0.1172504427417011 -0.05399401833070640 -0.1011814516012107 
-0.1600937574484326 -0.06831890912512925 0.1755011000937580 
0.05483157827283551 -0.08385763940637267 -0.03901071988099344 
0.01040071711327999 -0.1766554072133055 0.1076848390319337 
0.06862385822053740 -0.1433817118472492 -0.03783937493751184 
0.1022059011166584 -0.09392458826983842 -0.04409798656295951 
0.1165682717839591 -0.04835367985804020 -0.1101174109969710 
0.1165682717839591 -0.04835367985804020 -0.1101174109969710 
0.1165682717839591 -0.04835367985804020 -0.1101174109969710 
0.08018498889906450 0.05946885406600733 -0.1819221438565693 
0.06989464141772303 -0.1441321839137784 0.05707349427816859 
-0.1411650857622121 0.2035179240030813 -0.03601336388444127 
0.09824643596366363 -0.1045899517173787 -0.01013152913204737 
0.1057207429767120 -0.05450393330150141 -0.05091061331338494 
0.03465576192075894 -0.1467669799492117 0.08326272105416291 
0.1910630179743449 -0.2553100889796943 -0.006898189891599744 
0.1057207429767120 -0.05450393330150141 -0.05091061331338494 
0.08095173279676268 0.005540208948585641 -0.08788178626660455 
0.07749102345918854 -0.5447052868420178 0.3700739043913502 
-0.1301988043682823 -0.1884103713914041 0.2501444991469437 
0.07619225749344911 -0.1211303611656944 0.05219119176162947 
0.07338801356111252 -0.07086469110187701 0.0009967706744347500 
0.07857229284376706 -0.05061629733130316 -0.04416757451700953 
0.07857229284376706 -0.05061629733130316 -0.04416757451700953 
-0.1670888602088953 0.2060291465536312 -0.1126550051475534 
0.06905072812119237 -0.1899805175572137 0.1162828355071286 
0.02095044135877826 -0.2255880420093717 0.2389871026636610 
0.07857229284376706 -0.05061629733130316 -0.04416757451700953 
0.05614877692727545 -0.09508943342475272 0.02403770477965858 
0.06904534721629609 0.08561911247942750 -0.1291800843265779 
0.07857229284376706 -0.05061629733130316 -0.04416757451700953 
0.06055595155334510 -0.07662852351113623 -0.007354878845260886 
0.06182704473605732 0.07864196729651370 -0.1391485934842229 
0.04344094511892106 0.07729795959997057 -0.1639977771809981 
0.5280046329523379 -0.3356992230985179 -0.4052153226401302 
-0.1957592222408773 0.2574353453593322 -0.1055929403354717 
0.04685370620796444 0.08615448376766596 -0.1029001714004874 
0.2192253958619090 -0.1501551331571140 0.02596555636420784 
0.1695799368890139 0.09142287189825878 -0.2144581625553985 
0.4277705690517631 0.01840541852770452 -0.3125429855095902 
0.02763266779049959 -0.09323302587722089 0.06720700273451609 
-0.07587253858604227 0.1758455869749084 -0.1005167427683876 
0.1080477251707138 -0.06424322164094576 -0.04006974947010212 
0.1551559041464448 -0.06889910946644946 -0.05543912422987631 
-0.1783165300665334 -0.2483581643456110 0.2653116101285309 
0.1551559041464448 -0.06889910946644946 -0.05543912422987631 
0.06091599737976115 -0.1430049250692506 0.1374237787185061 
0.1381205846130479 -0.1708290637832611 0.03925022801555206 
-0.2651166438789308 -0.5701518784391574 0.6696990534944104 
0.01361202642432787 -0.02754138805676994 0.01813048765796219 
0.03505379302338819 -0.1340351872929594 0.09410765480056060 
0.09221956578579878 0.04689006486472345 -0.1033282794227015 
0.1411426758185626 0.04449747073030613 -0.1574788514179497 
0.1551559041464448 -0.06889910946644946 -0.05543912422987631 
0.1371342908180747 -0.1092047333215437 0.01574980063605605 
0.09867720863760202 -0.03946630246693569 -0.04312383795625091 
0.09867720863760202 -0.03946630246693569 -0.04312383795625091 
0.09867720863760202 -0.03946630246693569 -0.04312383795625091 
0.09867720863760202 -0.03946630246693569 -0.04312383795625091 
0.4889282173419760 -0.2521045274058152 -0.1682224606713232 
0.1799834528647518 -0.07829762646784940 -0.06469408525689946 
0.01830698160515303 0.3644096790079690 -0.3831215080566140 
0.01612275495451473 0.04151031659318644 0.001495677584554465 
0.09867720863760202 -0.03946630246693569 -0.04312383795625091 
-0.04876767557318654 0.06333928472545386 -0.04169576305130063 
0.09867720863760202 -0.03946630246693569 -0.04312383795625091 
-0.02449202950828645 0.1233381311280267 -0.05446101517788455 
0.09867720863760202 -0.03946630246693569 -0.04312383795625091 
0.09867720863760202 -0.03946630246693569 -0.04312383795625091 
0.1819312918073058 -0.1322217354207516 -0.1383729324284805 
0.1819312918073058 -0.1322217354207516 -0.1383729324284805 
0.1819312918073058 -0.1322217354207516 -0.1383729324284805 
0.1819312918073058 -0.1322217354207516 -0.1383729324284805 
0.1819312918073058 -0.1322217354207516 -0.1383729324284805 
-0.08375533991520208 -0.4501026712651617 0.3823148945690959 
0.1335049144242041 -0.07894797039044671 -0.02637482359846553 
0.2100162632095722 -0.06769323865392876 -0.1188041529880745 
0.1972542111224307 -0.08882316992485549 -0.07105772616951901 
0.2100162632095722 -0.06769323865392876 -0.1188041529880745 
0.1319686814061879 -0.2759106970210244 0.1242837453440174 
0.1032872101254227 -0.01537231881088079 -0.09836854689071271 
0.1032872101254227 -0.01537231881088079 -0.09836854689071271 
0.03585847093995637 0.05327619169109481 -0.09804871045565884 
0.1032872101254227 -0.01537231881088079 -0.09836854689071271 
0.1007643586521425 0.0007208567091676927 -0.1251211161998354 
0.1032872101254227 -0.01537231881088079 -0.09836854689071271 
0.09782068690143943 0.05731645365050642 -0.2031374705145469 
-0.07592147372224388 0.02338570900864551 0.02425929409009717 
0.01514334096320746 -0.005651505182700421 0.003788302831828933 
0.1032872101254227 -0.01537231881088079 -0.09836854689071271 
0.08796119317789691 -0.06153921730776038 -0.04218717602643952 
0.2353511122197788 -0.2233050377628175 0.08163022511178797 
0.08708667270344253 -0.02847703385122062 -0.05847502004342822 
0.08456382123016233 -0.01238385833117213 -0.08522758935255088 
-0.1056110229315851 0.3633731128485165 -0.3666833827218559 
0.08708667270344253 -0.02847703385122062 -0.05847502004342822 
0.08708667270344253 -0.02847703385122062 -0.05847502004342822 
0.08708667270344253 -0.02847703385122062 -0.05847502004342822 
-0.1515207306859298 -0.1439096634030280 0.07927020489209549 
-0.04301966210081045 0.3229455843244911 -0.3081609706248434 
0.08708667270344253 -0.02847703385122062 -0.05847502004342822 
0.08708667270344253 -0.02847703385122062 -0.05847502004342822 
-0.1812454825439683 0.1833213471466540 -0.03539218605536930 
0.1251486786765556 -0.02328141413098533 -0.1000549446443193 
0.1180277045091161 -0.07464435727152362 -0.06220579871959965 
0.1530957063031050 -0.1130793247855218 -0.04163603822842523 
0.09388084408445348 -0.005360627312448885 -0.07699015917913593 
0.1204467179693450 0.01509510509243238 -0.1684474779936646 
0.07717272178722029 -0.03733359743698678 -0.06145967353922462 
0.04772003738980431 0.1699705230034203 -0.1977548132461429 
0.04178138735813386 -0.07602847121278819 0.05845311580826291 
0.06632484201584794 -0.01815864646548438 -0.05684124617309061 
0.09918410723300376 -0.02616302273003892 -0.06941787610620070 
0.06632484201584794 -0.01815864646548438 -0.05684124617309061 
0.06632484201584794 -0.01815864646548438 -0.05684124617309061 
-0.02567811694776341 -0.1211371763970927 0.09439778349867925 
-0.09859200680223143 0.2201691419918002 -0.2140621170135001 
0.06632484201584794 -0.01815864646548438 -0.05684124617309061 
0.06632484201584794 -0.01815864646548438 -0.05684124617309061 
0.06632484201584794 -0.01815864646548438 -0.05684124617309061 
0.06632484201584794 -0.01815864646548438 -0.05684124617309061 
0.1134775419159604 -0.2251245352386555 0.1018981866281425 
0.06632484201584794 -0.01815864646548438 -0.05684124617309061 
0.2581868268554108 0.008864528191530524 -0.3247536539635268 
0.09248025060577668 -0.01062647072254050 -0.1015568694944307 
0.03944658570565537 -0.1155088550166207 0.03040097889784790 
0.1791052039243205 -0.3161799578569406 0.2887948165527810 
0.09248025060577668 -0.01062647072254050 -0.1015568694944307 
0.09248025060577668 -0.01062647072254050 -0.1015568694944307 
0.09248025060577668 -0.01062647072254050 -0.1015568694944307 
0.09248025060577668 -0.01062647072254050 -0.1015568694944307 
0.06099488282414711 -0.1135538682212343 0.005447807683587064 
0.09248025060577668 -0.01062647072254050 -0.1015568694944307 
0.08080149626336551 -0.05190041733564046 -0.01592550201700345 
0.09248025060577668 -0.01062647072254050 -0.1015568694944307 
0.1933521317503986 -0.06161286097754923 -0.05940434415548078 
0.03401270173346978 -0.4192046493652752 0.4568978988910826 
0.1933521317503986 -0.06161286097754923 -0.05940434415548078 
0.1683802196848955 -0.03488733320473223 -0.08038143784198429 
0.07163722657706667 0.02745379883133114 -0.07852968476925602 
0.1709745134063521 -0.1131223092515583 0.01339276735060725 
0.1384792408473433 -0.1668138314065797 0.1016657561546068 
-0.1749685735704173 -0.3079779662799116 0.4363773885279358 
-0.08065679252477796 -0.5369912030241748 0.4592463294908865 
0.1255636914147638 0.06793349420819386 -0.1609364341016958 
0.02570232991968994 0.1286367215612203 -0.1945737594259313 
0.1109981558230630 -0.04117263976668146 -0.03815025306039185 
0.1050623035262301 0.01463546474490417 -0.07641661310039617 
0.1100859769859433 -0.1486467376813599 0.06785771383215616 
0.1109981558230630 -0.04117263976668146 -0.03815025306039185 
0.2623249050556610 0.01679890082003854 -0.2019451839830848 
0.1109981558230630 -0.04117263976668146 -0.03815025306039185 
0.08151570029730845 -0.02513310536560023 -0.04388946882772876 
0.08835402938215736 -0.07740877644252007 0.009514118437641819 
0.05745812631770118 0.02384042167179529 -0.08118100256095095 
0.06777140976173966 0.2021743916135011 -0.1840100703671868 
0.1109981558230630 -0.04117263976668146 -0.03815025306039185 
0.1109981558230630 -0.04117263976668146 -0.03815025306039185 
-0.01095055198710536 0.2065557735053060 -0.1142051096767528 
0.1441227588094139 -0.09128737755889370 -0.07735944880525045 
-0.04747762646084376 -0.3473540895026387 0.3324455699641722 
0.1646062451111351 -0.04974515319271396 -0.1070805726992660 
0.05389339111261658 -0.03023031941927653 -0.03318639105064298 
0.05389339111261658 -0.03023031941927653 -0.03318639105064298 
0.07996265355099436 0.02736131963474388 -0.1105539711769367 
0.1610785223269264 -0.2367399961985757 0.08399314527102603 
-0.01325860546071171 0.1484263335196747 -0.1310937238821095 
0.09054922510711659 -0.01046219303176568 -0.03976995614033128 
0.1791116082172661 -0.1977828212594670 0.05344694329675068 
-0.06359034006851823 0.4658397975764869 -0.3891230427211798 
0.03578099716885658 0.1417402187814601 -0.1959951512653083 
0.08197995684107529 -0.04139928172189881 -0.07687514673817636 
0.08197995684107529 -0.04139928172189881 -0.07687514673817636 
0.02927384806926040 -0.1245522633182092 0.09070145465703383 
0.08197995684107529 -0.04139928172189881 -0.07687514673817636 
0.08197995684107529 -0.04139928172189881 -0.07687514673817636 
0.08197995684107529 -0.04139928172189881 -0.07687514673817636 
0.2194235487815365 -0.04980517967826680 -0.1862566938543283 
0.06419698504499927 0.04446001865612116 -0.1662233362657246 
0.1344892795292296 -0.07817626720657442 -0.04040672928420634 
0.1344892795292296 -0.07817626720657442 -0.04040672928420634 
0.1079717042097939 -0.1107824117316271 0.001905780386250659 
0.1259747978360914 -0.1648230860916027 0.05742903212744482 
0.1289230528419902 -0.07665559482451942 -1.291402089067183e-05 
0.06552870530470206 -0.1960865799646408 0.1695784360621647 
0.1697033792669516 -0.06330499118812537 -0.05485117864899264 
0.1697033792669516 -0.06330499118812537 -0.05485117864899264 
0.1516817659385815 -0.1036106150432196 0.01633774621693972 
0.06736813733105572 0.04994333883302719 -0.02284021970133983 
0.1697033792669516 -0.06330499118812537 -0.05485117864899264 
0.1697033792669516 -0.06330499118812537 -0.05485117864899264 
0.009197212837006792 0.04873102989186973 -0.04055341875141173 
-0.2995739901036332 0.09195798219825685 -0.03501241769502115 
-0.03917237037998090 -0.2084968160731781 0.3132529125597927 
0.1697033792669516 -0.06330499118812537 -0.05485117864899264 
0.1697033792669516 -0.06330499118812537 -0.05485117864899264 
0.1398456323529534 -0.04926637004037957 -0.1037287008456424 
0.1400549654126549 -0.06979608999294812 -0.07941443815233143 
0.1400549654126549 -0.06979608999294812 -0.07941443815233143 
-0.01491475098007117 -0.1448725904347526 0.08811262722288510 
0.1094966256415710 -0.1950447117959017 0.04005040466066221 
0.08261612975134719 -0.1136166145154553 0.01099046502351336 
0.06565419337567206 -0.001141941404200930 -0.01760769599879544 
0.04125892597907749 0.1063484367316919 -0.1649513412934673 
0.1192088837194755 -0.05293492182417155 -0.05669473911667217 
0.1010055269546862 -0.08211259204968822 -0.01346282160415892 
0.05632852386547110 -0.08062429571376908 0.03215802045526541 
0.1192088837194755 -0.05293492182417155 -0.05669473911667217 
-0.2812978096420543 0.1400137181493837 -0.1075388087538813 
-0.01437210598800711 0.08134230999753086 -0.1021793912760207 
0.2775795591514425 -0.07377891449376014 -0.1617522881055795 
-0.1108046197308770 0.1341619909597143 -0.01696791235519155 
0.1515675790887857 -0.07174517632128456 -0.1164918675904482 
0.02768531736906992 -0.5289649118310231 0.4665108896346659 
-0.6755331980350838 0.08149846265022585 0.2085480699334256 
0.1313323912243837 0.05152634525741645 -0.1703858095268546 
0.1499293406209969 -0.05777267871840864 -0.08299378990474256 
-0.1459124224227304 0.3284295278529527 -0.3065280238017405 
0.1119138317016381 0.07942960003251925 -0.1995408367399251 
0.1266809110863427 0.001624881857168034 -0.1071835178887084 
0.1499293406209969 -0.05777267871840864 -0.08299378990474256 
0.07380611385500878 -0.1861879270787681 0.02573279223004669 
0.09072095620166293 -0.03489803553291856 -0.04203582080945417 
0.09072095620166293 -0.03489803553291856 -0.04203582080945417 
0.009938040312751180 0.1190562925303444 -0.1200519621014827 
0.09072095620166293 -0.03489803553291856 -0.04203582080945417 
0.01976142999028927 0.1527205985506061 -0.1580673075014282 
0.09072095620166293 -0.03489803553291856 -0.04203582080945417 
0.09072095620166293 -0.03489803553291856 -0.04203582080945417 
0.09072095620166293 -0.03489803553291856 -0.04203582080945417 
0.07612181154143952 0.04844647575863615 -0.09317023630289002 
0.05559923713395394 0.04872835091441088 -0.1384088651916400 
0.09072095620166293 -0.03489803553291856 -0.04203582080945417 
0.3851357897166528 -0.1982245398945682 -0.1828267976034421 
-0.05152264018525371 0.07289342954374659 -0.03178776811833498 
0.2352693352996310 -0.1884600260893786 -0.1441183100073989 
0.1172369037565081 -0.04997361454193094 -0.08080145114978299 
0.1172369037565081 -0.04997361454193094 -0.08080145114978299 
-0.01897449157765569 0.1453049826545362 -0.1386712882597566 
0.1748516795661255 -0.05525758179075492 -0.1060937487860307 
0.1748516795661255 -0.05525758179075492 -0.1060937487860307 
0.1748516795661255 -0.05525758179075492 -0.1060937487860307 
0.1375736244117662 -0.01028242227472452 -0.1279983221314638 
-0.1648012726800786 0.1563577164333046 -0.1222830335197088 
-0.2386371531795811 -0.3034541600319943 0.4016704502512036 
0.1051271072633094 0.05478523103846199 -0.1553511804503100 
0.1748516795661255 -0.05525758179075492 -0.1060937487860307 
0.1748516795661255 -0.05525758179075492 -0.1060937487860307 
-0.002954182848426951 -0.01207510721797771 0.08557609868975843 
0.09769442111270621 -0.008393839352329210 -0.05630307222695932 
0.1209428506473605 -0.06779139992790588 -0.03211334424299344 
0.04123088910711031 0.01040501629172681 -0.05083149373971987 
0.06676528458753456 -0.1069747283371794 0.08377245479350871 
0.07281930979157154 0.08927765173408649 -0.1330323121552704 
0.1181762655436793 -0.002275521390089292 -0.08881772063420303 
-0.08049513222062939 0.1900072513021251 -0.1039860801988514 
0.1212758951716391 -0.04640852272981182 -0.07160709679392237 
-0.05450071136196395 -0.2551113822995610 0.2447729187336913 
0.008290199013070125 0.1631729749618543 -0.2081327837318966 
0.1212758951716391 -0.04640852272981182 -0.07160709679392237 
0.1212758951716391 -0.04640852272981182 -0.07160709679392237 
0.1212758951716391 -0.04640852272981182 -0.07160709679392237 
0.1212758951716391 -0.04640852272981182 -0.07160709679392237 
0.1015471655463638 -0.06443437869131438 -0.02831882254265658 
0.1212758951716391 -0.04640852272981182 -0.07160709679392237 
0.1230391306988541 -0.07485670062701288 -0.01624927705629454 
0.09506881189559456 -0.005248316275124496 -0.09664119117063891 
0.09631302598728820 -0.02469005552503888 -0.04464743272821774 
0.1230391306988541 -0.07485670062701288 -0.01624927705629454 
0.1230391306988541 -0.07485670062701288 -0.01624927705629454 
0.1230391306988541 -0.07485670062701288 -0.01624927705629454 
-0.06575268828189403 -0.02408210653454329 0.03502749170590562 
0.1230391306988541 -0.07485670062701288 -0.01624927705629454 
0.1230391306988541 -0.07485670062701288 -0.01624927705629454 
0.004646684485167830 -0.2456548696364144 0.2199110062254010 
0.1136894024399244 -0.1041855071492376 0.03985708594995368 
-0.009827922344146178 -0.4846495333942810 0.5006085760457166 
0.2837441431330369 -0.1700695726698207 -0.08758862572480890 
0.1076422299305220 -0.04319990389961152 -0.06585972165202110 
0.04394612471602809 0.01484784509162183 -0.1022060405956718 
-0.3458240811922579 -0.1479230155324841 0.3340393141412159 
0.1076422299305220 -0.04319990389961152 -0.06585972165202110 
0.09338642737761657 -0.1530676967087120 -0.04692292975026359 
0.07609182513431463 -0.01790864388006367 -0.05872013835803953 
0.1076422299305220 -0.04319990389961152 -0.06585972165202110 
0.1076422299305220 -0.04319990389961152 -0.06585972165202110 
0.1076422299305220 -0.04319990389961152 -0.06585972165202110 
0.1316892362764421 -0.06862410805850298 -0.03092775743437545 
-0.4047025086104017 0.5932203515161883 -0.2022023297560189 
0.1316892362764421 -0.06862410805850298 -0.03092775743437545 
0.1311216702788161 -0.1495215711593908 0.02483668386688573 
0.1316892362764421 -0.06862410805850298 -0.03092775743437545 
0.09807839940263545 -0.1551231670448867 0.1207197899460669 
0.1316892362764421 -0.06862410805850298 -0.03092775743437545 
0.1316892362764421 -0.06862410805850298 -0.03092775743437545 
0.05982813220774261 -0.1068930476474876 0.04335090557120406 
0.1316892362764421 -0.06862410805850298 -0.03092775743437545 
0.02781563959153043 0.3274040227971030 -0.2794476291183334 
0.05548884028417064 0.003085827928258365 -0.08356100873708353 
0.1345547918656479 -0.07147427707043064 -0.07053061647662023 
0.1345547918656479 -0.07147427707043064 -0.07053061647662023 
0.1345547918656479 -0.07147427707043064 -0.07053061647662023 
0.1345547918656479 -0.07147427707043064 -0.07053061647662023 
0.1176712650941888 -0.1776199934476102 0.04734434653227281 
0.1345547918656479 -0.07147427707043064 -0.07053061647662023 
0.1202323876580451 -0.03281593639011701 -0.08620135536464078 
0.1209840173757787 0.01740910372511335 -0.1383593277253199 
0.09022936769679735 -0.06105705813961717 -0.04417305775460747 
0.09022936769679735 -0.06105705813961717 -0.04417305775460747 
0.05465272428371350 0.07138827975787610 -0.08904084416129995 
0.05508405949830197 0.04251233565763503 -0.1430236101501983 
-0.001067724307901476 0.1455169793381072 -0.1716980116718903 
0.08282466794695786 -0.04537711290512075 -0.06183012864528312 
0.09022936769679735 -0.06105705813961717 -0.04417305775460747 
0.09022936769679735 -0.06105705813961717 -0.04417305775460747 
0.07162488632448716 0.0009495504996636834 -0.1000799635138327 
0.09022936769679735 -0.06105705813961717 -0.04417305775460747 
0.03113041813599570 -0.02514363487677055 0.07075704288044736 
0.09022936769679735 -0.06105705813961717 -0.04417305775460747 
0.1401869920176503 -0.1236016728529292 -0.04941960409609220 
0.1352942443255258 -0.07993929111775039 -0.08004296167841428 
0.1909059849143878 -0.06012539426566391 -0.1323856329300857 
0.1739312663756071 -0.1257021771407813 -0.06631282886938623 
0.1909059849143878 -0.06012539426566391 -0.1323856329300857 
0.1909059849143878 -0.06012539426566391 -0.1323856329300857 
0.1108878399041728 -0.1837502523686441 0.06634266575962199 
-0.1142188199165169 0.4298950585422142 -0.3389686446340494 
0.1506741244767321 -0.08934331445675589 -0.06665360276957996 
0.07553170563409227 -0.02921405174780605 -0.09615759403272574 
0.07374911834365606 -0.07481369204868846 -0.02867893068062759 
0.07553170563409227 -0.02921405174780605 -0.09615759403272574 
0.07553170563409227 -0.02921405174780605 -0.09615759403272574 
0.06618831071144990 0.004210283986121837 -0.1254614647063391 
0.07374911834365606 -0.07481369204868846 -0.02867893068062759 
-0.1499975306054008 -0.1726151886873543 0.1295362718522381 
0.1606380164369652 -0.1956668309211522 -0.06623584219999062 
0.2008851520134070 -0.1098311859428061 -0.1659166100571776 
0.2554564869248117 -0.1228641964058766 -0.2453905984255737 
0.1265284319762646 -0.1150498036619982 0.01241775711566512 
0.1507364206576136 -0.09778035467296946 -0.03533629555102077 
0.1507364206576136 -0.09778035467296946 -0.03533629555102077 
-0.05796680134665527 0.003615800119147030 -0.02168700993717084 
0.1100110450776964 0.2900191773646028 -0.3346003418549672 
0.1507364206576136 -0.09778035467296946 -0.03533629555102077 
0.1175820290268700 0.02300361084633854 -0.1070567304027120 
0.1507364206576136 -0.09778035467296946 -0.03533629555102077 
0.04753330108857944 -0.1761441984733838 0.1675305246814430 
0.3718466627164965 -0.1831536329854754 -0.1389296891098056 
0.1199253118104129 -0.1857648799361406 0.07233065197079942 
0.02926333409968717 -0.2275976823188318 0.2019100928297367 
0.06033341668855183 -0.1171480745395891 0.05949723633552535 
0.1553740286314281 -0.06876801218091800 -0.09752561846989227 
0.07086604509080083 0.0005810485269542060 -0.1180279830788253 
0.1806142326111800 -0.09462591675052992 -0.1584867628587789 
0.1793832873939400 -0.2005435152201791 -0.06235561721332503 
0.1806142326111800 -0.09462591675052992 -0.1584867628587789 
0.1806142326111800 -0.09462591675052992 -0.1584867628587789 
0.2876332391307738 -0.1302640169305716 -0.2174657597947936 
0.09044605441781856 -0.04261168074394474 -0.1049979393695392 
0.06887883789084932 -0.1137598568373470 0.004991547464324685 
-0.1370896946381498 -0.2248075114902128 0.1855167315836331 
0.09044605441781856 -0.04261168074394474 -0.1049979393695392 
0.09044605441781856 -0.04261168074394474 -0.1049979393695392 
0.09044605441781856 -0.04261168074394474 -0.1049979393695392 
0.09044605441781856 -0.04261168074394474 -0.1049979393695392 
0.09044605441781856 -0.04261168074394474 -0.1049979393695392 
0.07398471328468702 -0.09113607068906535 -0.04363829141332724 
0.09044605441781856 -0.04261168074394474 -0.1049979393695392 
0.09044605441781856 -0.04261168074394474 -0.1049979393695392 
0.09044605441781856 -0.04261168074394474 -0.1049979393695392 
0.06060531364786942 -0.01799144060321980 -0.05504054185703183 
0.05206096807151206 0.07861731429284201 -0.1291906248428919 
-0.05707942473591249 -0.1026076396377295 0.1496466844464195 
-0.02170238335072626 -0.06534698732110812 0.05858137988773050 
-0.08550460147498203 0.1845553202889934 -0.1722307516536082 
0.06060531364786942 -0.01799144060321980 -0.05504054185703183 
0.06060531364786942 -0.01799144060321980 -0.05504054185703183 
0.06060531364786942 -0.01799144060321980 -0.05504054185703183 
0.06060531364786942 -0.01799144060321980 -0.05504054185703183 
0.06060531364786942 -0.01799144060321980 -0.05504054185703183 
0.06060531364786942 -0.01799144060321980 -0.05504054185703183 
0.06060531364786942 -0.01799144060321980 -0.05504054185703183 
0.06060531364786942 -0.01799144060321980 -0.05504054185703183 
0.1573260321517342 -0.04849322885509542 -0.1033299824029947 
0.1603091940201723 -0.1229278727391230 -0.03417713229971875 
0.1603091940201723 -0.1229278727391230 -0.03417713229971875 
0.1603091940201723 -0.1229278727391230 -0.03417713229971875 
0.1603091940201723 -0.1229278727391230 -0.03417713229971875 
0.1603091940201723 -0.1229278727391230 -0.03417713229971875 
0.1328855733248539 -0.06851248826595505 -0.04706369137267012 
0.1226309109448354 -0.04686231308393315 -0.07366509949464176 
0.1226309109448354 -0.04686231308393315 -0.07366509949464176 
0.1226309109448354 -0.04686231308393315 -0.07366509949464176 
0.1226309109448354 -0.04686231308393315 -0.07366509949464176 
0.1226309109448354 -0.04686231308393315 -0.07366509949464176 
0.1751024185472640 0.2575761704694515 -0.3314584938723786 
0.09743810976614176 -0.03325331776427506 -0.04307044868605438 
0.1226309109448354 -0.04686231308393315 -0.07366509949464176 
0.1226309109448354 -0.04686231308393315 -0.07366509949464176 
-0.0003322845072065554 -0.2448735117601733 0.1942427643434124 
0.1110488274674392 -0.1307177553283793 -0.002250697179114223 
0.1860872161608470 -0.09375981077781605 -0.09461926098716167 
0.1860872161608470 -0.09375981077781605 -0.09461926098716167 
0.08121286805542176 -0.04387638350725315 -0.07694747035098906 
-0.0003322845072065554 -0.2448735117601733 0.1942427643434124 
0.1380383551718756 -0.06167710941219208 -0.05159411608264836 
0.1380383551718756 -0.06167710941219208 -0.05159411608264836 
0.1340533068737087 -0.01076228961320971 -0.1205411284957723 
0.08840167408769947 -0.2373685801192154 0.1556978555899291 
0.1380383551718756 -0.06167710941219208 -0.05159411608264836 
0.08066884425205753 -0.09378035854414857 0.03481361751384469 
0.1380383551718756 -0.06167710941219208 -0.05159411608264836 
0.1294312336504954 -0.07942249022723060 -0.02022504378827275 
0.1380383551718756 -0.06167710941219208 -0.05159411608264836 
-0.02658590246070930 0.07537060402302205 -0.05638146517167781 
-0.01433400132681388 -0.02849405000534035 0.08178584978354754 
0.1757524386575595 -0.03938801809066767 -0.09920436775355530 
-0.05102344428463860 -0.2171263837631843 0.2383721815720561 
0.1070190065195937 -0.03563810018004169 -0.05897899693601470 
0.08175867015873059 0.07173227270426212 -0.1379426087190096 
0.1070190065195937 -0.03563810018004169 -0.05897899693601470 
0.1070190065195937 -0.03563810018004169 -0.05897899693601470 
-0.05005341664871454 0.04933678416160974 0.05940378905898957 
0.1070190065195937 -0.03563810018004169 -0.05897899693601470 
0.3548576902487838 0.08407681688970023 -0.4342742175160766 
-0.09648204283369108 -0.06485548400882872 0.1453559108346125 
0.1364945708006943 -0.1150003320228012 -0.1002393941387906 
0.2542447189651984 0.2241280619456537 -0.4891866019324723 
0.1353612584225643 -0.2114019876326198 -0.01145845250249173 
0.1378217838403888 0.03609422136404634 -0.2450192952736571 
0.2294275733217714 -0.09211133098913091 -0.1018073586731741 
0.2718549974319367 -0.1165231430235004 -0.1160498721047286 
0.2718549974319367 -0.1165231430235004 -0.1160498721047286 
0.1978040433669370 -0.2810525723393680 0.1664709074901211 
0.2524286218247408 0.01210612737195757 -0.2105149288507576 
0.08763512362111618 -0.04261347156805870 -0.08720173980274765 
0.08763512362111618 -0.04261347156805870 -0.08720173980274765 
0.08763512362111618 -0.04261347156805870 -0.08720173980274765 
0.08204566155453119 -0.09175151982154992 -0.04502953716649239 
0.08763512362111618 -0.04261347156805870 -0.08720173980274765 
0.08763512362111618 -0.04261347156805870 -0.08720173980274765 
0.3315907715552195 -0.2004672179430199 -0.2798971804921696 
0.08763512362111618 -0.04261347156805870 -0.08720173980274765 
0.08763512362111618 -0.04261347156805870 -0.08720173980274765 
-0.01559447228382976 -0.02560572500809173 -0.006858191258483561 
0.1141380498848819 -0.06063092249419604 -0.1265763451164417 
0.3580936978189853 -0.2184846688691573 -0.3192717858058636 
0.1141380498848819 -0.06063092249419604 -0.1265763451164417 
0.1141380498848819 -0.06063092249419604 -0.1265763451164417 
0.1141380498848819 -0.06063092249419604 -0.1265763451164417 
-0.05109996606608441 -0.05567271073672049 0.1364063562620313 
0.08369645374906642 0.1220637262430142 -0.1641922601446267 
0.1486521223881601 -0.07408718241918692 -0.05089434740693887 
-0.1414917567600527 -0.1593424457471303 0.2343895366841869 
0.1055373276911526 -0.1429494394589491 0.02071567729864732 
0.1486521223881601 -0.07408718241918692 -0.05089434740693887 
0.2224261591634428 -0.06452413160335514 -0.1705414434300633 
0.07486556644525111 -0.05264410822055148 -0.07567258729007020 
0.07486556644525111 -0.05264410822055148 -0.07567258729007020 
0.01974325946393701 0.04015676561188374 -0.1563749843460998 
0.07486556644525111 -0.05264410822055148 -0.07567258729007020 
0.07486556644525111 -0.05264410822055148 -0.07567258729007020 
0.07486556644525111 -0.05264410822055148 -0.07567258729007020 
0.07486556644525111 -0.05264410822055148 -0.07567258729007020 
0.07486556644525111 -0.05264410822055148 -0.07567258729007020 
0.07486556644525111 -0.05264410822055148 -0.07567258729007020 
0.07486556644525111 -0.05264410822055148 -0.07567258729007020 
0.07486556644525111 -0.05264410822055148 -0.07567258729007020 
0.07486556644525111 -0.05264410822055148 -0.07567258729007020 
0.1331432818706657 -0.07636792438796186 -0.1236732519025235 
0.003118543593978725 -0.1035030006662414 -0.001090472723741808 
0.1240533285235323 -0.02094655624135832 -0.1545076963548023 
0.09562770575173274 -0.1078413434801343 -0.06625372418448525 
0.1331432818706657 -0.07636792438796186 -0.1236732519025235 
0.08370253882630728 -0.02166423933655872 -0.1274043052083556 
0.08370253882630728 -0.02166423933655872 -0.1274043052083556 
0.1366313424236276 -0.02462759750460881 -0.1168324388818192 
0.1617172024170832 -0.07340550625868797 -0.08616762932327231 
0.1366313424236276 -0.02462759750460881 -0.1168324388818192 
0.1617172024170832 -0.07340550625868797 -0.08616762932327231 
0.1617172024170832 -0.07340550625868797 -0.08616762932327231 
0.1617172024170832 -0.07340550625868797 -0.08616762932327231 
0.1617172024170832 -0.07340550625868797 -0.08616762932327231 
0.1271214773049409 -0.03814182888149104 -0.04681506865218858 
0.1583495058000701 -0.08480435710280876 -0.03740763133200038 
0.1583495058000701 -0.08480435710280876 -0.03740763133200038 
0.1507503977033512 -0.1387864346725509 0.03533922926879660 
0.1134654417588633 -0.02215541552601400 -0.02011530666348747 
-0.01150864583430258 -0.1980191889010266 0.2171803277163474 
0.1318317370844593 -0.1516532623067526 0.05571689915263189 
0.1382387399732409 -0.03977333771552455 -0.05645596873119907 
0.1583495058000701 -0.08480435710280876 -0.03740763133200038 
0.1350345218865608 -0.1198524806225833 0.02622467109428105 
0.02076213289807850 0.2201794026559464 -0.2032380864484885 
0.1583495058000701 -0.08480435710280876 -0.03740763133200038 
0.1583495058000701 -0.08480435710280876 -0.03740763133200038 
0.1583495058000701 -0.08480435710280876 -0.03740763133200038 
0.1664872499859068 -0.05972382821602158 -0.06168801663949120 
0.1664872499859068 -0.05972382821602158 -0.06168801663949120 
0.1664872499859068 -0.05972382821602158 -0.06168801663949120 
0.1664872499859068 -0.05972382821602158 -0.06168801663949120 
-0.2423734449508428 -0.2011694827952872 0.3339692313937986 
0.2087143950265223 -0.003870516366807764 -0.1508285949755531 
0.1101106133548578 0.04880746980669206 -0.1193548423537304 
0.1615832874015036 0.04141326001394339 -0.1467894026192706 
0.1222891372489743 -0.1532227326204234 0.04822964565659051 
0.1664872499859068 -0.05972382821602158 -0.06168801663949120 
0.06611965212008228 -0.3623731757096398 0.2499692604524259 
0.2211102420588828 -0.08537327831250599 -0.1035933935587848 
0.2200732382853288 -0.04545153494626695 -0.1601345100269283 
0.2064771015083517 -0.1639478921366258 -0.006898238281271094 
0.1796656109782572 0.1162525154107260 -0.2380931179474809 
0.1796345790789447 -0.08867875332236538 -0.07558300045771599 
0.1796345790789447 -0.08867875332236538 -0.07558300045771599 
0.1796345790789447 -0.08867875332236538 -0.07558300045771599 
0.1796345790789447 -0.08867875332236538 -0.07558300045771599 
0.1796345790789447 -0.08867875332236538 -0.07558300045771599 
0.1545758090064817 -0.03902941057240512 -0.09843511504832580 
0.1796345790789447 -0.08867875332236538 -0.07558300045771599 
0.09372839023747155 0.05932280273059672 -0.1198258037690593 
0.01005476067903909 -0.006094877499839654 0.007825114671054710 
0.06899472988503069 0.03297958901868205 -0.1056708998390223 
0.1001354398015632 -0.1062353098884690 0.02090663164308131 
-0.02850071410381806 -0.008940596613473477 0.02997484023639094 
0.006550561343439366 -0.1039641111580490 0.1124657482898788 
-0.08025103963417483 0.5270067286496659 -0.4074959585599584 
-0.1085917741361585 0.007721294470677200 0.1072672715861391 
0.1020195334002322 -0.02984308430106588 -0.02889855115105180 
0.09350505170709404 -0.1164899031860942 0.06893721026059936 
0.1020195334002322 -0.02984308430106588 -0.02889855115105180 
0.1020195334002322 -0.02984308430106588 -0.02889855115105180 
0.09256100527403227 -0.09878691972685022 0.05312362558374290 
0.1020195334002322 -0.02984308430106588 -0.02889855115105180 
0.1295407391083875 -0.05957349903752028 -0.08248341683000819 
0.1134652410737983 0.01776707148793481 -0.1248951717669183 
-0.006237612897422687 -0.2107949105051067 0.1727278552313508 
-0.02903720896027418 -0.1759456240772465 0.1118660695063460 
0.1295407391083875 -0.05957349903752028 -0.08248341683000819 
0.03689469314435104 0.01947135459597318 -0.06361224826206176 
-0.04856829668110784 0.05199113174222875 -0.1025719409287608 
0.1038975655698641 0.01501119424261176 -0.1299515678144251 
0.1295407391083875 -0.05957349903752028 -0.08248341683000819 
-0.03993243274410124 -0.1776110841685055 0.1191665709607327 
0.02869515127297379 0.04074955981124594 -0.08969273887076298 
0.03008970730202691 -0.1243434191204256 0.02919548562577375 
-0.01632377062393537 0.2088381897530914 -0.2139406390595013 
0.2124415615350734 -0.09424613030950656 -0.1252562082896912 
0.1373057211854011 -0.08208742038981650 -0.06167374397633811 
0.1373057211854011 -0.08208742038981650 -0.06167374397633811 
0.1373057211854011 -0.08208742038981650 -0.06167374397633811 
0.1373057211854011 -0.08208742038981650 -0.06167374397633811 
0.1753670369770672 -0.04985218764617493 -0.2165695835361443 
0.2104718177322281 -0.1570779775942341 -0.1252723806282466 
0.1813350898034403 -0.2416617926046335 0.0006077447301588127 
0.2177575229604624 -0.2364139922474058 -0.03936495965037960 
0.1810220304429884 -0.2982602898352695 0.07231796139645111 
0.1478968904935858 0.05520284304354768 -0.1683936365518821 
0.1585363313221506 -0.04185670148738015 -0.08226817142439231 
0.1585363313221506 -0.04185670148738015 -0.08226817142439231 
0.1585363313221506 -0.04185670148738015 -0.08226817142439231 
0.1585363313221506 -0.04185670148738015 -0.08226817142439231 
0.2421207607857579 -0.1003541537755352 -0.1374374209617062 
0.1114933508963669 -0.1241407524369996 0.03016857550144751 
0.1525404407636442 -0.1088871058763102 -0.003277964170851290 
0.1000451244000790 -0.1092279911593960 0.05974719296167395 
0.04414794636771460 -0.02284553997323914 -0.03221586597697913 
0.04414794636771460 -0.02284553997323914 -0.03221586597697913 
0.04414794636771460 -0.02284553997323914 -0.03221586597697913 
-0.06725633105071915 -0.1433240905999345 0.1252554454299353 
0.08100132113907851 -0.02635144513529899 -0.06543498568898726 
0.08100132113907851 -0.02635144513529899 -0.06543498568898726 
0.04414794636771460 -0.02284553997323914 -0.03221586597697913 
-0.004642329642162730 -0.06522768569115427 0.08279171498877481 
0.04414794636771460 -0.02284553997323914 -0.03221586597697913 
0.1399734889039578 -0.1661201768777136 -0.04066262263444920 
0.04414794636771460 -0.02284553997323914 -0.03221586597697913 
-0.009711216109139312 -0.07293709430502623 0.02199643160185890 
0.2189149014073740 -0.08404376434422252 -0.07931939444572254 
0.2181306988638004 -0.1605290542955696 0.001424590306339950 
0.1601063322958991 -0.2520088147935567 0.1836792122269433 
0.2269052622605847 -0.1153256684830686 -0.05579716341455022 
0.2269052622605847 -0.1153256684830686 -0.05579716341455022 
0.1210642174297306 0.1525125520210256 -0.2167979185535477 
0.1744978891537964 -0.1441414934381154 0.01205031536651666 
0.09708762903082870 0.07723618168574937 -0.1181008198129162 
0.1276865977285852 -0.04768776518999080 -0.05151002797088281 
0.08193174150548100 0.02641203116353629 -0.08019569412767684 
0.1276865977285852 -0.04768776518999080 -0.05151002797088281 
0.009554257053938869 0.3549228681029742 -0.2934205864839360 
-0.5975577472459480 1.021516126154364 -0.6624881240255653 
0.1939321843380035 -0.07075669604512792 -0.1142460913024903 
0.1939321843380035 -0.07075669604512792 -0.1142460913024903 
0.1939321843380035 -0.07075669604512792 -0.1142460913024903 
-0.01094944842646528 0.2267275045846058 -0.2068018189017798 
0.1276865977285852 -0.04768776518999080 -0.05151002797088281 
0.02999761249995156 -0.2589548198764738 0.2605002246961620 
0.04332652617530793 0.03251130579477952 -0.04237931255828344 
-0.04852021005027768 -0.1118951097123168 0.1347759158057654 
0.2131765637213904 0.08937749514445423 -0.2489243145068380 
0.09766600181665122 0.08836364675970988 -0.1078825476030893 
-0.05850402830181772 0.2695777916664353 -0.2694272041414220 
0.05368720448184563 -0.2059312187165472 0.1933435303660240 
0.1411094582845952 -0.05258078460527312 -0.05229935649781261 
0.1411094582845952 -0.05258078460527312 -0.05229935649781261 
0.03036660015197484 -0.1404577349915962 0.1415216141052623 
0.09517420938269311 0.07514685321190531 -0.08975161915799805 
0.1608342634478434 -0.05349589681308974 -0.07227535821805430 
0.1608342634478434 -0.05349589681308974 -0.07227535821805430 
0.1608342634478434 -0.05349589681308974 -0.07227535821805430 
-0.2281475934179557 -0.4014461509840010 0.6106442304691162 
0.06628548749430546 -0.1344525247157654 0.06910433556494236 
0.1608342634478434 -0.05349589681308974 -0.07227535821805430 
0.1561299087159503 -0.04228325412362879 -0.07618395604612542 
0.1071044883336230 0.1552270904442084 -0.2478369049059937 
0.1608342634478434 -0.05349589681308974 -0.07227535821805430 
0.1608342634478434 -0.05349589681308974 -0.07227535821805430 
0.1152687908355071 -0.09791383637669505 0.04364765550641108 
0.1163400694535607 -0.07726008247466237 -0.02736287123757564 
0.1608342634478434 -0.05349589681308974 -0.07227535821805430 
0.1374435919404612 -0.008405897956367989 -0.1093815471161519 
0.02629725455995249 -0.002585093572801133 -0.04347719943818110 
0.007301687477334361 -0.1694778423211782 0.1522547688965131 
0.1374435919404612 -0.008405897956367989 -0.1093815471161519 
0.08896994548421265 -0.2087860989254077 0.1411924230591083 
0.08091477372218720 0.02374641683953587 -0.06767006638706716 
0.1374435919404612 -0.008405897956367989 -0.1093815471161519 
0.1374435919404612 -0.008405897956367989 -0.1093815471161519 
-0.04318932214011249 -0.2308804451794937 0.1730487701830741 
0.1619496223679086 -0.07756740600111206 -0.08419313487754328 
0.1619496223679086 -0.07756740600111206 -0.08419313487754328 
0.1619496223679086 -0.07756740600111206 -0.08419313487754328 
0.1396727893430181 -0.1296048522736667 -0.01288628781497073 
0.1311762302011172 -0.3100028526913621 0.1295044166189154 
0.1025480457552560 -0.02163305224160507 -0.1045700047590036 
0.1731445949351183 -0.06203657110251899 -0.1068049804579178 
0.1731445949351183 -0.06203657110251899 -0.1068049804579178 
0.1344745168222396 0.01846374232483447 -0.08934650575145248 
0.1519204142421786 -0.06262324061407362 -0.005068937595293523 
0.002893161773198965 0.2473133724115413 -0.1247308797896482 
0.3173442301596666 -0.07384822052042672 -0.1734826170789784 
-0.2770341090099265 -0.1671169962634864 0.4100183909834829 
0.1477916135023820 -0.01215003466969612 -0.04561943187406125 
0.1519204142421786 -0.06262324061407362 -0.005068937595293523 
0.1519204142421786 -0.06262324061407362 -0.005068937595293523 
0.3173442301596666 -0.07384822052042672 -0.1734826170789784 
0.1121829941702190 -0.05083163460682162 -0.09657405966047154 
-0.03612254756609069 0.3431025874821300 -0.3764143446377577 
0.1171641778128512 -0.1382073779790802 -0.03359148050425677 
0.1192622069623027 -0.1119654616179016 -0.06182171741990061 
0.1192622069623027 -0.1119654616179016 -0.06182171741990061 
0.1192622069623027 -0.1119654616179016 -0.06182171741990061 
0.04428100618681923 -0.03010962017492995 -0.03634723976831299 
0.06848744337454904 -0.0004887603502015190 -0.06639279755742900 
0.05298669914333091 0.07091583302702374 -0.1384804498476898 
0.07062836672529822 -0.01764840814476275 -0.06432606975427212 
-0.07644812616345498 0.1604601248487390 -0.1072938370573307 
0.02529732228364864 -0.09939444345760441 0.06482480093491727 
0.07062836672529822 -0.01764840814476275 -0.06432606975427212 
0.07062836672529822 -0.01764840814476275 -0.06432606975427212 
0.06624558660941823 -0.02306893085513713 -0.06273606333160743 
0.06624558660941823 -0.02306893085513713 -0.06273606333160743 
0.06624558660941823 -0.02306893085513713 -0.06273606333160743 
0.04346650429902151 0.05489577575972163 -0.1233040380210418 
0.09891900159096337 -0.05517759136099028 -0.04156381227451057 
-0.05640979043059970 0.1303259025775723 -0.1574084325531629 
0.09891900159096337 -0.05517759136099028 -0.04156381227451057 
0.04330080197208897 0.02092387097463938 -0.03349127567570144 
0.1065840468999680 -0.4737907982202224 0.3697093427622128 
-0.1470226845023246 0.2914259296227550 -0.1505471705612949 
0.1776943836984154 -0.07487375055652176 -0.08196923804750716 
0.1776943836984154 -0.07487375055652176 -0.08196923804750716 
0.1186153636127346 0.05403134022198460 -0.1607728654629577 
0.01975082162688522 -0.04498114003089911 0.02174747973028096 
0.08811682976126756 -0.02952377947048243 -0.05053826589632396 
0.08811682976126756 -0.02952377947048243 -0.05053826589632396 
0.08811682976126756 -0.02952377947048243 -0.05053826589632396 
0.06595768188980643 -0.1229395118873328 0.06812852289303870 
0.08811682976126756 -0.02952377947048243 -0.05053826589632396 
0.03128461246704766 0.06043840574017820 -0.07711951862170399 
0.008236534991002888 0.07808784173881811 -0.1120315060442484 
0.05463810811849078 -0.1374346057059933 0.08429835768805460 
-0.09801396738624432 0.2158087214671845 -0.05940348669733608 
0.1567972044997923 -0.03986360886446108 -0.1111635087640006 
0.02105780001781128 0.02300812064618787 -0.02569681824983176 
0.3328991177023072 -0.1667332776346703 -0.1328924128367884 
-0.01625686205391223 -0.1245608447640654 0.02409515051778633 
0.1411745904542331 -0.002860228862618369 -0.1275768108038291 
0.1107302905457362 0.04769183592485960 -0.1679760639758215 
-0.01732145863018519 -0.08757412744736938 0.05024019527079084 
0.02453977029171825 0.01596342487496723 -0.04975329943028919 
0.1337140878203227 -0.1178073011287372 -0.002876118513734918 
0.07434061895871787 0.03421096200738358 -0.09905802478433706 
0.04493314997175074 -0.1514664157874804 0.09260828472681070 
0.02305729819010246 0.1183040621266810 -0.1206708694087191 
0.03030207590420890 0.1085529990448256 -0.1067899796103789 
-0.4121204090163591 -0.1839541625210848 0.3154152640739013 
0.03685337477136392 -0.003505905162059853 -0.03321911971200812 
0.03685337477136392 -0.003505905162059853 -0.03321911971200812 
0.03685337477136392 -0.003505905162059853 -0.03321911971200812 
0.09617591281132700 -0.1575197806698086 0.02389966824701041 
0.1288456752718412 -0.08098288486726475 -0.1105074531248604 
0.1288456752718412 -0.08098288486726475 -0.1105074531248604 
0.1288456752718412 -0.08098288486726475 -0.1105074531248604 
0.1288456752718412 -0.08098288486726475 -0.1105074531248604 
0.08310750400567032 -0.2868194575447418 0.1189068024009491 
0.1288456752718412 -0.08098288486726475 -0.1105074531248604 
0.1288456752718412 -0.08098288486726475 -0.1105074531248604 
0.1288456752718412 -0.08098288486726475 -0.1105074531248604 
-0.2607381700631715 0.1343398384469985 0.05700655562571005 
0.08882527950992320 -0.03826775123537519 -0.05465143488025714 
0.08882527950992320 -0.03826775123537519 -0.05465143488025714 
0.02213495889448545 -0.2583745600131504 0.2063389838413090 
0.002788630250455206 0.02297716741483021 -0.06335969257713225 
0.08882527950992320 -0.03826775123537519 -0.05465143488025714 
-0.2649015624709243 0.06374432250211502 -0.004849387644840152 
0.1023248694646489 0.08106735932260457 -0.2281231250806783 
0.1954518408011345 -0.05427121583328291 -0.1617847530243775 
0.1954518408011345 -0.05427121583328291 -0.1617847530243775 
0.4832004116367988 -0.4216822565958485 -0.07569639731783095 
0.1320555952445179 -0.08107015950213536 -0.03638077641464799 
0.06253032407273086 0.1328261774123718 -0.2029785806438078 
0.08936033887819562 0.1358485406300825 -0.2305227718230997 
0.1320555952445179 -0.08107015950213536 -0.03638077641464799 
0.1320555952445179 -0.08107015950213536 -0.03638077641464799 
0.07945458920265486 -0.01507617750625151 -0.06810212022771340 
0.1320555952445179 -0.08107015950213536 -0.03638077641464799 
0.1320555952445179 -0.08107015950213536 -0.03638077641464799 
0.03142215800283976 -0.1328932491261361 0.08598176708686481 
0.1320555952445179 -0.08107015950213536 -0.03638077641464799 
-0.1271080130779886 -0.1818251404028575 0.2171501172325033 
1.368810792957585e-07 -0.04273471565423419 -0.02090905526553454 
0.1320555952445179 -0.08107015950213536 -0.03638077641464799 
0.1320555952445179 -0.08107015950213536 -0.03638077641464799 
0.1213267788652960 -0.09129463974367188 -0.01968686683616186 
0.1213267788652960 -0.09129463974367188 -0.01968686683616186 
0.1213267788652960 -0.09129463974367188 -0.01968686683616186 
0.05035229021928991 -0.001481965214651786 -0.06674334120297255 
0.09232757439818542 -0.06684219068873797 -0.03015879289628592 
0.07530053248703703 0.06022289498260592 -0.1822446793716308 
0.1213267788652960 -0.09129463974367188 -0.01968686683616186 
0.1213267788652960 -0.09129463974367188 -0.01968686683616186 
-0.1037058387418923 -0.4184012548345398 0.4494057315341123 
0.1213267788652960 -0.09129463974367188 -0.01968686683616186 
0.1109585756077174 -0.002424459319270221 -0.1153019827609606 
0.01989796555841126 -0.07823844573995366 0.03482274354799410 
0.1213267788652960 -0.09129463974367188 -0.01968686683616186 
0.1213267788652960 -0.09129463974367188 -0.01968686683616186 
0.1176927551297695 -0.06885613499450584 -0.06169597464459511 
0.1176927551297695 -0.06885613499450584 -0.06169597464459511 
0.05075464587283692 -0.07340536692520978 0.007819819575076641 
0.07949898541591618 0.006743741645266796 -0.1194336278685542 
-0.05696157861132023 -0.2978148278955107 0.2861792771915387 
0.1176927551297695 -0.06885613499450584 -0.06169597464459511 
-0.02833844415909276 -0.2138416695322593 0.1682647233260247 
0.08406091763715866 -0.01235883779077028 -0.1069717350713414 
0.1176927551297695 -0.06885613499450584 -0.06169597464459511 
0.1303196342565899 -0.2064988492601007 0.1105321220740337 
0.09968373667355965 -0.1184814373127016 0.02103549430387065 
-0.1467314746952765 -0.06396658681249649 0.07089800110144107 
0.1397495300694990 -0.1810828425127203 0.05526416581672158 
0.1761019132025149 -0.1268696687702092 -0.02172890407278780 
0.1540048553526667 0.05592740233709076 -0.1675273023291130 
0.1507950546824435 -0.07853872320632777 -0.06371398702515499 
0.1506512505488394 -0.1135173729111804 -0.03820676406353697 
0.1525776419728797 -0.03293908290544536 -0.1311926503772531 
0.03914970558971439 -0.1185106289624109 0.09677993630873240 
0.1525776419728797 -0.03293908290544536 -0.1311926503772531 
0.1297970440617973 0.03924683672750746 -0.1746200121844418 
-0.06120039612182136 -0.1923912664508370 0.1781436157287744 
-0.01995032748315433 -0.003115865294267292 0.01542938250113312 
0.07950220793360964 -0.02486928558681040 -0.04930196860802286 
0.009636126028480685 -0.05264221904911049 0.03523475598954020 
0.07950220793360964 -0.02486928558681040 -0.04930196860802286 
-0.1041964151474201 -0.3984558821848768 0.4740801455310416 
0.07950220793360964 -0.02486928558681040 -0.04930196860802286 
0.06579475578210338 -0.09466292735563595 0.03974886199415716 
0.3020650822657206 -0.1808154444901629 -0.2293280796556608 
0.3020650822657206 -0.1808154444901629 -0.2293280796556608 
0.04555931369435912 0.04404307900028880 -0.06254565726060490 
-0.03451979129113567 -0.06840027939843470 0.1313200995434786 
0.1047308575144518 -0.04386245181159828 -0.03395802582850321 
0.1047308575144518 -0.04386245181159828 -0.03395802582850321 
-0.02691351737572777 -0.1520589012085564 0.1947580995978754 
0.005181173739157964 0.1639933461232799 -0.1508328942206260 
0.01205330371926230 0.1139320290889111 -0.1069568867548283 
0.04555931369435912 0.04404307900028880 -0.06254565726060490 
0.03883835048530013 0.1380158932717677 -0.1347179880465316 
-0.2991000899771115 -0.2204368752600321 0.3726024856546277 
0.05102895970542392 -0.05346848600411908 -0.1154992329830984 
0.07890601420659069 0.01035240426685107 -0.1334775219298301 
0.07013811878530299 -0.2718933998896789 0.1238191602470627 
0.1401700395495390 -0.08667306167624235 -0.1068419377109532 
0.08974593278694042 -0.2079433991471507 0.1180291538524535 
0.1401700395495390 -0.08667306167624235 -0.1068419377109532 
0.1401700395495390 -0.08667306167624235 -0.1068419377109532 
0.1401700395495390 -0.08667306167624235 -0.1068419377109532 
0.1576994713208457 -0.08922497117759227 -0.1545445947038861 
-0.09312697133648568 0.1353385751558875 -0.06633837205630073 
-0.09312697133648568 0.1353385751558875 -0.06633837205630073 
-0.1294324730730518 0.06819068738901140 -0.009487454798487619 
-0.0005339512554658426 0.004279930675371536 -0.01479896739760606 
-0.0005339512554658426 0.004279930675371536 -0.01479896739760606 
-0.0005339512554658426 0.004279930675371536 -0.01479896739760606 
-0.02476163579623867 0.01735460715769848 -0.01689911128169564 
-0.09493701471983439 0.1816352156041597 -0.03542907353320012 
-0.0005339512554658426 0.004279930675371536 -0.01479896739760606 
-0.0005339512554658426 0.004279930675371536 -0.01479896739760606 
-0.0005339512554658426 0.004279930675371536 -0.01479896739760606 
-0.0005339512554658426 0.004279930675371536 -0.01479896739760606 
-0.08134838714428122 0.1471032340926680 -0.05496275450656656 
-0.04567836017094692 0.1421541533912197 -0.09549856394072692 
-0.04567836017094692 0.1421541533912197 -0.09549856394072692 
-0.04567836017094692 0.1421541533912197 -0.09549856394072692 
-0.05661923608760595 0.1850180129841506 -0.1244732567158334 
-0.04341136975272658 0.1760334141019532 -0.1233059794596920 
-0.03372779617094026 0.08761761269199929 -0.05728698684998841 
-0.03372779617094026 0.08761761269199929 -0.05728698684998841 
-0.03372779617094026 0.08761761269199929 -0.05728698684998841 
-0.03372779617094026 0.08761761269199929 -0.05728698684998841 
-0.04033088076241208 0.2085228282551326 -0.1516839658178822 
-0.2198750150042627 0.3546354859515360 -0.1826833613580905 
-0.01398674906594876 0.1106404343517922 -0.07971675760799100 
-0.01398674906594876 0.1106404343517922 -0.07971675760799100 
-0.01398674906594876 0.1106404343517922 -0.07971675760799100 
-0.05542835902595379 0.3042038234226385 -0.2498525455302947 
-0.1067644841747358 -0.07030827851392958 0.06760565752653870 
-0.04764650638723705 0.01751888127777454 0.02004167249549846 
-0.002983161868438061 0.07443464388402758 -0.06915285010327593 
-0.03303843226035717 0.2169376373753306 -0.1830647938064124 
-0.09830171783724605 -0.3789926595084094 0.3909323479035727 
-0.002983161868438061 0.07443464388402758 -0.06915285010327593 
-0.1416567036080920 -0.09184548376366729 0.1471922162981550 
-0.1192823542982680 0.1058256506833363 0.02387943572166513 
-0.05981537916265796 0.1643968290946882 -0.09573410282865595 
-0.03376265454056903 0.03252668508124488 -0.01101302671119739 
-0.03376265454056903 0.03252668508124488 -0.01101302671119739 
-0.06698138230812407 0.1129124266334475 -0.04279563903892503 
-0.1244534766188477 0.2265347172276438 -0.1291674918979202 
-0.1439005790479915 -0.04967487575801969 0.1589342500639810 
-0.1255219881968092 0.1462760364632032 -0.07628562705245301 
-0.03376265454056903 0.03252668508124488 -0.01101302671119739 
-0.05921047531631913 0.006136136395363112 0.05349877815132254 
-0.03376265454056903 0.03252668508124488 -0.01101302671119739 
-0.1535973018114023 0.2269541088343916 -0.1471785044284363 
-0.09594064242162743 -0.03707647994477830 0.08099706774413999 
-0.03376265454056903 0.03252668508124488 -0.01101302671119739 
-0.08815422688311647 -0.1109617814360257 0.1613691689221623 
-0.02291139061178164 0.1296695234545676 -0.1153654247517695 
-0.02291139061178164 0.1296695234545676 -0.1153654247517695 
-0.04689059129261748 0.07550747149593990 -0.03342125105901195 
-0.02291139061178164 0.1296695234545676 -0.1153654247517695 
-0.01022999664884193 0.04827656615446846 -0.04178083740562961 
-0.01022999664884193 0.04827656615446846 -0.04178083740562961 
-0.09588553289871575 -0.01432439891709387 0.09302418479768995 
-0.1449480964866858 0.1915017953797418 -0.005434325582129711 
-0.01022999664884193 0.04827656615446846 -0.04178083740562961 
-0.08004431118848168 0.3286761909879409 -0.2456599558306034 
-0.01924157675974244 0.06420754076409488 -0.03377265249315083 
-0.01924157675974244 0.06420754076409488 -0.03377265249315083 
-0.01924157675974244 0.06420754076409488 -0.03377265249315083 
-0.04785596601209916 0.1359808519341386 -0.08618425286720796 
-0.01924157675974244 0.06420754076409488 -0.03377265249315083 
-0.06286412127395695 0.02884940731095259 0.02313184535962006 
-0.1289488891220307 0.1802720605745881 -0.03500443560476586 
-0.01924157675974244 0.06420754076409488 -0.03377265249315083 
-0.1318716270725264 0.3879868127263582 -0.2561476888953891 
-0.03363183749261082 0.05649729720373556 -0.04527576042674630 
-0.03363183749261082 0.05649729720373556 -0.04527576042674630 
-0.03363183749261082 0.05649729720373556 -0.04527576042674630 
-0.03363183749261082 0.05649729720373556 -0.04527576042674630 
-0.1745466413876781 0.3860799157440854 -0.2696175608354393 
-0.03363183749261082 0.05649729720373556 -0.04527576042674630 
-0.03363183749261082 0.05649729720373556 -0.04527576042674630 
-0.1056980380331653 0.05230236171755357 -0.008980793024555504 
-0.03363183749261082 0.05649729720373556 -0.04527576042674630 
-0.03363183749261082 0.05649729720373556 -0.04527576042674630 
-0.03363183749261082 0.05649729720373556 -0.04527576042674630 
-0.03363183749261082 0.05649729720373556 -0.04527576042674630 
-0.03363183749261082 0.05649729720373556 -0.04527576042674630 
-0.03363183749261082 0.05649729720373556 -0.04527576042674630 
-0.03363183749261082 0.05649729720373556 -0.04527576042674630 
-0.3011189657554195 -0.3557705478460229 0.5717415891211798 
-0.02156488247157187 0.1560560830933606 -0.1474432896398541 
-0.02156488247157187 0.1560560830933606 -0.1474432896398541 
-0.02156488247157187 0.1560560830933606 -0.1474432896398541 
-0.07026933545814021 0.1519827725424712 -0.05767203343915306 
-0.04416555435375389 0.09895965616398454 -0.08289471291701947 
-0.04416555435375389 0.09895965616398454 -0.08289471291701947 
-0.04416555435375389 0.09895965616398454 -0.08289471291701947 
-0.1365959545637996 -0.1768426218359959 0.2417426518002638 
-0.1637436518852607 -0.02398241582286287 0.09437919309166020 
-0.06147415262613112 -0.05121600863919527 0.07979514921533934 
-0.2467998778288076 0.07878151563684206 0.1063637726525322 
-0.1309159710623327 0.1169937935247050 -0.05282654208726988 
-0.1042296476989501 0.03489335010959927 0.02625779414360994 
-0.02000896419373121 0.08722662227136320 -0.06768459835341936 
-0.1034917584134117 0.4057149850611114 -0.2552062586406007 
-0.1791764686082545 -0.05647095461706334 0.1773977820912317 
-0.06182240071179398 0.1964972811163619 -0.1541007290584085 
-0.02000896419373121 0.08722662227136320 -0.06768459835341936 
-0.2972524965429924 0.4209701199245195 -0.1539294125287803 
-0.02000896419373121 0.08722662227136320 -0.06768459835341936 
-0.1088338683259678 0.3318300248134604 -0.2734386852995031 
-0.08022445104033553 0.06727257310559127 0.005201026408190415 
-0.02000896419373121 0.08722662227136320 -0.06768459835341936 
-0.1155055566734120 0.04798865687024033 0.06346629608570525 
-0.02000896419373121 0.08722662227136320 -0.06768459835341936 
-0.1509943275923847 -0.03181510308195672 0.1302746017383787 
-0.2133108413615767 0.1707252597346266 -0.01295215893252730 
-0.01058170564613567 0.1341946038839845 -0.1370923105299623 
-0.01058170564613567 0.1341946038839845 -0.1370923105299623 
-0.01058170564613567 0.1341946038839845 -0.1370923105299623 
-0.01058170564613567 0.1341946038839845 -0.1370923105299623 
-0.01058170564613567 0.1341946038839845 -0.1370923105299623 
-0.08695583219362595 0.1343253459430057 -0.05313146516693664 
-0.03967376910733107 0.1061651465002722 -0.07265475166170798 
-0.09357689671828788 0.1639878038559368 -0.1099528415559621 
-0.03967376910733107 0.1061651465002722 -0.07265475166170798 
-0.03967376910733107 0.1061651465002722 -0.07265475166170798 
-0.03967376910733107 0.1061651465002722 -0.07265475166170798 
-0.03967376910733107 0.1061651465002722 -0.07265475166170798 
-0.02778071464951662 0.1351490003765637 -0.1255610034443998 
-0.1909576344224116 0.6331230342301726 -0.5491698661495710 
-0.07512748921660602 -0.006517363841648340 0.09717667017090123 
-0.04944074304435841 0.05470368505140314 -0.003731053305832030 
-0.04944074304435841 0.05470368505140314 -0.003731053305832030 
-0.04944074304435841 0.05470368505140314 -0.003731053305832030 
-0.04944074304435841 0.05470368505140314 -0.003731053305832030 
-0.02598240676193692 0.2212408574701065 -0.1895947634645911 
-0.02598240676193692 0.2212408574701065 -0.1895947634645911 
-0.02598240676193692 0.2212408574701065 -0.1895947634645911 
-0.02598240676193692 0.2212408574701065 -0.1895947634645911 
-0.007404699749839480 0.01567994523449643 -0.01765707089067565 
-0.007404699749839480 0.01567994523449643 -0.01765707089067565 
-0.01457715839820655 0.05556960066926051 -0.04543282848764393 
-0.007404699749839480 0.01567994523449643 -0.01765707089067565 
-0.02643875288538376 -0.1166348633177403 0.1467289969809040 
-0.007404699749839480 0.01567994523449643 -0.01765707089067565 
-0.007404699749839480 0.01567994523449643 -0.01765707089067565 
-0.2349866927974198 0.3574784630399720 -0.1625574699152016 
-0.2480028789108169 0.06717765498911395 0.1579748071761719 
-0.007404699749839480 0.01567994523449643 -0.01765707089067565 
-0.1242416842426809 0.1497417397045948 -0.03524782606740405 
-0.04885627086532901 0.05476101564520749 0.05009879121433013 
-0.02431281620761492 0.1126308403925113 -0.06519557076702338 
-0.1112620090056780 0.2378570335513191 -0.1233340416096925 
-0.02431281620761492 0.1126308403925113 -0.06519557076702338 
-0.02431281620761492 0.1126308403925113 -0.06519557076702338 
-0.02431281620761492 0.1126308403925113 -0.06519557076702338 
-0.02431281620761492 0.1126308403925113 -0.06519557076702338 
-0.06139663785029029 0.1181594420303384 -0.05695662011996359 
-0.06139663785029029 0.1181594420303384 -0.05695662011996359 
-0.1090216809104149 -0.01187568612156949 0.09106732771970165 
-0.07502834655915241 0.03668231328133140 0.05984498655868297 
-0.04872449372403525 0.1091651200952773 -0.07741342034880346 
-0.04872449372403525 0.1091651200952773 -0.07741342034880346 
-0.04872449372403525 0.1091651200952773 -0.07741342034880346 
-0.04872449372403525 0.1091651200952773 -0.07741342034880346 
-0.04872449372403525 0.1091651200952773 -0.07741342034880346 
-0.04872449372403525 0.1091651200952773 -0.07741342034880346 
-0.04872449372403525 0.1091651200952773 -0.07741342034880346 
-0.04872449372403525 0.1091651200952773 -0.07741342034880346 
-0.04872449372403525 0.1091651200952773 -0.07741342034880346 
-0.05926876766956585 0.09499986085347602 -0.06790944193378760 
-0.05926876766956585 0.09499986085347602 -0.06790944193378760 
-0.08872278888512325 0.2580746191974204 -0.1541726598869062 
-0.08492298193750142 0.2842346597430376 -0.2430122424585342 
-0.02513821190981097 0.04327046824996756 -0.006436504046872544 
-0.001582767957896585 0.07695450635304790 -0.05956413208708647 
-0.001582767957896585 0.07695450635304790 -0.05956413208708647 
-0.02467061418570387 0.2019439796761006 -0.1542019753167735 
-0.001582767957896585 0.07695450635304790 -0.05956413208708647 
-0.07972423810594995 0.1578127709836414 -0.1078187303589128 
-0.3073537044166723 0.03156281160501585 0.04882884043500835 
-0.1038231348173351 0.1061812886547710 -0.03143039380490458 
-0.1042676927636640 0.09994294623633758 0.007475631622440733 
-0.07972423810594995 0.1578127709836414 -0.1078187303589128 
-0.07972423810594995 0.1578127709836414 -0.1078187303589128 
-0.2263576610743117 0.3937750331887185 -0.3221919842410844 
-0.3258080365635497 0.9380111060277087 -0.8308174368030319 
-0.01884774871033901 0.05447923726073240 -0.04061440711562537 
-0.06337407552419898 -0.1009577459653077 0.1289743541403520 
-0.007583580522910409 0.01130666849431175 -0.01773864641900932 
-0.007583580522910409 0.01130666849431175 -0.01773864641900932 
-0.06828549342252248 -0.01003473461776473 0.04666666565847798 
-0.01627075036830059 0.04549109940562249 -0.04529507991886662 
-0.007583580522910409 0.01130666849431175 -0.01773864641900932 
-0.007583580522910409 0.01130666849431175 -0.01773864641900932 
-0.01905183581564058 -0.07464160445790383 0.06144218036235482 
-0.01142241543106293 0.06898461603782613 -0.06414923524417812 
-0.007583580522910409 0.01130666849431175 -0.01773864641900932 
-0.009888353838557316 0.04602202722210138 -0.03971553595324673 
-0.07261352298851659 -0.05369980173490652 0.1009277594460079 
-0.009888353838557316 0.04602202722210138 -0.03971553595324673 
-0.009888353838557316 0.04602202722210138 -0.03971553595324673 
-0.009888353838557316 0.04602202722210138 -0.03971553595324673 
-0.009888353838557316 0.04602202722210138 -0.03971553595324673 
-0.009888353838557316 0.04602202722210138 -0.03971553595324673 
-0.009888353838557316 0.04602202722210138 -0.03971553595324673 
-0.009888353838557316 0.04602202722210138 -0.03971553595324673 
-0.009888353838557316 0.04602202722210138 -0.03971553595324673 
-0.009888353838557316 0.04602202722210138 -0.03971553595324673 
-0.009888353838557316 0.04602202722210138 -0.03971553595324673 
-0.009888353838557316 0.04602202722210138 -0.03971553595324673 
-0.009888353838557316 0.04602202722210138 -0.03971553595324673 
-0.02439109215706714 0.09619994329478786 -0.08246721698589210 
-0.009888353838557316 0.04602202722210138 -0.03971553595324673 
-0.009888353838557316 0.04602202722210138 -0.03971553595324673 
-0.1398674687441804 0.2145418396959952 -0.04189578838219610 
-0.009888353838557316 0.04602202722210138 -0.03971553595324673 
-0.009888353838557316 0.04602202722210138 -0.03971553595324673 
-0.04287332371105160 0.1505371153943798 -0.1430679858010457 
-0.1289573520791159 0.4390190646857349 -0.2187523192693657 
-0.07260432845844329 -0.04196920080551576 0.1047474338634286 
-0.002369201604201477 0.009585443861771060 -0.0007388343691900616 
-0.002369201604201477 0.009585443861771060 -0.0007388343691900616 
-0.008512829420940410 0.05609395386596186 -0.02972449174306289 
-0.04037813995520116 0.1199502671229911 -0.08828723696002114 
-0.04037813995520116 0.1199502671229911 -0.08828723696002114 
-0.04037813995520116 0.1199502671229911 -0.08828723696002114 
-0.04037813995520116 0.1199502671229911 -0.08828723696002114 
-0.04662539070365201 0.06366807295618810 -0.03066525906730692 
-0.04037813995520116 0.1199502671229911 -0.08828723696002114 
-0.1419419710410183 0.3009120275995508 -0.2292582026338780 
-0.02501325752848159 0.04736395271139261 -0.04956300489755305 
-0.02501325752848159 0.04736395271139261 -0.04956300489755305 
-0.02501325752848159 0.04736395271139261 -0.04956300489755305 
-0.03565269835704632 0.1444234972423205 -0.1356884700250428 
-0.02829043102710842 0.1098802123973103 -0.1020066085971337 
-0.02501325752848159 0.04736395271139261 -0.04956300489755305 
-0.04198797606726237 -0.01821283016372472 0.01650979916314640 
-0.02501325752848159 0.04736395271139261 -0.04956300489755305 
-0.09937640195055725 0.1612870467205711 -0.1167915003329626 
-0.06812193424821318 0.2165850108679217 -0.1724957869969864 
-0.1635154032798457 0.09295034724442408 -0.05130065797426991 
-0.05410870592033101 0.1031884306711661 -0.07045605980891297 
-0.05410870592033101 0.1031884306711661 -0.07045605980891297 
-0.06666934626209575 -0.01762887275035679 0.08495169751678487 
-0.05488604990704133 0.1435642450317635 -0.1244992896779109 
-0.03653038337212369 0.07527206342844432 -0.04550002271229695 
-0.0006875092787103471 0.03943480331456275 -0.05663705622387641 
-0.0006875092787103471 0.03943480331456275 -0.05663705622387641 
-0.0006875092787103471 0.03943480331456275 -0.05663705622387641 
-0.02266350148542343 -0.003036161164311441 0.02532658270890944 
-0.01607336105197700 0.09506949381905215 -0.07423192180623478 
-0.2019001289536740 0.3388850563956856 -0.1771036258631339 
-0.04327890276950325 -0.1111137859078392 0.1910051224297658 
-0.003892446770519414 0.05663741177151550 -0.05970205959399788 
