solver_type L2R_LR
nr_class 3
label 1 -1 0
nr_feature 38594
bias 0.000000000000000
w
0 0 0 
0.7273171017481392 -0.4703251171213874 -0.6124481357790610 
0.1748068326921111 -0.1372801300772982 -0.2227436730853271 
0 0 0 
0.1335006677786341 -0.01951530109111190 -0.1051639980075805 
-0.7092206945030319 -0.03997923967326016 0.03776542182357393 
0.1221355077092368 0.0004895356593760311 -0.1428842777457640 
0.1309453890632507 -0.1069192279653564 -0.003388188651979973 
-0.4103212970318769 -0.1412943796777997 -0.02750104973073768 
0 0 0 
-0.3187714222154437 0.7490486920716366 -0.6476859622876140 
0.1737487270843516 -0.06567295210435486 -0.08534263618930624 
0.1764677835133836 -0.09053070308835275 -0.07106296334733125 
0.1764677835133836 -0.09053070308835275 -0.07106296334733125 
-0.1002389368662636 -0.1898733366785142 -0.2530489841480073 
0.1728546120869033 -0.1417071526473683 -0.01211409776437686 
0 0 0 
0.01888569309087000 -0.02975996139284312 -0.4724638080077398 
-0.08374042590800407 -0.1106620536583892 -0.3808996225369976 
0 0 0 
0 0 0 
0.1205003348693603 -0.06988065203854499 -0.03959494786912164 
-0.7074920032268376 0.1719054399890400 -0.1864083085647940 
0.1205003348693603 -0.06988065203854499 -0.03959494786912164 
-0.5042063572351576 0.2442904356548599 -0.2958510563937769 
0.04808934133663860 0.05592236933618414 -0.1009195107887891 
0.2811200554599705 -0.1739865478553745 -0.4132371551180575 
-0.02074948364910581 0.001933998023844540 -0.08936669635806457 
-0.9619909519257636 0.1583204176590940 0.05941356583408735 
0.1086008353428572 -0.1053650372598785 0.005143368979673897 
0.5967105197108388 -0.4016562821654928 -0.2520992561614015 
0.1205003348693603 -0.06988065203854499 -0.03959494786912164 
0.1205003348693603 -0.06988065203854499 -0.03959494786912164 
0.2651559425035023 -0.2067377750090080 -0.1371900707150575 
0.2748970422517438 0.1128577887456102 -0.5171200162973191 
-0.4867503492608696 -0.5258018568306614 0.2615489260688850 
0.03713236100789284 -0.3884434169527582 0.2157243974125465 
0.2131376196445685 -0.04718368312427283 -0.1039255007479185 
0.1212602859633704 -0.08570678895569249 -0.1010024312591927 
0 0 0 
0.08819209598148951 0.1059331500075832 -0.2523563515362751 
0.1609362308153566 0.04621963804073695 -0.4107272630153701 
0.1587339253082798 -0.006611969572781994 -0.1614736439491819 
0.1200404718721406 -0.07777262693115175 -0.05215805218708752 
0.1144447007148277 -0.0005919661481560964 -0.1219257718777749 
0.1200404718721406 -0.07777262693115175 -0.05215805218708752 
0.1039127648881700 -0.01178627527060757 -0.09743374089232065 
0.1200404718721406 -0.07777262693115175 -0.05215805218708752 
0.002865796112007402 -0.1078463711058777 -0.02174780406812554 
-1.171965087937907 0.4489681748612942 -0.02293579996264329 
0.2137781892284764 -0.06133984377766785 -0.1751966175581614 
-0.4630280185778191 0.4883886319139165 -0.4612023668267555 
0.3038742107094262 -0.1701262303717668 -0.1258304122684495 
-0.3585092878646199 -0.0001032295974172982 0.1529902169042506 
0.1645738451929991 0.07634515970163959 -0.3393969530950222 
-0.06318928102213009 0.1000963700003355 -0.1192136860412526 
0.1200404718721406 -0.07777262693115175 -0.05215805218708752 
0.5571134385455716 -0.5403802853170779 -0.2331506285444390 
0.4188981766052143 -0.2623192106863395 -0.05226760575239765 
-0.4354794412905367 0.2849553678942608 -0.3630028643243553 
0 0 0 
0 0 0 
0.02182934950873862 -0.5453016819465160 0.3465301019307420 
-0.1879264757025955 -0.1751472196455007 0.04529665948460081 
0 0 0 
0.3395411827208725 -0.2511701852398222 -0.1436571601147666 
0 0 0 
-0.02936613644691267 -0.2187686516382611 0.2795635665931592 
0.02023336555735284 -0.3577913643403173 0.2953413840360624 
0.3698907619014147 -0.1142772070605402 -0.3226073107392483 
0.1865352996511204 -0.08814002334387383 -0.06833376658952026 
0.06319301940200162 -0.3368228939101353 0.2601385482658923 
0 0 0 
-0.4256361449997091 -0.5682325855478574 0.4091875599515295 
0.1315144472390145 -0.03240918449367240 -0.09033150914947499 
-0.6370732150195233 -0.1440999627476682 0.01335144277139280 
-0.01154611480887908 -0.08204506117269317 0.1391599055760006 
0.2481685198669266 -0.2574146978824025 -0.07184646206257965 
-0.06414495482537151 0.4890911769342040 -0.4143968022673922 
0.1187719662995014 0.01110155545982712 -0.1220214133721961 
-1.310291872966954 -0.2303461023407942 0.6562959807039189 
0.1315144472390145 -0.03240918449367240 -0.09033150914947499 
0.1107563391726773 0.03683677288465954 -0.1505073695550460 
0.1315144472390145 -0.03240918449367240 -0.09033150914947499 
0.1315144472390145 -0.03240918449367240 -0.09033150914947499 
0 0 0 
0.1315144472390145 -0.03240918449367240 -0.09033150914947499 
0 0 0 
0 0 0 
0.03395786348500714 -0.09814241414252542 0.04104995944143045 
0 0 0 
-0.05042726018594557 -0.3258099824356905 0.2754212939872685 
0.2245381017275927 -0.2903254853316041 -0.06892542407388451 
0 0 0 
0 0 0 
0 0 0 
0.1298190181942966 -0.09277733821324882 -0.02008509970008290 
0.1766261567644466 -0.07568950502392010 -0.1527158011393995 
-0.2033558164496927 0.009816732918476439 -0.06153389148482890 
0 0 0 
-0.04259547337469526 1.200624259958257 -1.239964961564255 
0.1190183808450042 -0.2084992525862381 0.1306936593452396 
0.01269380505747229 -0.07423539857435035 0.006837964959441550 
0.05264726910792757 0.2367944883753434 -0.2632522539781523 
-0.3240550601538190 -0.1685004195135561 -0.005964266261735951 
0.1208690823127172 -0.1422548582379508 0.03801617872775461 
0.1298190181942966 -0.09277733821324882 -0.02008509970008290 
0.1298190181942966 -0.09277733821324882 -0.02008509970008290 
0.2334857563553072 -0.05834429066568761 -0.1194343602334743 
0 0 0 
0.1333303447237083 0.1291934014102464 -0.2024722815043712 
0.001028767097655157 -0.3604598733175248 0.3404969068150174 
0.1029981789827285 -0.1352181700815794 0.01309127719226577 
0.4721674897499631 -0.3563189185085182 -0.1196168950828057 
-0.4583323848876416 0.2241770414552440 -0.03665196803164099 
0.07439735184690752 -0.2942602175943829 0.2668618701680736 
-0.2082006380522901 0.7848507944215056 -0.6129699860575732 
0.1536311075670911 -0.04809695984399454 -0.07541158986689223 
0 0 0 
0.1504533626039944 0.04134245730884240 -0.1508203969345803 
0 0 0 
-0.06143081915494406 -0.03889085128167632 0.1696658553155208 
-0.06056166915692281 0.1097182234495776 -0.05166720035279805 
0.1302073859360689 0.1070754915579272 -0.2353506558428196 
0.1536311075670911 -0.04809695984399454 -0.07541158986689223 
0.1501485412314203 0.1411022618444601 -0.2088375808139485 
-1.055612714681130 -0.2724156841195706 0.4687966890878155 
0 0 0 
0.09115793543257930 -0.05125633662819815 -0.02956462750957474 
-0.04190972811920596 0.08530903669926895 -0.09589384643459582 
0.03942596359976616 0.6785404649825169 -1.108780505462551 
0.1678730297301152 0.3319119466184793 -0.3900081035968674 
-0.1076969433590261 -0.1261717076068467 0.1654625549942692 
0.09115793543257930 -0.05125633662819815 -0.02956462750957474 
-0.09660958723230600 0.1508756491816052 -0.08024185253479843 
0.06021114484333875 -0.03190607853797750 -0.04026212081828426 
-0.02724831157519766 0.1009115102461389 -0.1642857797002726 
-0.2363327456535334 -0.1252117681083470 0.1466909247248525 
0.09115793543257930 -0.05125633662819815 -0.02956462750957474 
0.009306125039135046 0.1796593197301842 -0.1868404047591402 
0.09115793543257930 -0.05125633662819815 -0.02956462750957474 
0.09115793543257930 -0.05125633662819815 -0.02956462750957474 
0.3216795208235788 -0.2480133185634492 0.01511259123734279 
-0.1771693618133930 -0.6144779391577334 0.5731584329097222 
0.09115793543257930 -0.05125633662819815 -0.02956462750957474 
0.1142252192545530 -0.4425130676405711 0.3618095830089967 
0.09115793543257930 -0.05125633662819815 -0.02956462750957474 
-0.2985086628552413 -0.04062449696940297 0.1634915639271775 
0.1383673138136159 -0.1200685954632149 -0.07622819201252912 
0.02330162732689751 0.05154259579591831 -0.07324884076845531 
0.09115793543257930 -0.05125633662819815 -0.02956462750957474 
0.07489497310359772 -0.09353648111893698 -0.01256315035247371 
0.04079767343173117 -0.1775159012913484 0.1019117374673726 
0.1181140534604574 -0.05032950594794840 -0.05635388858118367 
0.1181140534604574 -0.05032950594794840 -0.05635388858118367 
-0.3519938392351070 -0.2235656956690620 0.4181427756275803 
0.1181140534604574 -0.05032950594794840 -0.05635388858118367 
0.1181140534604574 -0.05032950594794840 -0.05635388858118367 
-0.04762295372046126 0.4442411640562967 -0.4109242606003822 
0.09665912066595328 -0.1065736181249292 0.007758241756203221 
0 0 0 
0.1181140534604574 -0.05032950594794840 -0.05635388858118367 
-0.1702766282153304 0.2205944329017092 -0.03509912208457565 
0 0 0 
0.1181140534604574 -0.05032950594794840 -0.05635388858118367 
0.07934197124516953 -0.003390559023559965 -0.07746993737309867 
-0.04649247968077604 -0.2212583407128200 0.1810634310942904 
-0.1850474731402591 0.2681394493483901 -0.1680991581690384 
0 0 0 
0.05051964349263467 0.04994243244674790 -0.2793396397016272 
0.1488128617420471 -0.1339563610613843 -0.1139232152837310 
0.1488128617420471 -0.1339563610613843 -0.1139232152837310 
0.1488128617420471 -0.1339563610613843 -0.1139232152837310 
0.1488128617420471 -0.1339563610613843 -0.1139232152837310 
0 0 0 
0.1488128617420471 -0.1339563610613843 -0.1139232152837310 
0.1488128617420471 -0.1339563610613843 -0.1139232152837310 
0.1488128617420471 -0.1339563610613843 -0.1139232152837310 
0 0 0 
0.02530493081141344 0.06779561731785913 -0.1413031724577236 
-0.1762882287137952 0.2391571728902685 -0.2154039760337740 
-0.09282343834643303 -0.1045607758817545 0.2763874316234100 
0.02229968852448029 0.3400388358712457 -0.3622935988979647 
0.7349122792392635 0.09050493335697482 -0.8291592355906482 
0 0 0 
0 0 0 
0.1199278926787028 -0.06276746300331851 -0.02557473663112646 
0.1874707910980715 -0.6638272756995602 0.1447369788816200 
0.1199278926787028 -0.06276746300331851 -0.02557473663112646 
-0.07965308145749674 -0.2770628413607552 0.2893241574994493 
-0.05307165803887984 -0.2702699165944762 0.2687894287827286 
-0.2909473239088917 0.1753737137929722 -0.3574354691073702 
-0.2778815408973848 0.4680173145016679 -0.3646939962989335 
0.2139966440325454 -0.2205060399884047 0.02908794488805098 
0.5071260822832642 -0.01433211303691207 -0.2717312611844356 
0 0 0 
0.1653386478653082 -0.08433206159602118 -0.03917621180668930 
0.1083009118849215 0.001442323461156402 -0.05733778906380517 
0.005015317855768682 -0.3338919460663736 0.3056937543991969 
0 0 0 
0.1576361625300394 -0.02871477357540904 -0.08473709797420195 
0 0 0 
0 0 0 
0.1653386478653082 -0.08433206159602118 -0.03917621180668930 
0.1653386478653082 -0.08433206159602118 -0.03917621180668930 
0.1653386478653082 -0.08433206159602118 -0.03917621180668930 
-0.001227315502684180 -0.06081800428110142 0.004177276334497959 
0.1653386478653082 -0.08433206159602118 -0.03917621180668930 
0 0 0 
0.1223693526351419 -0.07233491638120910 -0.01273914015713527 
0.08762680066672837 -0.07538027560238465 0.01342443953138441 
0.1223693526351419 -0.07233491638120910 -0.01273914015713527 
0.1028682881494512 -0.008606395437717546 -0.06191180864445996 
-0.1979949738582016 0.2243286293119879 -0.07351959561943024 
0 0 0 
0 0 0 
0.1223693526351419 -0.07233491638120910 -0.01273914015713527 
0.03141008562822093 0.1011744809560503 -0.1115726821892304 
0.02573613642454282 0.2494503396584122 -0.3235856610392808 
-0.3941728437622731 0.06856376282570859 -0.1034948252821717 
0.2240045306591666 -0.1281313732259008 -0.1236647062332743 
0.01708622076617675 0.2333243648538937 -0.3132571593573926 
0.1223693526351419 -0.07233491638120910 -0.01273914015713527 
0.2727217656260177 -0.01588682034996894 -0.3243932525746133 
0 0 0 
0.1819103976885135 -0.1274651555961064 -0.2229401052188502 
0.3670523162384258 0.07413478488240637 -0.3773050011905993 
0.04350044708061947 0.02727075506638328 -0.2044526610076195 
0.1124125142552960 -0.2172085351375408 -0.2194927475983423 
0.1707018525630120 -0.1089950792518764 -0.1001761687559284 
0.4875413672573112 -0.4560505123158931 -0.3323158001522829 
0 0 0 
0.08179796971349484 -0.01028241932118247 -0.04499342531774559 
-0.3893230116983974 -0.2821295918064304 0.5160618575114445 
0.06362087126919898 0.02628569746209522 -0.1028918606326330 
-0.07324704855733978 -0.1383237698963590 0.04765621109393279 
0.01525793319675779 0.09781633687144102 -0.1990442221904127 
0.09143144687502192 -0.1356472485891896 0.04571176731938498 
0.4142988472717027 -0.2988603532460011 -0.1552821537045844 
-0.2634484582136203 0.6282792591712460 -0.4846425598450115 
0.09005136878573193 -0.04173732733954570 -0.02975750803037499 
0.09005136878573193 -0.04173732733954570 -0.02975750803037499 
0.09005136878573193 -0.04173732733954570 -0.02975750803037499 
0.09005136878573193 -0.04173732733954570 -0.02975750803037499 
-0.01223461627335671 0.1245423412724009 -0.1304180438017142 
0.2386906950574383 -0.1207632556162363 -0.1561201788214119 
0.3636310558504350 -0.1026151948691296 -0.3015217816342709 
0.1031786751395984 -0.09525114768179580 -0.05819616850421225 
0.6452995435173537 -0.4937916192843644 -0.5365392504435921 
0.1031786751395984 -0.09525114768179580 -0.05819616850421225 
0.6331113176068786 -0.1239118472691685 -0.4877612955670334 
0.1031786751395984 -0.09525114768179580 -0.05819616850421225 
0.1953550819748057 -0.5584903326033358 0.2397169155577226 
0.3474692561601676 0.08856458194790280 -0.5620992246187950 
0.05416016021068478 -0.1983685003072441 -0.03425162065170300 
0.1212522433816649 -0.08810985600290515 -0.1261707930106023 
0.03749372915190547 -0.5421341425816660 0.1425049518297602 
-0.5522510497040568 0.3458940075672783 -0.04486119308402611 
0.02220764173627337 0.2243192301582987 -0.07431287189784475 
-0.01919980556206903 -0.6311035134214988 0.3527485044672994 
0.1381599444108289 -0.08325604455953324 -0.04053197389482189 
0.1381599444108289 -0.08325604455953324 -0.04053197389482189 
0 0 0 
-0.02686621461123660 0.1604564266085953 -0.2306532662548270 
0 0 0 
0 0 0 
0.1364545231737236 -0.01534107273625813 -0.1379681733984288 
0.1105238393674216 -0.7033408586469734 0.5464760891715019 
0 0 0 
0.1381599444108289 -0.08325604455953324 -0.04053197389482189 
0 0 0 
0.1248289173199555 -0.06897126320915016 -0.04280060587380051 
0.3981429214658720 -0.1012860505784967 -0.2411498543225771 
0 0 0 
0.1381599444108289 -0.08325604455953324 -0.04053197389482189 
0.4168836981196694 -0.1826026120187836 -0.1488615749248854 
0.1381599444108289 -0.08325604455953324 -0.04053197389482189 
0.08122852833897964 0.2673119954310505 -0.4187840470990650 
0 0 0 
0.2254997357734112 -0.1345781454708544 -0.1928184233676165 
0.1838337388372856 -0.09235360344061504 -0.07367236008136199 
-0.2001273846095173 -0.2310301016343890 0.3037829518709211 
0.1838337388372856 -0.09235360344061504 -0.07367236008136199 
0 0 0 
0.2566607288262067 -0.1400621911710001 -0.08600714055347561 
-0.2933665082979531 -0.2376309244841418 0.2824013501504532 
0 0 0 
0 0 0 
-0.04950023795532411 -0.2456724867241580 0.2270498727621974 
-0.03472191337018042 -0.4152070162219474 0.4122020322247634 
0.2825022651013219 0.01074566320831539 -0.5554315612627762 
0.5079849490076409 0.009006570837904243 -0.3054133531792649 
0 0 0 
0.03223003978698154 -0.1353818939534975 0.1714903084225530 
0.06881067676663997 -0.01027727555179599 -0.06583667480690275 
0.06881067676663997 -0.01027727555179599 -0.06583667480690275 
0.2030814305029065 -0.06815648432699849 -0.1169637699303289 
0.4703279011457092 0.2188330589978789 -0.5465810041948751 
0 0 0 
0.06881067676663997 -0.01027727555179599 -0.06583667480690275 
-0.2234425016511930 -0.4852161313966578 0.4414562010165910 
-0.06929475339482288 -0.02133902304101220 -0.01666040600162709 
0.1109782497909811 -0.2817817415386501 0.1819557930888720 
0 0 0 
0.2949842833205671 -0.2149048656804360 -0.1746596925483389 
0.3049593650929748 -0.2446685098214188 -0.1619483288160697 
0 0 0 
0 0 0 
0.1337929620192564 -0.05199491990225311 -0.05372095375187403 
-0.2964372782491350 -0.3645418241607826 0.1821232927466162 
-0.5560144732901885 -0.01440845262258760 0.2335211650309094 
-0.1371013994580957 0.1377349946376713 -0.1095893697962300 
0 0 0 
-0.2044440851049491 -0.2246284789548192 0.1381148359340596 
-0.1348653869061292 -0.8480370657011514 0.5537264231945543 
0.1337929620192564 -0.05199491990225311 -0.05372095375187403 
0.02432087562715456 -0.2505122259074916 0.2591594130799111 
0.07209809601957683 -0.1594828381248727 0.1839769567827699 
0 0 0 
0.004604512678021084 0.1078157765067260 -0.05562063166496958 
-0.0004940578898949357 0.3879337741876637 -0.3815467309609509 
0.2144380600298002 -0.2285765220554138 0.04892043394870809 
0.06140352157667094 -0.06673543399112470 -0.02097409243717285 
0 0 0 
0.06140352157667094 -0.06673543399112470 -0.02097409243717285 
0.1969180876529112 -0.1328112275671337 -0.08145829462967209 
0 0 0 
0 0 0 
0.2066876889935018 -0.07224908063495965 -0.09154138099651240 
-0.5711942142327032 0.09469722028033521 -0.06189580470611798 
0.2108856185092312 0.1915276421831088 -0.3134276498577263 
0.2123850214856985 0.1049916202902737 -0.2615219084450696 
0.1679156067782140 -0.02531013371057122 -0.1126574297884274 
0 0 0 
-0.04172386340240491 -0.5248110288962324 0.4096538276599377 
0 0 0 
0.01521508570171747 -0.2185541287137528 0.1900415538040284 
0.1506786838619317 -0.1536368140526252 0.02561261154477253 
0 0 0 
-0.1309473033870098 0.5119409780642361 -0.4019863941102106 
0.1853771119955948 -0.09849801479149871 -0.05239446568008538 
-0.4754974792717451 0.1740033773079762 -0.01034052952373710 
0.3219101967493772 0.2823883769417765 -0.4945043814648616 
0 0 0 
0 0 0 
0.1340701417271752 0.06935117285794143 -0.1656881709114685 
0.1736865698308941 0.009352691068247404 -0.1133291825709193 
0.1853771119955948 -0.09849801479149871 -0.05239446568008538 
0.1853771119955948 -0.09849801479149871 -0.05239446568008538 
0.1853771119955948 -0.09849801479149871 -0.05239446568008538 
0.1853771119955948 -0.09849801479149871 -0.05239446568008538 
0.04661938144324990 -0.1040484655003138 0.04263657146923041 
0.04661938144324990 -0.1040484655003138 0.04263657146923041 
-0.1399726997072902 0.4870032778758878 -0.3516034860251389 
0.04661938144324990 -0.1040484655003138 0.04263657146923041 
0.2118811672812219 -0.05166761183061513 -0.1995699511197998 
0.1659968629239921 0.07630594269767650 -0.2342358459988705 
0.1135348763225856 -0.2698213057477093 0.1302996678933677 
0.1914732751468340 -0.3771917164846395 0.1844203495852122 
0 0 0 
0.3133572121751312 0.1840276631484852 -0.4654693625942841 
0 0 0 
0.04458924222461014 -0.07326377587857362 0.02248478492543484 
0.1414390501554548 -0.02780679042827557 -0.07486912280865474 
-0.09709189668543243 0.1291360713023565 -0.1160558745630734 
0 0 0 
-0.3195112080790760 -0.2883009269223364 0.4092086020107277 
0 0 0 
0.1292056076583065 0.2211478621709004 -0.3171317839543697 
0.3374233122136540 -0.3872507781750283 0.2371257706314160 
0.1333419236980799 0.1194163186992689 -0.1919750567045791 
0 0 0 
0.1414390501554548 -0.02780679042827557 -0.07486912280865474 
0 0 0 
0 0 0 
0 0 0 
0.2558878689884195 -0.08868183382215766 -0.1219327515727583 
0.2019479798018149 -0.1323119806787531 -0.03415289847451618 
0 0 0 
0 0 0 
0 0 0 
-0.05528110689953147 0.04318533709174969 0.01786758107514401 
0 0 0 
0 0 0 
0 0 0 
0 0 0 
0.2032326645121108 -0.1961841813274849 0.1023488681954397 
0 0 0 
0.2558878689884195 -0.08868183382215766 -0.1219327515727583 
0.2523496945927843 -0.2028939974152594 -0.2151466096748660 
-0.1280120447479962 0.2908119553814390 -0.1941883898041106 
0.08535266088622138 -0.07369011300488270 -0.02438156385484101 
0.01399984133905366 -0.05277751217587528 0.03330058437643617 
0.08535266088622138 -0.07369011300488270 -0.02438156385484101 
0.2166691863167631 -0.1292963571836239 -0.3181565008070550 
0.3874803585063397 -0.2815294466268954 -0.1017344035449379 
0.08535266088622138 -0.07369011300488270 -0.02438156385484101 
0.06370915363897817 -0.05754566283949879 -0.01943337610689449 
0.08535266088622138 -0.07369011300488270 -0.02438156385484101 
0.2404863478315838 -0.1289970070594495 -0.1402955296347502 
0.6221658535833697 -0.4113859013035105 -0.2802790864423380 
0.08535266088622138 -0.07369011300488270 -0.02438156385484101 
-0.3688082357049752 0.7523138842751097 -0.6090763696018106 
-0.1918899141666838 0.1141268869677374 -0.02509919689705388 
-0.1880203664247829 0.05967040052622202 0.1403842970732001 
0.1072936623268051 -0.1990443075921740 0.07437661728448007 
0.08630773161060308 -0.09625149952623563 -0.02469359510776514 
0.06441433099749778 -0.2231406328760714 0.1187695065997623 
-0.05420898504083448 -0.2877272748143507 0.1423617995092834 
0 0 0 
0.1390796950521753 -0.1066707081222451 -0.03608039711203773 
0.1517111434409293 -0.4472898805367226 0.3187945541708744 
0.1479732762778295 -0.04717823928329579 -0.09838350095979138 
0 0 0 
0.1479732762778295 -0.04717823928329579 -0.09838350095979138 
0.1090055966291173 0.1518069671072190 -0.2324461830399666 
0 0 0 
0.2736409700969431 -0.1441145725247968 -0.01794807482242659 
0 0 0 
-0.3476806866495086 0.2599101769012379 -0.06055267729680166 
0 0 0 
0.1121617248617612 -0.1290187854434491 -0.002707142870731313 
0.1248289173199555 -0.06897126320915016 -0.04280060587380051 
-0.1485378436411272 -0.2377253468062388 0.1164298509696563 
0 0 0 
0 0 0 
0 0 0 
0 0 0 
0 0 0 
0.1325603207169796 -0.5249137115444419 0.2462569332296003 
-0.2712632978405342 -0.06116235047369690 0.1504357702872292 
0.09054450054622927 -0.1559475358199302 0.06322669342569119 
0 0 0 
0.08319633879655500 -0.03850847738503169 -0.04916977822342932 
0.08319633879655500 -0.03850847738503169 -0.04916977822342932 
-0.2748279427246189 0.3311330689120729 -0.2020067554042213 
0.03077990198280709 -0.1379256097140249 0.07002917282581612 
0.03922301750561270 -0.3251960081820909 0.2916596771024065 
0 0 0 
0.05310504184168608 -0.06620363366522840 0.001358902348351841 
-0.06903927848339719 -0.2022898178444609 0.1229773290788326 
0.08319633879655500 -0.03850847738503169 -0.04916977822342932 
0.03566309687397871 -0.04319623896181322 -0.02406643412729856 
0.06746713952219888 0.1321345629369877 -0.1958034692667629 
0 0 0 
1.201158091451180 -0.6979716158456778 -0.9014407021164523 
0.4066346496213409 -0.3775156771886106 -0.3670090965682044 
-0.3108673018979642 0.5005740419621287 -0.2132625632500188 
0.2850468974703547 0.4146956149797644 -0.7357178183309055 
-0.09553242562076719 0.1562326102980347 -0.1534886202708972 
0.09377935388600642 -0.2093561934769580 0.04665499509924850 
0.06093779453393795 0.01430085794440244 -0.1771912320221678 
0.2126713612089414 -0.1098785092545814 -0.3442865316409073 
-0.006467398962890175 -0.08535310800082405 0.05086575656366508 
-0.1276967008361925 0.2161289015929515 -0.2279759550887536 
-0.005840932133527776 -0.05242772205506571 0.01735122641821632 
0.1055770760320636 -0.03226450075838590 -0.06035460766491842 
-0.4101699269201568 -0.1723586388349650 0.3152549870897000 
0.1055770760320636 -0.03226450075838590 -0.06035460766491842 
0.2125103322777764 -0.1836245802091332 -0.02475588729694278 
0.08576829631890492 -0.1297939337318314 0.04022372985339779 
-0.1225908627590168 0.1653667208688596 -0.1217557913778833 
-0.2817480194751702 -0.6880799238416341 0.7905197371632341 
-0.02935013081086001 0.1023916443763269 -0.1066756455286654 
0 0 0 
0.004174178729781266 0.2030193804159017 -0.2006446669314972 
0.09603724212960640 0.07698331649350977 -0.1706051822064618 
0.1055770760320636 -0.03226450075838590 -0.06035460766491842 
0.08832775986432200 -0.1158292877107282 0.04070692897132971 
0 0 0 
0.09797580394381836 -0.04069162801999098 -0.04666352502932002 
0.09797580394381836 -0.04069162801999098 -0.04666352502932002 
0.09797580394381836 -0.04069162801999098 -0.04666352502932002 
0.09797580394381836 -0.04069162801999098 -0.04666352502932002 
0.4551424063690211 -0.08943634055652284 -0.4383505548055511 
0.2082526087137165 -0.1202164922937702 -0.05216913945479083 
-0.08688617554498901 0.3801913427972807 -0.3647479605623527 
0.008933859446662213 0.03825887030018894 -0.03717111722607673 
0.09797580394381836 -0.04069162801999098 -0.04666352502932002 
-0.1363127640665385 0.1173408056632028 -0.0005914477443021215 
0.09797580394381836 -0.04069162801999098 -0.04666352502932002 
-0.02386693987346776 0.01220024151010267 0.02252073786682903 
0.09797580394381836 -0.04069162801999098 -0.04666352502932002 
0 0 0 
0 0 0 
0 0 0 
0.2086525808765644 -0.2382793349161518 -0.1814028722514091 
0.2086525808765644 -0.2382793349161518 -0.1814028722514091 
0.2086525808765644 -0.2382793349161518 -0.1814028722514091 
0 0 0 
0 0 0 
-0.1739976155625957 -0.3570916729879160 0.3372330994239193 
0.08367341225582962 -0.07522356928594826 -0.05114345775519714 
0.1616698032248009 -0.1074348830135526 -0.07927287001461596 
0.1500117499793398 -0.1367755741089122 -0.03305426896696290 
0.1616698032248009 -0.1074348830135526 -0.07927287001461596 
0.04954536409730819 -0.3781149881399044 0.2394179666825261 
0.1541618857808541 -0.04916613566101739 -0.07111078122515277 
0.1541618857808541 -0.04916613566101739 -0.07111078122515277 
0 0 0 
0.07088812183102051 0.03394473000683480 -0.07346344460689105 
0.1541618857808541 -0.04916613566101739 -0.07111078122515277 
0.1451650085681696 0.02905043374008054 -0.1644067008299292 
0 0 0 
0.08173649505578690 -0.2915712822149577 0.1071079100099380 
0 0 0 
-0.4130450805736163 0.5392388064811210 -0.4164130034122016 
0.3919296724931025 -0.2361868288579637 -0.1377891551184681 
0.1541618857808541 -0.04916613566101739 -0.07111078122515277 
0.1428308285539810 -0.1158143332222592 -0.01249200087075330 
0 0 0 
0.1768087448103783 -0.2330837770101479 0.08002568888777033 
0.1086518206985907 -0.04725076429801431 -0.05424019392361597 
0 0 0 
0 0 0 
0.1086518206985907 -0.04725076429801431 -0.05424019392361597 
0.1086518206985907 -0.04725076429801431 -0.05424019392361597 
-0.1587752763585025 -0.02347493679531732 -0.02060936750435796 
0 0 0 
0.1086518206985907 -0.04725076429801431 -0.05424019392361597 
0 0 0 
0.08735346773707724 -0.02503269968609858 -0.1014152673091883 
0.07941640313771381 -0.07096612764303217 -0.05073793547232898 
0.4617487212375124 0.1564091775633893 -0.5990048927003507 
0 0 0 
0.1464005962707343 -0.1207641966054720 -0.03173411784021269 
0.05996109121233136 0.03661673705664333 -0.07806846717402796 
0 0 0 
0.1042197485670109 -0.03955696186026218 -0.1514837994988053 
0.07278258473885577 -0.1073408376431296 -0.07668932783328385 
0.03176544734308033 0.1660177805250240 -0.1763003270139095 
0 0 0 
0.05684107278052801 -0.04007707122447169 -0.04140986971523700 
-0.04608941971047231 0.08017067961328742 -0.1437611009060604 
-0.02077486565551556 -0.01816563908660237 -0.1001555052895210 
0.05684107278052801 -0.04007707122447169 -0.04140986971523700 
0.05684107278052801 -0.04007707122447169 -0.04140986971523700 
-0.1300983732041818 -0.1362478988134847 0.09004662803342142 
-0.1316331762255647 0.1763132083434661 -0.1770038645099358 
0.05684107278052801 -0.04007707122447169 -0.04140986971523700 
0.05684107278052801 -0.04007707122447169 -0.04140986971523700 
0.05684107278052801 -0.04007707122447169 -0.04140986971523700 
0.05684107278052801 -0.04007707122447169 -0.04140986971523700 
0.04014101697487171 -0.2731610260997409 0.04381274870731501 
0.05684107278052801 -0.04007707122447169 -0.04140986971523700 
0.2761525066750026 -0.03884887389474303 -0.2725053789508993 
0.1156831362424198 -0.04102709251092997 -0.05751458509464475 
0.04827456378587018 -0.1750466136165849 0.1048874929814119 
0.1280896317823732 -0.3767885339195538 0.3141383633506921 
0.1156831362424198 -0.04102709251092997 -0.05751458509464475 
0.1156831362424198 -0.04102709251092997 -0.05751458509464475 
0.1156831362424198 -0.04102709251092997 -0.05751458509464475 
0.1156831362424198 -0.04102709251092997 -0.05751458509464475 
0.3614788642916571 -0.3206107631715637 -0.07785553806552149 
0.1156831362424198 -0.04102709251092997 -0.05751458509464475 
0.1013143517450907 -0.09046419441234856 0.01837770333484634 
0.1156831362424198 -0.04102709251092997 -0.05751458509464475 
0 0 0 
0.1480897626487190 -0.05072203919172535 -0.05736303510391257 
0 0 0 
0.1480897626487190 -0.05072203919172535 -0.05736303510391257 
0.09075360187144016 0.01324683223239695 -0.09010008892005505 
-0.3034098282145515 0.4411137518206381 -0.3364352572407294 
0.1023569069619775 -0.09410639362422288 0.008943694869075832 
0 0 0 
0.1330297301978366 -0.2012759480859808 0.1127051821815753 
-0.2872278383042671 -0.1594410255664321 0.3201515320289461 
-0.1772194048075362 -0.7393416641812969 0.6961029628964541 
-0.1235424293633327 -0.1365290977541365 -0.1336296809451566 
0.03818793922955165 0.1196758742648920 -0.1818709705489900 
0 0 0 
-0.03041968256183268 0.2371133939219060 -0.2280402238075896 
0.1073733118972101 -0.02384979285532719 -0.05083567876749229 
0.09124560491323949 0.04213655880521700 -0.09611136747272545 
0 0 0 
0.1007709839516091 -0.08581580558180615 0.03968900736128709 
0.1073733118972101 -0.02384979285532719 -0.05083567876749229 
0 0 0 
0.1073733118972101 -0.02384979285532719 -0.05083567876749229 
0.08082705638027331 -0.04278987330719551 -0.03906773443726621 
0.09297936454126922 -0.08419495070768863 0.01493368741821161 
0.007048724934624954 -0.2762844356307076 -0.1864087601319628 
0 0 0 
0.03496939670818673 0.01738620227461128 0.01129906515489409 
0.06114300844392226 0.1504918364285444 -0.1743989382969018 
0.1073733118972101 -0.02384979285532719 -0.05083567876749229 
0.1073733118972101 -0.02384979285532719 -0.05083567876749229 
0 0 0 
0 0 0 
-0.01325362827072357 0.1380996938462540 -0.1675910749884588 
0.1980790797300252 -0.1418101057138865 -0.06447247946830482 
0.4749526787985924 -0.2787218945471301 -0.1203447803265116 
0 0 0 
-0.08418239988825227 -0.3872127323404030 0.4664608980824496 
0.2381409802687698 -0.1413691100997458 -0.08291385873992274 
0 0 0 
0.09592221628627072 -0.06759030951277889 -0.02889774212062263 
0.2549560073083221 0.02988125161756516 -0.1674625701055018 
0.1234844784613386 -0.06476589785688561 -0.03735728545286474 
0.1234844784613386 -0.06476589785688561 -0.03735728545286474 
0.02204298742397495 -0.07951358687242388 0.04068361074989951 
0.1072214900407979 -0.1568402635094108 0.05150895043853835 
-0.07862272481421483 -0.2539052234906395 0.1424689358348132 
0.04404427378229754 0.07132256983162485 -0.07655446053439556 
0.05088318353369265 -0.2296975296134839 0.1515049820904734 
0.1236207340295673 -0.06494976774577048 -0.02933628828949438 
0 0 0 
0.1063714178618257 -0.1485145546981127 0.07172524834675374 
-0.04229664373063952 0.2111338284759711 -0.1222241929533613 
0.1236207340295673 -0.06494976774577048 -0.02933628828949438 
0.1236207340295673 -0.06494976774577048 -0.02933628828949438 
-0.1343568736686611 -0.04693103331268028 0.09903239120829506 
-0.5869015525130229 0.3107497477812546 -0.2830018077318077 
0 0 0 
-0.006270996023096585 -0.1867560843842833 0.2026629530647902 
0.1236207340295673 -0.06494976774577048 -0.02933628828949438 
0.1236207340295673 -0.06494976774577048 -0.02933628828949438 
0.1065596922524655 -0.05369128590473759 -0.09748061037602085 
0.1082808428237800 -0.08424475062929820 -0.07553446490944359 
0.1082808428237800 -0.08424475062929820 -0.07553446490944359 
-0.04803617225677887 -0.1824344320883831 0.1307643122509958 
0.07376081972124230 -0.1257648922141851 -0.03947887114204122 
0.07333544850229806 -0.1625584525134129 0.02402730080400430 
0.1879502929901930 -0.04876887960904982 -0.1068817393495339 
0.01518128543607865 -0.06026360495854866 -0.04426446474269935 
0 0 0 
0.1342707537362665 -0.05787920877520251 -0.05112709512342616 
0 0 0 
0.009101840468905371 0.04068148088465512 -0.04757396580465748 
0.1272889126966557 -0.1023120677069217 -0.002131346579996124 
0.07406622209846793 -0.09910324084904232 0.03237849842339154 
0 0 0 
0 0 0 
-0.1282210385440447 0.1456012767682545 -0.1420503881063711 
-0.04210106605303133 0.08539665475851603 -0.1540349257547858 
0.2608406877925842 -0.06281798553839667 -0.1370445377073913 
0.3008257806046658 0.08842880930438374 -0.4159613645356705 
0 0 0 
-0.3157351955973014 0.05222167419440057 0.1810725336567789 
0.3296536189539454 -0.05868304680808444 -0.4377826810413692 
0.08846159761272537 0.07874247616153539 -0.2053827568688232 
-0.05258237131031698 -0.5199890249381834 0.5142013668678175 
0.1566960929605788 -0.1968241017151219 -0.09689433581299038 
0.1566960929605788 -0.1968241017151219 -0.09689433581299038 
-0.7712987338498840 0.1908932992293487 0.08321285768680096 
0.1600230014909850 0.06491660771461705 -0.1745909438494737 
0.1739771457981786 -0.06984050708584530 -0.06795966463295122 
0 0 0 
0.03120443518580350 -0.4784822066071580 0.4856510837554344 
-0.1654964761398436 0.3636897284919975 -0.3690727126692369 
0 0 0 
0.1297413960140207 0.08153363979926986 -0.2440140599757736 
0.1170547049187863 0.03107355083374923 -0.1110094627514844 
0.1739771457981786 -0.06984050708584530 -0.06795966463295122 
0.1913529662495540 -0.2172151308382254 0.04342339539451273 
0 0 0 
0.1237461058206311 -0.3628181775059587 0.09276317502389991 
0.1020156840347998 -0.07548132952117531 -0.03674244988435258 
0 0 0 
0 0 0 
0.1020156840347998 -0.07548132952117531 -0.03674244988435258 
-0.01427343115420329 0.2245333652692451 -0.2033183225323516 
0.1020156840347998 -0.07548132952117531 -0.03674244988435258 
0.1020156840347998 -0.07548132952117531 -0.03674244988435258 
0 0 0 
0.1020156840347998 -0.07548132952117531 -0.03674244988435258 
0 0 0 
-0.1002283023448992 0.2034669595703089 -0.07605886585848545 
0 0 0 
0.3623496343452929 -0.2334558735297113 -0.2258276180889834 
0 0 0 
0.2009588316149277 -0.09297650986258277 -0.07366383056194943 
0 0 0 
0.2009588316149277 -0.09297650986258277 -0.07366383056194943 
0.01724308956406250 -0.05204750236378994 -0.02098076758574879 
0 0 0 
0.1592993912051343 -0.07092687663290004 -0.07382361344968422 
0.1592993912051343 -0.07092687663290004 -0.07382361344968422 
0.1592993912051343 -0.07092687663290004 -0.07382361344968422 
0.1066216623363416 -0.03029057621309073 -0.09193268784847103 
-0.3429379817660859 0.2034559059129639 -0.1047799839970071 
-0.3585552826365704 -0.3455484160090434 0.4876561925926872 
0.06168809664070238 0.1445053904898063 -0.1687925299154629 
0.1592993912051343 -0.07092687663290004 -0.07382361344968422 
0.1592993912051343 -0.07092687663290004 -0.07382361344968422 
-0.03928672939408433 -0.2222695144733804 0.2069344721282709 
0.1042808674102118 -0.009013574008137085 -0.07054343376148540 
-0.02491958253558390 0.3403858192625709 -0.4055776247388904 
0 0 0 
0 0 0 
0.05542517641051666 0.005390431815151823 -0.08012927139816836 
0.1478374170828807 -0.1700599013435513 0.03594938348414312 
0.1192991306216628 0.06996292539645804 -0.1158432748776431 
0 0 0 
0 0 0 
0.1157213225295906 -0.06624026109593000 -0.03059184898288609 
0 0 0 
0.09334347990931426 0.07975910773908329 -0.1141482329971757 
0.1157213225295906 -0.06624026109593000 -0.03059184898288609 
0 0 0 
0.1157213225295906 -0.06624026109593000 -0.03059184898288609 
0.1157213225295906 -0.06624026109593000 -0.03059184898288609 
-0.1530024631341803 -0.007575791311046484 0.001203713920250896 
0.1157213225295906 -0.06624026109593000 -0.03059184898288609 
0 0 0 
0.1157213225295906 -0.06624026109593000 -0.03059184898288609 
-0.04572795557818318 -0.3780219861439336 0.3187170993278601 
0.1017504160665048 -0.1123105827386651 0.02854970578932061 
0 0 0 
0 0 0 
0.03450708280645694 0.04507083365825178 -0.1509637778690668 
0.1567582282478652 -0.08333277144528703 -0.07466115796961940 
0.1567582282478652 -0.08333277144528703 -0.07466115796961940 
-0.1021345068406408 0.1636235633193111 -0.08173314374942944 
0.1567582282478652 -0.08333277144528703 -0.07466115796961940 
0.1219237311621278 -0.1694975534304508 0.02313321898286540 
0.1159539310010323 -0.02966432319616251 -0.1051981060885724 
0.1288854891033890 0.001926559822981932 -0.1367644862875760 
0 0 0 
0.1021568634437545 -0.07421979620110758 -0.03557473734768220 
0.1021568634437545 -0.07421979620110758 -0.03557473734768220 
0.04511912746336780 0.01155458885607001 -0.05373631460479807 
0.05368493199031212 0.1440684335653440 -0.2215469595494954 
0 0 0 
0.08732666586802443 -0.1436995424025706 -0.03272525353375896 
0.1021568634437545 -0.07421979620110758 -0.03557473734768220 
0 0 0 
0.03764282271001525 0.03443310359126304 -0.1153350670327461 
0 0 0 
-0.04432751332965490 -0.08566606467379172 0.2143253432023193 
0.1021568634437545 -0.07421979620110758 -0.03557473734768220 
0 0 0 
0.06417709460228459 -0.3982881611989192 0.2209834252365741 
0.1884065914526640 -0.2391615167011941 -0.1620214722554510 
0.2336946611308800 -0.1950263843713642 -0.2670987084579015 
0.09493802639136546 -0.1736054775478208 0.06592476462213215 
-0.01678228643843125 -0.2659177777660797 0.2107911589033859 
0.02878785534885166 -0.1309781122790112 0.04128398093887705 
0.1641481753318472 -0.1078180696964736 -0.06666676487841565 
0.02769054202984344 -0.2707306539267914 0.2100047096686954 
0.2540142521402328 -0.2108010345425050 -0.2315602034618150 
0.2376516735830248 -0.2874003251160981 -0.1512946735226572 
0 0 0 
0 0 0 
-0.02529979582684912 -0.04302490185225074 0.06990482014585789 
0 0 0 
0.4870851411120962 -0.2588325572658860 -0.3260123032156972 
0 0 0 
0 0 0 
-0.07700727365205148 -0.1073253861144232 0.1309633707285613 
-0.02891355527976958 -0.05232763867286392 0.06155523216242184 
-0.1007191544989930 0.2632173188694998 -0.2016460605337235 
0.07274699368688492 -0.02382018567952415 -0.04275674127443529 
0.07274699368688492 -0.02382018567952415 -0.04275674127443529 
0.07274699368688492 -0.02382018567952415 -0.04275674127443529 
0.07274699368688492 -0.02382018567952415 -0.04275674127443529 
0.07274699368688492 -0.02382018567952415 -0.04275674127443529 
0.07274699368688492 -0.02382018567952415 -0.04275674127443529 
0.07274699368688492 -0.02382018567952415 -0.04275674127443529 
0.07274699368688492 -0.02382018567952415 -0.04275674127443529 
0.1258117527897953 -0.01066559846185495 -0.1228000272771708 
0.1361840710460344 -0.07996783695814032 -0.05321039764016043 
0.1361840710460344 -0.07996783695814032 -0.05321039764016043 
0.1361840710460344 -0.07996783695814032 -0.05321039764016043 
0.1361840710460344 -0.07996783695814032 -0.05321039764016043 
0.1361840710460344 -0.07996783695814032 -0.05321039764016043 
0.1048760509779156 -0.008424897246643255 -0.07566063669496126 
0 0 0 
0 0 0 
0 0 0 
0.2287869800848130 -0.1336285171163888 -0.07342663678164302 
0 0 0 
0.2287869800848130 -0.1336285171163888 -0.07342663678164302 
0 0 0 
0.2332880374114190 0.1732495103996460 -0.3891314281446950 
0.1857735313628495 -0.1144583956099709 -0.03599547572951686 
0.2287869800848130 -0.1336285171163888 -0.07342663678164302 
0.2287869800848130 -0.1336285171163888 -0.07342663678164302 
0 0 0 
0 0 0 
0 0 0 
0 0 0 
0.1880759289394455 -0.1237304767793166 -0.1562993158506752 
0.1880759289394455 -0.1237304767793166 -0.1562993158506752 
0.08731637692369565 0.02777979805287216 -0.2571018761281645 
-0.1295090957452851 -0.4554466604615548 0.2404807651967178 
0 0 0 
0.08944824930887828 -0.04798959500450938 -0.03017315221101100 
0.08944824930887828 -0.04798959500450938 -0.03017315221101100 
0.04624574748859620 0.3923101243242742 -0.5608453071135348 
0.06182101804055936 0.05395755068161923 -0.1306028324049598 
0.1454778195319246 -0.3093637667142231 0.2246719509476131 
0 0 0 
0.08944824930887828 -0.04798959500450938 -0.03017315221101100 
0.05142888657630452 -0.1192524368600420 0.07668136769304407 
0.08944824930887828 -0.04798959500450938 -0.03017315221101100 
0.08084801849537424 -0.07320397268647964 -0.001820236413614000 
0.08944824930887828 -0.04798959500450938 -0.03017315221101100 
-0.05879631159228842 -0.01953860721445742 -0.004863319684009955 
-0.1155891258004054 0.002653587717837888 0.2019896667809747 
0.3268200098169358 0.2649016095522148 -0.4508564175530424 
0 0 0 
0 0 0 
0.2725335508149126 -0.01061465046524840 -0.1887331416888765 
0 0 0 
0 0 0 
0 0 0 
0.1486393262717063 -0.07902592827669055 -0.1263626707910369 
0.1486393262717063 -0.07902592827669055 -0.1263626707910369 
0 0 0 
0 0 0 
0 0 0 
0.3433897858821383 -0.2611568311715810 -0.2995690771968118 
0.1486393262717063 -0.07902592827669055 -0.1263626707910369 
0 0 0 
0.4861120159954595 -0.4487260567174771 -0.1134982374354073 
0.1486393262717063 -0.07902592827669055 -0.1263626707910369 
0 0 0 
0 0 0 
-0.04028719933769030 -0.05296459161291185 -0.03238230286033299 
0.1218495087744835 -0.06140327559353574 -0.1506498471153056 
0.3165999683849154 -0.2435341784884262 -0.3238562535210805 
0.1218495087744835 -0.06140327559353574 -0.1506498471153056 
0.1218495087744835 -0.06140327559353574 -0.1506498471153056 
0.1218495087744835 -0.06140327559353574 -0.1506498471153056 
-0.1376090143382345 -0.02072786581343266 0.05342198573861415 
0.05244773819703342 0.1691021986916899 -0.2124470352015550 
0 0 0 
-0.3621642024200200 -0.1494028880836864 0.2962215900312576 
0.07940546375230025 -0.1298606901705654 0.009779930104351810 
0.1252676887931999 -0.04228480620019324 -0.08015139004542089 
0.3714385070687430 -0.3067216921507979 -0.2448001301953774 
0 0 0 
0.4700656451671602 -0.007915639395308748 -0.4439021597505700 
0 0 0 
0.1281565620984052 -0.03943389036244292 -0.1329809457980630 
0.1014718883337882 -0.05149725290652967 -0.1054708047987403 
0.1474797529136520 -0.07851015982428707 -0.1108437089226535 
0.07473030700429555 -0.007982748558378184 -0.1176738527647839 
0.07473030700429555 -0.007982748558378184 -0.1176738527647839 
0.1320021465184195 -0.04369322030565951 -0.09166405452741526 
0.1546097282539096 -0.08062622723365110 -0.05819949587411692 
0.1320021465184195 -0.04369322030565951 -0.09166405452741526 
0.1546097282539096 -0.08062622723365110 -0.05819949587411692 
0.1546097282539096 -0.08062622723365110 -0.05819949587411692 
0.1546097282539096 -0.08062622723365110 -0.05819949587411692 
0.1546097282539096 -0.08062622723365110 -0.05819949587411692 
0 0 0 
0.1085334718253853 -0.07430430154252346 -0.03262283366613780 
0.1085334718253853 -0.07430430154252346 -0.03262283366613780 
0.07974041097233327 -0.1135584491316930 0.01494175555466151 
0.03587023599442568 -0.02029146512351720 -0.03576733692577528 
-0.1652295807984317 -0.1954980565288384 0.2865346002054836 
0.08318487224695612 -0.1194562345027204 0.03718181992133713 
0.07859470337923231 0.05462970484226302 -0.09558345737992445 
0.1085334718253853 -0.07430430154252346 -0.03262283366613780 
0.09520379522930622 -0.2172003732096525 0.1144466135133687 
-0.07707223552819445 0.3724831375003909 -0.2647347296349977 
0.1085334718253853 -0.07430430154252346 -0.03262283366613780 
0.1085334718253853 -0.07430430154252346 -0.03262283366613780 
0 0 0 
0 0 0 
0.2213328053385862 -0.08373494566904731 -0.05529685914839287 
0.2213328053385862 -0.08373494566904731 -0.05529685914839287 
0.2213328053385862 -0.08373494566904731 -0.05529685914839287 
-0.2934620717349359 -0.1588623559665570 0.3465985291992100 
0.3277361851309359 -0.06965006272336761 -0.1369667036680643 
0 0 0 
0 0 0 
0 0 0 
0 0 0 
0.1519543486875485 -0.1245406650666849 -0.1354936152820218 
0 0 0 
0.4531149532028929 -0.3679126426288820 -0.1496130692501876 
0.1451616811432883 -0.2049507325112198 -0.05013251405322385 
0.4040251792490070 -0.3290263574433314 -0.1753802538645100 
0.05293817741185568 0.02450088715427995 -0.2846994004851432 
0 0 0 
0.2663781376115431 -0.1534638990898836 -0.1410291320617960 
-0.04685654828983916 0.1788222696284908 -0.08070276780642910 
-0.01864561014240665 0.09026270565135656 -0.08199045835616861 
0.2663781376115431 -0.1534638990898836 -0.1410291320617960 
0.2355363031106005 -0.06452391640469891 -0.1721767746636911 
0 0 0 
0.03656115825066877 0.02901506708742364 -0.1014823621123091 
-0.1126959541226902 -0.006573587651112053 0.07933042615228399 
0.08839057783390686 0.3067157461160567 -0.4937378502131330 
-0.005717622515319059 0.06617938975848263 -0.07350466386671672 
0.05731547837967922 -0.09366035788687438 0.04249761948529435 
0 0 0 
-0.1509527342281972 0.3061669310227584 -0.2452592317952902 
-0.03851712558041059 -0.1159171187687965 0.1063029312565913 
0.1350211645421846 -0.2426191455499461 0.01726459031151909 
0 0 0 
-0.1101262834203325 0.6271022275864129 -0.5480021299827488 
-0.1962427554983046 0.2087122696140442 -0.06220831852512184 
0 0 0 
0 0 0 
0 0 0 
0 0 0 
0.3697752052555336 -0.4692243623200753 -0.1146255176042843 
0.07714843709298397 -0.04019603320338945 -0.01836676927104024 
0.01847062898793585 -0.1234519648477398 0.05806958019664431 
0.07714843709298397 -0.04019603320338945 -0.01836676927104024 
0.1264081809883421 -0.05510262220154868 -0.08126666891397978 
0.1157920975913288 -0.004101663494294919 -0.1117831789358961 
-0.009287440880848987 -0.2426561392421683 0.1874044365851410 
0.01997851441553646 -0.1977147367817256 0.1277212169263045 
0 0 0 
0.007278300017896023 0.1451872149454014 -0.1148734882167371 
-0.1532164669729609 0.3008776542719355 -0.2534494680128683 
0.08753392243749900 0.008191163203671884 -0.1325522144140792 
0 0 0 
0.1264081809883421 -0.05510262220154868 -0.08126666891397978 
0 0 0 
0.03877256205356221 0.004246536936797816 -0.08268925265211577 
0.05812379140245997 -0.1427691518075977 0.04734174514242476 
0 0 0 
-0.1068716567011779 0.4360972452337779 -0.3179686345821228 
0.1151088875705500 -0.08113843824809737 -0.1170654886510729 
0.1090725625109910 -0.07470926913316082 -0.05332348526412113 
0.1090725625109910 -0.07470926913316082 -0.05332348526412113 
0.1090725625109910 -0.07470926913316082 -0.05332348526412113 
0 0 0 
0.06310233855867826 0.04728399551549923 -0.1514924007814784 
0.1054830231568994 -0.02829155469385751 -0.07324865296893307 
-0.004058389642541673 -0.03768435333701762 0.03082199207713805 
0.1054830231568994 -0.02829155469385751 -0.07324865296893307 
0.1054830231568994 -0.02829155469385751 -0.07324865296893307 
0.1054830231568994 -0.02829155469385751 -0.07324865296893307 
0.2242372678654107 -0.1584668250687014 -0.06937217632610253 
0.08884233153665894 -0.6278440367306064 0.5531533700492272 
0 0 0 
0.04276934732624456 -0.08581378198146247 0.03395415183703036 
0.08914387746237007 -0.08998598864008008 -0.006642997514196584 
0.04898014203346744 -0.2575071706837362 0.1907152150733553 
0 0 0 
0 0 0 
0 0 0 
0 0 0 
0 0 0 
0 0 0 
0 0 0 
0.1309369249018751 -0.09983823204647461 -0.05076768947928547 
0.09405022610850208 -0.1801005632640547 0.03422975550781188 
0.1575647507678900 -0.06413867757258090 -0.1052179977136861 
0.1558704706443756 -0.1365927153653258 -0.03257387337036940 
0.05625381657907094 -0.2112503694262312 0.1369979053879264 
0.1677699701708787 -0.1011083301439922 -0.07731219021916494 
0.1677699701708787 -0.1011083301439922 -0.07731219021916494 
0.1067395019957491 0.08465467283295972 -0.2134812473971403 
0.1124595216707874 -0.1816522303541897 0.09738815319491663 
0.08191039343511544 0.04933501121928138 -0.1135258135522567 
0.09772817689915832 -0.05317991853668570 -0.04186948506063727 
-0.07175125792417597 0.06777500577260863 -0.1253396520353476 
0.09772817689915832 -0.05317991853668570 -0.04186948506063727 
0.04212119669587527 0.2455966506812905 -0.2613299885005047 
-0.5358521040634994 0.7015092928971107 -0.4900674849813383 
0.1498874202977967 -0.08602799896167382 -0.09513205372468911 
0.1498874202977967 -0.08602799896167382 -0.09513205372468911 
0.1498874202977967 -0.08602799896167382 -0.09513205372468911 
0.3937807756339804 0.2863485786906806 -0.8144806757672989 
0.1543196493759326 -0.5332289198158091 0.2161856328659767 
-0.1024309381128538 0.2214385430769264 -0.1668049806070690 
0.09772817689915832 -0.05317991853668570 -0.04186948506063727 
-0.09608322110525844 -0.3318796770346279 0.4275677152360998 
-0.04613617925625702 -0.3048538331505684 0.2979051135851565 
-0.1090176578655989 0.1170170529183686 -0.02613776016786994 
-0.2206934079695186 0.01810261115491460 0.08873577333677453 
0.08978644211332741 0.2070452910007624 -0.2852252157851624 
0.09589225478333900 0.02188293145713311 -0.1127256245031585 
0 0 0 
-0.1388792753094659 0.3225007903072256 -0.2885763769170829 
0 0 0 
0.001776414340751817 -0.1629907737676446 0.1496145786534113 
0.1102336777987780 -0.05088280028493977 -0.05653446221999234 
0.1102336777987780 -0.05088280028493977 -0.05653446221999234 
0 0 0 
0.06066547156543458 0.2022551219737034 -0.1242792086084757 
0.1338621254583950 -0.04479214178363126 -0.05202289123089307 
0.1338621254583950 -0.04479214178363126 -0.05202289123089307 
-0.06745967582342538 -0.4348192970956001 0.5119736923333992 
0.1338621254583950 -0.04479214178363126 -0.05202289123089307 
-0.4821123550302575 -0.3201989081209897 0.5922502443786355 
0.02389054411430431 -0.2428101849672877 0.01962482591880053 
0 0 0 
0.05647590415504001 -0.1083219719551191 0.09284397572537466 
0.1338621254583950 -0.04479214178363126 -0.05202289123089307 
0 0 0 
0.1119458095701997 -0.02892827103797001 -0.05605154169768817 
0.02936590243026398 0.2009783041234845 -0.2370161343978347 
0.1338621254583950 -0.04479214178363126 -0.05202289123089307 
0.1338621254583950 -0.04479214178363126 -0.05202289123089307 
0.05479677629853494 -0.06727834770523268 0.03713307641570400 
0.08213389946131637 -0.08472373724028888 0.01891727416206678 
0.1338621254583950 -0.04479214178363126 -0.05202289123089307 
0 0 0 
0.003691083165961595 -0.008675065611474658 -0.02528170821278129 
-0.05657293327897068 -0.05298262005836456 0.05688791297292095 
0 0 0 
0.1556409435018843 -0.04991293915726374 -0.08112096834426680 
0.05077028778928795 -0.3331091344550473 0.2716848012328377 
0.4378594690321586 -0.4766999884546231 0.03716995598491660 
0.04668003527208715 0.1049608154030214 -0.01439440549786325 
0.1556409435018843 -0.04991293915726374 -0.08112096834426680 
0.1556409435018843 -0.04991293915726374 -0.08112096834426680 
0 0 0 
0 0 0 
0.1545297688031057 -0.1361230713481135 -0.06665801597165175 
0.1545297688031057 -0.1361230713481135 -0.06665801597165175 
0.1545297688031057 -0.1361230713481135 -0.06665801597165175 
0 0 0 
0.1997872321144002 -0.08860480660270830 -0.1088684174409851 
0 0 0 
0 0 0 
0.1671697736150052 -0.08461537124749050 0.02523568130096963 
-0.1430304056206649 0.3213506754539256 -0.1862146698301241 
0 0 0 
-0.2967558338127834 0.1015054366801250 0.2270789413655240 
0 0 0 
-0.4586601850524035 -0.1016968664779941 0.3281882101616434 
0.1611319649827016 -0.04149082568366312 -0.01337894181359284 
0.1671697736150052 -0.08461537124749050 0.02523568130096963 
0.1671697736150052 -0.08461537124749050 0.02523568130096963 
-0.3946778263622802 0.4878654883639751 -0.1790912737222851 
0 0 0 
0.09513763499849269 0.08451024595701205 -0.1748666650233429 
0.05851801528358661 -0.05223993119242716 -0.05528188521585948 
0 0 0 
0.09646325317532503 -0.02532862326759183 -0.08612736404281950 
-0.05370655723560752 0.2351255412776429 -0.1872583975452854 
0 0 0 
0.04940624258626235 -0.1031960380028150 0.002204002395332718 
-0.1424449751754244 0.4843449418211873 -0.4229997958459850 
0 0 0 
0 0 0 
0 0 0 
0.09646325317532503 -0.02532862326759183 -0.08612736404281950 
0 0 0 
0.05215924339863837 -0.03284808042498812 -0.05326256866405184 
0.05215924339863837 -0.03284808042498812 -0.05326256866405184 
0 0 0 
-0.03414449401263066 0.2176955927970617 -0.2840840978390268 
0.04763366934290212 -0.05534214683412037 -0.03705190254096568 
-0.07034162201858182 0.1270744635869126 -0.1922034009649383 
-0.2472019057119814 -0.7511723990306426 0.7596431182764455 
0.04763366934290212 -0.05534214683412037 -0.03705190254096568 
-0.1048262156596300 0.2351992598321702 -0.1506921107497594 
0.04053324784065920 -0.4969875518653713 0.3900225715891687 
0 0 0 
0 0 0 
0 0 0 
0 0 0 
0 0 0 
0 0 0 
0 0 0 
0.1202214877037591 -0.08109805995063682 -0.04593765447651294 
0.1202214877037591 -0.08109805995063682 -0.04593765447651294 
0.08148604536689409 -0.1796529632392280 0.07267695270839049 
0.1202214877037591 -0.08109805995063682 -0.04593765447651294 
0.05757435906105458 -0.03145327767020796 -0.05825864428219803 
0 0 0 
0 0 0 
0.08100350420828527 -0.1472408957548921 0.04244602476616984 
-0.08235743289900214 0.1962402936123409 -0.1200067438738023 
0.1797651161257338 -0.05992165155306309 -0.09651014684851637 
0 0 0 
-0.06184261880211629 0.07343839388181676 -0.1010273323614181 
0.4511824420646966 -0.2755864808121401 -0.1308316602862120 
-0.07372840633638653 0.07286184415959739 -0.1458576934280667 
0 0 0 
0.1126881790604014 0.01249508778567515 -0.1627822070137364 
0 0 0 
-0.2629339116966588 -0.06718959634832604 0.1498192148194291 
0.03900934956507875 -0.08144948374252868 0.03242005489556055 
-0.2543159415226133 -0.2909342362471792 0.3321149281605693 
0 0 0 
-0.04424303863232958 0.05874106989038956 -0.06124693259253385 
0.05507125501249536 -0.05512707399920305 -0.01282769656451581 
-0.03874991979353574 0.2927298017214248 -0.2250961294509950 
-0.1224804272498012 -0.02454302976638425 0.05670871615151382 
0.06595054770885875 0.04760177393184541 -0.1026354260702011 
0.2037639148907961 -0.1475468197768596 -0.06310246995139909 
0 0 0 
0.05495419948168365 0.04298315877124340 -0.07352639003354836 
-0.6012033176692819 -0.3253167542517026 0.4948835315029732 
0 0 0 
0.2665291785011430 -0.03686088072150920 -0.3307436003975803 
0 0 0 
0.07282698998892102 -0.04770858773038502 -0.01233478047211362 
0.07282698998892102 -0.04770858773038502 -0.01233478047211362 
0.08009809346709457 -0.1931593718462526 0.04025434426660599 
0.1234422336602800 -0.08175101976866249 -0.1058702757270094 
0.1234422336602800 -0.08175101976866249 -0.1058702757270094 
0.1234422336602800 -0.08175101976866249 -0.1058702757270094 
0.1234422336602800 -0.08175101976866249 -0.1058702757270094 
0.06267986624026792 -0.2502754368587666 0.08522599847249225 
0.1234422336602800 -0.08175101976866249 -0.1058702757270094 
0.1234422336602800 -0.08175101976866249 -0.1058702757270094 
0.1234422336602800 -0.08175101976866249 -0.1058702757270094 
-0.3447958067860887 0.1583285543666879 -0.06659626208793075 
0.1432672278410654 -0.04783375656243766 -0.06214048984632122 
0.1432672278410654 -0.04783375656243766 -0.06214048984632122 
0 0 0 
0.01868739888201552 -0.3368165229203327 0.2325355405429054 
0.05373395470951878 -0.01764919724740780 -0.03299909191075649 
0 0 0 
-0.2107504459923761 -0.03710206183647580 0.1381198643290763 
0 0 0 
0 0 0 
0.03054025884658323 0.1594434574570284 -0.2210532236787954 
0.1302069259555956 -0.03811707657436136 -0.1248893899418671 
0.1302069259555956 -0.03811707657436136 -0.1248893899418671 
0.5031444607618971 -0.4593492870912523 -0.06067182047836817 
0.09036877509671146 -0.06336762144663251 -0.02500182752969289 
-0.06332891583854712 0.4168271411083070 -0.3692831083477512 
0.01722762686940917 0.3027365740240134 -0.3644778084503650 
0.09036877509671146 -0.06336762144663251 -0.02500182752969289 
0.09036877509671146 -0.06336762144663251 -0.02500182752969289 
0.01941545050076805 0.1764388877681554 -0.1444216700178886 
0.09036877509671146 -0.06336762144663251 -0.02500182752969289 
0.09036877509671146 -0.06336762144663251 -0.02500182752969289 
-0.08442574765488799 -0.1265210734622102 0.09748634140496004 
0.09036877509671146 -0.06336762144663251 -0.02500182752969289 
-0.1905380316657033 -0.1640487174737676 0.2722692471434249 
-0.1545094088139432 0.2643334678254825 -0.1265460042195622 
0.09036877509671146 -0.06336762144663251 -0.02500182752969289 
0.09036877509671146 -0.06336762144663251 -0.02500182752969289 
0.08819151205363841 -0.05135172491645099 -0.03319418038423029 
0.08819151205363841 -0.05135172491645099 -0.03319418038423029 
0.08819151205363841 -0.05135172491645099 -0.03319418038423029 
0.001143737030212233 0.02337348209999475 -0.07334090587083816 
0.05090226936740424 -0.02613972446314656 -0.04293060042886763 
0.05978277302349720 0.1165127369949165 -0.2041371821040579 
0.08819151205363841 -0.05135172491645099 -0.03319418038423029 
0 0 0 
0.08819151205363841 -0.05135172491645099 -0.03319418038423029 
0.08233601576859002 0.03403776349754955 -0.1154531353820792 
-0.04353753133756361 -0.01491765438135767 -0.005180883447992242 
0.08819151205363841 -0.05135172491645099 -0.03319418038423029 
0.08819151205363841 -0.05135172491645099 -0.03319418038423029 
0 0 0 
0 0 0 
0 0 0 
0 0 0 
0 0 0 
0.1952742835384216 -0.02665655313133481 -0.1638896089753006 
0 0 0 
0.2451409950319828 -0.1537858604617032 -0.07307011198443644 
0 0 0 
0.1688204889164353 0.07298237076230571 -0.2747977472581081 
0.2451409950319828 -0.1537858604617032 -0.07307011198443644 
0.1245026656223859 -0.1163493952965730 -0.06220834760756833 
0.1288502279032561 -0.1669870683041409 -0.001225272175767550 
0 0 0 
0.1320654125220548 -0.06077405671045152 -0.1291477516106664 
0.06347511981378998 -0.3340691308438582 0.2210577878378278 
0.1320654125220548 -0.06077405671045152 -0.1291477516106664 
0.1210038941800947 0.004086861987247769 -0.1722697248698696 
0 0 0 
-0.1496513194619988 -0.2455831796099414 0.2589415830870179 
-0.04414126848751265 0.1434100738980533 -0.1469441819387662 
0.07946257357095247 -0.01743975660725700 -0.03209233664394978 
0.01508603147427571 -0.08845985631878059 0.09329270259953949 
0.07946257357095247 -0.01743975660725700 -0.03209233664394978 
-0.1161686471828131 -0.5517775391927147 0.7118918828520373 
0 0 0 
0.07946257357095247 -0.01743975660725700 -0.03209233664394978 
0.07355740238787514 -0.2651495023719883 0.2100735609350042 
0.05140768540038574 -0.1051419676844054 0.05290060899549209 
0 0 0 
0.3976461736375004 -0.3943459080016948 -0.3129310892217156 
0 0 0 
0.03206756301735896 0.04034680910901273 -0.05997583434931479 
-0.1176965155618453 -0.1464889265413501 0.3171473324965681 
0.03135931851094140 0.1197013450115775 -0.1879769617295558 
0.1273767637241786 -0.04514598960998879 -0.03599392195067216 
0 0 0 
-0.03786432713004706 0.1993684100934731 -0.1947343564920687 
0.02760345139542833 0.09407313004742729 -0.1068274534602668 
0 0 0 
0.03206756301735896 0.04034680910901273 -0.05997583434931479 
0.01835928636312037 0.1475125574622325 -0.1504954056271465 
0 0 0 
0.1975289394276991 -0.2453891932207551 -0.02166028029792452 
0 0 0 
0.1835108357310472 -0.1364170901813745 -0.1169765858263910 
0.1423568864056584 -0.3716907291871557 0.1496937555395482 
0.1244166815946586 -0.2607035718797479 0.02220230144344772 
-0.06606754848124115 -0.2773570139974641 0.3181617498315407 
0 0 0 
-0.4699264766441709 0.3657982663554597 -0.1825946852131506 
0 0 0 
0.3500992117006738 -0.1550208156687131 -0.2646871155812051 
0.1090190927668656 -0.1315749202951977 -0.1015781656048340 
0 0 0 
-0.08828956059573699 0.1243260207120567 -0.08808913449664403 
-0.04664046407614868 0.09097392127201903 -0.08716481754830661 
-0.04664046407614868 0.09097392127201903 -0.08716481754830661 
-0.04664046407614868 0.09097392127201903 -0.08716481754830661 
-0.07456698211593153 0.1423443853989392 -0.05646288599564232 
0 0 0 
-0.05266267910885170 0.2215870565312757 -0.1387957890158756 
-0.03048191457385448 0.06069848850816348 -0.04471751926834076 
0 0 0 
-0.03048191457385448 0.06069848850816348 -0.04471751926834076 
-0.03048191457385448 0.06069848850816348 -0.04471751926834076 
0 0 0 
-0.06854911411725550 0.4610403139697706 -0.3462779725338727 
-0.08563949558760797 -0.1975653105916408 0.1748823412377443 
-0.04840837921917710 0.2018413163223414 -0.1747226648288998 
-0.01037231825623912 0.06930223849628536 -0.06958962963701040 
-0.07523297484238346 0.1959486766269194 -0.1673164203830543 
-0.2318105718131008 -0.3285940318475418 0.4029533123531640 
-0.01037231825623912 0.06930223849628536 -0.06958962963701040 
-0.1795136030833091 -0.1788819801168517 0.2384540844393696 
0 0 0 
0 0 0 
0 0 0 
0 0 0 
-0.1644725485180089 0.1075821938719481 -0.03763286297406966 
-0.07338240047960312 0.1069673199510585 -0.04351148491923092 
0 0 0 
0 0 0 
-0.03655501922795031 0.05277849288404306 -0.02184347392868341 
-0.07446354957638883 0.04799161368063092 0.02244064909670030 
0 0 0 
0 0 0 
-0.04331253436354143 0.01093574155763848 0.005213637033332873 
-0.04796083067542224 -0.1771948008384572 0.1887120489913965 
0 0 0 
-0.05844222287237070 -0.1656388974333388 0.1956914899768719 
-0.01244510048973482 0.09874983793730481 -0.08217420888447638 
-0.01244510048973482 0.09874983793730481 -0.08217420888447638 
0 0 0 
-0.01244510048973482 0.09874983793730481 -0.08217420888447638 
0 0 0 
-0.01898454430710503 0.03614883134076467 -0.02652248097634782 
-0.01898454430710503 0.03614883134076467 -0.02652248097634782 
-0.1393542912434997 0.05406090016189234 0.08398397137885763 
-0.1131007203685959 0.2068310317941332 -0.1015599277666533 
-0.01898454430710503 0.03614883134076467 -0.02652248097634782 
0 0 0 
0 0 0 
-0.03877208221528783 0.04693894692438844 -0.02111604879191500 
-0.03877208221528783 0.04693894692438844 -0.02111604879191500 
-0.03877208221528783 0.04693894692438844 -0.02111604879191500 
0 0 0 
0 0 0 
-0.03877208221528783 0.04693894692438844 -0.02111604879191500 
-0.07330932572563427 0.003346821125717673 0.04207329131882262 
0 0 0 
-0.03877208221528783 0.04693894692438844 -0.02111604879191500 
-0.1632794927901829 0.4345571259334978 -0.2803238426574792 
0 0 0 
0 0 0 
-0.01877025075309534 0.08951116378988937 -0.09319805204231033 
-0.01877025075309534 0.08951116378988937 -0.09319805204231033 
-0.01877025075309534 0.08951116378988937 -0.09319805204231033 
-0.09195328909222625 0.1595876177008757 -0.06397019077700315 
0 0 0 
-0.03940788778774035 0.1111754269678916 -0.09146603746092781 
0 0 0 
-0.03940788778774035 0.1111754269678916 -0.09146603746092781 
-0.1480098321881417 -0.1687663932378700 0.2228267361261353 
-0.1779031896295853 -0.1441794611026913 0.2415952579159106 
-0.08011786584002010 0.006061820820979304 0.03114715892311316 
0 0 0 
-0.1203865793757243 0.02268976007660286 0.02130701321369707 
-0.01665154530224493 0.07304185998383698 -0.06626849553870465 
0 0 0 
-0.1228716537365145 0.5828948237833350 -0.4045382975768277 
-0.1349870976142002 -0.05564425082217089 0.1421865170169532 
-0.03510859476596854 0.1498094458954282 -0.1366972124944074 
0 0 0 
-0.2774238936809247 0.2502196250938200 -0.1196980120594013 
-0.01665154530224493 0.07304185998383698 -0.06626849553870465 
-0.1542203010012543 0.4398754447757857 -0.3390742033132228 
-0.1206702881203565 -0.01381940395751985 0.1595750842826417 
-0.1337103202185236 -0.0007172190148463033 0.05560895719955806 
-0.01665154530224493 0.07304185998383698 -0.06626849553870465 
0 0 0 
0 0 0 
-0.02948097644976385 0.1086766829594009 -0.1050375231105985 
-0.02948097644976385 0.1086766829594009 -0.1050375231105985 
-0.02948097644976385 0.1086766829594009 -0.1050375231105985 
-0.02948097644976385 0.1086766829594009 -0.1050375231105985 
-0.02948097644976385 0.1086766829594009 -0.1050375231105985 
0 0 0 
0 0 0 
0.2853863474933446 -0.2737388697445315 -0.08322930767797461 
-0.1036738735355142 0.2406303729352454 -0.1591887162369852 
-0.05770293428288332 0.1076427058445826 -0.07932867920763188 
-0.1337906553839512 0.2721420130425230 -0.1646254580117180 
-0.05770293428288332 0.1076427058445826 -0.07932867920763188 
0 0 0 
-0.05770293428288332 0.1076427058445826 -0.07932867920763188 
0 0 0 
0 0 0 
-0.05152819789567423 0.1042162463060336 -0.08100949776249114 
-0.04856442871901970 0.1615298868055741 -0.1037606136800055 
-0.3287827513037417 0.6875093648310329 -0.5991128253638752 
0 0 0 
-0.07707431913962130 -0.01810502732083626 0.09801235945445845 
-0.07274944590935640 0.07052741126590889 -0.006830143842130406 
-0.07274944590935640 0.07052741126590889 -0.006830143842130406 
0 0 0 
0 0 0 
-0.07274944590935640 0.07052741126590889 -0.006830143842130406 
-0.5387250428002616 0.09305005239767480 -0.06322641574524300 
0 0 0 
0 0 0 
-0.04244169678886254 0.4422208060015572 -0.3409652342251179 
0 0 0 
0 0 0 
-0.01483019757573009 -0.06947974620146298 0.002849483813923247 
0 0 0 
-0.01937733199672662 0.004042524843627485 -0.04262740820009932 
0 0 0 
-0.02852547222497978 -0.1857474899979401 0.1319956534599209 
0 0 0 
0.1385364436398058 -0.04329004893340093 -0.1014766124463734 
0 0 0 
0 0 0 
0 0 0 
-0.2266205122277212 0.1953528168595712 -0.09635854551243209 
-0.04187667619943768 -0.01758585761345083 0.05640842398945776 
-0.02696013907669535 0.08360853473269281 -0.03798810639635303 
-0.1070799927064877 0.1781124077253824 -0.07814909707690046 
0 0 0 
0.2551358917493774 -0.03832415103834190 -0.2241028627921333 
-0.02696013907669535 0.08360853473269281 -0.03798810639635303 
-0.02696013907669535 0.08360853473269281 -0.03798810639635303 
-0.02696013907669535 0.08360853473269281 -0.03798810639635303 
0 0 0 
0 0 0 
-0.02011078559832441 0.06304653918806040 -0.04491927577361040 
-0.02011078559832441 0.06304653918806040 -0.04491927577361040 
-0.08477723175816045 -0.1518907458241959 0.2507819294103724 
0.03327869172163465 0.06493444889667178 -0.1571801785395887 
-0.1745509739741160 0.6014721893366636 -0.4483137754618268 
-0.03057194136103165 -0.06851849881388172 0.09600434730754681 
0 0 0 
-0.02309337639993458 0.08162594621011775 -0.05170646643252578 
-0.02309337639993458 0.08162594621011775 -0.05170646643252578 
-0.02309337639993458 0.08162594621011775 -0.05170646643252578 
-0.02309337639993458 0.08162594621011775 -0.05170646643252578 
-0.02309337639993458 0.08162594621011775 -0.05170646643252578 
-0.02309337639993458 0.08162594621011775 -0.05170646643252578 
0 0 0 
-0.02309337639993458 0.08162594621011775 -0.05170646643252578 
-0.02309337639993458 0.08162594621011775 -0.05170646643252578 
0 0 0 
-0.07367526049094386 0.08937530439813574 -0.07398293478985105 
-0.07367526049094386 0.08937530439813574 -0.07398293478985105 
-0.1429461387807508 0.3705049483982994 -0.2618036250198590 
-0.1222591457973535 0.3461849513305192 -0.3467808202843857 
0 0 0 
0 0 0 
-0.04544262825170587 0.07290018445610835 -0.05113517310593815 
0 0 0 
-0.3575772753463647 -0.02102109670313970 0.02747943800252393 
0 0 0 
0 0 0 
-0.01113750377139092 0.07081775954168049 -0.06181129455653431 
0 0 0 
-0.5956647975753022 0.1176313443224337 -0.03366996378465563 
-0.1014385314340838 0.03264840121886241 -0.02134960824271098 
0.05483729397740718 0.02547379980117962 -0.1405528810609914 
-0.09823918755616406 0.007535452014569229 -0.005624376780358735 
-0.08332265043342173 0.1087298443607129 -0.1000209071661695 
-0.08332265043342173 0.1087298443607129 -0.1000209071661695 
0 0 0 
-0.4804603682399112 1.025120811300952 -0.8714264409570157 
-0.03870664851857904 0.05631051265857041 -0.03911459707105414 
-0.1183105394523265 -0.06916236231940509 0.1171092351101022 
-0.03045324944634195 0.02485560464020718 -0.02387867978368352 
-0.03045324944634195 0.02485560464020718 -0.02387867978368352 
-0.1375065618126636 -0.07480541781008965 0.08638785602364511 
-0.05422090995760685 0.08346852182525095 -0.07064263207976593 
-0.03045324944634195 0.02485560464020718 -0.02387867978368352 
-0.03045324944634195 0.02485560464020718 -0.02387867978368352 
-0.1069323866983521 -0.6230850414335721 0.5089962613873991 
-0.04843117916918870 -0.03577590161086591 0.03998906468023721 
-0.03464902558298513 0.1713831839534743 -0.1465428491430039 
0 0 0 
0 0 0 
-0.1153718255309139 -0.007114308695887737 0.03732940761048000 
0 0 0 
0 0 0 
0 0 0 
0 0 0 
-0.01487210809967997 0.1024304970010119 -0.09598654024693858 
0 0 0 
-0.01487210809967997 0.1024304970010119 -0.09598654024693858 
-0.1959707322350680 0.3759668064422527 -0.1356622106338710 
-0.01487210809967997 0.1024304970010119 -0.09598654024693858 
0 0 0 
0 0 0 
0 0 0 
0 0 0 
-0.08156976163535216 0.007188029561667590 0.01283772308400084 
-0.01390694120582811 0.03207294268510553 -0.008463886700487602 
-0.01390694120582811 0.03207294268510553 -0.008463886700487602 
0 0 0 
-0.02249436289460643 0.07676839387424195 -0.04565936184110288 
0.1316848850511579 0.5278354245376090 -0.6299397522906579 
0 0 0 
0 0 0 
-0.06993189014740601 0.1590216009844604 -0.1347585221427539 
-0.06993189014740601 0.1590216009844604 -0.1347585221427539 
0 0 0 
0 0 0 
-0.06993189014740601 0.1590216009844604 -0.1347585221427539 
-0.1727078677238931 0.3353833055610048 -0.2654813136382442 
0 0 0 
0 0 0 
-0.02469765564252169 0.04598056566997169 -0.04165059386350348 
-0.02469765564252169 0.04598056566997169 -0.04165059386350348 
-0.06707834024074280 0.1215561158793284 -0.1198943416760488 
-0.03445461465286417 0.09462412926137467 -0.08513590194019575 
0 0 0 
-0.04458856626086215 -0.07971263172367407 0.03954905735856832 
-0.02469765564252169 0.04598056566997169 -0.04165059386350348 
-0.1071796904125884 0.3118053889621683 -0.2277382541804816 
0 0 0 
0 0 0 
0 0 0 
-0.08762642859432537 0.1227774272199030 -0.1148896235534723 
-0.08762642859432537 0.1227774272199030 -0.1148896235534723 
-0.1190766665462369 -0.07117609365002833 0.1846593699067975 
-0.09129209732989767 0.2350173486163304 -0.2512206013149497 
0 0 0 
-0.1452606155735685 -0.2059790807989893 0.3305697041643519 
-0.1097028624383918 0.1600991005101925 -0.07078922770659350 
-0.06686408477248763 0.1402556125653690 0.01749673694798769 
-0.08780841247408883 -0.1023364863312597 0.1934253007286128 
-0.05383032231444541 -0.002981321868891542 0.06480341483457223 
-0.06840834532488085 0.2106466055874693 -0.1360330079823565 
0 0 0 
0 0 0 
-0.08296268094203652 0.2032571066646524 -0.1836792996221622 
0 0 0 
-0.1899057123915657 0.3044379267329470 -0.1500001116224242 
0 0 0 
0 0 0 
0 0 0 
-0.09094875495053060 0.1808496497050489 -0.1418462199820621 
-0.08296268094203652 0.2032571066646524 -0.1836792996221622 
0 0 0 
-0.004812429400798505 0.07452884764123426 -0.07009648462614614 
-0.01632397305638769 0.1522648524341374 -0.07125389252579631 
-0.1078206786363220 -0.3711617221284190 0.4384282731793884 
0 0 0 
-0.001092838946150028 0.04638331663600157 -0.02483984288407765 
-0.001092838946150028 0.04638331663600157 -0.02483984288407765 
-0.3182589543941884 0.2798573969385435 -0.07433493744732705 
0.2283994175094911 -0.4306619003636520 0.2213419441048956 
0.3502114136202676 -0.1553082335901355 -0.2453306514544600 
0 0 0 
0 0 0 
-0.02635117565433346 0.1538336736714792 -0.1117222099349640 
0.1099705972156980 0.1363365021109446 -0.4116591926913066 
-0.004244210000473626 0.05496454235722747 -0.04168534906972136 
-0.004244210000473626 0.05496454235722747 -0.04168534906972136 
-0.3198835191707819 0.2158654463150845 -0.03585806227468098 
0 0 0 
-0.09949219003337804 0.1900796451784179 -0.1765803266883795 
-0.004244210000473626 0.05496454235722747 -0.04168534906972136 
-0.004244210000473626 0.05496454235722747 -0.04168534906972136 
0 0 0 
0 0 0 
0 0 0 
-0.2740798482327069 0.2780286461296798 -0.1146916821900439 
-0.1020778361643958 0.1054831329176815 -0.04552502349582163 
-0.06404810604861139 0.1167945642430237 -0.07760702657750400 
0 0 0 
-0.02855381955652799 0.1072906486421803 0.0009351217588203855 
-0.02318721732764004 0.2845752106503665 -0.1921635621341312 
-0.1304543858961539 0.07796683855924394 0.03912528964907313 
-0.01279955788508253 0.1158552594133854 -0.07686780725856587 
-0.09217277786844767 0.1765924739054512 -0.1239981080525301 
-0.2977062233569356 -0.1579299670881803 0.4184256128864851 
-0.04968625667845551 0.03559292819580531 0.008129637728531477 
0 0 0 
0 0 0 
0 0 0 
-0.04280102968964133 0.09414510834928043 -0.09100306574740717 
-0.06266209907497435 0.3130672743676800 -0.2805012420526462 
0 0 0 
-0.04280102968964133 0.09414510834928043 -0.09100306574740717 
0 0 0 
0 0 0 
0 0 0 
-0.05582978641017666 0.06385540198536462 0.0009492265068682800 
-0.008253399072237088 0.03145490801836322 -0.01523591728737061 
0 0 0 
-0.008253399072237088 0.03145490801836322 -0.01523591728737061 
-0.02053839704021961 -0.01608312305093839 0.05436310809023554 
-0.01709184957117627 -0.01381980728767233 0.04030382462487397 
-0.008253399072237088 0.03145490801836322 -0.01523591728737061 
-0.008253399072237088 0.03145490801836322 -0.01523591728737061 
0 0 0 
-0.3015596782973304 0.2943423226346468 -0.1978369715453431 
-0.1311760686279433 -0.01194155504411475 0.1043228715217858 
-0.06256709656216142 0.1772116663793061 -0.1071091031898885 
-0.02227640352356661 -0.1408882435656850 0.1543805728282905 
-0.05041622440596813 0.07702582456580247 -0.06399106334463742 
0.09392389034357453 -0.1788659046199131 -0.2647691756158349 
-0.05041622440596813 0.07702582456580247 -0.06399106334463742 
-0.05041622440596813 0.07702582456580247 -0.06399106334463742 
0.09713636448407743 0.06201773879667111 -0.1226083896673091 
-0.05902644508465026 0.1464654799602973 -0.1301170380912825 
-0.05041622440596813 0.07702582456580247 -0.06399106334463742 
0 0 0 
-0.01845704946372362 0.07676758591159126 -0.07042871695570273 
-0.07233480928438424 0.1054708972877905 -0.05911431766890973 
-0.1060046133694667 0.07338139249993182 0.008773313465123816 
-0.01845704946372362 0.07676758591159126 -0.07042871695570273 
-0.05248489628493696 0.1938980996417344 -0.1663793281947962 
-0.01845704946372362 0.07676758591159126 -0.07042871695570273 
0 0 0 
0 0 0 
0 0 0 
0 0 0 
0 0 0 
-0.01589743721414240 0.09482055885250665 -0.08121820271584305 
-0.01589743721414240 0.09482055885250665 -0.08121820271584305 
-0.01589743721414240 0.09482055885250665 -0.08121820271584305 
-0.01589743721414240 0.09482055885250665 -0.08121820271584305 
-0.1103802852071521 0.2262810540853585 -0.1881804475427040 
-0.01589743721414240 0.09482055885250665 -0.08121820271584305 
0 0 0 
-0.01589743721414240 0.09482055885250665 -0.08121820271584305 
-0.01589743721414240 0.09482055885250665 -0.08121820271584305 
0 0 0 
-0.01019245948443867 0.09119474340051724 -0.07167498072408442 
0 0 0 
0 0 0 
-0.06145323995144991 0.2029549550193851 -0.1428293173820261 
-0.01019245948443867 0.09119474340051724 -0.07167498072408442 
-0.02995213114059753 0.1540176393401069 -0.1203432556916215 
-0.01019245948443867 0.09119474340051724 -0.07167498072408442 
-0.09116756669127699 0.1456563413782660 -0.1144148949562313 
-0.01019245948443867 0.09119474340051724 -0.07167498072408442 
0 0 0 
0 0 0 
-0.07598838240459886 -0.03809356056463781 0.06049144116798068 
-0.007702485335268803 0.05561728802061215 -0.04556088616751265 
-0.05587192665661981 0.01474007224418111 0.004951325121289595 
-0.007702485335268803 0.05561728802061215 -0.04556088616751265 
-0.06453851832563177 0.01946465603172606 -0.003643098959288563 
0 0 0 
0 0 0 
-0.007702485335268803 0.05561728802061215 -0.04556088616751265 
-0.007702485335268803 0.05561728802061215 -0.04556088616751265 
-0.007702485335268803 0.05561728802061215 -0.04556088616751265 
0 0 0 
0 0 0 
-0.04055737501754601 0.06051470751257173 -0.04757838680009549 
-0.04055737501754601 0.06051470751257173 -0.04757838680009549 
-0.07936015190341350 0.06804299917457596 -0.006316996022752490 
-0.04055737501754601 0.06051470751257173 -0.04757838680009549 
-0.09631042586744357 0.2877847441854263 -0.09543718172343976 
0 0 0 
0 0 0 
-0.04273704794844383 -0.02130979663206422 0.04832880837690970 
0 0 0 
-0.04631979130825172 0.1013789907646066 -0.06373285743970396 
-0.2283241351184659 0.4508585688855419 -0.3402716186801497 
0 0 0 
-0.2565819912588521 0.09050342711322672 -0.4897164934250607 
-0.02026291341364662 -0.03275613923842657 0.04259453377868021 
-0.01994276901294297 0.03611583074202358 -0.02092842825742105 
-0.01994276901294297 0.03611583074202358 -0.02092842825742105 
-0.04291894707280024 0.1437764259925483 -0.1106666280852410 
-0.05247815239000389 0.08645666457032702 -0.05017022625165609 
0 0 0 
-0.01959203559626648 0.06475184613424251 -0.05616912927598700 
-0.003317938731801646 0.02967874606459850 -0.03301806243453052 
-0.003317938731801646 0.02967874606459850 -0.03301806243453052 
-0.003317938731801646 0.02967874606459850 -0.03301806243453052 
-0.003317938731801646 0.02967874606459850 -0.03301806243453052 
-0.003317938731801646 0.02967874606459850 -0.03301806243453052 
-0.07624737910349770 0.03362283340325575 0.02954858846860615 
-0.03604184277558731 -0.05302740312271034 0.04776205430941035 
-0.003317938731801646 0.02967874606459850 -0.03301806243453052 
-0.06882834762719274 -0.03956203921405199 0.1690236534946011 
0 0 0 
-0.01543166192050269 0.02981294011111535 -0.01929746787797104 
-0.1764086953039583 0.3269145401697602 -0.2994514715490944 
-0.01543166192050269 0.02981294011111535 -0.01929746787797104 
-0.01543166192050269 0.02981294011111535 -0.01929746787797104 
-0.08133329796264689 0.1486357528473135 -0.05909931892450304 
-0.02998760296530846 0.08427653017053915 -0.07930604118057581 
-0.1111051376231878 -0.1113018895283967 0.1310749858673625 
-0.01543166192050269 0.02981294011111535 -0.01929746787797104 
0 0 0 
-0.2490116072691509 -0.02553434367763068 0.1412344530191669 
-0.01543166192050269 0.02981294011111535 -0.01929746787797104 
0 0 0 
0 0 0 
-0.08704777502342617 0.07472520701644575 -0.04014672548660787 
-0.2414529016306257 0.2778937438011681 -0.1750241216484404 
0.05467664780223747 0.1875605276909747 -0.2185118483167483 
-0.1573680815819928 0.1471500699362617 -0.02788505385163950 
-0.1259289668341356 0.1510658176885809 0.006186116067940115 
-0.08704777502342617 0.07472520701644575 -0.04014672548660787 
0 0 0 
-0.05692244087939231 0.1009140579195945 -0.04304979811853312 
0 0 0 
-0.05692244087939231 0.1009140579195945 -0.04304979811853312 
0 0 0 
0.2084203852452432 -0.08663991406302858 -0.07053821485523182 
0 0 0 
-0.05692244087939231 0.1009140579195945 -0.04304979811853312 
0 0 0 
0 0 0 
-0.09582573461905891 -0.1550783856233660 0.2190682418490817 
-0.05272755657089299 0.1334125873697395 -0.1213800456915869 
-0.02191631588819534 0.01586387074566125 -0.004028650466795102 
-0.04919460144193853 0.01429239060382939 0.001247684487011078 
-0.2015462066000686 -0.1260264943172070 0.1370357189760610 
0 0 0 
0 0 0 
-0.2581860810850293 0.2109302173851171 0.02748351621426101 
-0.03380434109397457 0.07037057920849332 -0.06327011449097678 
-0.6058420115543703 -0.09150171518538804 0.2331439588335325 
0 0 0 
0 0 0 
-0.01144436149468334 0.1293796541675228 -0.1192448498917560 
-0.06371352260591917 -0.02951621482250207 0.08913227217647819 
0 0 0 
0 0 0 
0 0 0 
-0.1858145652488079 0.5809639928049938 -0.4500242331002498 
0.1844974765634380 -0.1894261837904453 -0.07812624560363490 
-0.04901580545293128 -0.004569607379208731 0.04558704195279623 
-0.08141575688624028 0.2599722266380320 -0.1476302442024976 
-0.05944761153547922 0.2239299724321502 -0.1943972519313102 
0 0 0 
-0.1010764802801325 0.2338664228361862 -0.2115924013569508 
0 0 0 
0 0 0 
-0.01395414430719359 0.1347571148004624 -0.1066312792165225 
0 0 0 
-0.01395414430719359 0.1347571148004624 -0.1066312792165225 
-0.01596740273592137 0.03607570324112055 -0.03414511261717501 
-0.1060505370163231 -0.05344917100730712 0.1628523866504795 
0 0 0 
-0.04208563602765318 0.09515300312853812 -0.02637200996753372 
-0.1598708762236663 -0.4330026094269551 0.5298423389858711 
0 0 0 
-0.07633426356694980 0.2014549466562520 -0.1290082435921285 
-0.1561721203899266 -0.04692226565564206 0.2205415068208548 
-0.01395414430719359 0.1347571148004624 -0.1066312792165225 
0 0 0 
0 0 0 
-0.2335624574653212 0.3190885920424793 -0.2012666302067198 
-0.01948013810088593 -0.08571018936278463 0.07927175907348019 
-0.01264516476521451 0.05768578912814276 -0.05923931156092012 
-0.01264516476521451 0.05768578912814276 -0.05923931156092012 
-0.01264516476521451 0.05768578912814276 -0.05923931156092012 
-0.04842722375982990 -0.05212912414070853 0.03969138362573859 
-0.01264516476521451 0.05768578912814276 -0.05923931156092012 
0.3436030749272836 -0.1579572145759928 -0.06570545149207639 
-0.01264516476521451 0.05768578912814276 -0.05923931156092012 
0 0 0 
-0.01264516476521451 0.05768578912814276 -0.05923931156092012 
-0.1010169758275708 0.2667914573541475 -0.2324589572441889 
-0.01264516476521451 0.05768578912814276 -0.05923931156092012 
0 0 0 
-0.03929407964394043 0.08987672246174593 -0.07924229570493069 
-0.03929407964394043 0.08987672246174593 -0.07924229570493069 
0 0 0 
-0.03929407964394043 0.08987672246174593 -0.07924229570493069 
-0.03929407964394043 0.08987672246174593 -0.07924229570493069 
0 0 0 
0 0 0 
0 0 0 
0 0 0 
0 0 0 
0 0 0 
0 0 0 
0 0 0 
0 0 0 
-0.01835540672426507 0.04085010574118484 -0.02857735384916841 
-0.06636105258173020 0.03844502509199367 0.01553759419796349 
-0.06123863721808580 -0.06377112970770599 0.08388020093381364 
-0.07526603252922633 0.2943289749975896 -0.2280604443217457 
0 0 0 
-0.01835540672426507 0.04085010574118484 -0.02857735384916841 
-0.01835540672426507 0.04085010574118484 -0.02857735384916841 
-0.1454446262665896 -0.07565905898851968 0.1498484431851391 
0 0 0 
0 0 0 
-0.2778755162619503 -0.4311898274840234 0.5717455030307865 
0 0 0 
0 0 0 
0 0 0 
-0.01950106448569071 0.06372852094349156 -0.04917266848732470 
-0.03070143274598819 0.1080226455666827 -0.03769782984863895 
0 0 0 
0 0 0 
-0.3580026572506014 0.2774530122663681 -0.1430833226328919 
-0.1530794008859446 -0.3746061511455744 0.4472710146041306 
-0.04238068459822111 0.07557555020935675 -0.07824374781254533 
-0.04238068459822111 0.07557555020935675 -0.07824374781254533 
-0.05276834404077862 0.2442955014463377 -0.1935395026881107 
0 0 0 
0 0 0 
0 0 0 
-0.3661497648487739 0.5488859371577395 -0.3548940322805725 
0 0 0 
0 0 0 
-0.2131165313015317 0.3125976472329463 -0.2376008914540404 
0 0 0 
-0.1587083815561889 0.1743065937282748 -0.09020316616413365 
0 0 0 
0 0 0 
-0.01306415859087123 0.03203079187181285 -0.01920774923206026 
-0.05538069355701880 0.1909062773581773 -0.1049903428607896 
-0.08958696755213251 -0.2290424572579588 0.2224137896467241 
-0.05518197121313991 0.2368235059698259 -0.1819021037249757 
-0.05395957813512159 0.1679152188950753 -0.09021569709179492 
-0.01306415859087123 0.03203079187181285 -0.01920774923206026 
-0.1031803020669465 0.2821342560669136 -0.3003531290630175 
-0.01306415859087123 0.03203079187181285 -0.01920774923206026 
-0.01306415859087123 0.03203079187181285 -0.01920774923206026 
-0.1633538782752938 0.2568531194687880 -0.1127814508500008 
-0.01306415859087123 0.03203079187181285 -0.01920774923206026 
0 0 0 
0 0 0 
0 0 0 
-0.09716626249678258 0.2320252444717986 -0.2251401980950157 
-0.07973555292982880 0.1856227079771994 -0.09837074713949640 
-0.2125815211528510 0.2847244074021352 -0.2429040829292172 
-0.1698063775969848 -0.2016232604273515 0.3139721182404093 
-0.009539833902457200 0.1092478172518957 -0.1102505745415434 
-0.009539833902457200 0.1092478172518957 -0.1102505745415434 
-0.009539833902457200 0.1092478172518957 -0.1102505745415434 
-0.01945039749608471 0.04169855134667102 -0.04499883392811142 
0 0 0 
0 0 0 
0 0 0 
-0.03323483931126377 0.1028955867585525 -0.06057990234639517 
0 0 0 
0 0 0 
0 0 0 
0 0 0 
-0.2129095694547606 0.04517914705462151 0.1245799824139071 
-0.1162081400457200 0.1733131651527471 -0.1434819330763560 
0 0 0 
-0.02923738783314723 0.08127149915790703 -0.06670080608045413 
-0.02923738783314723 0.08127149915790703 -0.06670080608045413 
-0.02923738783314723 0.08127149915790703 -0.06670080608045413 
-0.02923738783314723 0.08127149915790703 -0.06670080608045413 
0.06518549426837669 -0.1260551032460072 0.07387998263428458 
-0.04373898027704563 0.1474351577649903 -0.1211108597880200 
0 0 0 
0 0 0 
0 0 0 
0.2172346467510567 -0.09578520482178877 -0.1018052281263791 
-0.05348339248704640 0.1706849636580703 -0.1233257453556357 
-0.2577374262256886 0.1121962879326987 0.06167914464619093 
-0.02970919453912250 0.2079152528875770 -0.1869890852084603 
0 0 0 
-0.006878619234784133 0.07935430775594349 -0.04324618830057671 
-0.04313662468822029 0.2604424614062870 -0.1754061693514408 
-0.006878619234784133 0.07935430775594349 -0.04324618830057671 
-0.04463451073996464 0.1004785883062108 -0.05485566663272674 
-0.08679621338973556 0.07489876949244131 0.02898812371824283 
0 0 0 
-0.006878619234784133 0.07935430775594349 -0.04324618830057671 
0 0 0 
-0.01441641324833593 0.1368933307117142 -0.1051725044335679 
-0.006878619234784133 0.07935430775594349 -0.04324618830057671 
0 0 0 
0 0 0 
-0.1983421138538741 0.1991846202564616 -0.1266869022201315 
0 0 0 
-0.1037549067756958 0.4855966199167554 -0.4289436119689409 
-0.01533639861916094 0.03686486195789392 -0.04958936794199314 
-0.1541927204384672 0.4954106740793016 -0.3953165086391972 
-0.01533639861916094 0.03686486195789392 -0.04958936794199314 
0 0 0 
-0.008043945965159515 0.07088858940282725 -0.07159958894053370 
-0.008043945965159515 0.07088858940282725 -0.07159958894053370 
-0.008043945965159515 0.07088858940282725 -0.07159958894053370 
-0.008043945965159515 0.07088858940282725 -0.07159958894053370 
-0.3848794889228372 0.2413127256816895 0.06549095969548215 
-0.008043945965159515 0.07088858940282725 -0.07159958894053370 
-0.008043945965159515 0.07088858940282725 -0.07159958894053370 
-0.008043945965159515 0.07088858940282725 -0.07159958894053370 
-0.008043945965159515 0.07088858940282725 -0.07159958894053370 
-0.2247817911429571 0.1910532397211515 0.01091554857159243 
-0.2240383313507136 0.5104747322015911 -0.3178415297990765 
-0.02856245492380975 -0.001673695435313753 0.02651193214260321 
-0.008043945965159515 0.07088858940282725 -0.07159958894053370 
-0.008043945965159515 0.07088858940282725 -0.07159958894053370 
-0.008043945965159515 0.07088858940282725 -0.07159958894053370 
-0.008043945965159515 0.07088858940282725 -0.07159958894053370 
0 0 0 
0 0 0 
0 0 0 
-0.05817265380871300 0.1032514175731396 -0.09295581768432941 
-0.1669311510183877 0.3169828204994698 -0.3074264150506629 
-0.05817265380871300 0.1032514175731396 -0.09295581768432941 
-0.09849660139640494 0.07100348519034878 -0.01582924858616411 
-0.07571340729078221 0.2204315816542860 -0.1954934632422140 
-0.05817265380871300 0.1032514175731396 -0.09295581768432941 
0 0 0 
0 0 0 
0 0 0 
-0.1238598926185616 0.08772264596053400 0.08691412864674439 
-0.02297617805985728 0.1076605952505248 -0.08973819982781990 
-0.02297617805985728 0.1076605952505248 -0.08973819982781990 
-0.08575946681798830 0.02605401222903092 0.02213539223278968 
0 0 0 
0 0 0 
-0.002528674300023734 0.04236323556128021 -0.03516974860235277 
-0.002528674300023734 0.04236323556128021 -0.03516974860235277 
-0.07467520662250067 0.2233924477218033 -0.1545505801457736 
0 0 0 
-0.05660437052145455 0.03647189113908290 0.02509670996414816 
0 0 0 
-0.002528674300023734 0.04236323556128021 -0.03516974860235277 
-0.002528674300023734 0.04236323556128021 -0.03516974860235277 
-0.002528674300023734 0.04236323556128021 -0.03516974860235277 
-0.2313641314687255 0.3865318189714657 -0.2799323404153083 
-0.03992350180317759 0.1226064188013097 -0.08595944907372254 
0 0 0 
-0.008531804181663641 0.09466686060546313 -0.09740735856694685 
-0.008531804181663641 0.09466686060546313 -0.09740735856694685 
-0.1107362819020170 0.2521443276817159 -0.1858966414517040 
0 0 0 
-0.2731188335605733 -0.002140659633682175 0.1932535264143191 
-0.06973474876316196 0.2544858301584743 -0.2922059497277488 
-0.1432478635177584 0.3425196998118275 -0.1668560272656307 
-0.2401474735797025 -0.2421788175411123 0.2947997932648613 
0 0 0 
0 0 0 
-0.004547134420996520 0.07352227104509047 -0.04547689201402257 
-0.004547134420996520 0.07352227104509047 -0.04547689201402257 
-0.01597826309472462 -0.03702397345481018 0.05454973855307942 
-0.004547134420996520 0.07352227104509047 -0.04547689201402257 
0 0 0 
-0.1128511803093629 -0.07784218227906717 0.1473494431380496 
0 0 0 
0 0 0 
0 0 0 
0 0 0 
0 0 0 
-0.1527916898503852 0.4185221191097595 -0.2483172986945197 
-0.01414896901743399 0.03554175222889464 -0.03429052896786416 
-0.1021757314506542 0.3257098279508690 -0.2208922915214437 
-0.01414896901743399 0.03554175222889464 -0.03429052896786416 
-0.01414896901743399 0.03554175222889464 -0.03429052896786416 
0 0 0 
-0.09896541654006516 0.1301214071837467 -0.07513488263039665 
-0.1682239285411772 0.2412477677116313 -0.1320107273250279 
-0.03003775481215822 0.1261808398596881 -0.1205457327534915 
0 0 0 
0 0 0 
-0.2025893720116919 -0.02469367717804870 0.09921864523762754 
-0.02712629027668771 0.03585034291692473 -0.01881201492823081 
-0.02712629027668771 0.03585034291692473 -0.01881201492823081 
-0.02712629027668771 0.03585034291692473 -0.01881201492823081 
-0.02712629027668771 0.03585034291692473 -0.01881201492823081 
-0.1155572351223937 0.1342587259130610 -0.04609604267670815 
-0.06726384369888884 0.1215602679432621 -0.1005705994398306 
-0.1471011981046144 -0.1033859634193519 0.1972644696735549 
-0.1873947350139942 0.1904677980617864 0.03510671423561405 
-0.02712629027668771 0.03585034291692473 -0.01881201492823081 
0 0 0 
-0.04545816698239771 -0.05307952283323397 0.07298742430934302 
-0.006765685131172350 0.06629710854001565 -0.05372131955482338 
0 0 0 
-0.01555834313802395 0.07932226460372382 -0.06498180165173140 
0 0 0 
-0.006765685131172350 0.06629710854001565 -0.05372131955482338 
-0.02117159883718868 0.1050639064528621 -0.08568572257802990 
-0.006765685131172350 0.06629710854001565 -0.05372131955482338 
-0.1040466922139532 -0.2653719060891479 0.2816293807375168 
-0.006765685131172350 0.06629710854001565 -0.05372131955482338 
0 0 0 
0 0 0 
-0.03596872751290998 0.04574702939007211 -0.03381551070908656 
-0.03596872751290998 0.04574702939007211 -0.03381551070908656 
-0.03596872751290998 0.04574702939007211 -0.03381551070908656 
-0.03596872751290998 0.04574702939007211 -0.03381551070908656 
-0.06582914119461600 0.009980350231382351 0.04029304675937545 
0 0 0 
-0.3711649640454644 0.4956088383701677 -0.3007073076254492 
-0.03596872751290998 0.04574702939007211 -0.03381551070908656 
0 0 0 
0 0 0 
0 0 0 
-0.03593758935423928 0.1038166421060520 -0.08557503621098154 
-0.05586501247426479 0.04268746128688037 -0.004860320881747285 
0 0 0 
-0.03593758935423928 0.1038166421060520 -0.08557503621098154 
0 0 0 
-0.03593758935423928 0.1038166421060520 -0.08557503621098154 
-0.03593758935423928 0.1038166421060520 -0.08557503621098154 
0 0 0 
0 0 0 
0 0 0 
-0.04708651630557444 0.04870963052631032 -0.03424652189086899 
-0.04708651630557444 0.04870963052631032 -0.03424652189086899 
-0.04708651630557444 0.04870963052631032 -0.03424652189086899 
-0.04708651630557444 0.04870963052631032 -0.03424652189086899 
-0.04708651630557444 0.04870963052631032 -0.03424652189086899 
-0.04708651630557444 0.04870963052631032 -0.03424652189086899 
-0.04708651630557444 0.04870963052631032 -0.03424652189086899 
-0.1951487650273004 0.4278791583518292 -0.2652781670316806 
-0.04708651630557444 0.04870963052631032 -0.03424652189086899 
-0.04708651630557444 0.04870963052631032 -0.03424652189086899 
-0.04708651630557444 0.04870963052631032 -0.03424652189086899 
-0.04708651630557444 0.04870963052631032 -0.03424652189086899 
0 0 0 
0 0 0 
-0.1480012633587888 0.2447466887639692 -0.1614744622417680 
-0.05000306427567992 0.1240320047297469 -0.05293307481363636 
-0.01208602714752669 0.02745868308203050 -0.02608394179628249 
-0.1456626385703081 -0.01980557133570556 0.1526752900443251 
-0.01208602714752669 0.02745868308203050 -0.02608394179628249 
-0.01208602714752669 0.02745868308203050 -0.02608394179628249 
-0.01208602714752669 0.02745868308203050 -0.02608394179628249 
0 0 0 
-0.09961267849894787 0.1501563922636931 -0.1145249825412896 
-0.1139960390867056 0.06145785624345291 0.005033204890855643 
0 0 0 
-0.3023986892154546 0.5778002011456641 -0.4332779535411681 
-0.1131675494465751 0.2522446373936451 -0.2057332379368922 
-0.09961267849894787 0.1501563922636931 -0.1145249825412896 
0 0 0 
-0.02050520278840787 0.1612720393692373 -0.1392205175215352 
-0.005658041039675788 0.07002601350977640 -0.07736262082174211 
-0.06508431196242810 -0.2165947150019926 0.2163048654796378 
0 0 0 
0 0 0 
-0.09873079187878330 0.1883135864086716 -0.1446508246621037 
-0.3168375029543362 0.04225069379896498 0.02293193220685464 
-0.1557008595469169 0.2382863128392121 -0.01475502270206437 
-0.2090845057686524 0.1053441087747473 -0.01916953885767981 
-0.01998212681178939 0.06091516170058049 -0.04009960044067091 
-0.01998212681178939 0.06091516170058049 -0.04009960044067091 
-0.1581409035794451 -0.1064512252272454 0.1361913192187457 
0 0 0 
0 0 0 
0 0 0 
-0.01998212681178939 0.06091516170058049 -0.04009960044067091 
-0.2912631028258887 -0.2240153969600900 0.3279642850957101 
0 0 0 
-0.01465964614263557 0.02427795222333733 -0.008686081214168258 
-0.01465964614263557 0.02427795222333733 -0.008686081214168258 
-0.01465964614263557 0.02427795222333733 -0.008686081214168258 
-0.1376857452191350 0.1752465373184093 -0.1273690055763801 
0 0 0 
0 0 0 
-0.2714782722143135 -0.5126833822401142 0.2422776293634923 
0 0 0 
0.2229231565528028 -0.3219755691805967 0.08085450634266886 
-0.1210463205605903 0.3254613978684855 -0.2095473219999088 
-0.02881759150483337 0.1838626118273005 -0.2298064539033762 
-0.1150486695176066 0.1056209006909744 0.02144043900429601 
-0.06815499508341347 0.2384593024802999 -0.1342776086108304 
-0.02279469193808497 -0.03608800695725027 0.07517453022543635 
-0.01846981870782007 0.05254443162949488 -0.02966797307115252 
0.2316719708688644 -0.1459175667453616 -0.01420734446044150 
0 0 0 
-0.05619454764710408 -0.05163157508955962 0.1079345191204178 
0 0 0 
-0.1285372074907553 -0.07313319986144975 0.1077796917021347 
0 0 0 
0 0 0 
-0.1371985858504955 0.2133330902899442 -0.09442012682861459 
0 0 0 
0 0 0 
-0.09412227565361314 -0.07453419993249123 0.1050057110333162 
0.4923618967010157 0.009082036284483811 -0.3525908520969913 
-0.03253538337706093 0.05034083382830344 -0.02924179799423504 
-0.1420043919647866 0.2862491058040747 -0.1837326393874937 
-0.1360675575908904 -0.3143878040106737 0.4264435990850624 
-0.03253538337706093 0.05034083382830344 -0.02924179799423504 
0 0 0 
-0.06884476120220524 -0.04944461246749494 0.09025749447555138 
-0.09792056618267580 -0.02774521950871695 0.09630123076525231 
-0.005326528258967668 0.08337163642316178 -0.06575259177714380 
-0.005326528258967668 0.08337163642316178 -0.06575259177714380 
-0.005326528258967668 0.08337163642316178 -0.06575259177714380 
-0.005326528258967668 0.08337163642316178 -0.06575259177714380 
-0.005326528258967668 0.08337163642316178 -0.06575259177714380 
0 0 0 
0 0 0 
-0.008742684507860945 0.07591301624868114 -0.04753861696282866 
-0.008742684507860945 0.07591301624868114 -0.04753861696282866 
-0.008742684507860945 0.07591301624868114 -0.04753861696282866 
-0.008742684507860945 0.07591301624868114 -0.04753861696282866 
0 0 0 
0 0 0 
0.06381269637092020 -0.1971125325304300 0.1032733866484993 
-0.1018970495495212 -0.05459389120569971 0.1323346744705092 
-0.01932319081524680 0.03907626946184416 -0.02213723687540951 
-0.01932319081524680 0.03907626946184416 -0.02213723687540951 
-0.1186250018519488 0.2460697536801677 -0.1919904465463801 
0 0 0 
-0.08399581858334727 -0.1361603031978094 0.1663730467444645 
-0.01932319081524680 0.03907626946184416 -0.02213723687540951 
-0.2447532266789126 -0.3343648048766423 0.3857811807030799 
0 0 0 
0 0 0 
-0.07270947601322664 0.1675833789457852 -0.1102996778744336 
0 0 0 
-0.05338729088460691 0.1834695027711106 -0.1339428470003209 
-0.1643539672293801 -0.2074028910650006 0.4136870365972066 
-0.08512170521683206 0.02763927309233556 0.02319930222791489 
-0.06178253447929961 0.1300866519955227 -0.06938329298056123 
-0.1869768606231838 0.1660302085765293 -0.01945277289714606 
0 0 0 
0 0 0 
-0.01723049066662468 0.04601642083255327 -0.02787267776356426 
-0.08637807661193324 -0.2263527848519978 0.2813255510560977 
-0.09526318370389475 0.2052513588375983 -0.05369161017482640 
-0.02938175612937103 0.08588254291947515 -0.04916018543575741 
-0.01723049066662468 0.04601642083255327 -0.02787267776356426 
-0.01723049066662468 0.04601642083255327 -0.02787267776356426 
-0.01723049066662468 0.04601642083255327 -0.02787267776356426 
-0.01723049066662468 0.04601642083255327 -0.02787267776356426 
0 0 0 
0 0 0 
0 0 0 
-0.1012787355953579 -0.007401552472297486 0.05991495238564411 
0 0 0 
-0.04292152673466819 0.05201761248867082 -0.03596204502754005 
0 0 0 
-0.1565542747810031 0.2110281485999034 -0.1988525194415762 
-0.03562933533259091 0.01216424746823373 -0.002067493674467964 
-0.1565542747810031 0.2110281485999034 -0.1988525194415762 
0 0 0 
-0.06078264533518195 0.2048227103957606 -0.1097684848067528 
0 0 0 
0 0 0 
-0.01079872692028332 0.04453743694277526 -0.02403751089702821 
-0.06276249142230331 -0.1642760579775948 0.1781953385415593 
-0.06044291158988073 0.03908991405353256 0.03121911051578902 
-0.01079872692028332 0.04453743694277526 -0.02403751089702821 
0 0 0 
-0.1176631853356313 -0.1814793401334780 0.2228517918577937 
-0.01079872692028332 0.04453743694277526 -0.02403751089702821 
-0.06104296749888247 0.1135926285521556 -0.06109063994094838 
0 0 0 
0 0 0 
-0.1198769466752272 -0.01471249934713603 0.08104577337917933 
-0.1336438992295180 0.1351619111098207 -0.08719601733565085 
0.4203961995765999 0.06885237322521880 -0.4499834969204511 
-0.08458796040159920 0.1836716963078318 -0.1157786518616426 
-0.2275910010436419 -0.06690554129861177 0.1074852656143959 
-0.08355275837291343 0.03268467361537816 0.03899540928714941 
-0.05266879202267973 0.08070031313207192 -0.04445610310350397 
-0.1386100607511148 0.1405890682053414 -0.04538506563493278 
0 0 0 
0 0 0 
-0.04078505187281044 0.06400294369193703 -0.03766944509479513 
-0.06302733691439696 -0.04214992080204184 0.1316878344612171 
-0.09085889130837899 0.1400234285396337 -0.05959790304495861 
-0.05307004984079296 0.01646491262263541 0.03192958028281102 
-0.04078505187281044 0.06400294369193703 -0.03766944509479513 
0 0 0 
0 0 0 
-0.2020881317672382 0.5246560584385057 -0.4320282316977518 
0 0 0 
0 0 0 
-0.03307144805762427 0.04872954706540053 -0.02667158158340858 
-0.03307144805762427 0.04872954706540053 -0.02667158158340858 
-0.03307144805762427 0.04872954706540053 -0.02667158158340858 
0 0 0 
-0.03307144805762427 0.04872954706540053 -0.02667158158340858 
-0.05174436651735531 -0.02557894874508652 0.06214230129607391 
0 0 0 
0 0 0 
-0.1890365906224525 0.2635587782946918 -0.1435663154030518 
0.3535760864500125 -0.3097766857689026 -0.1221857634227929 
-0.06451765223496893 0.09874897454057466 -0.02521973143939999 
0 0 0 
0 0 0 
0 0 0 
0 0 0 
-0.05168876957836237 0.09496356614773158 -0.06171824741662883 
-0.07173279367231768 0.1708778739153474 -0.1106360901100517 
-0.07173279367231768 0.1708778739153474 -0.1106360901100517 
-0.06096352219195064 0.2145942653207587 -0.1873667844246921 
0 0 0 
0 0 0 
0 0 0 
0 0 0 
0 0 0 
-0.05824834029641752 0.3486439165275742 -0.2273900722650699 
-0.09154223662158065 0.2243798765387253 -0.1219191943723190 
-0.04296711573474948 0.07101540199724085 -0.03410103466024920 
-0.05009752047464414 0.02590437326711939 0.01041623735339235 
-0.04296711573474948 0.07101540199724085 -0.03410103466024920 
0 0 0 
0 0 0 
-0.07001125710552517 0.009797493546712055 0.03163685514716206 
0.1183993041376520 0.03428705121997874 -0.1783265532410797 
-0.1640504691039131 -0.3885062063661565 0.3989930414493604 
-0.02025335921652951 0.07385570477332930 -0.07077200392569039 
-0.07761239644306861 -0.08883885543135972 0.1144553148367992 
-0.02025335921652951 0.07385570477332930 -0.07077200392569039 
0 0 0 
0 0 0 
-0.01533495171161563 0.08478039358546546 -0.08141738370972408 
-0.05913876966170412 0.002570414343125679 0.02907100935169574 
-0.1107774733861283 -0.1585645339755784 0.2112190384892861 
-0.2740242891903206 0.2299187668419044 -0.1554887183529984 
-0.01533495171161563 0.08478039358546546 -0.08141738370972408 
-0.04877188536435647 -0.006125028865660122 -0.02537735278061322 
0 0 0 
-0.02263549891400585 0.05372820841748818 -0.03789562129831042 
-0.04493842688417300 0.1337626468465111 -0.08708665005907064 
0.04339412836044345 0.06380215996545353 -0.02777909450041632 
0 0 0 
0 0 0 
-0.02263549891400585 0.05372820841748818 -0.03789562129831042 
-0.06937991338751465 -0.1255513098061477 0.1885252416868947 
-0.09778876186200283 -0.01997221908975081 0.09384764347497639 
-0.02263549891400585 0.05372820841748818 -0.03789562129831042 
-0.02263549891400585 0.05372820841748818 -0.03789562129831042 
0 0 0 
-0.2433616298515820 0.3348788848411521 -0.2884919194972366 
-0.1163896810908562 0.1748452377497793 -0.1029429612017368 
-0.06330173994984310 0.1556371461282766 -0.07997455482977002 
-0.06089605648347152 0.06638451811972024 -0.05835608248792620 
-0.04273685794881081 0.005152334207408083 0.03163635211936702 
0.2196687089153866 -0.3895485472961922 0.1802242589982506 
0 0 0 
0 0 0 
0 0 0 
