solver_type L2R_LR
nr_class 13
label 1 2 3 4 5 6 7 8 9 10 11 12 13
nr_feature 2670
bias 0.000000000000000
w
0.2506482566685198 -0.03108099404287561 -0.06674811228392376 -0.005663614381397670 -0.002601658757611338 -0.0007292043077368043 -0.003597430978094461 -0.04168909140890610 -0.04158684636935772 -0.004769460569488580 -0.002249643101418578 -0.001830880211001729 -0.0005655952587906529 
-0.1157827992358143 -0.1119489144723825 0.3129496618333893 -0.5048531680430959 -0.01243673106822249 -0.1419815691726362 -0.3475508441220338 -0.03787442490257473 0.3260993913136673 0.2630954829962348 0.4297201441781716 -0.2738643460709322 -0.06135711016126788 
0.1239166918687847 -0.05700929304837572 -0.09541626389063916 -0.03439232401322985 -0.01521755674294131 -0.008606276425603360 -0.02228346301477621 -0.1405034764742403 -0.04230805824626199 -0.04323091033177341 0.2603496281403454 -0.009649705588220240 -0.0007135370062834173 
0.2506482566685198 -0.03108099404287561 -0.06674811228392376 -0.005663614381397670 -0.002601658757611338 -0.0007292043077368043 -0.003597430978094461 -0.04168909140890610 -0.04158684636935772 -0.004769460569488580 -0.002249643101418578 -0.001830880211001729 -0.0005655952587906529 
1.181355252205710 -0.6102700206301399 -0.3240186813980722 -0.7339037251190720 -0.5373853705921601 -0.3623582728504493 -0.01612341817533989 -0.6627638498081340 -0.8015571353411562 -0.08883374534159427 -0.7346994079457890 0.2856809913267084 -0.4065455823800944 
0.1893698919666167 0.07021898382577563 -0.1648360286286270 0.3236317206606714 -0.003851690263166073 -0.001170642884751561 -0.005187178120111819 -0.09543718000265795 -0.05909034786388887 -0.02593007196152787 -0.008214546706834192 -0.005818062158855003 -0.001548238425640345 
-0.04893291422296128 0.3825220018890421 -0.4722066869241112 -0.1591818152244504 -0.4797732832425635 -0.5018044461834759 -0.8626330900990307 -0.05482831797100145 0.2229289450290254 -0.1894642422037112 -0.1537600489549961 -0.5079044856665116 -0.5573270164250418 
0.7458967787745311 -0.5059877314140000 -0.3304664797162351 -0.8025099833889955 0.1459769566127125 -0.3707680436115363 -0.1903076960708207 -0.07572983416695193 0.3222618571777338 -0.4702495357971464 -0.6349802735137045 -0.06529415378684160 -0.2564628542248542 
-0.3938775563854259 -0.01248457780137001 -0.3668977626146212 0.1322887485448223 0.03842310705477572 -0.4186279964782075 -0.2827606396450942 -0.1708532738172954 0.3861474726143954 -0.02680002310920297 0.1288434112449330 -0.4681144314052300 -0.8879410801383147 
-0.1551982765545039 -0.8128535547877980 0.3672244085280066 -0.3633961694413147 -0.05625219393331010 -0.2176818427473851 -0.8130302659287647 -0.2120341217410450 -0.8234954029390807 0.008769285524004949 -0.5251476698522521 0.07356364206920156 -0.3005002700838688 
0.2791376692609565 -0.6405901495435341 -0.6492093317369964 -0.5577565469631729 -0.6443499444734477 -0.6495652198014412 -0.3121809003280301 0.9635306756516295 0.9600405025041130 -0.3542080938583501 -0.2061151073600304 -0.5538524010193709 -0.4284925166601699 
-0.2574830794240901 0.03224337031543826 0.007139943054806695 0.09556185774046488 -0.4129548167580245 -0.4249803541403119 -0.2528898360134526 0.3664407286892000 -0.1667024363227020 -0.1496999454976280 -0.1500523121820808 0.02136507579286482 -0.3619227460757511 
-0.1878407018471824 0.4345410541182073 -0.04634289411632783 -0.01442714729301776 -0.4842257773576892 -0.5025314255944361 -0.02129990150160880 0.3439811347491600 -0.3356610102911810 -0.6866035278452355 -0.2200064246952118 -0.6164852848150583 -0.3574298436752387 
-0.1901460756921628 0.1603292767155850 0.2606180170686558 0.007730901445323108 -0.2866562280769388 -0.5942131912759939 -0.4317585378159271 -0.8608633647247830 -0.1186882351279800 -0.4586404333633591 -0.7775509344216628 -0.8497199313205318 -0.3866713535425640 
-0.1657360473810957 0.3567896016962168 -0.1535759274292003 0.02461748920158613 0.01925554292440181 0.1778666618688091 0.5545386545767015 -0.1683065467127676 -0.2873451093923048 -0.1223077173452402 -0.2099416441643056 -0.2599460229036381 -0.02717882077250379 
0.2494282803460020 -0.03693704612018672 -0.02716091297504168 -0.006105090954784881 -0.002910676027400593 -0.0007414738743861081 -0.003591337158596560 -0.04880337018581170 -0.04160433356442666 -0.01050852243623089 -0.002265190720043087 -0.03740073256872124 -0.0005665062368316216 
-0.6595793392278521 -2.023701441642764 -0.8217299868792130 -2.570952183447107 -3.210220886990863 -3.205634157456948 -2.606509589951393 -2.195963027058288 -2.594635518810290 -2.981266913893322 -3.286062860595724 -3.030269669433942 -3.441416019503174 
0 0 0 0 0 0 0 0 0 0 0 0 0 
0.5844259773012959 0.04740115521091819 0.2022733017515727 -0.5905245938377060 -0.1884373982208479 -0.4310899683781120 -0.7849654205338693 -0.4277821174995156 -0.8386980197654436 -0.6167017250296984 -0.5568035824617630 0.2202953681472132 -0.3501465763390518 
0.5536700621505950 0.03021772581968553 -0.7758632177821305 0.4268838583808398 -0.1041447144943862 -0.2429061659560473 0.06678355056531933 -0.05524334124998223 0.4586517030105561 -0.3155501460369098 0.1534032024849928 -0.3591586695648906 -0.09195731079533216 
-0.2367194133460228 0.2997628352762068 -0.08498138407661956 0.3264369780499319 -0.2630920583858621 -0.4855067760957781 -0.02056210416330656 -0.6749904331669542 -0.3603038198523524 -0.2550140481991295 -0.7460877794235161 -0.4248953024917432 -0.3087419298878400 
0.2048143549490481 -0.1177513234030046 0.1008669041762980 0.04163370735225964 -0.02093332018075318 -0.01963745982418712 -0.01113044478264643 -0.1406115092183534 -0.06193695151159415 0.06638611966061914 -0.01125486178488514 -0.01268997042923740 -0.003128110593166818 
-0.1706380364911052 -0.4988591555945858 0.06219651931435831 -0.1306315880919058 0.2831096135411788 0.03193180106141636 -0.4014594460852836 0.04373583431959430 0.1203283320783790 -0.3598437663482220 0.2244641250302185 0.07134770446516851 -0.3988966511981721 
-0.6506779128698487 1.172933862730734 -0.6191193555694420 -0.2957833514297041 -0.03468020404877416 -0.1060634688381045 -0.1679429502600204 -0.6387346519832124 0.3390010088826266 0.03576824319518793 -0.2266605650730473 0.2322840740253782 -0.06877806604354648 
-0.1203647153298456 0.2579733088241588 -0.2125758290887260 -0.1001546987935728 -0.01860488259028727 -0.01277502387970505 -0.02637435737031307 -0.1012705514219785 0.3547222236490524 -0.08773559236174036 -0.01836991570450196 -0.01746606633689937 -0.003895036884401258 
0.01757019654636234 -0.1501158315693118 -0.4850316878940780 0.02073196550086012 -0.4244370643008399 0.4642301833405188 -0.4009174096687304 -0.2148657084668020 -0.001437457379066743 0.5825260255882883 -0.05036521439414455 0.2980617881677732 -0.2961993452400084 
-0.0001281849765080583 0.02906644414675938 -0.007975683461551688 -0.005346210063517350 -4.491006599546947e-05 -2.285698124809561e-05 -0.0005739906321732913 -0.02620131633113311 -0.001494689483420001 -0.0009787925187605844 -0.0009363018073019794 -0.002262793484416135 -2.950388547958945e-06 
-0.7827514125021838 -0.09010947044694453 0.3915703225509842 -0.1450228821121436 -0.2522347794234225 -0.2157774274407961 -0.3173199390253826 0.2306200812537215 -0.6551669576904790 0.1511010877705399 0.2891129679342431 0.1238882998239058 -0.09467232488076036 
-0.6655631619776611 -0.06286930436391797 0.2243712588678145 -0.1647545095300314 -0.5909761416471554 -0.4207870246884830 0.1374267146759724 0.01645132044951939 -0.4848656534114294 -0.4729318566330485 0.3484588353988894 0.1323063500708956 -1.131793986526511 
-0.5154865606684149 0.02338973172376398 0.3608983883313769 -0.5035963199147221 -0.4263842921587461 -0.9629739405302437 -0.7549846852366493 -0.07884287814562010 -1.393017832165469 -0.3227866824457099 -0.8340222286883840 -0.1017415877843548 -0.4697859071283785 
-0.1621713538422790 -0.08453932596938710 0.02683213853830143 0.1142014802539084 -0.007356729294619888 -0.001261538741709110 -0.01150199105927435 -0.03676408501962907 0.5305619397580489 -0.01080665941862536 -0.006909070396496400 -0.005389482579211189 -0.001133786733414161 
-0.7498540938031260 -0.1865042120539313 -0.1038321133904538 -0.07796423136368089 -0.3991941147543253 -0.1855415331680451 -0.4251494051904316 0.3277727645118120 -0.01165251971732968 0.1365806294217005 -0.2666299861249127 -0.3156099908776410 -0.9453291580956741 
-0.6615460939400231 2.429043456119869 -0.9741358478915670 -0.7927195949553670 -0.3132295732349819 -0.3043174667811436 -0.3620308976370610 -0.1286223294302452 -0.2966483690451300 -0.3884600174931405 -0.4522814513993163 -0.2329044046096670 -0.1364541024225079 
-0.0001281849765080583 0.02906644414675938 -0.007975683461551688 -0.005346210063517350 -4.491006599546947e-05 -2.285698124809561e-05 -0.0005739906321732913 -0.02620131633113311 -0.001494689483420001 -0.0009787925187605844 -0.0009363018073019794 -0.002262793484416135 -2.950388547958945e-06 
-0.7057139594328151 -0.02735746824342505 0.05342482952853263 -0.1328768344432590 -0.2151516988560042 0.03248504708177001 -0.1114788538784120 0.6049415425518544 0.04863257747423570 -0.2007839435663388 -0.03084390412993842 -0.2839490241920399 -0.07853666722058926 
0.2808221260380518 0.2562492918113077 -0.2368068359198662 -0.5306468779328887 -0.07096607688090957 -0.3076946065498851 -0.4038040585873309 -0.5555393418727604 0.06799218076895838 -0.4489947481764083 -0.2416712966661886 -0.1185129254516740 -0.1853477512650797 
-0.0001281849765080583 0.02906644414675938 -0.007975683461551688 -0.005346210063517350 -4.491006599546947e-05 -2.285698124809561e-05 -0.0005739906321732913 -0.02620131633113311 -0.001494689483420001 -0.0009787925187605844 -0.0009363018073019794 -0.002262793484416135 -2.950388547958945e-06 
-0.07770345591338833 0.1360590181944768 -0.7266051719693518 0.1248391760015641 -0.3277108645629807 -0.5337726692424217 0.3057585017221246 0.03647987813251074 -0.05968982673779049 -0.02629543467536728 0.4878000289840959 -0.3784002129470281 -0.2972439108105728 
0.03657419058632341 0.1102328789097960 -0.08601263808554883 0.1939028050510240 -0.04057107071983154 -0.05376173107555697 -0.05028409576547312 -0.3405190925434504 -0.3073976067233105 -0.08123793209706712 -0.05647353319716560 -0.06155822804632331 -0.02213186890177516 
-0.9452571240048544 0.5706407385993157 -0.3581426503402460 0.2039584465182139 0.007033554487895791 0.1436431797381640 -0.1728680425235894 0.1439587782173173 0.3120147315508821 -0.1203236595473185 -0.4282929363251505 -0.4899700945304184 -0.1811997978237137 
-0.5326395880239375 0.3935925235616536 -0.1494245075414825 -0.2969154887710961 -0.06241045560473436 -0.1822780656696857 0.6307768390277545 -0.06007916947218278 -0.2697453897742480 0.2681191463122715 0.4655618000788110 0.1628572058115467 -0.2051675268001269 
-0.1140880357324090 1.254077186297033 -0.2848342306556065 -0.2298756079362353 -0.04711395506244896 -0.02654814208337869 -0.04697604881134162 -0.2112507603036282 -0.1305391073097217 -0.1067313704303005 -0.07900431865456664 -0.06980522593168777 -0.005687729050049744 
-0.2626221169370478 0.8711191906582988 -0.1507376254335422 -0.05252574936182812 -0.2906796762334950 -0.3121953961940424 -0.2679842352868458 -0.5617350095980981 0.03123579842516765 0.04616020048618044 -0.2132601267653205 -0.3503551191096377 -0.08622135013635755 
-0.4262998981698369 -0.2575553790614142 0.3038167462070441 0.06638034863559816 -0.1466941233997687 -0.1209493499639650 -0.2427177581475062 0.02006377796238341 0.2320888816052606 -0.2760368855560292 -0.2294371519270886 -0.2031951630424859 -0.07847206060213045 
-0.1771779394375489 0.1279552239918808 0.2018354918792026 -0.06787862403900750 -0.02061082459983999 -0.01718965709312706 -0.01818788578894335 -0.08677116970908902 -0.1019063208444627 -0.03724659472785140 -0.02970823281724870 -0.05113948800063020 -0.01316936214519028 
-0.09633955957701558 0.2082414184117474 0.1775022471972229 -0.03890967088289812 -0.005371628669833359 -0.003317213405907140 -0.01104222817091917 -0.1043942585760792 -0.1965733463292139 -0.03182387064261086 -0.01756106081133256 -0.01917964380188484 -0.001275008902821921 
-0.03863178723901080 0.08948427587292544 0.05309635328691355 -0.09641933172778246 -0.02859809586306126 -0.04016433583408936 -0.04068252189229447 -0.1556643055503926 -0.07013037151695190 0.1003798154432719 -0.04465358547326367 -0.05313710181706532 -0.003345559636839926 
-0.002646952047529746 0.1952748536784999 -0.1328168480026621 -0.02995470272324576 -0.001526690515168781 -0.001607153178632490 -0.005041914670113476 -0.05937407700540137 -0.04870682871863161 -0.01715465026892839 -0.01249151186898805 -0.01047674964035770 -0.0006948820821058965 
-0.002646952047529746 0.1952748536784999 -0.1328168480026621 -0.02995470272324576 -0.001526690515168781 -0.001607153178632490 -0.005041914670113476 -0.05937407700540137 -0.04870682871863161 -0.01715465026892839 -0.01249151186898805 -0.01047674964035770 -0.0006948820821058965 
-0.2344072565680736 0.2200448517289244 0.02002645270656514 -0.1361657773400247 -0.02248782629906151 -0.02807450633821434 -0.07244793907922775 0.04532535108907420 -0.1224041284734541 -0.03903282127963091 -0.04232668203092591 -0.04023732645033785 -0.01990894683567111 
-0.3081302891684180 0.1211294268395006 -0.1839440880373118 -0.03950428372095863 -0.3261495841017552 -0.3602804654836798 -0.9038396912778194 -0.1613299427238778 0.4327054447414160 -0.01034690677878089 -0.5451627029095091 -0.3399125944276146 -0.3734000768148441 
-0.002646952047529746 0.1952748536784999 -0.1328168480026621 -0.02995470272324576 -0.001526690515168781 -0.001607153178632490 -0.005041914670113476 -0.05937407700540137 -0.04870682871863161 -0.01715465026892839 -0.01249151186898805 -0.01047674964035770 -0.0006948820821058965 
-0.002646952047529746 0.1952748536784999 -0.1328168480026621 -0.02995470272324576 -0.001526690515168781 -0.001607153178632490 -0.005041914670113476 -0.05937407700540137 -0.04870682871863161 -0.01715465026892839 -0.01249151186898805 -0.01047674964035770 -0.0006948820821058965 
-0.3034348543574632 0.3581959407853970 -0.2722666352576945 -0.3770252933867501 -0.1248338646782653 -0.06080300000734719 -0.09625575204617066 0.5043623025266907 -0.1753766337588062 -0.1429915120938650 -0.1984695077113437 -0.2032134460282038 -0.03008605032879069 
-0.5947823005953589 -0.2279684650592947 1.024768580827589 0.09333947714518964 0.05187036204339474 -0.1044087276701051 -0.2142225715244874 -0.2732071264871664 -0.2853447355403834 0.2108048709975924 -0.1331072054486386 0.3402675843204980 -0.02260665861719930 
-0.1808881708458694 0.02375960208357419 -0.4861819038726957 0.09073985935233254 -0.1747748337820290 -0.07761344984275260 -0.1393475837333933 -0.03098728563205123 0.6232941823905498 -0.1915761231735676 0.3773871466786488 -0.2692110081376579 -0.03149041573923244 
-1.591470353117882 -0.1355984832462217 -0.3304266435142830 0.9493661635664827 0.1213692545178885 -0.4618740404175798 -0.2295757832642516 0.04470461598296912 -0.7088522536212105 -0.4056644780699059 -0.1876149959237691 -0.4482528449260478 -0.7063568297580881 
-1.272974360410731 -0.3214909425844124 1.579572414494997 -0.001995166361381533 -0.3881950965325823 -0.6162024330953039 -0.1654224680927916 -0.9302403088387715 -0.7114719907732973 0.4324255255242800 -0.5044970952500878 -0.6392290058676308 -0.6208644178603041 
-0.1049882912374768 0.07114042436403331 -0.1081343700056332 0.09694812908056186 -0.02008559659111571 -0.02019123475160832 -0.04996644075823722 -0.1308278669669457 -0.08467229607852354 -0.05439017867085468 -0.04724439245103514 -0.04311589358814871 -0.01931535309803396 
-0.2786206719951888 -0.06033691764685858 0.05708920906883825 0.2093816897130178 -0.5467896502002507 -0.2221516680353293 0.2096512725472375 -0.2791189265062617 -0.6346034269127752 -0.5880391577740146 0.1823066993686609 -0.07931354417396505 -0.3459542656708698 
-0.009492200346492030 -0.1981926608673669 0.4047144695942184 0.04277403529976468 -0.009869479787040851 -0.006872970900129075 -0.04328777696302961 -0.06664425015385285 -0.06992817902355620 -0.04793959039387222 -0.04964191922780395 -0.01721182117406239 -0.0006249465601016112 
-0.7143427001733755 -0.3105244906423432 -0.3357724252358333 -0.1621333398449784 -0.3556922247049583 -0.3185188735827715 -0.1063087313511336 -0.4634270552423987 1.093682122223826 -0.2802508122001853 -0.2849735384705452 -0.5180579934451675 -0.1537306441900539 
-0.1239943043069742 -0.1266588130035810 0.05884699947708434 0.07393020500248805 -0.03583963083436745 -0.01145908631509334 -0.09017497396487587 -0.1216754266786942 -0.009871482269311704 -0.03484477798470538 -0.05703296060122215 -0.09331215505141210 -0.02207239773065221 
-0.2014672448868009 -0.3238394785129092 -0.7004936743116309 1.703434309613471 -0.06469597213065284 -0.04968374546841908 0.08055763030080917 0.03276479820820671 -0.1292240848541829 -0.1783646224021311 -0.09439896046641834 -0.09973785674007514 -0.02636882703697903 
-0.2218374068126799 -0.1212296633150029 -0.3626547834257267 0.05805268404015149 -0.02407798421366549 -0.02868392398479482 -0.1038682506686617 0.6797987981634478 -0.2522459970802658 -0.06435814461651493 -0.05271054035348866 -0.03517546573937458 -0.01653083163613368 
-0.09453957336533703 0.2393927360254490 -0.1302066349567998 -0.07343607036782320 -0.008887450949195963 -0.01941301820174707 -0.01898916760013570 -0.1068282417165201 0.3606100216398843 -0.03549292000235677 -0.02455049763766051 -0.03802818233916935 -0.002510280240063059 
0.4669873809302348 -0.3683591737704074 -0.3325454440795215 -0.2259294449197181 -0.4729385570459227 -0.4195998455642606 -0.1555888032080023 -0.2950185688286913 0.4371957833223147 -0.1119402406217786 -0.4130201129154857 -0.6029825511333271 -0.2208147924824548 
-0.2955260965403144 -0.01486606683250417 0.1905322791767448 0.1042228376518534 -0.05176115255031585 0.05371815789031535 -0.1748149520208600 -0.003995989689392488 0.4532750096379645 0.1674940120074656 -0.1806901370067937 0.5218095906052995 -0.2017229645269492 
-0.1246857644004657 0.5372777270936977 -0.1010726729775060 -0.06995686631844450 -0.005487023781718265 -0.008304925732172902 -0.01471466534783049 -0.1000426730684454 -0.07038148843505744 -0.01595964466574753 -0.01240576555775957 -0.02159613652523738 -0.001680994477671244 
-0.003958204776222080 0.6967256407196238 -0.3735704580055885 -0.08465602934273436 -0.2102495661191996 -0.1797359534859757 -0.07441192916213307 -0.03691494320534101 -0.3837872435674655 -0.2610368098669453 -0.2250158683776296 -0.2896834513529109 -0.09373778280634132 
0.1307960528740479 0.3827930393958691 -0.2341081778765778 -0.3254010802008348 0.2478957805482630 0.3572549989283507 -0.2509639544243270 0.03085736288167041 -0.4499287845057085 -0.1341648161769550 -0.3616676976087729 0.02110675576123570 -0.07372134520456697 
-0.05237429493359159 -0.09703178536586754 -0.5015547694871934 0.4707644018530646 -0.2480194855459542 -0.2363081443773248 -0.03650736036753935 -0.2182481073607253 -0.1829241639936625 -0.07283763117781666 0.1432165976042296 -0.2648625902970548 -0.1740841821777436 
-0.1246857644004657 0.5372777270936977 -0.1010726729775060 -0.06995686631844450 -0.005487023781718265 -0.008304925732172902 -0.01471466534783049 -0.1000426730684454 -0.07038148843505744 -0.01595964466574753 -0.01240576555775957 -0.02159613652523738 -0.001680994477671244 
0.1734593771229158 -0.03458854115217210 -0.1472421177175297 -0.01727736987723900 -0.03279725406610823 -0.03447512433152034 -0.07980296384054180 -0.09728580301177480 -0.08224181729562739 -0.04702140513831340 -0.03710130658712986 -0.09550515216063810 -0.04494473473007137 
-0.07354579701609167 -2.042921641588393 -0.6357701996885683 -2.734530453846908 -2.169429693497261 -2.286157510266040 -2.035728138318862 -2.429246170249464 -2.487145841499248 -2.517509506885016 -2.277183969975412 -1.884459167841956 -2.176370253846694 
0.6740399232585778 -0.4402714479755809 0.03996104679751225 -0.8182960369207947 -0.7281806597951036 -0.9057394141133990 -0.6548653992705131 -0.4179740017464174 -0.6215980127125291 -0.4379200350089532 -0.9068370408736489 -1.053576217916577 -0.9412980119467429 
-0.2681551405621059 0.3632465008313333 0.6629323027030688 -0.5200246302341529 0.4171021088906972 0.4135631886277549 0.01774965668004075 0.06829764486397225 -0.6345159926890861 0.4291369137567879 -0.2638196122107888 0.2990196509044928 -0.08285286087666935 
0.1897717992695797 -0.2775736583332563 0.1657114993437882 0.05839734347283315 -0.02888350390668644 -0.02567624925848301 -0.01614180688541187 -0.09274134304952748 -0.04264311424696669 -0.06489078835674317 -0.01588441739023852 -0.07357183946375823 -0.007261844565541622 
0.2000456103538230 -0.1911221270993241 -0.04095058045979150 -0.06274555913696528 -0.01852166530283723 -0.01636994422628185 -0.03952278258350312 -0.2197611640332013 -0.1022396944053755 -0.07263670976525054 0.2274405712004452 -0.02520174828169390 -0.001600533665284180 
0.05824052965522924 -0.1255491864468522 -0.09665471162393088 0.05286978236976585 -0.02348657181359993 0.2703548126303944 -0.05933696529770430 -0.3639005823114640 -0.1806357672222980 0.009080452305152930 -0.07638057419376157 0.2205601918916200 -0.01950806451143043 
0.7338720954593357 0.2152021049829185 -0.4402221051129755 -0.2105770825126052 -0.08259908226936623 -0.08111381419781964 -0.1278549081691283 -0.4944116114997871 -0.2500109546350630 -0.2342783477369958 -0.09921408487388599 0.1768972636468940 -0.02868135576221734 
-0.3612073093966560 0.08371577469139060 -0.08610955463884663 -0.5822498751077324 -0.2925364586331907 -0.3064827257509748 -0.4409901312400462 0.1477921496318624 -0.5606012186939403 -0.07371725549331347 0.007423322600565503 -0.7752347672012083 -0.9632298770989017 
-0.3615458557564514 0.4092958542295119 0.3958072348072390 -0.2806484581953095 -0.4290868125424192 -0.2135260559309263 -0.4055373673251317 -0.4752718276077996 0.2018955200603235 -0.4838926300393824 -0.4438018422149894 0.1735625400104940 -0.1346195153108740 
-0.2086861054967092 -0.07589131335260688 0.4119176069116492 -0.03603097081459585 -0.01968014555493235 -0.02236607974580918 -0.01585851092174411 -0.07611460881955012 -0.01476889670189157 -0.04579679802298427 -0.01562287101300146 -0.04263767878066589 -0.007255981263325527 
-0.05788699542379762 -0.06506179354508848 0.03683014872949376 -0.09223115900186274 -0.007909338266003868 -0.009963242618745509 -0.009096978261856646 0.1235384276302813 -0.004048034997537532 -0.02825449377000967 -0.01939171420781116 -0.02176680513247435 -0.001192101901681753 
0.04935381106198480 -0.4450772516804166 0.9542306136163045 -0.1074090455818767 -0.2016244217256137 -0.2087583463671549 -0.5015320778929893 -0.5247027708734311 -0.1603866867460078 0.1883197362564577 -0.6018043744199875 -0.3836554534668207 -0.1078248224172503 
1.708369919373344 -0.2352560494779365 -0.9823430525596530 -0.3145373492573831 -0.6461501425980535 -0.1957610237405999 -0.3250328325851810 0.3156110833504697 -0.3833774862224306 -0.7167413516078529 -0.3114532904374252 -0.6231286695053136 -0.2841124209470478 
0.3786168644362447 -0.1322514339784786 -0.1383924405794508 -0.02895191392500551 -0.005099489908347729 -0.006400209539146727 -0.01908096680801213 -0.1067435860527288 -0.1008594034430799 -0.01397857862066171 -0.03286455782005108 -0.002949115622265629 -0.001336973250381089 
0.3786168644362447 -0.1322514339784786 -0.1383924405794508 -0.02895191392500551 -0.005099489908347729 -0.006400209539146727 -0.01908096680801213 -0.1067435860527288 -0.1008594034430799 -0.01397857862066171 -0.03286455782005108 -0.002949115622265629 -0.001336973250381089 
0.05312795896218910 0.08727483390826465 -0.03803557638371522 0.004836907836819213 -0.1530819376928357 -0.1145566783324723 -0.2394345845252906 0.1520365548158278 -0.4911260808933001 -0.7007637921610331 -0.1644869874476004 -0.5743154245842843 -0.3015358357639948 
0.4063348804934205 -0.08325120733201233 0.02506476973116401 -0.06893877654601915 -0.01832168307016096 -0.01821476601379156 -0.03208275468284813 -0.06088033793193802 -0.04516233154311899 -0.02395995318502402 -0.05843079369435070 -0.01610061316496599 -0.002694420180298467 
-0.1858454681258649 -0.05843398483113900 0.5582281572751002 -0.01310464108727537 -0.005086622879051076 -0.002211565140253173 -0.004362869851435277 -0.05309031046238198 -0.006104180776598214 -0.009086475299487222 -0.005235975769919070 -0.02849895489325050 -0.0006595749093158569 
-0.003496175725180472 -0.01482366760732400 0.1700409623944363 -0.007245310040170139 -0.004387988071353524 -0.001715478794169764 -0.001167410632949016 -0.03824464171320274 -0.001467083334298643 -0.001292687542943417 -0.002448129129811631 -0.02660797332354915 -8.783952758550351e-05 
-0.01373217183994764 -0.5614116842738007 0.4939529978993565 -0.1900021824330870 -0.04463498595260781 0.1615775951098583 -0.2952158301366711 -0.6572218815159431 -0.2781675672881902 -0.4723781687892852 -0.2986185741788675 -0.06965753549702210 -0.1610599224651552 
-0.003496175725180472 -0.01482366760732400 0.1700409623944363 -0.007245310040170139 -0.004387988071353524 -0.001715478794169764 -0.001167410632949016 -0.03824464171320274 -0.001467083334298643 -0.001292687542943417 -0.002448129129811631 -0.02660797332354915 -8.783952758550351e-05 
-0.003496175725180472 -0.01482366760732400 0.1700409623944363 -0.007245310040170139 -0.004387988071353524 -0.001715478794169764 -0.001167410632949016 -0.03824464171320274 -0.001467083334298643 -0.001292687542943417 -0.002448129129811631 -0.02660797332354915 -8.783952758550351e-05 
-0.003496175725180472 -0.01482366760732400 0.1700409623944363 -0.007245310040170139 -0.004387988071353524 -0.001715478794169764 -0.001167410632949016 -0.03824464171320274 -0.001467083334298643 -0.001292687542943417 -0.002448129129811631 -0.02660797332354915 -8.783952758550351e-05 
-0.5573835045149385 0.03658873316623493 0.3797064050905601 -0.3096418695691691 0.3144273633410245 0.08105475721685254 -0.6747112326563078 0.09276441564050367 -0.1513186813606174 -0.5082811725239132 -0.7042645676941628 -0.03792541236023802 -0.2227696187765632 
-0.003496175725180472 -0.01482366760732400 0.1700409623944363 -0.007245310040170139 -0.004387988071353524 -0.001715478794169764 -0.001167410632949016 -0.03824464171320274 -0.001467083334298643 -0.001292687542943417 -0.002448129129811631 -0.02660797332354915 -8.783952758550351e-05 
-0.6728226056854474 -0.2689279094357355 -0.4779611077975032 -0.08655578841935269 -0.08728640566509213 -0.4044477935521934 -0.5296452994162015 0.3568374978682961 0.3240881876466162 -0.4887132758595877 0.1096412888650800 0.05363370845150400 -0.3387865954449827 
-0.3255872864895069 -0.2670589186559121 0.4016000696696333 -0.1954781855167402 -0.09829980067667995 -0.1081818716039456 -0.1124935820789463 0.06003368784363358 -0.1705285501458176 -0.1167121059103174 0.07238398503271465 0.6242158012246658 -0.01794268221696796 
-0.8819458241526198 -0.01705197793742324 -0.6188425087239405 -0.2430618228325345 1.717413039743656 1.488247546560932 -0.8484478541777661 -0.6657324373404644 -0.3251188272444815 -0.1788281758222008 -0.3206280323312888 2.145046457019887 -0.09485184449883685 
-0.1634821124566412 -0.2439495919167433 -0.6009661491229724 -0.1258364168759724 1.887742367864499 0.6491419412847845 -0.1686714069936270 -0.2505284945537953 -0.1696052812793712 -0.02643373151151150 -0.2143216610651403 -0.4963608553296555 -0.03922877397719416 
-0.2431010113326461 -0.1972826301946877 -0.2915821411110481 -0.1692919617593114 0.2634636118205705 0.6165437363378367 -0.06740115898445628 0.1376148747112749 -0.07991600886748314 -0.1121127308645611 -0.05162666179722440 -0.1558804011106862 -0.01109129269606498 
-0.2211555009869938 -0.3485914749491996 -0.08390648595520234 0.2108198607566082 -0.1843302743303056 0.3098831420528853 -0.02421073203611932 0.2454460755692692 -0.5820315327237765 -0.1729020691040720 0.6098267595810960 -0.2173551342834308 -0.04753684520491148 
-0.01367166263898480 -0.03465597064339535 -0.1163619192297535 -0.09370614989214353 0.05857073725958299 0.3382057121052948 -0.006843373069976226 -0.1052964367051715 -0.004773778727826724 -0.04211591936935455 -0.02580274003140946 -0.08728565263669523 -0.002794784343763262 
-0.7154220498337106 0.2423828591827228 0.4797356403714765 -0.1527044552376378 -0.1025071059700089 -0.03264552886634598 0.2581947291740835 -0.1936282037396955 0.2032382077708069 -0.1423061045834685 -0.06795225887624726 -0.1395248927340743 -0.01058813656855015 
-0.3048579717562557 -0.2417299051537426 -0.02410520057774306 -0.3209030093867012 0.2093332285954173 0.2674922716160611 1.977516221977297 -0.5053068918458083 -0.2424790865049130 0.6555217176558656 -0.3224071204366806 0.04270482245688382 -0.02824651331829933 
-0.2426160776745442 0.6259788531310211 0.03442746340637569 -0.4519163231859074 -0.7175430233096632 -0.2677792647762362 -0.1655617488570540 -0.2889879570399169 -0.3755975497568437 0.2844253995538157 0.02602947610890208 -0.9087414295394614 -0.5853542227814515 
0.1252877502978523 -0.2589413890197068 -0.8929781516457611 0.09643255459673390 -0.09187030785965984 -0.2317237667247530 -0.2627810075783623 -0.2597929992807863 -0.01503611934764238 0.2457033650752806 -0.4532023323726260 -0.2201111242056319 -0.2011050601948879 
0.5657660815715864 -0.6043172202660280 -0.03996715012962222 0.7690848010203428 -0.06988588994132706 -0.05517896953237441 0.2389631923786612 -0.2557812289947718 -0.09000634145308381 0.2445727777909738 -0.1298962377479762 -0.07983778866713397 -0.01529932637684644 
-0.1544425164445660 -0.05855502792014728 -0.03836211276576976 -0.4548885696836795 0.1493905921697956 0.3008625462431473 0.2127706586808116 -0.2953461506508978 0.3610476594157286 -0.1174712545441021 -0.2307078528023684 0.1251852482005177 -0.1200040436473642 
0.1825517079386159 -0.4131285853774842 0.2579971970147811 -0.1801626107327025 -0.1222897510733733 -0.1038110523418781 0.4456922821260896 0.2098328584476957 -0.2562825974574897 0.1076477179094762 0.08877954793015122 -0.09430068048402757 -0.02920170305862418 
-0.04579868851521108 -0.08996188215673620 0.3249880195863914 -0.1249732688969232 -0.08159425654810269 -0.07393847606047182 -0.1597823061455723 -0.2943933773953802 -0.1083476087208359 0.2983024233231053 -0.06667139035814225 -0.1138599504404656 -0.04847095708558885 
-0.1618377497916278 0.5193220347796054 -0.1139043216895347 -0.04654239721363575 -0.008167387508762771 -0.005003830509293091 -0.008379200296269658 -0.02906762284202264 -0.09678090152575455 -0.01840636950600432 -0.01057481568039334 -0.008090598562556945 -0.001948834495375242 
-0.2092093121914785 0.8029990453619762 -0.4188546504379446 -0.1904704037243686 -0.03419636760921425 -0.01465327390730514 -0.02226532543316473 -0.3853696175257922 -0.3512837004579973 -0.07125639060939293 -0.07112086602015298 -0.02410849092484974 -0.003326107487095907 
-0.01758048134405984 0.2423781922883500 -0.02357838129618247 -0.03624287008755620 -0.005405445643355118 -0.002856034043137876 -0.004946595173699178 -0.01927137676910292 -0.09274051018224373 -0.01634581029670820 -0.007045477518559233 -0.002184908135363989 -0.0002737252061055826 
-0.01758048134405984 0.2423781922883500 -0.02357838129618247 -0.03624287008755620 -0.005405445643355118 -0.002856034043137876 -0.004946595173699178 -0.01927137676910292 -0.09274051018224373 -0.01634581029670820 -0.007045477518559233 -0.002184908135363989 -0.0002737252061055826 
-0.01758048134405984 0.2423781922883500 -0.02357838129618247 -0.03624287008755620 -0.005405445643355118 -0.002856034043137876 -0.004946595173699178 -0.01927137676910292 -0.09274051018224373 -0.01634581029670820 -0.007045477518559233 -0.002184908135363989 -0.0002737252061055826 
-0.01758048134405984 0.2423781922883500 -0.02357838129618247 -0.03624287008755620 -0.005405445643355118 -0.002856034043137876 -0.004946595173699178 -0.01927137676910292 -0.09274051018224373 -0.01634581029670820 -0.007045477518559233 -0.002184908135363989 -0.0002737252061055826 
-0.01758048134405984 0.2423781922883500 -0.02357838129618247 -0.03624287008755620 -0.005405445643355118 -0.002856034043137876 -0.004946595173699178 -0.01927137676910292 -0.09274051018224373 -0.01634581029670820 -0.007045477518559233 -0.002184908135363989 -0.0002737252061055826 
-0.5338741702957750 0.1038249611369583 0.2597605499196272 0.1948940002241405 -0.2191321619820280 -0.1854388216637929 -0.2169596036926940 -0.5186222945023774 -0.02358669630339884 -0.07230317822073275 -0.2343149669950350 -0.2783420416890529 -0.1165419815638528 
-0.1675332557904781 0.6310073937197279 -0.1330765557622889 -0.07149141493757219 -0.008873046866481054 -0.005140883773845452 -0.009388348763048655 -0.06934029484479248 -0.1129341380354661 -0.02007604265188253 -0.01628844331407927 -0.009321897187032826 -0.002010678860047598 
-0.09816123629410074 0.2918492585710601 -0.06726082155790591 -0.05403529852612807 -0.01898023517709144 -0.008214925815429208 -0.01138899400269765 -0.1355064657405685 -0.1052984259190011 -0.03284926913178755 -0.02497334698716634 -0.01156190395135946 -0.001192508808176664 
1.164073728663226 -0.2619211860257903 -1.279992908332978 -0.5587102006275514 -0.4510865832904392 -0.3676711448688302 -0.05505022108294601 0.05695646692085256 -0.2556792221583208 -0.4996141232805467 -0.2728923523746457 -0.5530777468570192 -0.3529911486582820 
-0.1173676923249999 -0.2228195035589848 -0.01584899305452481 0.1639176224035631 0.07924336226884798 -0.2634065326424604 0.3179292544452042 -0.1246132004385628 0.2461963407988150 -0.3543512171383818 -0.3670326613709414 0.09402831437176913 -0.09942746878224092 
-0.1613816787709717 0.2316227449910028 -0.06685428369031647 -0.04101007705135130 -0.005750657782706531 -0.003150053656640576 -0.008315489629930303 -0.02009068885122292 0.5548011046888159 -0.01694587814226283 -0.007906734995086265 -0.002975394537704778 -0.0004694088061440425 
0.1368584254970598 0.02863545508058423 -0.08410299495320239 -0.1874466317512419 -0.04396694344089220 -0.02907660179851684 -0.1195075201064145 -0.04856511772342517 -0.2350714552279978 -0.08300410130111986 0.4340088238690208 -0.1038356490580393 -0.02608473937750001 
-0.6190859873143686 -0.2948316680046233 0.5161598407411645 0.3615949766086313 -0.5034873949654044 -0.3314366520747924 -0.4304526161270830 -0.3051665043806552 -0.2837503241832331 -0.2781016631502919 -0.1386415886107036 0.04111570889634032 0.5294298602608128 
0.03594458265368881 -0.1885793487457136 -0.3269508377629359 -0.3171099132246841 -0.2012453268090370 -0.2127490015174058 -0.1785021985064235 -0.2980060854571911 -0.3614654744134115 -0.2478639986236787 -0.2259505412976834 0.09174644850394724 -0.1513588165998136 
-0.2540306758301193 0.3991838112895070 0.08513555218674679 -0.07468778919048805 -0.02100946008015764 -0.03069194226282115 -0.04358138499254824 -0.06116300367477634 -0.08344057066756624 -0.06339592015979945 -0.02408512316623079 -0.03539936479447095 -0.01612959699461625 
0.2020848007534219 0.07911332257357431 -0.2516265169701149 0.1334141372209436 -0.01520127013530830 -0.01116736744529046 -0.01665190078941309 -0.1251734019253538 -0.08296834082489853 -0.02245825063586293 -0.01748069316743530 -0.04022940982304805 -0.007174563011529973 
-0.2070827072510272 0.3761927245651000 0.1187018501307404 0.3477068030486471 -0.1259965090319448 -0.07291065237104781 -0.02943760323337851 -0.2184648281735117 -0.08037132024532959 -0.08248824842909497 -0.02977698601353474 -0.1570252758710098 -0.02277827123238365 
-0.1442572684475679 0.2769438424912554 -0.09032594039335219 -0.01029952712607955 -0.002761941865407653 -0.002147796466155215 -0.003432605122570479 -0.009796246072919717 -0.004040391343510821 -0.002060559209296128 -0.003529338161834107 -0.005905690427192956 -0.001675109289269660 
-0.1789103156153745 0.7192120422626744 -0.3305039647904809 0.1552474001263423 -0.01834408010747149 -0.02816942364723999 -0.04022068294471535 -0.2784030220296482 -0.1599561213272391 -0.04241653914430603 -0.03888730083349425 -0.03716223416528792 -0.004832764344877351 
-0.7809305475571633 0.3185427753251209 0.6765243134124220 -0.2441168506997183 0.2486430577500055 -0.03834788166054041 -0.06033738383998235 -0.2192601040234301 -0.1093078426243531 -0.09036721631438151 -0.05999766160629633 -0.08669127882344276 -0.03383318938119536 
-0.1442572684475679 0.2769438424912554 -0.09032594039335219 -0.01029952712607955 -0.002761941865407653 -0.002147796466155215 -0.003432605122570479 -0.009796246072919717 -0.004040391343510821 -0.002060559209296128 -0.003529338161834107 -0.005905690427192956 -0.001675109289269660 
-0.5615246719083920 -0.4906504674177845 1.233550299321477 -0.2477977891363183 -0.2654137356938070 -0.1901908998309643 -0.1087930860459984 -0.5574203252823531 -0.1452106151009313 0.1798725788115495 0.09956737520703428 -0.2667106623931123 -0.07653425010591722 
-0.2147464554773700 0.02315502122172927 0.1345868473816660 -0.1106549037509071 -0.02164083373818000 -0.02768551207379216 0.1767626349327890 -0.1005888205184703 -0.02221173196372725 -0.06773086737373603 -0.03372862011662669 -0.05297408043468305 -0.008601058778450795 
0.2317560958639700 -0.4168407523940771 0.5151764876628967 -0.01415875431462120 -0.1304225627077051 -0.09632022645924339 -0.1645851504972186 -0.2997940517627220 0.3576836561613587 -0.1893999419651246 -0.1458887030579730 -0.1864261858920351 -0.04530231969090170 
0.6410197541610372 -0.4672104498473972 0.04546140144562768 -0.3309355643585064 0.4043506608945864 0.3399938226464223 0.1458277219132352 -0.05814127159187819 -0.6594747860966463 0.2091318378380364 0.05783272668265670 0.1551404992024619 -0.4012612700526257 
-0.01247984604988396 -0.1097753070533100 0.1091239368469702 -0.02997995279220027 -0.002085878519433097 -0.0008357496213491126 -0.0006993326010856019 0.1579237488323755 -0.006250344452829034 -0.01125241872020717 -0.001684166543160571 -0.007180314826524968 -0.0006962149702677595 
-0.06537827643352667 -0.2311283040681956 -0.5314188316749803 -0.07110227624366026 -0.2615922685356489 -0.1352712797444961 0.1907831095954698 0.7954139602238847 -0.5024615730664749 -0.2849371268683260 -0.1951654286112305 0.06466378058286900 -0.05134885372567061 
-0.1775739697001057 -0.3913999345197464 0.9585274050752075 -0.3155522467949098 -0.02867480880778314 -0.06598369685651856 -0.06022900754580337 -0.01045428702529371 -0.1544260568073924 0.1711661322915393 -0.03205255999546901 -0.06145120874684083 -0.01209055191712591 
0.3508339867533923 -0.4262780842019424 -0.2689001449010826 0.4844291044393130 -0.1745389537409521 -0.2580162788791032 -0.06718149685087435 0.07599895042292748 -0.2560326566751273 -0.2922114046445679 -0.1783385278613744 -0.1655174547584152 -0.09291514632104068 
-0.07073450535272930 -0.1875650193857091 0.3836754649301442 -0.06380373599140347 -0.01259656207167732 -0.01073792252437655 -0.02400118056574992 0.05684797618155339 -0.02545432607611836 -0.02910856953221217 -0.01669577217919434 -0.06447282617694498 -0.002374143689798215 
-0.01247984604988396 -0.1097753070533100 0.1091239368469702 -0.02997995279220027 -0.002085878519433097 -0.0008357496213491126 -0.0006993326010856019 0.1579237488323755 -0.006250344452829034 -0.01125241872020717 -0.001684166543160571 -0.007180314826524968 -0.0006962149702677595 
-0.01247984604988396 -0.1097753070533100 0.1091239368469702 -0.02997995279220027 -0.002085878519433097 -0.0008357496213491126 -0.0006993326010856019 0.1579237488323755 -0.006250344452829034 -0.01125241872020717 -0.001684166543160571 -0.007180314826524968 -0.0006962149702677595 
0.2167015369821945 0.1370593382378007 -0.6287957812676007 -0.2122650325549288 -0.4261729265013526 -0.3837015252054259 -0.3699372042059271 -0.1841993024226904 -0.7226114887769816 0.02166888431491333 -0.3562009427191912 0.1004884487367119 -0.2840463405216326 
0.3512269850904836 0.2965071916296586 -0.07992321778123704 0.1889848052190049 -0.1373981809291386 -0.08387575601115220 -0.1370721140411142 0.02846089930394455 -0.2443397756728838 0.1636731269450406 -0.08854903435240337 -0.1551399651380213 -0.03876530105787188 
0.4306583319438453 -0.1578593976110834 0.09600326029412300 -0.03883169394051220 -0.01017976112666746 -0.005637536030298786 -0.006805100129870880 0.09575923644294586 -0.008135630621069484 -0.03619089172033547 -0.01046994769039737 -0.01203218540889132 -0.001504028056127936 
-0.1055332399292661 -0.1233694851744699 0.4210755199114369 -0.03635642420929962 -0.004730802549905312 -0.002290900775909045 -0.006640210674588114 0.1147398112111679 -0.07480483044906543 -0.02371419296835763 -0.004623962708851750 -0.01349174404976601 -0.001152705548459564 
-0.01693228633994914 -0.1310842420041475 0.2255101889553231 -0.06531273029398320 -0.01023864988495403 -0.002512469434050492 -0.002344833086245455 0.1124608150610381 -0.006669129151398169 -0.02848967588506686 -0.009956420772759792 -0.03534622219251440 -0.001181918495968795 
-0.07456844796660660 -0.3374068241590099 -0.02196242541299966 -0.1492413218444511 -0.02057402014408248 -0.009546755113889993 -0.03189626332505625 0.3902364246028564 0.3763932779123289 -0.03160622068002323 -0.03454019198456133 -0.02229983364650874 -0.009458923561223190 
-0.7645003043044145 -0.005607375149447137 -0.07895469144657810 0.03146406224127092 -0.05676848327953508 -0.04043295583528102 -0.05809608682036483 0.1096920046290352 0.6087446358649345 -0.1199790958253749 -0.09144224616633030 -0.06352528610460283 -0.01838829295980573 
0.02368746273337911 -0.005124256869616720 -0.01447924235311547 -0.003630611357903910 -0.001277554398653631 -0.001887933015312126 -0.009310864289636577 -0.02634756032189896 -0.02991753620540806 -0.004392107400626660 -0.004991569648353501 -0.004189550366723335 -0.001905531808490784 
0.5981896034740224 -0.3728084959094016 -0.3220759604420395 0.1407680099675343 -0.2437103611254928 -0.1980212050446743 -0.2322278125890694 -0.3553085819964029 -0.5164988328332935 0.006394715483980810 -0.1127214443864995 -0.2756013232595945 -0.1444216107513127 
0.8051256322048737 -0.7750499983419474 -0.2264061170007700 -0.7125299424541863 -0.4965410562868873 -0.4436098534811737 -0.1451590066647020 -0.6813847469220249 0.08043545108578119 -0.5793069834073080 -0.2609014681523001 -0.09178584752093753 -0.3983867770371466 
0.8011128864702326 -0.7189759612363417 -0.4054331370927559 -0.5389469576678700 -0.4521660401718337 -0.4232067007608856 -0.1871129736957398 -0.6776862521584018 -0.7753287104511165 -0.4615512507625504 -0.03554015485512717 -0.5373515518607140 -0.4512542725498932 
0.1594154339985688 0.1053147541735461 -0.2547890508788509 -0.08500645151135905 -0.002104910611276972 -0.0006708100953018587 -0.007589704021439518 0.02121310804208905 -0.1060056298807207 -0.01000533975641552 -0.003813694845668349 -0.04442860306298725 -0.0007618614151557565 
0.2049566575127221 0.4362450084034574 -0.1087238706528809 -0.04727018602982651 -0.01064156062844861 -0.007809191109729066 -0.02312503418921608 -0.1949187127999874 -0.1117281552223527 -0.03470076641564002 -0.03370206267474542 -0.02098103110164435 -0.005588838055481941 
0.5000200259909477 0.03776911879376524 -0.2021188923684822 -0.1849294153122996 -0.02231443083544539 -0.005382682598183606 -0.02866790394457582 -0.3077421844772285 -0.06416972833133620 -0.05371952586902081 0.2904810576836037 0.6642662778517968 -0.002514292809237204 
0.1747699575016594 -0.005800140699103853 -0.07022642664767753 -0.0009259723236018917 -0.0002740794577771885 -3.361105725800277e-06 -0.0008915032166335760 -0.04918629307108787 -0.002307675780148160 -0.002566913752623532 -0.0008144505440125611 -0.001171157194140396 -4.484235012250287e-06 
0.1747699575016594 -0.005800140699103853 -0.07022642664767753 -0.0009259723236018917 -0.0002740794577771885 -3.361105725800277e-06 -0.0008915032166335760 -0.04918629307108787 -0.002307675780148160 -0.002566913752623532 -0.0008144505440125611 -0.001171157194140396 -4.484235012250287e-06 
-0.1930578194946954 -0.2162811710999641 0.7040072696627964 -0.07479940671654663 -0.05569973518324128 -0.03238622952702661 -0.08547814061319599 -0.1941358415325048 -0.04092984764506028 -0.08365472339892306 -0.04851508809872666 -0.05249563111118527 -0.02716728755207349 
-0.4017511598841709 -0.09521060038776130 -0.1035252807763129 -0.006742708558427972 -0.008161471283585874 -0.005877159866057950 -0.01243452080580917 -0.07955206791949390 0.5070802520027867 -0.01584444916465585 -0.005014639769817822 -0.004570127802735280 -0.006062465552238607 
0.9368775079825642 -0.1100147498797806 -0.6204325180287094 -0.2238990248724959 -0.2468610274194601 -0.3353603664931616 -0.3133789707020303 -0.4650982006398514 0.3395484288168922 0.02887090477649496 0.009931502964576740 -0.3835188581695676 -0.1529133313897674 
0.1720819259069007 0.07918411720456960 -0.07886639665877520 -0.01326578024440098 -0.0003766403307716374 -9.323706724921220e-05 -0.001745836826726473 -0.05250237827731995 -0.02199944306307700 -0.004976314246846419 -0.001251204919688728 -0.002148887073738479 -6.759498192204811e-06 
-0.7015921039216871 -0.1990874358878093 0.1966815509014115 -0.07369560397211351 -0.02041684570664030 -0.009869427091468564 -0.04024919684716300 0.1741164697316158 0.7598824506235394 0.3784822721967926 -0.01582933451837622 -0.01431648763986205 -0.008622695351084656 
-0.1441551460378411 -0.01906412831419425 0.2285497206484568 -0.1200438465164853 0.3713884862886127 -0.1891870403639678 -0.1351480033426244 0.3124529693486317 -0.09860211777942843 0.07606254969955602 -0.3628960213442647 -0.4626515825374880 -0.09222374300054244 
0.2222139676838373 0.2118299964884124 -0.2203167560381915 -0.01318572592338940 -0.003298456252870495 -0.01815254076705316 -0.01643473047796158 -0.1194200678619053 -0.03089535791169156 -0.01447761990841839 -0.007020898877488522 -0.003432208940657214 -0.0009702561545327039 
0.7103721499380287 -0.4029751238866792 -0.1960136171576866 0.1092731650478019 -0.5470815360611376 -0.6219707573441351 -0.07612714826211284 -0.4910581100204514 0.03266249608267193 -0.1533442297673719 -0.3475339572739762 -0.7782326670509906 -0.4081392102355729 
0.1747699575016594 -0.005800140699103853 -0.07022642664767753 -0.0009259723236018917 -0.0002740794577771885 -3.361105725800277e-06 -0.0008915032166335760 -0.04918629307108787 -0.002307675780148160 -0.002566913752623532 -0.0008144505440125611 -0.001171157194140396 -4.484235012250287e-06 
1.336042676657885 -0.3103127667895339 -0.5368700607105221 -0.1443433302081486 -0.08642556060097115 -0.07606688411635554 -0.1902057067051977 -0.2753726847530493 -0.002451386925328679 -0.1474961012363760 0.1097934247544479 -0.1567957889597000 -0.03740623870002851 
0.04214456136823108 -0.09603672262889140 0.1874087668066307 -0.007597824600373560 -0.02670243725027882 -0.01844220388090961 -0.007237764609635813 -0.06461804059034447 -0.008685578061286697 -0.01917222786856277 -0.01249401451688714 -0.06244270667619263 -0.004604098261443858 
-0.1720328443123708 0.08153817602453894 -0.2506007385794484 0.2794220367896722 -0.03754372947067902 -0.02352429697999035 0.1040905606663665 0.4471552702934480 0.5602884675066420 -0.1621706149501840 -0.1086334201782064 -0.05503755593724918 -0.009082134178271214 
-1.042462392216687 2.738141028002294 -1.358864592851170 -0.5605922516408083 -0.2784622621738685 -0.2189641977026023 -0.2915759108021995 -0.3466677689588242 -0.3336725200799486 -0.5863494405002438 -0.2882871941554027 -0.3990381287265676 -0.1221359466501142 
-0.03383255864772049 -0.1552760387522781 0.2327417308486499 -0.08545317522083293 -0.05018704922684186 -0.02291475045265529 0.06623267945693118 -0.2411446743199524 -0.07431847467218448 -0.1315168365445768 -0.03744027485578402 -0.08309791614933766 -0.007622347860373284 
-0.04716891617890548 -0.1904494854754350 0.01492724828920518 0.1590156536172590 -0.09429960850311514 -0.05223064266051891 0.04610327463974964 -0.2985597855615474 -0.08379909077570602 -0.1659371830952159 -0.05478166100852056 -0.09128621475818731 -0.01223511843752266 
0.1354066089131186 -0.1699360910242526 0.1056020766916254 -0.1921187297349659 -0.09430971857459290 -0.07732986906703418 -0.06090070072924720 -0.2774630742289214 -0.2314642570134263 -0.2546061459673377 0.1405449259015321 -0.1377577841645518 -0.03943001165370693 
-0.03383255864772049 -0.1552760387522781 0.2327417308486499 -0.08545317522083293 -0.05018704922684186 -0.02291475045265529 0.06623267945693118 -0.2411446743199524 -0.07431847467218448 -0.1315168365445768 -0.03744027485578402 -0.08309791614933766 -0.007622347860373284 
-0.4218921932265173 -0.2398330535020468 0.3237794223897796 -0.5254867412514457 -0.4274846156923980 -0.3375866534956122 -0.4232070210267562 0.08269879583587243 -0.05139817400696854 -0.05119788466991580 -0.3578570123822487 0.0007273421369538454 -0.1873948368344157 
0.09158230738259936 -0.5367084541901045 0.01481420168061220 0.8145034125558787 -0.1183454267790086 -0.07472581523147265 -0.007865294533350490 -0.4139032912748466 -0.1816222158484294 -0.009657013297553764 -0.1163319793963619 -0.1458951337797028 -0.04343770237770473 
0.1830574463703067 -0.002016621600587361 0.1535026861336411 -0.2623383757440942 -0.1102774956088197 -0.07643102577673501 0.1962671084811467 0.1442210768963357 -0.3334750581100268 -0.04314852840077200 -0.1245657120949598 -0.1360944220773666 -0.03077532246602927 
0.08730193872560343 -0.2264620252720129 -0.1832255144185307 -0.3721195073090853 -0.04542803071839874 -0.3465580750143830 0.2062472993424460 -0.3167668424089465 0.2142202382124237 0.1050783538324685 -0.2250554440537149 -0.5865476335069042 -0.2483499549139680 
-0.1707531486193727 -0.2494587278032865 0.1983645186138747 -0.09535154777752297 -0.05720328769760927 -0.03997695556464533 0.3288554091661298 0.03828562848877104 -0.1284412997461367 0.07285365595167181 -0.06940897465479477 -0.09078528822432493 -0.008963156821573889 
0.1260869765888393 -0.9292177519559639 -0.2195879987180230 -0.9807273377707835 -0.9056601236673272 -0.7994896891633555 -0.7045778618181999 -0.9557840834445780 -0.9510578897636130 -0.9653362651841936 -0.8936753390529529 -0.5821252063874072 -0.6403168771100753 
0.2332698259959797 -0.4505427497736698 -0.02430403032576802 0.4493116670364751 0.1000232703093393 0.1413429351571313 -0.3063294995730723 -0.2135890203662272 -0.4370362883279530 -0.2430092587184499 -0.1867745355337543 -0.02332068310174479 -0.1087654911032366 
1.121520334342818 -0.2397371617853661 -0.6060875052506154 -0.2394953577377350 -0.06102098507304191 -0.08353694948774365 -0.1719101661452888 -0.2158666385552166 -0.2768329790884672 -0.1247986184954642 -0.08873621631228847 -0.1186107063313828 -0.04217172227465436 
-0.05364778308643999 -0.05543948652388141 -0.2586325685705948 0.2946105529372303 -0.2871644190095075 -0.05801305173834128 -0.2173999663517598 -0.2272888915932673 -0.1423549024783282 -0.3878466359624296 -0.3749293925306078 0.1566701034703621 -0.1938509426420672 
0.03781916073626487 -0.09249426650229250 -0.005299195514488864 -0.008649931933443135 -0.002279313929139968 -0.001005359309920189 -0.004266841873084495 -0.008734243830667926 -0.09474664679030433 -0.005563697109913688 -0.008347691282521453 -0.0004641292944259937 -0.0007725587484653166 
0.7469130991421176 0.4761155140377861 -0.7440813900823992 -0.4693176884425070 -0.2336893841950758 -0.2877252461022108 -0.5377072857917233 -0.5184837888012479 0.7820335902216504 -0.3631270897007640 -0.3299791522873004 -0.4821588379659028 -0.1739039321537440 
-0.1462754685170476 0.1356727639188978 -0.2673549628823534 -0.1201329946234957 -0.03037767859780075 -0.02096443262122266 -0.04278900844806598 -0.1738356157375833 0.4732968625635371 -0.03365658557667362 -0.04701572818530703 -0.04487582150057815 -0.004830301116883210 
-0.02468177697889400 0.1587555292419625 -0.4864385085736912 -0.1094527804799699 -0.02788199096237913 -0.02073629898266555 -0.04057754040431392 -0.2851649383944239 0.5301783860850252 -0.03262380219646704 -0.03689657178417573 -0.04162892297201858 -0.004775847351214499 
-0.04266619701476091 0.1827325693505196 -0.3566547663654300 -0.3145801545076699 -0.1109670270183039 -0.08595477804985045 -0.03342803734391339 0.1845943528230872 0.3096896810164896 -0.02076429949776935 0.01232594356388665 -0.09101544870502434 -0.04786688965079036 
0.2264327733141069 0.2230472261731640 -0.1324258643762330 -0.06808973863433536 -0.01618893332628813 -0.01071911664010401 -0.01258730474625824 -0.07134057956906092 -0.1690645260952880 -0.01512337902699602 -0.04814195179579858 -0.01180371068672916 -0.001830119636343712 
0.7701123338244469 -0.5004682521124125 -0.1702693194919769 -0.3123456550739590 -0.2200006631209505 -0.1398320279354475 -0.2372951498518713 -0.2121851453018127 -0.5546755294336039 -0.08475494715836884 -0.1895050249780539 -0.1736693640738235 -0.09036547706080804 
0.4595181288773289 -0.1361680837171746 -0.1826077115198264 -0.04731228056795465 -0.007540268395447280 -0.009143192609657213 -0.05679493669463749 -0.08434357066695983 -0.1038561122613153 -0.01463782022652377 -0.04763185591264190 -0.01155537795057478 -0.001613975192274122 
0.1947455634745626 -0.4482067070309349 0.4080074168179256 -0.1315930927314241 -0.02647160211299139 -0.02437653750758733 -0.05421646982048036 0.1688236465412669 -0.02511885345651827 -0.06246127150024942 -0.03520467745880369 0.05754895039970122 -0.02409180586220252 
-0.02230014792442945 -0.2821595596972397 0.4358464228868780 -0.08097984905922478 -0.006306559574948924 -0.01382178453473093 -0.01855309084357221 -0.1471552110747633 -0.01446478970429701 -0.04310741727193176 -0.02030348192148468 -0.05068593992693202 -0.001748955544542863 
-0.02225234360419554 -0.2777003274463888 0.1406750217104124 0.09627877945340240 -0.01165448606157932 -0.003446840518656607 -0.01020225060973758 -0.1379757311188822 -0.02973557205022805 -0.05162566617791602 -0.03141837360720200 -0.04001195191200326 -0.0001800300837391077 
-1.398443523586437 2.743175176282703 -1.049292240196225 -0.9613150659730093 -1.063804466933627 -0.9412317501793012 -0.09526732975792694 -0.5332668886126729 -0.8019092405105182 -0.9943336515533575 -0.8194488567306797 -0.2018795730519045 -0.5507146851243557 
0.07837484640069733 -0.2682875777356498 0.2510646869772449 -0.01545981428192682 0.1031449000370096 -0.4754778521081892 -0.2574208364235922 -0.3649699775629385 -0.4780918986028217 -0.5633280023469011 -0.5534650562451351 0.007411390796372742 -0.3801953132412699 
-0.6447071906831076 -0.3411303744419869 -0.2102192411543456 0.1046461577594174 -0.1934568094481652 -0.1858032242891016 0.009124457819965620 1.540507124130836 -0.2734372801616809 0.06817853578262942 -0.1215193351498315 0.4894626417529694 -0.06120871635337818 
-0.2096963266847970 0.01737262169173753 -0.3880775160345578 -0.1036938891468284 0.3416132627706707 -0.03393624756955463 -0.06507673005304275 0.3942815121420165 -0.07039009279420401 -0.06631815027154790 0.1802274885530564 0.3462549359745457 -0.003198847640974693 
-0.004960084063635412 -0.2151018180332912 0.1665032268840265 -0.01232501763821201 -0.001031257946291470 -0.0008873801382335482 -0.008127346386872002 -0.1124375504711782 -0.005448928034554896 -0.003930219870520762 -0.01714948282143411 -0.03810721025390110 -4.842067517162090e-05 
-0.1823492924006845 -0.04361031722381499 0.3881871948806639 -0.005859331047105234 -0.0006986348076975513 -0.0004960863460834089 -0.003195459218486260 -0.01484566874917924 -0.004637097442299572 -0.007793787756543804 -0.002787846640107439 -0.001890981569701343 -0.0005717353817303534 
0.08017226393531460 -0.02913462216561231 0.1095402894484825 -0.4439742963400923 -0.1073314573114199 -0.08356817281770224 -0.1896810934744793 -0.1877666907084834 0.04910734712371079 -0.1453023421980926 -0.1189931537689782 -0.04429035330297373 -0.04816862775927751 
0.4196790365870596 0.7741878614299054 -0.08505675619568680 -0.4644353436865710 -0.009956146193699984 -0.2397064081917215 -0.3660481456076852 -0.4884665719491077 0.08243526921223830 -0.1387805605486874 -0.4310605071950109 -0.4066848383596223 -0.09845766256004795 
-0.09172915665579884 0.1793319770792620 0.1592893435095418 -0.1161713715474612 -0.02122859089864617 0.2272550718962716 -0.05987686687102938 -0.2643707787589178 0.5992830871669927 0.1927245394605615 -0.06099960695621313 0.03608139879092669 -0.005669781482090987 
-0.4077176048448045 -0.1544709012845648 0.2001307340607392 -0.2424684565691558 -0.1702874351213380 -0.2031016757268665 -0.3782038844130987 0.1363865642563753 -0.1182197063864911 -0.1143551568823253 -0.1307252689586147 -0.1654823453262405 -0.1170883386586493 
0.3515917068030975 -0.3404041162328081 -0.04965520293629332 -0.01761545717092638 -0.02017277195789351 -0.01632010467628896 -0.03191827140620832 -0.04840148118333843 -0.09923623069028939 -0.02734811099686799 -0.01816978148924137 -0.01404313796072654 -0.01664698292927711 
0.1883409221657633 0.8767179166193630 -0.7989273824608356 -0.4014900010953266 -0.2014618162642253 -0.1269491268321195 -0.2869577041697020 -0.2544637943356113 -0.3857705431476327 -0.4033925774127506 -0.1624063033518133 -0.1678044894843833 -0.1027592042244397 
0.2289087725485382 -0.6305935345663282 -0.4402722327737581 -0.09776022107059666 -0.1070442493614681 -0.06337852518369019 -0.1133328107642344 -0.02852278343053142 0.1869082349227572 -0.1080456348500792 -0.1280938671665790 -0.06461794619093280 -0.05304735509467266 
-0.1912886218292098 0.4927221893484358 -0.4492631301861267 0.1124279796696342 -0.1441049254446585 -0.1274383313069994 -0.2597157502764280 -0.3540539517468929 -0.1797741451177261 0.5085196592539243 -0.1442145194744189 -0.1689709031723353 -0.08568932043805913 
-0.03020022252178387 -0.04689767555640640 -0.08415001257559676 -0.005818625468914425 -0.0005624504755430866 -0.0003644064420801703 -0.002357374877730169 0.3412347906148671 -0.02099037388009203 -0.004717076022715595 -0.001211966676288903 -0.0004163310369553760 -0.0001924816693026951 
-0.02147229608307221 -0.09713686935252164 0.1909174212735401 0.09116206874033261 -0.01443965920353620 -0.01107478574366049 -0.02801385966366606 -0.2095752420781280 0.1757586988140253 0.4258090864237918 -0.03416493998724154 -0.03420401942160465 -0.003008080822380264 
0.02675198502367786 -0.01306634062865156 -0.03224112263444701 -0.0007204132864670188 -0.0002654277284444132 -0.0002910432113962952 -0.002059266346457975 -0.008109066803607786 -0.007926151713183845 -0.002883724236191939 -0.0003906989110338564 -0.0002891100319054667 -0.0001849032607449436 
0.1850507303555257 -0.3170275039540013 -0.2935738339396584 -0.02985079531569927 -0.01258524854215161 0.2939061081563922 -0.01796785207546335 0.02751855410274239 0.09239816901978401 -0.08149437789620409 -0.02179839859556315 -0.007423042272021415 -0.002203721169262356 
-0.6563438954472051 -0.1650102402383519 0.3202175928298248 -0.2424498534421553 -0.2208036062440451 -0.2033928442444369 -0.2109829439389035 -0.1593971563136264 0.6598772734972835 -0.3539087200989727 -0.01454495465473053 -0.2662881964089241 -0.1664724904315448 
-0.03770014268349700 0.1039638871679657 -0.1249746345844180 -0.2476057562525245 -0.1173865592013235 0.02056601920961532 0.2520717205655770 0.2584555914648365 -0.1365969876021528 -0.01005207922501178 -0.06115905777042248 0.06173896959135024 -0.02689056347850712 
-0.03452914263299569 -0.8688846376554101 -0.2366772679341681 -0.9466866557179353 -0.9775729831473258 -1.105743907824362 -0.8679567517010035 -0.5047750164272596 -1.325621462554562 -0.7905158344519372 -0.9976325164793288 -0.9773267489620704 -0.7826963834332082 
-0.7409502400412398 -0.2947614463320227 0.8475289556088652 -0.4932905628046722 -0.3882663279629021 -0.3447961956780340 -0.3495801415380203 -0.7259435147133173 -0.1404914629150782 -0.4317523623205258 -0.4120190170412374 -0.4337294329497207 -0.2874149419403045 
-0.0001749769508852027 -0.05039917459929973 0.1560628019393461 -0.009744793263071391 -0.0001526337590315406 -0.0001749545940919036 -0.003865711168982233 -0.02413009817605510 -4.156107724372149e-05 -0.002136840968306453 -0.003212488995279459 -0.0001513013895834223 -3.280253482450256e-06 
-0.06907960141353116 -0.01153528414357751 0.2855076639447270 0.08528874625997378 -0.01748454259310424 -0.02433197373044058 -0.02682848133490545 -0.1309377030927560 -0.03743901568908176 -0.01326771447738028 -0.01568545744210034 -0.02207102926657071 -0.007272481936999762 
-0.01927233843625784 -0.1447731427456624 0.2318405396095054 -0.01511742158772444 -0.2112209193654919 -0.1427065316748887 0.06461994768326498 0.2282205272038602 -0.2790328116973981 0.5412619995220185 -0.2045397203527125 -0.1593351362527127 -0.02952655975169806 
0.04740375593157722 0.4699250583202058 -0.2655871923469992 -0.2621786084128704 -0.2637303668445850 -0.2531501183953828 -0.3957468373932553 -0.1923191436418506 -0.5913017493067505 -0.2898634531320061 -0.3064856576612559 -0.1804859983200764 -0.1510134533933726 
0.3767411648214001 0.04716319482961354 0.2167515173835853 -0.09820958043987289 -0.01883754898320353 -0.01021941948398787 -0.05193688483526066 0.1181732020083829 -0.09248235373126361 -0.04364214719162513 -0.02661562469914655 -0.07641419643567406 -0.003683189695024360 
-0.1778364452856207 -0.3053403535082690 0.3869166717066939 -0.04140345889202998 -0.01584231692518047 0.2439112515207242 -0.03051805917597086 0.5355342184924161 -0.04263703295803785 0.2291958272969007 -0.01157425403480573 0.1183719518676924 -0.002312273738028236 
0.07409165106009598 0.3451582394641418 0.3823900213808172 -0.4110722450241320 -0.2180568566467194 -0.08185972358882922 0.1710832493207889 -0.4469900428563193 0.2430104277336426 -0.3746000039798375 -0.2300776926312112 -0.1265779479041845 -0.07420809603711331 
-0.02876390827204155 -0.05848132153351274 0.1488680416488466 -0.01765990460041274 -0.009443224619802935 -0.002560246839890456 -0.006036119712889953 -0.03637491551796976 -0.003614513657250791 -0.003192744283560480 -0.001695773148927215 -0.008213144081383695 -0.002174690721155671 
-0.1296241597927587 0.1827032235602398 0.3787202899960671 -0.1110243409857370 -0.01763211420916983 -0.01578595047164845 -0.02578876761666660 -0.1787353297406313 -0.06975374856008935 -0.06970870558020358 -0.04129641682984068 -0.02665308743728424 -0.005187925743184905 
-1.067149331536597 -0.4829545455060689 0.3609591275334946 0.03025649531951900 -0.3143530034725203 -0.3074244009331194 -0.04906784487054500 0.1716392771424639 -0.2643211843240343 -0.4281302898594858 -0.04031319112690091 0.1956097123816238 -0.2040594380611614 
-0.02876390827204155 -0.05848132153351274 0.1488680416488466 -0.01765990460041274 -0.009443224619802935 -0.002560246839890456 -0.006036119712889953 -0.03637491551796976 -0.003614513657250791 -0.003192744283560480 -0.001695773148927215 -0.008213144081383695 -0.002174690721155671 
-0.02876390827204155 -0.05848132153351274 0.1488680416488466 -0.01765990460041274 -0.009443224619802935 -0.002560246839890456 -0.006036119712889953 -0.03637491551796976 -0.003614513657250791 -0.003192744283560480 -0.001695773148927215 -0.008213144081383695 -0.002174690721155671 
-0.08434676697509438 -0.06886670260498404 0.06995235937689753 0.3365844481655927 -0.009987596767639386 -0.002864632152352853 -0.006616718388128313 -0.04985033210895177 -0.004964778642070388 -0.02268368252972156 -0.001947049120656898 -0.01096902740476109 -0.003095489523333007 
-0.02876390827204155 -0.05848132153351274 0.1488680416488466 -0.01765990460041274 -0.009443224619802935 -0.002560246839890456 -0.006036119712889953 -0.03637491551796976 -0.003614513657250791 -0.003192744283560480 -0.001695773148927215 -0.008213144081383695 -0.002174690721155671 
-0.05558285870305282 -0.01038538107147130 -0.07891568227194905 0.3542443527660055 -0.0005443721478364516 -0.0003043853124623966 -0.0005805986752383598 -0.01347541659098201 -0.001350264984819596 -0.01949093824616108 -0.0002512759717296828 -0.002755883323377392 -0.0009207988021773363 
0.1493647122236937 -0.1665377145386185 0.1155143105884873 0.2754770322176554 -0.01360013666942779 -0.01031611130662909 -0.03888070139801592 -0.02771785823455088 -0.06363107719182148 0.3446355385702710 -0.02497122364728955 -0.05293331110689646 -0.008383240557037874 
-0.05558285870305282 -0.01038538107147130 -0.07891568227194905 0.3542443527660055 -0.0005443721478364516 -0.0003043853124623966 -0.0005805986752383598 -0.01347541659098201 -0.001350264984819596 -0.01949093824616108 -0.0002512759717296828 -0.002755883323377392 -0.0009207988021773363 
-0.6646897516097702 -0.7142927446311191 0.3370485766638475 0.6631799553260372 0.2611578287118403 -0.1372801037837524 0.05171154314207919 -0.4430323509542081 -0.2711321324051640 0.06555672810502042 -0.1658601269126455 0.9268860078593095 -0.05554630900472583 
-0.3518689638933129 -0.4093271749213497 0.3477860593983282 0.02985775220957555 0.1417574895013525 0.3610700195245138 -0.4306294663007197 -0.04358712910253019 -0.3211544939308463 0.1466227175242709 -0.4671979174722800 0.2625829237804717 0.1920518844324360 
0.1943506201540599 -0.3894305234784353 -0.09002341806217498 0.03648255823906786 -0.2233431813753256 -0.2357092461106241 -0.2933787823144887 -0.2808258189720438 0.08675414378670326 -0.2350038897264613 -0.2896669326555555 -0.3307828623729286 -0.1711322179958981 
-0.1017516500341367 0.2517627360312874 -0.5001037445637311 0.1077268267561444 -0.1116762820675716 -0.08333733599670097 -0.1528053773302594 -0.1730107684528042 0.2233170709662919 0.2536014636381866 0.08558977083278284 -0.1959223272210571 -0.08493581080911958 
-0.05558285870305282 -0.01038538107147130 -0.07891568227194905 0.3542443527660055 -0.0005443721478364516 -0.0003043853124623966 -0.0005805986752383598 -0.01347541659098201 -0.001350264984819596 -0.01949093824616108 -0.0002512759717296828 -0.002755883323377392 -0.0009207988021773363 
-0.5954027351049701 -0.2694041740765801 0.3155743990430679 0.07690649506048340 0.1517678504159652 0.4089399679232387 -0.3777050632019980 0.02558349344340219 -0.3218580839475247 0.1782443574021718 -0.3813027368162746 0.5832762505166812 0.2009307563051470 
0.3466311424170396 -0.3876922509783698 -0.4676031499069510 -0.1778856843495903 -0.07374763527103606 -0.07385662233899900 -0.07731900322394937 0.05191421157666151 0.6257273886902899 -0.1523005643851733 -0.1248518008668204 -0.1416901281208199 -0.01819782861594527 
0.1243707180905682 -0.03488380900397011 -0.1361329694728829 -0.01303394828454084 -0.005332106135366841 -0.003275639961907098 -0.004355038527139082 0.08727290732460250 -0.02814861324700229 -0.02124839951177936 -0.004020580305494296 -0.002025088494821642 -0.001203647053000498 
-0.002894736151024348 -0.01199951159225917 -0.007249346758868245 -0.001295543760859676 -2.405797064087757e-05 -2.823538254768154e-05 -7.288422710606320e-05 0.1025084855812898 -0.001351876168418556 -0.0006268407499679552 -0.0001643150490445148 -7.646049092932932e-05 -1.374532809961757e-06 
-0.4068651711832494 0.1623708371355287 0.4457388367169329 -0.09025911140783825 -0.03634850851924906 -0.01814459808532062 -0.04375540480326372 -0.1172987554330145 -0.1579730483376647 0.08334940632848839 -0.02881015736000333 -0.02102293239358352 -0.01918045482550534 
-0.1446375895440475 0.07389590549209436 -0.1586308240954395 -0.1300391354059798 -0.04086948281137718 -0.03584434851658259 -0.08174196297008242 0.5390875926498625 -0.07219729875403975 -0.06952390227127701 -0.05921119592371160 -0.09172533329609953 -0.03234293107973937 
-0.002894736151024348 -0.01199951159225917 -0.007249346758868245 -0.001295543760859676 -2.405797064087757e-05 -2.823538254768154e-05 -7.288422710606320e-05 0.1025084855812898 -0.001351876168418556 -0.0006268407499679552 -0.0001643150490445148 -7.646049092932932e-05 -1.374532809961757e-06 
-0.003527214017214763 -0.08491318277880769 -0.09293197921181730 -0.01691696502447368 -0.002144409323024211 -0.001304396306367434 -0.002248481610831849 0.2482190329354632 -0.003973286661616452 -0.004059975400197429 -0.01151985150765659 -0.002401566989380239 -0.0005033707632300191 
-0.05914353764156924 -0.4919334077599928 0.2947693785313975 0.02974613369769181 -0.04619956158567175 -0.05607774916533739 -0.1308544964028708 0.3870188756825722 -0.2337156892902413 0.4086135172502367 0.1520883928917599 -0.1311834810349397 -0.01176486247637309 
0.04507097332648397 0.1122161075989656 0.2062928546718076 -0.2332899714680095 -0.06253146646806220 -0.04954498874937733 -0.1091385559394879 -0.009004505724118380 -0.1059933522357848 0.1601205543275659 -0.1059792696938682 -0.07526569297395383 -0.02978009654329448 
-0.002894736151024348 -0.01199951159225917 -0.007249346758868245 -0.001295543760859676 -2.405797064087757e-05 -2.823538254768154e-05 -7.288422710606320e-05 0.1025084855812898 -0.001351876168418556 -0.0006268407499679552 -0.0001643150490445148 -7.646049092932932e-05 -1.374532809961757e-06 
-0.002894736151024348 -0.01199951159225917 -0.007249346758868245 -0.001295543760859676 -2.405797064087757e-05 -2.823538254768154e-05 -7.288422710606320e-05 0.1025084855812898 -0.001351876168418556 -0.0006268407499679552 -0.0001643150490445148 -7.646049092932932e-05 -1.374532809961757e-06 
-0.09161194557862881 0.2983508594772404 -0.2435710001199468 0.007818543805194925 0.03321075622917197 0.1341098368349766 -0.1404076514044440 -0.2426320331464272 0.01882468267207555 -0.06614807432944268 -0.1920481082765915 -0.1607667761045766 -0.06278925150916224 
-0.002894736151024348 -0.01199951159225917 -0.007249346758868245 -0.001295543760859676 -2.405797064087757e-05 -2.823538254768154e-05 -7.288422710606320e-05 0.1025084855812898 -0.001351876168418556 -0.0006268407499679552 -0.0001643150490445148 -7.646049092932932e-05 -1.374532809961757e-06 
0.1692228768018488 -0.2421898983408712 -0.1690207868231606 -0.1859744234253557 -0.1018081218758039 -0.1054618058578580 -0.1117999702110343 -0.05249659391169165 -0.1919113975703968 -0.1692084306010314 -0.1408484318523335 -0.1034005860987577 -0.08969181509301012 
-0.003113765439581149 0.03436236256663436 -0.1162939793174731 -0.009594792633708804 -0.0006916567700870268 -0.0008950388857717326 -0.0001990946447142779 0.08581633293757991 0.1726274180633233 -0.01355948883506892 -0.0009507971878766699 -0.0001557165195926912 -7.252726817376915e-06 
-0.002894736151024348 -0.01199951159225917 -0.007249346758868245 -0.001295543760859676 -2.405797064087757e-05 -2.823538254768154e-05 -7.288422710606320e-05 0.1025084855812898 -0.001351876168418556 -0.0006268407499679552 -0.0001643150490445148 -7.646049092932932e-05 -1.374532809961757e-06 
-0.1771671691450567 -0.2253887480071824 0.6008474072200085 -0.2051542887856290 0.1510155797250602 -0.03608626429442161 -0.06668192492932620 -0.2369964525538747 -0.1054204507111227 -0.08510966831590588 -0.04215617625476104 -0.06923221049333485 -0.01658702365859172 
-0.1249352906364080 -0.1269869359003999 -0.6618997205583954 -0.2169785945183782 0.6903225982775798 -0.02766780308561448 -0.07798346071520222 -0.08594587658982300 -0.03541803414227981 -0.03938164044338535 -0.05142099589752842 0.7318560541013290 -0.02826505819168250 
-0.2041514075785740 -0.2063514677055188 -0.2176706703150478 -0.1933733540463440 0.7700802630721051 0.1998717554412336 -0.06155081791346737 -0.1797866244089137 -0.08597376870720591 0.1484592987528969 -0.07627792258944059 -0.1121612477185403 -0.02612981113586919 
0.03233172239133941 0.3393888493574457 0.1629837616881179 -0.1298225003269379 0.1345274574722149 -0.03219263468584532 -0.02475906592583645 -0.3632529424246867 0.2797810488659547 0.3550971840071703 -0.02942259296140897 -0.09888048068818667 -0.01010241096284314 
-0.02601929207630492 0.01160283594090562 -0.1101118454812387 -0.01390080571560145 0.1832204317818016 -0.001323374429060574 -0.002075370641044065 -0.01454934051335816 -0.006095159728133106 -0.006427893841891508 -0.0006562166559838775 -0.01879364959512567 -0.003561081132245455 
-0.02601929207630492 0.01160283594090562 -0.1101118454812387 -0.01390080571560145 0.1832204317818016 -0.001323374429060574 -0.002075370641044065 -0.01454934051335816 -0.006095159728133106 -0.006427893841891508 -0.0006562166559838775 -0.01879364959512567 -0.003561081132245455 
-0.03547595792473085 0.006042529992723748 -0.1347135659462292 0.2233964410707491 0.7695501028253996 -0.1397834942999688 -0.08624629606722242 0.1372462981277162 -0.2883469290912831 -0.2913832464485998 -0.2847822403740810 0.2836811598284415 -0.03314776032294238 
-0.1256113068599437 -0.04516424907931858 -0.1704191676107232 -0.1383404473890666 0.1095262755959243 0.05805512777875801 -0.01430049219017439 -0.02528621783332534 -0.02568086443250694 -0.1801752281538611 -0.007453785328503231 0.1176975669086789 -0.01549677282132179 
-0.3111022359646529 -0.2213440962411380 0.1411891516556986 0.4062546035905688 0.2717086723661304 0.03941108745426262 -0.09848042656695527 -0.1660698021597446 -0.1834494306360296 -0.1577761587078662 -0.1338675127462825 -0.07882409286235120 -0.03188037562153439 
-0.01250285859549947 -0.01683773729480302 -0.1512220596835368 -0.01547713680260961 0.1776497175958664 -0.004581463662095993 -0.01029689323743786 -0.03420279617136490 -0.009997943254837794 -0.02807198845998305 -0.006694270804877193 -0.02400013312802685 -0.005102060527099964 
-0.02601929207630492 0.01160283594090562 -0.1101118454812387 -0.01390080571560145 0.1832204317818016 -0.001323374429060574 -0.002075370641044065 -0.01454934051335816 -0.006095159728133106 -0.006427893841891508 -0.0006562166559838775 -0.01879364959512567 -0.003561081132245455 
-0.1947260225747615 -0.3913117304556902 0.7586658133319458 -0.09032836419287217 -0.08230584818836945 -0.09623501079286886 -0.2179900000962733 -0.3039013909523324 -0.1626855371331693 0.1140879442960246 -0.1205489405034778 -0.1276653127211427 -0.03457219488380475 
-0.2812176621317360 -0.2568573730028265 0.8308685190018346 -0.2423880749113365 -0.06176211591476354 -0.05278976556715601 -0.09702786984525118 0.05748739225754280 -0.1209545813165537 -0.09151521148853746 -0.08999646496539013 -0.1133545338181784 -0.01533068769669533 
-0.4482805889209758 0.07869511414138645 0.6055380369158624 0.4569051880635297 -0.05689880189042736 -0.05322257249164559 -0.1596317900691740 -0.1974714711379965 -0.1298109547050204 0.2216241224085148 -0.09356084791836582 -0.1054519966819479 -0.03318606772112107 
-0.004273773496713072 -0.009989124040589568 0.03319510039329356 -0.03521506371181744 -0.008151937053580279 -0.001690740202796716 -0.001598752494323439 -0.03700679802367136 -0.0002173865134657068 -0.01718262195899992 -0.005033253462788060 -0.02802100560634585 -0.0004859890558340130 
-0.004273773496713072 -0.009989124040589568 0.03319510039329356 -0.03521506371181744 -0.008151937053580279 -0.001690740202796716 -0.001598752494323439 -0.03700679802367136 -0.0002173865134657068 -0.01718262195899992 -0.005033253462788060 -0.02802100560634585 -0.0004859890558340130 
-0.3857435356942018 -0.2706437334213087 0.5619348625407764 0.1592589949566138 -0.08355856031903312 -0.06744162993602794 -0.1081366949344104 -0.3017946567831067 -0.05724551323252458 -0.08819092313069758 -0.07966667236578479 -0.1554645095691233 -0.01564341649969284 
-0.004308987643111229 -0.02217727373584789 -0.2036952019632960 -0.05578387818403545 -0.01032515676783785 -0.002513647326463728 -0.001749970809961800 -0.06321529737783033 -0.0005670110478565350 -0.02111881879670779 -0.005101038309822662 0.1394198096431525 -0.0005040278806730578 
-0.004273773496713072 -0.009989124040589568 0.03319510039329356 -0.03521506371181744 -0.008151937053580279 -0.001690740202796716 -0.001598752494323439 -0.03700679802367136 -0.0002173865134657068 -0.01718262195899992 -0.005033253462788060 -0.02802100560634585 -0.0004859890558340130 
-0.1824366890579743 -0.3367470775389307 0.6702584621495945 0.4276338421304637 -0.03806058331161676 -0.01940755464493845 -0.03333742231729461 -0.2927113519865798 -0.1104880684211471 -0.07435081487710847 -0.05362713458277234 -0.08705751491719924 -0.006863047097711098 
0.2545409046334221 0.0003115797913447797 -0.1597735115671823 -0.09091563804958583 -0.02229386265163987 -0.01577437623931927 -0.02821701761337873 0.3731094637017375 -0.1550512040406757 -0.04913422181660977 0.2901093755887800 -0.05381254251539820 -0.01180829537992813 
0.3765754174027501 -0.09939241612835725 -0.2622916061371807 -0.3904769123325158 -0.1375845542599213 -0.2545745486739604 -0.3124198860706909 0.1797215963430399 -0.2042580253261370 -0.2803491187346066 -0.1922185088174893 -0.2491013416095187 -0.07323551279263639 
-0.02230955330998750 0.2583643039396614 -0.08130451881976844 -0.002857391730936171 -0.003250059619555082 -0.0003926108899495755 -0.006024377062512701 -0.01574830292023844 -0.002558418290975615 -0.005566006498576189 -0.01108417555094953 -0.005003433211890315 -0.0002545679164378026 
-0.02230955330998750 0.2583643039396614 -0.08130451881976844 -0.002857391730936171 -0.003250059619555082 -0.0003926108899495755 -0.006024377062512701 -0.01574830292023844 -0.002558418290975615 -0.005566006498576189 -0.01108417555094953 -0.005003433211890315 -0.0002545679164378026 
-0.2425657305341187 0.2130507133227506 0.3148151555067446 -0.02321875123826969 -0.005550825628009013 -0.002740544061115993 -0.009400084066949437 -0.05410266245104890 -0.02005114044727000 -0.02523597501266717 -0.01441081385643222 -0.007514933996131241 -0.002067063917526167 
-0.3001015944426023 0.1826757360622431 0.1960633700406010 -0.2411396623464293 -0.1960911114193882 -0.07040675886157909 0.1488587609748271 -0.1831158227718850 0.2342382987905188 -0.2813066377853791 -0.1884665057949984 -0.1631236588837709 -0.006140665820794814 
-0.2954002957855016 0.06783221632115673 -0.2181062549805252 -0.3066028478534468 0.2891941446426469 -0.2186870715465843 -0.1909322472602286 -0.4782850850347118 0.3429272090875083 0.1077481042628431 0.3428981035089505 -0.06298235234033520 -0.05644806521642841 
-0.4099898161562378 0.8698975652737371 -0.4990423499120683 -0.1821236725850634 -0.07350459286851366 0.2583595711989274 -0.05187922611429616 -0.2007171397518596 0.4228901616423939 -0.1792276166173841 -0.05143437308058407 -0.07696224303222475 -0.02689382583510989 
0.4736492853098648 -0.5070175359346624 -0.2095966591181704 -0.3635261223472936 -0.1784813171478865 0.04963048170347201 -0.3264981608352823 -0.1527456092608275 -0.4044488864247676 -0.3217852611653289 -0.2283638289916681 0.09733027482621746 -0.1230456005814528 
0.2813617407630581 -0.07570477407845300 -0.1515297758627359 -0.02796687197126658 -0.02806390230062130 -0.02795977409737645 -0.03129380401343691 -0.04562996057940505 -0.04453811972217642 -0.02151761200548866 -0.02143237160968604 -0.04022697125713037 -0.02157089998542043 
0.2813617407630581 -0.07570477407845300 -0.1515297758627359 -0.02796687197126658 -0.02806390230062130 -0.02795977409737645 -0.03129380401343691 -0.04562996057940505 -0.04453811972217642 -0.02151761200548866 -0.02143237160968604 -0.04022697125713037 -0.02157089998542043 
0.2813617407630581 -0.07570477407845300 -0.1515297758627359 -0.02796687197126658 -0.02806390230062130 -0.02795977409737645 -0.03129380401343691 -0.04562996057940505 -0.04453811972217642 -0.02151761200548866 -0.02143237160968604 -0.04022697125713037 -0.02157089998542043 
0.3893228669281333 -0.02083907964071567 -0.1036555734778032 -0.06788049492664020 -0.03544662760841320 -0.03469165150979325 -0.09259052932253870 0.2843577988522540 -0.1986349358497628 -0.05536069090114981 -0.07884984121868838 0.2009645710986518 -0.02696738580498141 
-0.4659890767980948 -0.2694693119162375 0.1771515486038150 0.01956585338548531 -0.09202983592288487 -0.08365690552740009 -0.1833189467965992 -0.2329101605455832 0.4412801289015222 -0.1691367306933571 0.9884794041908335 -0.1631849665760392 -0.04245834660167960 
0.6234018847002396 -0.6093510208922659 -0.9639644571799217 -0.3910461132646799 -0.2499598150792330 -0.2359405144094582 -0.1303773074082970 -0.2656848101800912 0.8891103784132074 -0.4350095595938079 -0.4634403921399439 -0.3932971431059602 -0.1616271967090180 
-0.2806675948066390 -0.1060313918192534 0.5641680210304079 -0.06664352570914832 -0.03738866952215030 -0.03753175642295513 -0.06446413569664197 -0.09188984179169370 -0.06530416112998468 -0.04611893739577073 -0.03480739829003453 -0.04416445574741377 -0.03013058051282953 
-0.4436166290289918 0.9182366559845894 -0.5404398621856948 -0.1109161411572006 -0.1255937307793476 -0.1780215033942670 -0.3069129688808639 -0.1465813698471864 0.09814122669804053 -0.2180014077839295 -0.1183011291379174 -0.3566258752959608 -0.08484769107982042 
-0.3186976856964828 1.445421058216449 -0.6883100958082260 -0.3081543685212985 -0.1201218412127614 -0.09258777627646031 -0.2109239829540765 -0.6341793852662652 -0.1587563867021035 -0.1681767483492344 -0.1784152612434187 -0.2047176103363869 -0.05608420558362792 
-0.07564956813819980 -0.07212460016283060 -0.2068611271099463 -0.04269142154204979 -0.01804326602026984 -0.02276880206674958 -0.02779728130717712 0.5021255773753791 -0.03060101201986773 -0.04736733605146435 -0.02813924470169165 -0.03208975370893183 -0.01045533484107271 
-0.1577785960435481 -0.1117716991984013 -0.3953305561257445 -0.2329833751933804 -0.09888903917933778 -0.1069278357258212 -0.1513248152025129 0.6250030881640488 -0.1332595195719758 -0.2118397216582483 -0.2225062132958882 -0.1205686269905376 -0.04779415395470249 
-0.07564956813819980 -0.07212460016283060 -0.2068611271099463 -0.04269142154204979 -0.01804326602026984 -0.02276880206674958 -0.02779728130717712 0.5021255773753791 -0.03060101201986773 -0.04736733605146435 -0.02813924470169165 -0.03208975370893183 -0.01045533484107271 
0.07302470923482035 -0.1893647119213752 0.1930786487171488 -0.09712199640964160 -0.07269523434048317 -0.02853309546611182 -0.06622682532959230 -0.1612344550115169 0.2696780925272730 -0.05737958312925427 -0.06699306795314577 -0.04603125771785898 -0.01884331047249623 
0.05931592832777342 -0.02192468636983481 0.1280547458257342 -0.01158753000324232 -0.002548162557252452 -0.0008717048293485407 -0.001314248108744795 -0.04179510095441667 -0.06250748970417362 -0.03988229263787999 -0.005467277248842445 -0.003734419926635772 -0.0004940161769408018 
0.1696403746634557 -0.01202967338311020 -0.07013684581204531 -0.004304025228969439 -0.0001101342769006105 -7.849697579571270e-05 -0.0007726548917680063 -0.02046989878313675 -0.05713850794684471 -0.009019940952692552 -0.003322971876598694 -0.0001844038500550028 -2.155006249676875e-05 
0.1696403746634557 -0.01202967338311020 -0.07013684581204531 -0.004304025228969439 -0.0001101342769006105 -7.849697579571270e-05 -0.0007726548917680063 -0.02046989878313675 -0.05713850794684471 -0.009019940952692552 -0.003322971876598694 -0.0001844038500550028 -2.155006249676875e-05 
0.6692736753193265 -0.6448508047136392 0.3648389166491967 0.01134606096174296 -0.2041309083847132 -0.1514584019791091 -0.2544843417145875 0.02621594965745794 -0.2697783238737910 -0.3034140044205241 -0.2454776652543602 -0.2160211933579127 -0.09248101902395126 
0.1286374971223734 -0.02894278198580311 0.1229118802958921 -0.01799539346723431 -0.01148264857715927 -0.002944894939827187 -0.006163904983224296 -0.03751052629686100 -0.06624244733538222 -0.05139292135085184 -0.005024167696985694 -0.01519689465979243 -0.002957008493094250 
0.06989873414537946 -0.4747500908746066 -0.2059973341883949 0.2866715209820259 -0.1354443435789334 -0.1682861507893451 -0.03035350481443097 -0.1901545926563985 0.09243988693160303 -0.1459705490565517 -0.08537598073337123 -0.1171384694573635 -0.1490521237660307 
0.1696403746634557 -0.01202967338311020 -0.07013684581204531 -0.004304025228969439 -0.0001101342769006105 -7.849697579571270e-05 -0.0007726548917680063 -0.02046989878313675 -0.05713850794684471 -0.009019940952692552 -0.003322971876598694 -0.0001844038500550028 -2.155006249676875e-05 
0.1696403746634557 -0.01202967338311020 -0.07013684581204531 -0.004304025228969439 -0.0001101342769006105 -7.849697579571270e-05 -0.0007726548917680063 -0.02046989878313675 -0.05713850794684471 -0.009019940952692552 -0.003322971876598694 -0.0001844038500550028 -2.155006249676875e-05 
-0.1196419392391318 -0.1338079138141389 0.2442281013397791 -0.07833652098469807 -0.01382620650573847 -0.01208446422720673 -0.04918705195737305 0.1672117156626239 -0.02051307912215251 -0.05636443972998109 -0.03540770913927815 -0.02240434664355852 -0.002445725999523498 
-0.1176793786623545 0.4576519364401997 -0.1397842979941766 -0.08126085470171505 -0.02816227177048039 -0.01718431633168933 -0.05352818715609698 0.2040805079931211 -0.05144203764056476 -0.03306590348588163 -0.05096475297800192 -0.05796396742492230 -0.006706495505644716 
-0.6240948832113791 0.05562519226474422 0.07198508206123938 -0.3911296001736734 0.0009679646873290459 -0.2491978367954836 -0.2524119121890078 0.4875014984507905 0.02483057316488807 -0.9448245089412356 -0.3590764612898065 -0.08473168676204096 -0.3005589316334373 
-0.02018454943256658 0.1410733707839836 -0.1613027071996602 -0.009346848671777260 -0.002148352475523907 -0.001268697689608725 -0.01086937401247409 -0.04517213054541480 -0.02766613744601611 -0.001464423719789855 -0.004022466660354548 -0.005921037118133765 -0.0004349984775061426 
-0.1341425391975057 0.09971063833639364 0.07940402086483507 -0.2016291260649786 -0.05234729727718591 -0.03019824027132365 -0.1099643472100581 -0.2551253127347390 -0.1321273299795714 0.01770930431958765 -0.05345202116191099 -0.1042436752973722 -0.01816602805246510 
-0.3145634132109378 -0.1352105801757069 0.2996043438331392 -0.1971381898175501 -0.04304686727292744 -0.02771892771077551 -0.09152972822224790 0.05311142525930190 0.2574804558041451 -0.09047424213839182 -0.1091141813563377 -0.05641332812437702 -0.02040423958125346 
-0.1872964862403138 0.06879333983068446 0.3367070733601897 -0.07057817359785974 -0.01536069836861811 -0.01234910705508905 -0.04184282024682372 -0.1431996378131998 -0.04494479173189631 -0.03615247399968061 -0.03824306544586739 -0.03024104934078107 -0.01021134922794945 
0.1880049518473559 -0.5529134889579057 0.3437129355481116 -0.1258697225973551 -0.2034577653243268 -0.1376790570883630 -0.2610462581849364 -0.4775130083666148 0.1642192015970978 -0.3391563504309186 -0.2318648603869584 -0.1953986938710311 0.2159255759453159 
-0.0007962346218454684 0.09850749746227609 -0.05766618103781469 -0.01678289664407624 -0.002425201630770481 -0.0001894238441273861 -0.0002748836757758459 -0.03633927165519676 -0.03746627452518725 -0.003138718794870903 -0.001164936326696098 -0.0006612600299677027 -1.438742198621798e-05 
-0.0007962346218454684 0.09850749746227609 -0.05766618103781469 -0.01678289664407624 -0.002425201630770481 -0.0001894238441273861 -0.0002748836757758459 -0.03633927165519676 -0.03746627452518725 -0.003138718794870903 -0.001164936326696098 -0.0006612600299677027 -1.438742198621798e-05 
-0.0007962346218454684 0.09850749746227609 -0.05766618103781469 -0.01678289664407624 -0.002425201630770481 -0.0001894238441273861 -0.0002748836757758459 -0.03633927165519676 -0.03746627452518725 -0.003138718794870903 -0.001164936326696098 -0.0006612600299677027 -1.438742198621798e-05 
-0.02935880416870309 0.06607895779993240 -0.1897966650417869 -0.01900129773497930 -0.006429333342507509 -0.006689177530590062 -0.007922921323873471 -0.09054824913705900 -0.04315302464329886 -0.006738370315478157 0.1894228998175803 -0.003494760523608148 -5.229003495608557e-05 
-0.1280206117062800 -0.3833846450907044 -0.01276355455842218 0.4940086479026402 0.1319929221870814 -0.1153268297048334 0.07293220168138054 -0.07649803420152411 -0.1897692699859655 0.3561001687085392 0.1031368723457027 -0.1861233155290423 -0.07457075347960143 
-0.0007962346218454684 0.09850749746227609 -0.05766618103781469 -0.01678289664407624 -0.002425201630770481 -0.0001894238441273861 -0.0002748836757758459 -0.03633927165519676 -0.03746627452518725 -0.003138718794870903 -0.001164936326696098 -0.0006612600299677027 -1.438742198621798e-05 
-0.0007962346218454684 0.09850749746227609 -0.05766618103781469 -0.01678289664407624 -0.002425201630770481 -0.0001894238441273861 -0.0002748836757758459 -0.03633927165519676 -0.03746627452518725 -0.003138718794870903 -0.001164936326696098 -0.0006612600299677027 -1.438742198621798e-05 
-0.0007962346218454684 0.09850749746227609 -0.05766618103781469 -0.01678289664407624 -0.002425201630770481 -0.0001894238441273861 -0.0002748836757758459 -0.03633927165519676 -0.03746627452518725 -0.003138718794870903 -0.001164936326696098 -0.0006612600299677027 -1.438742198621798e-05 
-0.4016164654285369 1.581432648293183 -0.4021346552457445 -0.1793154904367176 -0.09361513811277435 -0.05681185243447032 -0.1056304530712844 -0.2698216350641282 -0.1936180647582632 -0.09403079944229775 -0.09093703702684330 -0.1885215829305926 -0.02120145303544967 
-0.0007962346218454684 0.09850749746227609 -0.05766618103781469 -0.01678289664407624 -0.002425201630770481 -0.0001894238441273861 -0.0002748836757758459 -0.03633927165519676 -0.03746627452518725 -0.003138718794870903 -0.001164936326696098 -0.0006612600299677027 -1.438742198621798e-05 
-0.0007962346218454684 0.09850749746227609 -0.05766618103781469 -0.01678289664407624 -0.002425201630770481 -0.0001894238441273861 -0.0002748836757758459 -0.03633927165519676 -0.03746627452518725 -0.003138718794870903 -0.001164936326696098 -0.0006612600299677027 -1.438742198621798e-05 
-0.2462769144492608 0.3397250510901688 0.2210307035886086 0.1568866596228584 -0.02713656030124294 -0.02830903103652965 0.4011563999103239 0.2334611444274536 -0.1360365221688494 0.1999785718002309 0.1926905523276047 -0.02735366044361214 -0.006399601621017246 
-0.04595769419823063 0.5545034284601086 -0.1091155377437225 -0.08374917321504263 -0.003017222868319501 -0.0002958196863871601 -0.008659071526596044 -0.04422382673695988 -0.06291273716838906 -0.01429881993475048 -0.003029172980716705 -0.0007398940470316624 -6.660695435309891e-05 
-0.0007962346218454684 0.09850749746227609 -0.05766618103781469 -0.01678289664407624 -0.002425201630770481 -0.0001894238441273861 -0.0002748836757758459 -0.03633927165519676 -0.03746627452518725 -0.003138718794870903 -0.001164936326696098 -0.0006612600299677027 -1.438742198621798e-05 
-0.01000794376584517 0.04457135548512083 0.1238711003557480 -0.07597956320871933 -0.009602951845969942 -0.003847737942987010 -0.008029829619324651 0.1017812781982388 -0.05499831176550134 -0.02041434076535153 -0.01658728180330355 -0.01526445063962680 -0.0008532262183077444 
0.3117345447609856 -0.04467726417353415 -0.2620026215965499 -0.2180104372637092 -0.1417441513266786 -0.1139260266752024 -0.1632256762384468 -0.2197922363019112 -0.2829839585083965 -0.1359298074003720 -0.1838866628159157 -0.1639543188687423 -0.1548725613036644 
-0.2946727969771753 0.7512923616774306 -0.3508749543595668 -0.1236399441660921 -0.01122851003572333 -0.01606782665503773 -0.04223943831619749 0.02251418944937006 -0.1012897529788116 -0.06050232194407879 -0.03407554919790346 -0.01071224656304242 -0.01329187458270769 
-0.3296379316334449 0.4596634184259417 -0.2589924094486798 -0.08659637006518088 -0.02203283768826594 -0.02215414545554861 -0.06321081221158706 -0.01318874939037701 0.5060009950890424 -0.04032367863424455 -0.03291845452552497 -0.02552409920710673 -0.01788224456967118 
-0.02344681960139130 0.2491156258813243 -0.05015824130789098 -0.01252696102752315 -5.925088434901545e-05 -0.0001798099799617735 -0.0003051440068746665 -0.01210890946479757 -0.02706902796874148 -0.0005647704674620783 -0.001758652759925685 -0.0002844684516647858 -4.873496093753992e-06 
-0.2058316971943185 0.03419036636849224 0.3743693129831179 -0.02651285797923145 -0.03185632149207122 0.4403797699438230 -0.1059634362116809 0.1073375688825390 -0.1747557255011771 -0.05914369996698186 0.5295093323846217 0.2255656936649058 -0.01084334995940084 
-0.02344681960139130 0.2491156258813243 -0.05015824130789098 -0.01252696102752315 -5.925088434901545e-05 -0.0001798099799617735 -0.0003051440068746665 -0.01210890946479757 -0.02706902796874148 -0.0005647704674620783 -0.001758652759925685 -0.0002844684516647858 -4.873496093753992e-06 
-0.02344681960139130 0.2491156258813243 -0.05015824130789098 -0.01252696102752315 -5.925088434901545e-05 -0.0001798099799617735 -0.0003051440068746665 -0.01210890946479757 -0.02706902796874148 -0.0005647704674620783 -0.001758652759925685 -0.0002844684516647858 -4.873496093753992e-06 
-0.02344681960139130 0.2491156258813243 -0.05015824130789098 -0.01252696102752315 -5.925088434901545e-05 -0.0001798099799617735 -0.0003051440068746665 -0.01210890946479757 -0.02706902796874148 -0.0005647704674620783 -0.001758652759925685 -0.0002844684516647858 -4.873496093753992e-06 
-0.1082240497308649 0.2344801241164380 -0.1243902187991660 0.3006420285783947 -0.003557084404002260 -0.002935287289207542 -0.01387022092949091 -0.04163451262325275 -0.03044471170636916 -0.01342974039331849 -0.01285498165766757 -0.007451103215583659 -0.0001154027702966458 
-0.02344681960139130 0.2491156258813243 -0.05015824130789098 -0.01252696102752315 -5.925088434901545e-05 -0.0001798099799617735 -0.0003051440068746665 -0.01210890946479757 -0.02706902796874148 -0.0005647704674620783 -0.001758652759925685 -0.0002844684516647858 -4.873496093753992e-06 
0.2526181675620620 -0.3367430666092354 0.2355811907490817 -0.1940837514656037 -0.09384937979628404 -0.07811000638899589 -0.09086687610166631 -0.3830085975732491 0.02934099318259042 -0.1971517399455046 -0.07042674691094863 -0.07831841275329840 -0.03839272168332339 
0.8831946030741924 -0.1424260200692970 -0.6780219491805972 -0.3003536971770747 -0.1488587467595335 -0.1009553370825033 -0.1413387742193438 0.01352941682873959 0.07267007521946359 -0.3112957503418106 -0.1783801689383569 -0.1186091532260510 -0.02806181170274698 
-0.03126701959253832 0.3304572245490817 -0.2598407731970601 -0.01552162494263646 -0.002253910924658744 -0.008081897216463829 -0.008216446613931304 -0.05207668956124924 -0.03926240872330701 -0.01950727196400954 -0.01013923290771434 -0.008806887149523247 -0.0006163517331059144 
-0.1561388312266580 -0.2446912969856621 -0.2540046150166759 -0.2554605699353850 -0.2014924639511156 -0.1207658891555212 -0.1207772459385078 -0.5925249456271162 1.322295716239835 -0.2631283321544499 -0.1913847405515621 -0.1862242152728163 -0.05667793213051670 
-0.02344681960139130 0.2491156258813243 -0.05015824130789098 -0.01252696102752315 -5.925088434901545e-05 -0.0001798099799617735 -0.0003051440068746665 -0.01210890946479757 -0.02706902796874148 -0.0005647704674620783 -0.001758652759925685 -0.0002844684516647858 -4.873496093753992e-06 
0.1670462869482596 0.08217902240335012 0.1375397221952871 -0.1084615658112916 -0.04017881799347686 -0.03406805707537012 -0.1220766686307761 0.2717814318165371 -0.1228486545100563 -0.07379717736774312 -0.05657418555710366 -0.1146819015924869 -0.02230283567953849 
0.5017255642353546 -0.09811160009718778 0.0003429134022111524 -0.4286271564634451 -0.2308633709176851 -0.1533465292304155 -0.2005282999181610 0.2210294494591831 -0.2162951990485396 -0.2153477275213337 -0.1710953475203940 0.3250053599093574 -0.09351372471152468 
-0.3052387855308868 0.5435696267136817 -0.5244012830489103 0.3808224190109194 0.2567539741360942 -0.07481799937318980 -0.1436583389946799 -0.3012320084574717 -0.3928080489010332 0.06176165475425254 -0.09690382552662737 -0.1272871801711951 -0.02265158440240543 
0.8784858408569061 -0.2627263309699313 -0.6314666961213360 -0.2078053695945622 -0.07615609354090666 -0.07531608389363970 -0.1064137687423931 -0.09197461142609392 0.07273884567157955 -0.1602100214027421 -0.1481789387253603 -0.07564872815405735 -0.03635446779991922 
0.2045193412984105 -0.03191717124783754 -0.04121106538041876 -0.01062901245165395 -0.004972587420356232 -0.002398600439610876 -0.002509723003713891 -0.02430215279028323 -0.04146282996918504 -0.005327710811827036 -0.0007749754142722461 -0.003480433422235616 -0.001200943333051736 
0.09763414536115725 0.1581872676612773 -0.1453153337047710 -0.06488346104788853 -0.01395881147674897 -0.006979199252500436 -0.008706737534323368 -0.1223142297106006 -0.1292875704650297 -0.03197466257959929 -0.03803218601523438 -0.01041127239257319 -0.002964243605402609 
0.08556321195474441 0.2046276239577988 -0.2610838816096938 -0.04175122760816713 -0.01554243490657423 -0.02801992925692355 -0.02799808142672621 -0.1009332176152291 0.3032306804641301 -0.03578460849427928 -0.01766946846634670 -0.01548022865103702 -0.004335780874373973 
0.08172647617681686 -0.2650957121971467 0.01290918074271385 0.2201146802519268 -0.05407642940912064 -0.02779267794930495 -0.06750605539146126 0.6946903036512893 -0.2895078517545767 -0.09301513054572166 -0.05286015066966418 -0.04732481800592141 -0.01425620192954077 
-0.2030493096054701 -0.1680131994640022 -0.1429841470034847 0.4475506082744898 -0.02226742036958061 -0.01766272546060085 -0.05190697027516044 -0.09918043789096186 0.5881481909200083 -0.04589823616220273 -0.05193927959374006 -0.02186656712238837 -0.01335185333524547 
-0.3870447487269283 -0.1549314940044226 -0.7953848278079025 0.3510214499693726 -0.2086635420361917 -0.2409665091915210 0.5975947515477337 -0.4016737495822496 0.8222876081519684 -0.3793389394246755 -0.1416008097400914 0.2992616725351281 -0.08086990593783161 
-0.1438011974269118 -0.01075544729734725 -0.04327590239413401 -0.004767206963795111 -0.0003452121393514122 -0.0002940196135026998 -0.003368894456231124 -0.0008193120821199920 0.6475416148710597 -0.0006000678455546319 -0.0008612574765270333 -0.0007904864023407890 -0.0001956836000384599 
0.5840153513402758 -0.6966515113193200 -0.5721746715825319 0.4993966718200632 -0.3467340347946245 -0.2838685994866435 0.3934287373154810 -0.2081979708554912 0.1318647459993470 0.09055468901764144 -0.2299739360137191 -0.3121870994518001 -0.1020543057360987 
-0.2914790557108567 -0.1606391694823437 0.2775128410427035 0.4318402165820927 0.2488417564805941 -0.08054140550164582 -0.1015764254143024 -0.4496317302221942 -0.08852053224635810 -0.1874425625265256 -0.1100559518483490 -0.1415462435242615 -0.02872371382479988 
0.1285172515926717 -0.03965976498702205 0.1304616471317578 -0.02861481943839781 -0.003107161606188630 -0.003610307875835377 -0.02112210205596944 -0.1779560250127657 -0.05794055938521484 -0.02052010293798327 -0.02331820684864547 -0.004164460009395720 -0.001062241546425220 
0.1673092148057477 -0.05949224256230434 -0.01033525613044016 -0.08826671245911910 -0.01293174536058611 -0.01224142305926676 -0.05194590159279211 0.1111722939559667 -0.04568954540829807 0.3710912473576248 0.2484563985074546 -0.03988236763880100 -0.004788080522729126 
0.08541629957924576 -0.03555828393137193 0.03348077575010332 -0.06500673128689784 -0.006280600104989908 -0.008001035553777645 -0.02896797094355996 -0.2336547196487104 -0.02926137918263970 -0.04261479557238871 0.2870095035204818 -0.02429038378913789 -0.002214624945338658 
0.2086701558527507 0.01985431504273262 -0.02367994571940162 -0.05091722184589361 -0.01184576626221390 -0.01081568766262289 -0.06385678096148828 0.3787654025061515 -0.04472748832466615 0.3861844491990302 -0.05242721182917163 0.2264285855076821 -0.002873094462576664 
-0.04459922977452717 0.08676748552922699 -0.3796575489369335 -0.1848422155730161 0.4320109534099832 -0.08235489344976009 0.2079489521595115 0.1753249186434015 -0.1224470730782530 -0.08860668930735880 0.3874686531094775 -0.09885927602645832 -0.01542322608601757 
-0.1031879690219473 0.1761437622072464 -0.1456058897272934 -0.02675787260316342 -0.03590905186710875 -0.02256208413798952 -0.06164087951382216 0.1051846118699795 -0.02653671088152611 -0.02684285149654778 0.3010089810542961 -0.01607722612356540 -0.01049714544077944 
1.501983507046888 -0.5848028202258501 -0.5316125086648520 -0.3189394785646939 -0.1179722981264113 -0.1194151035854748 0.2558887606386763 -0.08208624389532594 -0.3225930528973632 -0.3158966586975720 0.02182542149234019 0.1691797383707717 -0.02917901477567958 
0.4009002137759085 -0.1122499556869834 -0.1782378813840445 0.002675136591641804 -0.07162827847078763 -0.04415136949115881 -0.1573185355981743 -0.3027061125003621 0.6180738503959946 -0.09385325213697265 -0.07406486855739933 -0.04268859524274732 -0.02649352947123655 
-0.1103244463356823 -0.009895012986724617 0.1981915916377795 -0.007283504774272881 -0.002438028280351841 -0.0007932078535528281 -0.0005415932169767880 -0.02132520217127993 -0.005368981757328910 -0.03086235168518743 -0.002144305372243751 -0.003550016076580769 -0.0004724661144440330 
