solver_type L2R_LR
nr_class 3
label -1 1 0
nr_feature 9829
bias 0.000000000000000
w
-0.003349704135825361 -0.2298002178010561 0.4740924961863237 
-0.04047244447815464 -0.1143158988906970 0.06913836991626043 
0.2462879674645366 -0.2367800137282020 -0.2795830333111753 
-0.04731835367790743 -0.04743849096620412 0.2131159952060650 
-0.3439517162214826 0.3541700675523509 -0.2332022024198765 
0.1025583170916670 0.001956033749782145 -0.2916970321180877 
-0.2142226137288445 0.2661948993378026 -0.3621578904425183 
0.1333901582848523 -0.1315221935650137 -0.02658804465126943 
0.2075939976668944 -0.1391349916886737 -0.05861879825199194 
0.5324989134331467 -0.5202187859477813 0.07143005032551869 
0.2075939976668944 -0.1391349916886737 -0.05861879825199194 
0.2075939976668944 -0.1391349916886737 -0.05861879825199194 
-0.1126733544713195 0.3358344006987716 -0.3348609794549922 
0.2077462657029656 -0.1393540493930037 -0.05869953783509616 
-0.5383690040259588 0.6746410444026446 -0.2947853018303203 
0.4808547679569400 -0.5671871366890693 -0.05926778865129573 
-0.06201743862566310 -0.1134886477804569 0.3298072031070138 
-0.1357215751350397 0.04454693902011604 0.05456326092589331 
0.5312786142663559 -0.5806195888495842 0.01777122373695066 
0 0 0 
-0.6665612523819760 0.5379475761923113 0.1038836653076932 
-0.1237638819856177 0.3482902074585597 -0.8483890782978615 
-0.8423417448589737 0.8176828610758370 -0.2426504498924454 
0.01678629995600075 -0.01685180440751872 -0.01069540183079893 
0.5411167307563090 -0.4795006548541901 -0.1412261538397854 
-0.4921363180802538 0.4313830633049297 -0.05973045242862042 
0.08863550515205111 -0.3531493514519106 0.5913091891778505 
0.01678629995600075 -0.01685180440751872 -0.01069540183079893 
0.4089486992543843 -0.5498201201325187 0.2984967111769015 
-0.03514222387917667 0.01852390700713496 -0.01759236635007359 
-0.2824646016852667 0.3843847926081692 -0.1327158556028694 
-0.5931449123349430 0.6851873681983940 -0.09062174957423148 
0.5110946482821082 -0.4444398351782875 -0.1292779480973639 
-0.3248769832044095 0.5431988915831295 -0.2928429614524198 
0.04137754760902477 -0.06467118997888331 -0.0001077500524766710 
0.1639571234872258 -0.1270767394010483 -0.04026572916637550 
0.1031058746964695 -0.1033043105309533 -0.0003863496119084228 
-0.2022239464525556 0.1572047043030357 -0.01877445645342175 
0.2244605821096454 -0.4304196277852347 0.5196223659448578 
0.06391329098957575 -0.07517144356525705 -4.873344634600451e-05 
0.06391329098957575 -0.07517144356525705 -4.873344634600451e-05 
0.2149890281862009 -0.09104008872531143 -0.1774459960388699 
0.4819075313006592 -0.4233678203134280 -0.1882705814065443 
0.06391329098957575 -0.07517144356525705 -4.873344634600451e-05 
0.06391329098957575 -0.07517144356525705 -4.873344634600451e-05 
0.1833893448544120 -0.2232679860693047 0.05902587467309316 
-0.4961302547560823 0.5632400769701842 -0.1943268270262334 
0.1080676190654152 0.008579422432631174 -0.1125176762806911 
-0.1538442368596731 0.03984928061361887 -0.04671776629403058 
-0.5339139716815640 0.1338437563324590 0.3982727243478811 
0.4897712372811027 -0.6154623881065782 0.1931670092694422 
0.3870768976914388 -0.3166666975583156 -0.07546372941236819 
0.4918789450277023 -0.2251675246979863 -0.3713379556334799 
0.4148954903032203 -0.3703820823489296 -0.01535300373677086 
-0.1114360270391036 -0.04143592267291597 0.2425916869026348 
0.4985043446712795 -0.5201354156051767 -0.008905977219616333 
-0.2282346081319829 0.08081421130878237 0.2501086648512480 
0.3803767307571688 -0.2605534725854509 -0.08930047326060399 
0.3477309180517613 -0.3395210266260271 -0.02901194447350000 
-0.2871562517984094 0.4178614963896056 -0.3600232163935823 
-0.1875638810924743 0.2538009624249447 -0.1387600031908655 
0.1164403763767721 -0.1064398063732591 -0.01016583214619092 
0.05321770208317248 -0.06575206529526775 -0.08588727171367660 
0.1907831243210966 -0.2732188808676138 0.01270369337437790 
0.4091279908395759 -0.3977741268047081 0.1017353263991527 
0.06466632378283155 -0.08209837982802945 -0.001762455336042432 
0.3544355569054701 -0.2719847038653724 -0.03786909645809689 
-0.9196568816821828 0.6253307629888637 0.2610273014497307 
-0.8819384636740415 0.7560501020653022 0.1048582362877522 
-0.05522791249046374 0.07916037400015617 -0.02894539569292130 
-0.07983294990215609 0.1293117930000843 -0.04434051040407165 
-0.04933218577160261 0.03923177661268951 -0.0006584531917414051 
-0.04933218577160261 0.03923177661268951 -0.0006584531917414051 
-0.04933218577160261 0.03923177661268951 -0.0006584531917414051 
0.2198058933915550 -0.06392821664178067 -0.3865701697025255 
-0.04933218577160261 0.03923177661268951 -0.0006584531917414051 
-0.2029647482088777 0.4512193195413767 -0.3197549487334178 
-0.3153892474033526 0.4200502100367762 -0.06877575895130746 
-0.05706744633315608 0.1316149133488686 -0.03770572872458123 
-0.3248437688005350 0.1272231639562773 0.02162392105629525 
-0.1981982691897015 0.3435744695469645 -0.2647389478479929 
-0.07609816316187067 0.09786335657772327 -0.03841444840303907 
-0.5132254432126317 0.1962510866268540 0.5644747503635044 
-0.4943007002115357 0.5623371893024296 -0.03926443487777018 
0.2445696260911588 -0.1634513182120240 -0.1607980569237659 
1.044465296407833 -0.8773317128556283 -0.1570353961422974 
0.07200674081433386 -0.05015065816679518 -0.1039504229957062 
-0.03818266385225135 0.1325343207706615 -0.1111103044135129 
-0.5977897586556158 0.4551265945129523 0.2435007993662989 
-0.1753386125447433 0.1954145538044683 -0.03064972142107015 
0.5730331108015368 -0.9228251289394698 0.6238629598518518 
0.1817869606256637 -0.1252502111700090 -0.03048517464473594 
0.1633038531786969 -0.1171337030786546 -0.02152060980512511 
0.1633038531786969 -0.1171337030786546 -0.02152060980512511 
-0.7820949252866262 0.8392073042764189 -0.1044206176537880 
-0.8371827785760275 0.7383009481284237 -0.06416618068590642 
-0.1357014248701434 0.1780376751562690 -0.07444633997295844 
-0.1592304236933484 0.1402714860198462 -0.01420559027305838 
0.07997198283471597 -0.07941288412908170 -0.001427670697292716 
0.03448730388881822 0.05751275876485970 -0.1286835926209362 
0.1528193157048940 -0.09112890487878018 -0.07246379579051536 
0.08008693975975233 -0.07855146501942228 -0.002750921581080701 
0.08010019359000335 -0.07959929783286232 -0.0008669002591306693 
0.06565301672026877 -0.3053935157160527 0.2249698567917799 
-0.1895349596921436 0.1708133892397805 -0.1204935798339130 
-0.03709950549062758 0.1211983922453065 -0.07533159349774173 
0.08010019359000335 -0.07959929783286232 -0.0008669002591306693 
0.08010019359000335 -0.07959929783286232 -0.0008669002591306693 
-0.3336669420887839 -0.5295353088354187 0.7492907620860267 
0.5863020998858146 -0.6118634765023012 -0.004254968888633363 
0.3097694486111767 -0.3126457001200078 -0.03041936006043285 
0.5983229944686695 -0.5783020841033360 -0.07119617533990023 
0.3362593714737191 -0.3311935841618219 -0.01397213538778695 
0.02483809820275579 -0.01876279090018316 -0.003971946427546322 
0.02483809820275579 -0.01876279090018316 -0.003971946427546322 
-0.1194978208171605 0.2339900055893545 -0.1062070220742736 
0.1326520564701567 0.1078891554907306 -0.2293847886845713 
-0.06495725735955056 0.1149527428976702 -0.09777976255195761 
0.06403068190964953 -0.04689565786587934 -0.004309562593108740 
0.02483809820275579 -0.01876279090018316 -0.003971946427546322 
-0.01336114614063326 0.06058434018358559 -0.03583667475022414 
0.1144976067880704 -0.02929270896726343 -0.07409045086227439 
-0.07907752307908462 0.1257322247223323 -0.003155261515185030 
0.4984998124343377 -0.4166563395702867 -0.1383413228295998 
0.3386821377888430 -0.1806118575247413 -0.1942077012901336 
-0.1377748273098327 0.1509087036156896 -0.03349356599270272 
-0.3216139582047147 0.2273924671292199 0.2107639540922784 
-0.09677009486646783 0.08919068145936368 -0.004440335353209084 
-0.1244739718880979 0.04616046147305199 0.03826528773082222 
-0.1085210437879765 0.2074215781208118 -0.06703268007714315 
-0.06543315380685076 0.1182055598307097 -0.03309328312442123 
-0.1440905076050276 0.2170486303779197 -0.03909094419348328 
-0.06543315380685076 0.1182055598307097 -0.03309328312442123 
-0.8216705661656342 0.8602975635695034 -0.07242253508564626 
0.2224194032109073 -0.1416313456649762 -0.04882339436258662 
-0.4584739789690351 0.5051688363071237 -0.06397201543935943 
1.211450413450174 -1.187338507747198 0.06715613583398942 
-0.1548098566527618 0.2301053738211341 -0.02620676225120915 
0.2734553374042917 -0.2166370927256284 -0.02556592836165696 
-0.3695326685842423 0.5350230729307607 -0.3520513343018506 
-0.2594740322768332 0.2153728984395787 -0.006661711028729553 
-0.5308920480262969 0.3657631681230518 0.3386049812587134 
0.04006530333686632 0.1377845246973040 -0.08409443263981649 
-0.05863737045609063 0.09004990101365491 -0.01831058987824623 
-0.3397968014448256 0.2938796981297026 0.01628897294458631 
0.006976821445459864 -0.004860925280562699 -0.0002963974275170717 
-0.01062726371611769 0.01199024426575099 -0.0006638524341361891 
-0.4399784167052427 0.4648090310787131 -0.1967842498038693 
-0.4953037845227309 0.2716355331750323 0.3976697088371854 
-0.04973947966934497 0.07588773396634227 -0.02460956122612028 
-0.03011424695743753 0.05221530832545576 -0.01902385409641744 
-0.1170520209497323 0.1431698877817600 -0.02270475147425273 
-0.1883563455278102 0.5259897385401746 -0.3780166162019261 
0.09882256889636737 0.02910409511749426 -0.2605243360759619 
0.1312634010151989 -0.1056150164544882 0.06102845631876854 
-0.1947689471999654 0.2447608062585218 -0.05971614939691543 
0.06723422289731137 -0.04331987939673285 -0.004721588679774488 
0.007102405577054205 0.06415242824557521 -0.05667898938216890 
-0.009571283065714177 -0.3006230472837687 0.6112038438533918 
0.05693203326138620 -0.03814467126622751 -0.004726695850724521 
-0.05550327689750100 -0.05360640949959262 0.2162590196328457 
-0.04007180571570400 0.09389271103101555 -0.07494042902048165 
0.2049881117774439 -0.5965770287481375 0.5682174652821604 
0.7192673576937808 -0.5514003061399647 -0.1718325906894826 
0.2720217415006124 -0.2365997062804574 -0.01003805630218041 
0.2083928204344649 -0.1331907562088365 -0.01920238535220389 
0.2229823749134513 -0.2278297526666021 0.01316348904854207 
0.3312652265952310 -0.4940546121185729 0.1392843435106586 
-0.07065391307355166 0.1606157092805324 -0.07215395320237238 
-0.01938518594928476 0.08037759697256852 -0.01023394578737954 
0.02249124330927193 0.03187301103901798 -0.01594199242197331 
-0.1998014288188940 0.4325419427616168 -0.3895105330056315 
0.2415443325283480 -0.1964004762302993 -0.03415423007460147 
-0.06558513310912745 0.09483718226001012 -0.07180168848619540 
-0.2224420798418374 0.2986163167227086 -0.08107671738468267 
-0.07888966047215465 0.1215352314348001 -0.02766461469603142 
-0.1435524193696827 0.1770810852879085 -0.05341210268865124 
0.2555426322750212 -0.2339240372715949 -0.001991400593184267 
0.6215804883733012 -0.5845211172867694 -0.03337941432298196 
0.2555426322750212 -0.2339240372715949 -0.001991400593184267 
0.3605967069378037 -0.3395099266454750 -0.07661886579770508 
0.2305434320242228 -0.1944690303557801 -0.01062846074862939 
0.2766689349469976 -0.2411680345408794 -0.002575222050800361 
0.2555426322750212 -0.2339240372715949 -0.001991400593184267 
-0.1133325986089280 0.1630619141943230 -0.03839727377351280 
-0.06146820062390201 -0.1111374155544794 0.2060160851229859 
-0.7152269186097489 0.8005073905833201 -0.04863854854805627 
0.1587975453773980 -0.1463539436693349 -0.04709152470589422 
0.1276515913258974 -0.1147173527956810 -0.02062050279923804 
0.1570096627369890 -0.1600695984317056 -0.008210577795264148 
0.09343616731953412 -0.08337571963577951 -0.02720334130137725 
-0.4530039423246186 0.5101243111757486 -0.07269444931790882 
-0.3373034910368215 0.4836325927935662 -0.1993273149410784 
-0.01135660161201866 0.05053430654827466 -0.001061338694554920 
-0.1605109899360747 0.1874536363446348 -0.0009233629983783081 
-0.1605109899360747 0.1874536363446348 -0.0009233629983783081 
-0.8689516607474735 0.8585112856770427 0.02075429111628291 
-0.1605109899360747 0.1874536363446348 -0.0009233629983783081 
-0.3179780754997214 0.4112957124071826 -0.1060104059127767 
-0.09833806839881261 0.1287242732310307 -0.0009237541036514338 
-0.1605109899360747 0.1874536363446348 -0.0009233629983783081 
0.1409442766803848 -0.4396423359535950 0.1740280524524544 
-0.07678275597085225 0.1917719961545701 -0.07713668635418663 
-0.1378964047369048 0.2072696178914318 -0.1169338635154080 
-0.2998855884635306 0.1057743036234269 0.2197376261565660 
-0.007108332522070997 0.008975756889556074 -5.807857473182144e-05 
-0.007108332522070997 0.008975756889556074 -5.807857473182144e-05 
-0.1245245614367453 0.1531743032951717 -0.03898318834935216 
-0.07649057190241526 0.09456894683147642 -0.004821809617882734 
-0.007108332522070997 0.008975756889556074 -5.807857473182144e-05 
-0.3879054718967421 0.4927032852467663 -0.05083248901179292 
-0.3148424771828816 0.3859923405977079 -0.3304508363667942 
-0.2960087629096685 0.2621942818054930 -0.05201690772817228 
-0.003802680672008772 0.007252103800359942 -0.004789193120929269 
-0.003802680672008772 0.007252103800359942 -0.004789193120929269 
-0.003802680672008772 0.007252103800359942 -0.004789193120929269 
0.03333728828650073 -0.04539600228978342 -0.02302481853338648 
-0.3115826951540109 0.3984753662776706 -0.1339498205279625 
0.1661238722055133 -0.07000821174168699 -0.1038531733009100 
0.2019148208878226 -0.04560953434192440 -0.1168566973290362 
-0.1565521465905790 0.2141808988135017 -0.01896925988508383 
-0.1412747645561908 0.1938208589080967 -0.01321417104765041 
-0.1412747645561908 0.1938208589080967 -0.01321417104765041 
0.07963588254950058 -1.177861292642876 1.313721982563378 
0.1341883808460179 -0.09934396535347718 -0.04542965391656631 
-0.9792204655022791 1.037356350023419 -0.1067122344446267 
0.05778104388595762 -0.06113030150861286 -0.009234829684359288 
-0.2900153611070134 0.07987316634746393 0.1519204275948304 
-0.06265462980148060 0.05584626889346676 -0.02228065031283711 
-0.03805646865865658 0.03286429929710795 -0.01226147715962782 
0.02425059113720053 -0.04653541112322881 -0.0007001265162614682 
0.02425059113720053 -0.04653541112322881 -0.0007001265162614682 
0.07324254519345882 -0.05096423324191381 -0.05156270154930641 
0.02425059113720053 -0.04653541112322881 -0.0007001265162614682 
-0.02551245218438986 0.04163372487191878 -0.03404877760216252 
0.2755032812552148 -0.2288821807497906 -0.05665880726412921 
0.1521299877367844 -0.1397078161246199 -6.776795572188721e-05 
0.1250946630744962 -0.1148829158351382 -0.001834953514290313 
0.1521299877367844 -0.1397078161246199 -6.776795572188721e-05 
0.1521299877367844 -0.1397078161246199 -6.776795572188721e-05 
0.1521299877367844 -0.1397078161246199 -6.776795572188721e-05 
0.1521299877367844 -0.1397078161246199 -6.776795572188721e-05 
0.1521299877367844 -0.1397078161246199 -6.776795572188721e-05 
-0.1505246652785550 0.1046424974468409 0.06327553839928990 
0.04173925720030700 -0.03447076001425432 -0.03060035227575212 
0.1521299877367844 -0.1397078161246199 -6.776795572188721e-05 
-0.7554400756520387 0.6237108066104340 -0.01007434156722039 
-0.04777089430647528 0.1047810117855446 -0.05913782883741629 
0.1521299877367844 -0.1397078161246199 -6.776795572188721e-05 
0.02560321566597658 0.02210926006639055 -0.02384243323688351 
0.6743081222705182 -0.6291046738536615 -0.06396552668993942 
0.1019980620533774 -0.2230857667720217 0.05538148750836793 
0.3065832241317680 -0.4049823872988688 0.04306509339240720 
-0.3035877000775958 0.3955589809211734 -0.3178475390004407 
0.1121234850247050 -0.09753398002601808 -0.001091360641206765 
-0.3533799510870887 0.3988920284467523 -0.06803274850182212 
0.4139748128484094 -0.3817033856224398 -0.01834107200885693 
0.05453688002626106 -0.01448218092011614 -0.02064645947780156 
0.1890352066208789 -0.2759533857637307 0.1292341005803782 
0.1229681620389350 -0.09935319473357901 -0.05295517775253721 
0.2014008492113057 -0.2267016053059594 0.01074996632286287 
0.09082549750106622 -0.07678864933276684 -0.02450385816730123 
-0.3111999410573813 0.3414288935282352 -0.01144337050412830 
0.1763639976202875 -0.1025632000501586 -0.1212709865998840 
-0.08287221036363678 0.09458313331960708 -0.06434366256476445 
0.09404800025837390 -0.07871495022776318 -0.02531231471860498 
0.09082549750106622 -0.07678864933276684 -0.02450385816730123 
-0.4709214260297995 0.6424255597147951 -0.2405796559362899 
-0.3525845334763578 0.4114176123127432 -0.1254769939982737 
-0.2773546716471548 0.2656537848839394 -0.01908237770800646 
-0.07827107366782220 0.2714613165234709 -0.2013463039118777 
-0.2115060464368813 0.2660330712180795 -0.07468552053938196 
-0.01527738203438823 0.02036003990540499 -0.005755088837433416 
0.04599340378689719 -0.02515610550348934 -0.1912908570528061 
0.01117385964779287 0.1426435967799657 -0.1607136112106494 
-0.1779573479343663 0.1877007679373631 -0.02112992328749404 
-0.01527738203438823 0.02036003990540499 -0.005755088837433416 
-0.08477015509553455 0.07725138152511121 -0.0001210632396165915 
-0.6370167761779517 0.5456210043730096 0.06688427650552821 
-0.08477015509553455 0.07725138152511121 -0.0001210632396165915 
-0.08477015509553455 0.07725138152511121 -0.0001210632396165915 
-0.08477015509553455 0.07725138152511121 -0.0001210632396165915 
0.05693303320828912 0.0004859243955027811 -0.07091271798238780 
0.3109504931844511 -0.3164536242209793 -0.002054493244264003 
-0.1295452282253202 0.1263284927026622 -0.01620041728336209 
0.1881068114123367 -0.1063648858382867 -0.1053058474317424 
-0.1328544227293151 0.1498844691881338 -0.006385847921215903 
0.03057751594074301 0.03662975964737576 -0.1474675702506115 
-0.07546125371347422 0.1021949721925724 -0.007750880147621477 
0.2932171544072035 -0.2921650264128431 -0.01304724994758354 
-0.1008780515421087 0.1613460450140647 -0.01140189322812903 
-0.07857698852095202 0.1078822459777377 -0.01302917321357656 
-0.2204431418741206 -0.3651236886833448 0.6862915075310315 
0.2523421285651863 -0.1853473864174607 -0.05087379295561526 
-0.08444427703575795 0.1177008642417634 -0.005732142163537911 
-0.08444427703575795 0.1177008642417634 -0.005732142163537911 
-0.1423383646373778 0.2129986980617850 -0.08266453178632657 
-0.1450461491917781 0.2073159076570722 -0.08821212991766661 
-0.09629463630637064 0.1473727184723894 -0.02222474661791915 
0.09049823566886063 -0.06025980889168318 -0.02893967761888447 
0.2916448221104660 -0.1992496929986366 -0.06267384093174022 
-0.001687558854686358 0.002561227174783269 -0.0001464235029304915 
-0.04563629810111915 0.06438394739797354 -0.03181942090154744 
-0.001687558854686358 0.002561227174783269 -0.0001464235029304915 
-0.001687558854686358 0.002561227174783269 -0.0001464235029304915 
-0.1106627854728853 0.1378608214102970 -0.01331520184128229 
-0.3814391137735078 0.4471938479730769 -0.04631754570640038 
-0.3073139237010543 0.2273501431780860 -0.05794682076188699 
0.4554095262067862 -0.3052068768644945 -0.1507359980594230 
-0.2735640188859606 0.2068649698901886 -0.09092739176083742 
-0.003163597099295167 0.003714616519061359 -0.003154050178618949 
-0.3586167442243002 0.3476083294413001 -0.04827177141231925 
-0.1006867604611001 0.1098757087072737 -0.03133910084656582 
-0.1588561597137794 0.1840008761880837 -0.04031785893647675 
-0.2480937757548842 0.1579233643013548 0.005305919604944367 
-0.06778684359117760 0.1419934991347091 -0.09520785197622011 
-0.2570273953182847 0.1190242642961780 0.06098335000621359 
-0.1502031260114346 0.3379674871260127 -0.2668940248268056 
-0.09936280851831740 0.07597650816010261 -0.003844046165120535 
-0.006387433715034876 0.009312335050916486 -0.01112025518873885 
0.1831767675803370 -0.04700876093259743 -0.07959911510941857 
-0.1652892712169511 -0.1048897917891785 0.3588974164628255 
0.05875811231350573 -0.1772557076492082 0.2802112546726374 
-0.05654629625110178 0.05603896782558913 -0.001615456892998097 
-0.04831635985694972 0.05890164227764944 -0.01091408498706619 
-0.08663622989094324 0.1051587713153206 -0.02192299545767358 
0.05466637555933812 -0.05798011065479217 -0.003899091776775029 
0.05466637555933812 -0.05798011065479217 -0.003899091776775029 
0.05466637555933812 -0.05798011065479217 -0.003899091776775029 
0.05466637555933812 -0.05798011065479217 -0.003899091776775029 
0.3626048452561478 -0.3024458061150258 -0.01693612000430884 
0.2972498367066487 -0.4671576064823609 0.2100127732515564 
0.09803866333323706 -0.1124175440569773 -0.02085514801047530 
0.3888665292863140 -0.4479008075261620 -0.02041084709269875 
0.3690415433043311 -0.3399975906673692 -0.009184287867354942 
0.3544132470659235 -0.5887528131525408 0.2129066306575183 
-0.4869883034668168 0.6539376269348678 -0.3167623571625847 
0.04548850072699711 -0.02017456757563839 -0.005493829200465877 
-0.1912242442149882 -0.2425819315748460 0.5834184924181833 
0.04263299969707328 -0.1933702934968604 0.1689992080408235 
0.5897652731086340 -0.4719472781514394 -0.1976025588522728 
-0.003592081773357504 0.04070246467664408 -0.04707289202034434 
-0.1471700778908966 0.2160366692026162 -0.03876348394774981 
-0.02885142059874660 0.02557787080583038 -0.01354663112765517 
-0.008772938489813493 0.006482850133165021 -0.004308146693663175 
0.2472300938395789 -0.1732656289721634 0.005717629800246706 
-0.09027888143055422 0.08116095594989596 -0.001123515407621037 
0.2505514665114832 -0.2516891151220962 -0.01123437582771819 
0.9054666386090728 -0.8488523180625750 -0.08030563678624987 
-0.1746519818669386 0.2231281365664183 -0.03484931718617962 
0.02209373829064575 0.05347593973533982 -0.04375558265140543 
-0.04398481143834895 0.06186019878821746 -0.03128514343902714 
-0.04398481143834895 0.06186019878821746 -0.03128514343902714 
-0.05608709518154482 0.09221428674020000 -0.03367677957067364 
-0.1022456009402155 0.1974530982578522 -0.06389768578500736 
0.04484881288607563 0.08409389841541184 -0.1117853454220043 
-0.1622503241579993 0.1085374476710392 0.07158483823541861 
-0.04633977288139280 0.05635225098328938 -0.007880600428490000 
0.2167911950194382 -0.1118146689000742 -0.07145360574449054 
-0.1638080685944908 0.2002638519751520 -0.06592897792293380 
-0.04633977288139280 0.05635225098328938 -0.007880600428490000 
-0.04633977288139280 0.05635225098328938 -0.007880600428490000 
-0.04633977288139280 0.05635225098328938 -0.007880600428490000 
0.1751751772939584 -0.1727227391369789 -0.001044136986917390 
0.1728508527716904 -0.1675407302444038 -0.002245451194980593 
0.03644516446989563 -0.2500204696921464 0.2522434814530002 
0.8597998028835135 -0.7929028257934722 -0.09450957116880061 
-0.04665643202204328 -0.1803363854188397 0.2791568307117713 
-0.3914198175684813 0.1901195685585070 0.3327255872918649 
-0.04665643202204328 -0.1803363854188397 0.2791568307117713 
-0.07006496223500523 -0.1187599058795336 0.2467983584248243 
-0.04665643202204328 -0.1803363854188397 0.2791568307117713 
-0.2284029479489666 0.04140049212799420 0.2216563964741349 
0.1284913985427156 -0.08927936588529851 -0.07473523138124788 
-0.2045367558552567 0.2382082620884493 -0.2437149929309694 
0.07076685578077220 -0.2544852683064181 0.1815835574249911 
-0.1372348485081491 0.2369483865680578 -0.1599587272437245 
-0.2992974685230925 0.4314028554634652 -0.1974400128833215 
0.09609064976482894 -0.06415700506025700 -0.005335591753568516 
0.09609064976482894 -0.06415700506025700 -0.005335591753568516 
0.2573759006487253 -0.2339024514567082 -0.006661986747155103 
-0.03756003855559469 -0.08417749147220430 0.1679547093386391 
-0.1575592625448888 0.05307873367605158 0.1655549658964180 
0.09609064976482894 -0.06415700506025700 -0.005335591753568516 
0.2220202760898905 -0.1539394859060387 -0.1599387356227326 
0.4680038729717900 -0.3921541784898589 -0.03803365371481570 
0.2478416258548326 -0.2515152124588958 -0.001387298069299394 
0.07045192329351763 -0.04175807062996589 -0.04922403386560998 
0.2478416258548326 -0.2515152124588958 -0.001387298069299394 
0.7370878722772332 -0.6304990516754878 -0.1184266860978726 
-0.1096089492884695 0.1238780006899398 -0.02121751059593597 
0.06687228620413369 -0.04069340827738505 -0.02091588376615245 
0.5464133534956889 -0.4981585969958369 -0.05567667916303501 
0.2617493160549303 -0.2580097355834762 -0.009803646903238435 
0.3484074325831489 -0.3531334920322747 -0.009994428099537642 
0.09432055358985303 -0.09098276799595471 -0.01203888179841156 
-0.1827621541964098 0.2918243592834909 -0.1204866794914545 
-0.06012632075800580 0.2835508057490874 -0.3535735216600378 
-0.09410294846167934 0.1146740502365300 -0.03433285681142111 
0.09971805599411605 -0.07999263338663597 -0.01715267720961990 
0.07520572082947409 -0.1939407972240336 0.2718634696132046 
-0.2322607985886109 0.2549336120582299 -0.09316020882182306 
0.1980305851033288 -0.1798589053982453 -0.03148984438629768 
0.09218335260159047 -0.05369529948299287 -0.03197520468883260 
0.2178868241800106 -0.1575281606664273 -0.08918470661298442 
-0.2499781619351402 0.2570825370177995 -0.05864088751395425 
-0.03593447349608792 0.04526513852233498 -0.001578985968199423 
0.2004211002208481 -0.1604108496368354 -0.03901474041821550 
0.3580958621911424 -0.2676061838438817 -0.03921323579884616 
-0.03593447349608792 0.04526513852233498 -0.001578985968199423 
0.4521348701105646 -0.3492104810663360 -0.08465613295347606 
-0.1344533350707846 -0.03522772531148236 0.1577870299084882 
-0.01861666303807307 0.02704903629824315 -0.001366000021795666 
-0.06566332293488786 0.2220849256793941 -0.2515073167245962 
-0.1316353832307687 -0.1468797994372970 0.2912729549066627 
-0.1981488624644383 0.3291203006615125 -0.07740402859063546 
-0.1583093054686585 0.2218807124111250 -0.09160324466696150 
-0.2019996578488852 0.2813152832555240 -0.1027895276225151 
-0.3272716282618444 -0.1368170166375118 0.7648446294761072 
-0.08076888620545435 0.1756025576190084 -0.05047562066839016 
-0.1841851847075543 0.2316307590936387 -0.06657307058380574 
-0.4033666139192171 0.4069975635616966 -0.08864750699462111 
-0.07843938554915728 0.07242279869378127 -0.01214503144188558 
-0.2806017648879139 0.2428326153519350 -0.01302051242772501 
-0.04873093695138146 0.02839755911933503 -0.01185408159436164 
0.1985514773388388 -0.2056019483255189 -0.07342409856165180 
-0.4480624479636017 0.5267934490290219 -0.1079203074458395 
-0.1536989157595414 0.2129206183364557 -0.04111277556435525 
-0.1175229754740672 0.1397073797604711 -0.01132702831911431 
0.2165893780388981 -0.2036340963126703 -0.01216966304602846 
0.1568719757994563 -0.1208724939909114 -0.01960849576109929 
-0.02579790590783912 0.05465390544841362 -0.004320363385143879 
-0.1512973588892814 0.1990123021906971 -0.01583134626872904 
0.3761190381608804 -0.6016323837747558 0.3989617267985260 
-0.02579790590783912 0.05465390544841362 -0.004320363385143879 
0.07628795831576952 -0.009121963241625317 -0.02062731561884953 
-0.005039596993787327 0.005469567851010420 -0.001709981376058752 
-0.2595680887935418 0.2445481637604483 -0.04536514797037124 
-0.03239210761043553 0.08730765714637297 -0.01781537493042960 
-0.1278530533903008 0.1776532205882929 -0.02617127752994012 
-0.01607658830766227 0.04239063775467672 -0.008281473842807929 
-0.04830016670750655 0.09701813230773809 -0.009857730481530170 
-0.3894558088634831 0.1810875795705081 0.2450897412969801 
-0.05263165073684820 0.01711657702551147 -2.986419852117520e-05 
-0.05263165073684820 0.01711657702551147 -2.986419852117520e-05 
-0.03585301298857385 0.03251680866041924 -0.002470477661363938 
-0.05898412793079273 0.05906696380360409 -0.003056681233306305 
-0.1944150255754268 0.2208878707150484 -0.01532382477347668 
-0.1944150255754268 0.2208878707150484 -0.01532382477347668 
-0.1944150255754268 0.2208878707150484 -0.01532382477347668 
-0.1329530361292895 0.1429638070563711 -0.01404438317905903 
-0.02635350628446996 0.05465889141952996 -0.05914152263600603 
-0.4869643482506508 0.6905487841738293 -0.2731104127345083 
-0.02472572381244855 0.01933888086791785 -0.003003673999579530 
0.5316998944667730 -0.4807666883157056 -0.04435391191689437 
0.08176504077883917 -0.04238726382592750 -0.02321927431601926 
0.08176504077883917 -0.04238726382592750 -0.02321927431601926 
0.08176504077883917 -0.04238726382592750 -0.02321927431601926 
-0.1841080398515904 0.2076591476842921 -0.02953510131128487 
0.07312397249962148 -0.1497630656115299 0.1169943549742929 
0.5431790676660999 -0.4983359783345520 -0.06719701269465665 
0.5564823183287949 -0.5486652874848998 -0.04391557318566404 
0.1623542657036593 -0.1556167515562075 -0.005602224337148554 
0.2210310889548550 -0.2059447913601523 -0.005646348707211611 
-0.1280078818889871 0.1518187212112164 -0.03264486301696221 
-0.1280078818889871 0.1518187212112164 -0.03264486301696221 
-0.1280078818889871 0.1518187212112164 -0.03264486301696221 
0.2298019565618676 -0.2013920650840060 -0.02032516824073261 
0.1036105059884576 -0.06945775039801942 -0.02679925969098018 
-0.4855497237949072 0.5867116123092044 -0.09479010972267636 
-0.3419303170488424 0.4991431964565823 -0.2695790908155921 
-0.09766522010776561 0.05960957844170847 -0.02247599770508184 
-0.8301799716213827 0.8429229142031909 -0.1140205340928954 
-0.08246240374663699 -0.03738854662385479 0.1409351804999763 
-0.1481397470715941 0.1870309270291080 -0.04373436514530031 
-0.1614572772249773 0.1339869933413042 -0.006165403660744428 
0.1597619841942897 -0.1659955199804357 -0.02040227527231860 
0.2124582502688025 -0.1994166449208355 -0.01060261170663534 
-0.7457215107439805 0.2963187963500450 0.6389938828385420 
-0.003911183602186291 0.009311442882787957 -0.003161791327770833 
-0.04767134012202442 0.05202460611004354 -0.007569436087112235 
-0.01231057919189982 0.02862269791647336 -0.02691787749338577 
0.1317930982915993 -0.1410596280905295 -0.02145873441516358 
0.5855641715563188 -0.5568740468143770 -0.04201794570453229 
-0.004365794328539441 0.009081557002790683 -0.01467538066736216 
-0.3130647932801053 0.3887829727185601 -0.07788731870234360 
0.1057867705083252 0.03698577036304984 -0.08669275996661635 
0.09390672528434030 -0.05881833669764085 -0.01544148520576134 
-0.2484942318292663 0.2752393854007829 -0.05137179990267431 
-0.04367223797017916 0.05045007117954233 -0.01171493604072233 
-0.01421785375182261 0.01592341982611907 -0.008441799016501130 
-0.01614563207852254 0.01671635879334242 -0.003474125835506291 
-0.01594765574532108 0.01658108233115992 -0.003443730006056218 
0.004395232908017539 -0.2162180019689204 0.1615154888256589 
-0.07240039425683756 0.1028319708202728 -0.03479748706201093 
-0.03708033853127356 0.05215702396018942 -0.01592403711689940 
-0.1148641991882374 0.08611270993138549 -0.01619104454783915 
-0.09269112732775404 0.06828247423873006 -0.005012206011237985 
-0.02954394520963450 0.04419155121329019 -0.006523356822981758 
-0.06331172330493184 0.06676298639927956 -0.003421059185696005 
-0.06331172330493184 0.06676298639927956 -0.003421059185696005 
-0.1200782244514816 0.09838720493506500 -0.001620014998106752 
0.05790386588664463 -0.01157215500277384 -0.04176125141315954 
-0.1240243475790432 0.1890486962065578 -0.03401267667743789 
-0.05968767880335194 0.1737720237218951 -0.06766264983551432 
-0.2289998107587323 -0.09329809906282983 0.4236910483679606 
-0.1169768350130228 0.1839828999290021 -0.03510211338424136 
0.3545294110806845 -0.2517515580309155 -0.1381774008169388 
-0.1668128080665817 -0.1006741529896342 0.4970267957981794 
-0.1486842389774377 0.01754621806213778 0.3986748672829713 
0.001088583560721244 0.06007607386444043 -0.03331495796227958 
0.01072166351758822 -0.008277842790629791 -0.05256863247778684 
0.09947508943598814 -0.07898796544815763 -0.05298592475061425 
0.2196109045866568 -0.2472496500321605 -0.04946630268523822 
0.1172629146956525 -0.09231356918963941 -0.07284021472779094 
-0.003345232489196768 0.004974991595336456 -0.0001554387868316945 
-0.003345232489196768 0.004974991595336456 -0.0001554387868316945 
0.1601206339350775 -0.1057015531323547 -0.01524515976288630 
0.6634620363360787 -0.6027096321436689 -0.03565188997209328 
-0.003345232489196768 0.004974991595336456 -0.0001554387868316945 
-0.05914725943611859 0.06007522521822079 -0.01202832209775769 
-0.02200521118353167 0.05185873737470913 -0.03345413228086365 
-0.08668492580839254 0.1207165372441733 -0.03108285659396658 
-0.05279976350203917 0.06018570585076827 -0.006300695451685406 
0.01267474097132292 -0.2948316621706777 0.3337043116454298 
-0.07518138859015697 0.09235541189175360 -0.02543687897038970 
-0.01234794311743039 0.02187230113301762 -0.01074371640883515 
0.03892418660592133 -0.02231673638459496 -0.003066932376492681 
0.1289877191644876 -0.1252842382845466 -0.01981573953916114 
-0.02169367658585546 0.03314663717993667 -0.003852806974094624 
-0.02169367658585546 0.03314663717993667 -0.003852806974094624 
-0.1225425209304901 0.1302661220821497 -0.01586129512258487 
-0.1468023759088464 0.2398996369977109 -0.02880108737265960 
-0.03057976479036760 0.05071311897483872 -0.008951490690390213 
0.1734208316250190 -0.1309619283204015 -0.004385521656420829 
0.1480040337963845 -0.07181085549890918 -0.008036534736928380 
-0.02964139386548350 0.05078180316549920 -0.09646747540183753 
-0.005708441402756810 0.01582926173832684 -0.03120902732551804 
-0.2058884055294663 0.1499586083118595 0.09124635045033591 
-0.004520869606377349 0.006388423886114891 -0.002591611980292858 
0.2329362589427463 -0.2731195993137979 0.08127207856204464 
-0.008641068279217705 -0.1073758017856024 0.1402136292903122 
-0.01396308960610888 -0.08215967085113128 0.009800277558705797 
-0.3774999892644508 0.3448959313960964 0.07239932809327987 
0.03646380685526220 -0.04526348559383695 -0.03854988322303075 
-0.04694185396543128 0.03411741749679093 -0.001336904062611868 
-0.1567657114652196 0.2057220976533010 -0.06181791552874727 
-0.1208940442814819 0.1740219798116589 -0.03498260769712638 
-0.04976137159379244 0.06573599782589339 -0.001347235860580058 
0.4919908060325623 -0.4210988620945300 -0.02805451913890170 
-0.05941848870074938 0.07489332217443740 -0.05932010156427077 
-0.05201837523708677 0.06013559785264726 -0.04377037043138136 
0.004984050953364750 0.09395018013318340 -0.06416263823362889 
-0.1066589624802945 -0.02094617700660276 0.1078699200569158 
-0.2326054360875364 0.2905306215597798 -0.07669858828298777 
-0.005334395255387338 0.006890136272016575 -0.0006508361827861617 
-0.003492367392514736 0.003782213722223938 -0.001351161394944665 
0.09546190916130715 -0.01730322133527792 -0.05888792338883871 
-0.1043010045196459 0.1564121574839334 -0.05637141854303282 
-0.2760200800651291 0.1093144743075628 0.1437654636691842 
-0.1406859611097245 0.2215509241025902 -0.1425902334559803 
-3.555273347778795e-05 5.511469839037651e-05 -6.700610504302882e-05 
-0.005137459857797979 0.01172270819611234 -0.01631132535071243 
0.4842510652754384 -0.4679237806914263 0.008193844475672753 
-0.1528745958292770 0.1271274286465764 0.02888294784725961 
-0.1617773871574892 0.01826230403654258 0.1827740464128895 
-0.06784755272096345 0.1220045493418763 -0.06114300781475762 
0.03983274557312289 -0.02976473349967142 -0.005007553339316565 
-0.008870278926361634 0.02148835026500243 -0.001138327662611323 
-0.2296661787980521 0.3530230199330693 -0.1708397577600915 
0.1307533722611912 -0.05672715958357202 -0.07912314640389316 
-0.5470697490582778 0.5425008818133680 0.008746660014465339 
-0.1365351020168577 0.1318720283930228 -0.02771028948000550 
0.06791115213309358 -0.07394507707398969 -0.004935215194230153 
-0.001343993573676081 0.001692532992708389 -0.006128112781340890 
-0.05371764340675641 0.06275726574170344 -0.01437274709149238 
0.1295247760131530 -0.1009881352246134 -0.04639888071753785 
0.2703849535715373 -0.1743636137794063 -0.1128599655601288 
0.1258320994373596 -0.09821259117411897 -0.005476902084270045 
0.1258320994373596 -0.09821259117411897 -0.005476902084270045 
0.02982217629985767 -0.02548993281110483 -0.006990881389497131 
0.03066912451583391 -0.02677728312979891 -0.005935357294197141 
-0.1769287169366447 0.1525938948053479 -0.02273691514246114 
0.04599536857187623 0.01093559747970424 -0.04289696903450160 
0.4092529173079567 -0.3541832837710379 -0.02498248408915212 
0.03066912451583391 -0.02677728312979891 -0.005935357294197141 
0.02619535434323266 -0.02196408956786357 -0.005068470820955559 
0.02619535434323266 -0.02196408956786357 -0.005068470820955559 
0.02619535434323266 -0.02196408956786357 -0.005068470820955559 
0.02619535434323266 -0.02196408956786357 -0.005068470820955559 
-0.1331310284963558 0.2621517374820933 -0.2088431042642900 
0.02619535434323266 -0.02196408956786357 -0.005068470820955559 
0.02619535434323266 -0.02196408956786357 -0.005068470820955559 
0.2573107129824497 -0.2017771287709232 -0.03304157976657183 
-0.1889848556754651 0.1655898424401050 -0.1675765092212271 
-0.02238881058473390 0.04164169067668473 -0.03528962019055824 
0.1195442221355529 -0.1545784404676902 -0.02554612813389554 
-0.2343272714814224 -0.06422125870032028 0.3442215534398764 
-0.2343272714814224 -0.06422125870032028 0.3442215534398764 
-0.2343272714814224 -0.06422125870032028 0.3442215534398764 
-0.02613168907484524 0.04403298962203816 -0.02200317251187555 
-0.02613168907484524 0.04403298962203816 -0.02200317251187555 
-0.005523674826500724 0.008525717322103532 -0.04430960766768934 
0.3248043850692668 -0.2626900451935768 -0.1145845359961494 
-0.01561802250288158 0.03639027759981565 -0.008746780846738810 
-0.01561802250288158 0.03639027759981565 -0.008746780846738810 
0.06892691035262390 -0.04825090973100611 -0.02728017511141075 
0.02861666085608346 0.04560543025053770 -0.1142796759864113 
-0.2251099542492401 0.2496518299722698 -0.1118279549243486 
-0.004579717795654833 0.003896535372150558 -0.003142558476807809 
0.3592044109988413 -0.2688678556469622 -0.1422797015428422 
-0.1318578106924651 0.1398299519554257 -0.004350971723184668 
-0.001503464668564794 0.001569774620588650 -0.01378760868428777 
-0.0001518365644408981 6.991433738678157e-05 -4.318617314674798e-05 
0.2423872839467372 -0.2582880017610839 -0.007849299660884579 
3.607219191615417e-05 -3.747856502718682e-05 -0.0003878539595898135 
3.607219191615417e-05 -3.747856502718682e-05 -0.0003878539595898135 
0.09348855403109735 -0.07082869372735975 -0.01242798786109042 
3.607219191615417e-05 -3.747856502718682e-05 -0.0003878539595898135 
0.5470257395214714 -0.4514049517808400 -0.03433180488675114 
0.1853916984245812 -0.1578448481208518 -0.005235638723583414 
0.3899457005123872 -0.5199064096914446 0.2305510341780376 
-0.02443961002643149 0.03203566986210701 -0.01435597288461887 
3.607219191615417e-05 -3.747856502718682e-05 -0.0003878539595898135 
0.1162618766797515 -0.1258131474770170 -0.02169402201645252 
0.2212047508276680 -0.1942017265799196 -0.01421662099088001 
0.0001522680360712000 -0.0002190577043299597 -8.073958310422006e-05 
0.0001522680360712000 -0.0002190577043299597 -8.073958310422006e-05 
-0.1142507521144846 0.1609050294136194 -0.03188035773820228 
0.0001522680360712000 -0.0002190577043299597 -8.073958310422006e-05 
-0.08487250429559981 0.1210064914270002 -0.009900501861841328 
0.0001522680360712000 -0.0002190577043299597 -8.073958310422006e-05 
0.0009224682318735582 -0.0008180662440010708 -0.005717286518339367 
-0.02495989373135438 0.1770522810117685 -0.1702397164900188 
0.0001522680360712000 -0.0002190577043299597 -8.073958310422006e-05 
0.2474321224872772 -0.1967189901600164 -0.1067081946115937 
-0.009177340293386004 -0.3429768594099742 0.3754186678173311 
0.02105888131090909 0.002091757439204660 -0.04591662154137811 
0.02429729717265932 -0.003301303094100748 -0.03103418745397648 
0.02770648711730567 -0.03508225832741044 -0.04899697431748870 
-0.1959144510194813 0.2365918096011310 -0.07918203569436606 
-0.1959144510194813 0.2365918096011310 -0.07918203569436606 
-0.2472349035575824 0.2285574945568599 -0.02358961456392501 
-0.008481272467982415 0.007233758487225244 -0.0001400429178058931 
-0.008481272467982415 0.007233758487225244 -0.0001400429178058931 
-0.05795332210845744 0.08200705459464473 -0.04691372022438811 
-0.05795332210845744 0.08200705459464473 -0.04691372022438811 
-0.4018908032768671 0.4299425698275928 -0.08254570488871091 
-0.2474756074502200 0.3188060485763898 -0.06350194968529467 
0.07242720617347731 -0.007745085268572745 -0.03186352167651144 
-0.04621741196497416 0.03572789302396327 -0.004737726394305579 
-0.003527469065514843 0.004675083143406387 -0.002136094154615516 
-0.2113761863432385 0.3015033657178779 -0.1144392502709018 
-0.2571471182379550 -0.01950169292212515 0.1793092582625038 
-0.2571471182379550 -0.01950169292212515 0.1793092582625038 
-0.1179824097763619 0.1680031690036880 -0.008428940548989348 
0.3336680368272048 -0.4269170266037567 0.1495628738531087 
-0.1811600465084586 -0.1068740353695216 0.3148445817570693 
0.1902372487448010 -0.1586704171713220 -0.02491249855224851 
-0.09698546450566577 0.08374982643829072 -0.001464915527753883 
-0.08067497652961435 0.06681674176501931 -0.0008427898824295284 
-1.023830328940977 1.050575995643222 -0.1462097286945200 
-0.1204319904304022 0.05853605615761177 -0.01112988652999994 
0.1219777105329064 -0.1340154150793140 -0.004750892490168635 
-0.1104736361827008 0.1270221803077046 -0.03552677348213688 
-0.1119502037762477 0.05774994858484377 -0.01043234063340456 
0.06180621115448150 -0.05787020412323567 -0.005345000763506892 
0.3883151534267176 -0.4026301517520153 -0.004996669930674724 
-0.1335586802376927 0.1546496460491721 -0.007700436276902236 
0.05650435260215476 -0.003635596513753574 -0.03621961179018433 
0.2907497344394900 -0.1765890755138637 -0.02709828693700557 
-0.07071890495822275 0.1481423744068119 -0.03905604601292043 
0.3472634966718003 -0.2058813694879638 -0.1343452560685215 
0.03370808508535680 -0.02018226301219677 -0.04911899429735674 
-0.1232883761218084 0.1433855055059860 -0.05296488558235975 
-0.02143947381309583 0.04305479896505995 -0.04051111312360999 
-0.1250741176748581 0.2010821598744522 -0.1203749164697122 
-0.2668454498617017 0.4140543230982530 -0.1058210109923649 
-0.1059094862786507 0.1073937696610574 -0.005247915278418502 
-0.01030218963592517 0.005175208130505338 -5.107170950032321e-06 
0.2250408230351833 -0.1614032207370224 -0.07267746052131510 
0.3880292299261151 -0.4315375231351600 -0.001018038595137824 
-0.01030218963592517 0.005175208130505338 -5.107170950032321e-06 
-0.01030218963592517 0.005175208130505338 -5.107170950032321e-06 
-0.01030218963592517 0.005175208130505338 -5.107170950032321e-06 
-0.01030218963592517 0.005175208130505338 -5.107170950032321e-06 
-0.2362445970049777 0.2633105453729868 -0.02997096758506960 
-0.04123728691467793 0.06656671936548658 -0.02365219304110763 
-0.0001249572961734150 4.836687208276500e-05 -4.941973232347923e-06 
-0.03606227968000589 0.04273814736214615 -0.004105025618507925 
-0.008628842197316970 0.008330129138301966 -0.0001181249165552637 
-0.1161273795149617 0.1424668732693798 -0.007377264382850111 
-0.1161273795149617 0.1424668732693798 -0.007377264382850111 
-0.1807584152425636 0.2502302640368035 -0.05808811180132419 
-0.1807584152425636 0.2502302640368035 -0.05808811180132419 
-0.07006786501546731 0.08851122925410514 -0.004036242155558735 
-0.06010638693414963 0.06867532973692063 -0.001468238750416762 
-0.3292311184990778 0.2425240024088589 0.1548469037628752 
-0.06683801644647169 0.1597552263524479 -0.1368802020030012 
-0.005206184500099962 0.006703722568235957 -9.006574462411443e-05 
-0.004676111247773728 0.02860722773694955 -0.007275918260865652 
0.5202130635474176 -0.6217579370187230 0.1804481750840189 
-0.003810357791034096 0.006215144029822159 -0.001267184236885556 
-0.003810357791034096 0.006215144029822159 -0.001267184236885556 
0.4872628615625693 -0.5063576299748958 -0.07179566083614330 
-0.2017696656372950 0.2076540574876268 -0.009085334462647678 
-0.2017696656372950 0.2076540574876268 -0.009085334462647678 
-0.1147496268783539 0.09809037189700127 -0.003484346053512169 
0.2402869606172091 -0.3239260300396673 0.07991982931211530 
-0.1316689929663986 0.1344804125410448 -0.02444538782405177 
-0.08688476836068204 0.08483840676846750 -0.01065874652044359 
-0.04419923649661710 0.04037763588692126 -0.007388214444554798 
-0.1495966910932228 0.1845011228136506 -0.01579730447243724 
-0.1097457213095539 0.1222657424389610 -0.003944267775848715 
-0.1097457213095539 0.1222657424389610 -0.003944267775848715 
-0.007124863901135067 0.007950510589293606 -0.001330575956923163 
-0.001560908209782861 0.0006346303904050086 -5.746717644624517e-06 
-0.03484220112986430 0.05651174211632128 -0.001618975958712610 
-0.05115785003514170 0.06039768952619572 -0.007032822877665622 
-0.009737962092854620 0.01298339271799403 -0.01139849271283716 
0.1426210194918808 -0.1255640624985695 -0.008405036915246467 
-0.06928127280587451 0.07631407028628999 -0.03209914712527218 
0.009380489437130051 -0.008602732011108944 -0.0009855245742573470 
-0.1246525661435096 0.2562096934237860 -0.2094510918906990 
0.3083108316555752 -0.1991195004993696 -0.08878879514000249 
0.2461120705605749 -0.1954011308710214 -0.01400977298495795 
0.009380489437130051 -0.008602732011108944 -0.0009855245742573470 
0.7141315443540212 -0.7452510539241413 -0.03276416954562777 
0.009380489437130051 -0.008602732011108944 -0.0009855245742573470 
0.009380489437130051 -0.008602732011108944 -0.0009855245742573470 
-0.01336305900369930 0.03027610098727766 -0.02903518244827452 
-0.01336305900369930 0.03027610098727766 -0.02903518244827452 
-0.1153187796870735 0.1466445494483452 -0.02680436557873991 
-0.06619929791785244 0.06464990849338688 -0.001240546061388856 
-0.09673584019912929 0.1072723165742782 -0.009580463078423512 
0.1747125256227314 -0.1628078750047926 -0.007629497486750237 
-0.01103942742340539 0.03450839356030287 -0.005342223241455136 
0.08601993812524585 -0.04379105594628593 -0.03075670172614031 
-0.1271012499364662 0.1258762006100594 -0.02132046338466911 
-0.2107122054678791 -0.09005878393973787 0.4143526768867255 
-0.07272167294440253 -0.1779141387581000 0.3116513567380352 
-0.07272167294440253 -0.1779141387581000 0.3116513567380352 
-0.1842410032858694 0.2575192212415535 -0.1101811669557377 
0.1853556262326651 -0.1578073695558246 -0.004847784763993600 
0.1853556262326651 -0.1578073695558246 -0.004847784763993600 
0.1853556262326651 -0.1578073695558246 -0.004847784763993600 
0.1853556262326651 -0.1578073695558246 -0.004847784763993600 
0.1853556262326651 -0.1578073695558246 -0.004847784763993600 
-0.1529071082311276 -0.003226046228459848 0.1839123740755008 
-0.1239130416687415 -0.01272610446436914 0.1728825299896238 
0.1428769947634770 -0.2183444943795945 0.03343313927168427 
-0.1529071082311276 -0.003226046228459848 0.1839123740755008 
-0.2282896270066835 0.1230418900010275 0.1683714024697002 
-0.1529071082311276 -0.003226046228459848 0.1839123740755008 
-0.1548845686809976 -0.0009561962291585869 0.1833480751052693 
-0.2583341941199964 0.1489185436627987 0.1754915750023806 
-0.1529071082311276 -0.003226046228459848 0.1839123740755008 
-0.006700332584712509 0.01756033303542558 -0.009583550912581710 
-0.09846766246638741 0.09635480308073573 -0.02350626411967609 
-0.03053654228127685 0.04262240808089128 -0.008339917017034655 
0.02505234815861984 0.08852217090086287 -0.06941118758911605 
-0.03053654228127685 0.04262240808089128 -0.008339917017034655 
-0.03053654228127685 0.04262240808089128 -0.008339917017034655 
0.05022416079458998 -0.06517716143115852 -0.02182964893268230 
-0.04238230903517715 0.04927304058666238 -0.02440659215454745 
0.07293615635464044 0.003573213830152607 -0.05560244988371678 
-0.03558131895079878 0.08050299250278298 -0.04656391287391971 
-0.008399395589713530 0.01931125503368540 -0.02375608616561493 
0.01729483878206910 0.02536987454403233 -0.1073255379992568 
-0.08262526356733788 0.1167611441510737 -0.01996108397788813 
-0.3164281964175615 0.3312402818913851 -0.008623381894323986 
-0.4144393738271645 0.4048530635141496 -0.009171252659995712 
0.4820488906991469 -0.8356996334015057 0.5598402287369790 
-0.07945948169121879 0.1214608762195750 -0.01785383708421125 
-0.07945948169121879 0.1214608762195750 -0.01785383708421125 
-0.03120432878597259 0.05923789683458700 -0.02685528022846238 
-5.361763405537613e-05 5.236769561834772e-05 -4.961075463742399e-05 
-5.361763405537613e-05 5.236769561834772e-05 -4.961075463742399e-05 
-5.361763405537613e-05 5.236769561834772e-05 -4.961075463742399e-05 
-0.006509580020471214 0.01359805985129304 -0.007062836477411892 
-0.06754824990508260 0.07162505224066994 -0.003029395419724992 
-0.09307627587971438 0.1225826914523902 -0.02805886139096697 
-0.05089184519707779 0.07921885511149246 -0.02030329038373291 
-0.1255713680940779 0.1256976272560108 -0.02002265010703610 
0.1124897867312360 -0.09396639988263553 -0.02394887203390515 
-0.003097742656614037 0.0007433191595443900 -4.896519743769372e-05 
-0.003097742656614037 0.0007433191595443900 -4.896519743769372e-05 
-0.0007315318044362776 0.0006863178835241989 -0.0003245763684717509 
-0.0007315318044362776 0.0006863178835241989 -0.0003245763684717509 
-0.0007315318044362776 0.0006863178835241989 -0.0003245763684717509 
-0.01970939309074850 0.01628945052139828 -0.01041378989553046 
-0.01676486380906187 0.01756775055522686 -0.003214161816838542 
-0.01676486380906187 0.01756775055522686 -0.003214161816838542 
-0.02938318125025678 0.04974036969675420 -0.01749906601746296 
-0.3351927903685804 0.3090280956934992 -0.009657558923890756 
-0.03438574009332095 0.08264231302833042 -0.03777069991030192 
-0.1465632375926021 0.1881694682462372 -0.01348541784129298 
0.1508499729835337 -0.04828196404288353 -0.06300297468690460 
-0.01484548034527451 0.03035974021927913 -0.004809024668074464 
-0.01484548034527451 0.03035974021927913 -0.004809024668074464 
-0.02475684352762910 0.06749831473659447 -0.04398065041529504 
0.2537625839750891 -0.2463333774501232 -0.01132182830530391 
0.1937355438505743 -0.1811158692535661 -0.03365594843083818 
-0.07852832531550494 0.09437522282315527 -0.01828709549918974 
-0.02054940901517873 0.02468897762128564 -0.005069411626908497 
-0.06263429620520265 0.05373146931375322 -0.002718965348413698 
-0.007594764632492725 0.01489552610209997 -0.01560576900889845 
-0.05335762361514827 0.06661058783676664 -0.01346006293908477 
-0.05335762361514827 0.06661058783676664 -0.01346006293908477 
-0.05335762361514827 0.06661058783676664 -0.01346006293908477 
-0.004263351951013363 0.02080795657927437 -0.01406484420693724 
-0.06030087882936983 0.1160256518753615 -0.05367766453204728 
-0.5999343187464382 0.7106421340213540 -0.1628609827127097 
0.006997846320307265 -0.004938023780100995 -0.0001750504504522225 
-0.03602344312574757 -0.1445886900102191 0.2628759455491750 
0.1827608349195181 -0.1837481576221783 -0.005451911084571864 
0.006997846320307265 -0.004938023780100995 -0.0001750504504522225 
-0.09170018868446952 -0.2444171911054669 0.4905639116087008 
-0.1362539424840544 -0.4354253534973724 0.8265029240748248 
-0.4444453265724064 0.2646053452244983 0.3016519694439806 
0.003200874144231149 -0.001104957691565392 -0.0003588685579836841 
0.1163647089510404 -0.08792628117050968 -0.008422769794429498 
0.2816184583063771 -0.1906301539031133 -0.08474025638415732 
0.1869702338105843 -0.1525978098733271 -0.03741682434809984 
-0.1695540480134920 0.1504137976998611 -0.02861152255822193 
-0.009922832641448652 0.01128776698743522 -0.003626556594257123 
0.1419936562488992 -0.1642208019964384 -0.01078610940899956 
-0.01823392313407725 0.1163380909949345 -0.1235634158482567 
-0.1625856639466106 -0.09148693476022414 0.2881823338770831 
-0.1006807214003374 0.1008154032325141 -0.03217296923404582 
-0.3396717009914547 0.3449943454612802 -0.02976928841409521 
-0.03531252333153135 0.05142436860036901 -0.01194221500060495 
0.1683485924686689 -0.1777457023254570 -0.001318297307046066 
-0.1846868786161788 0.1681047257202435 -0.02202157321111426 
-0.02728734662403747 0.01367815847229438 -0.0009019763466146341 
-0.01580178787258972 0.02159914033377976 -0.01032492136462145 
-0.002416713629303377 0.004952027380174328 -0.009581963906672698 
-0.003845845127855040 0.008625680243927977 -0.005807937067275448 
-0.001521520605587065 0.003443671351352785 -0.004606622859212245 
-0.1479544038248851 0.1277338029453241 -0.001793993758452386 
-0.04767866927061797 0.05685266172160343 -0.009560215655363321 
-0.3381794464473952 0.3839311589442052 -0.03916873795026563 
-0.2556870831847243 0.2364059903174454 -0.0004427269004133560 
0.3895471150146494 -0.4176262711341918 -0.0008317542893679315 
-0.1570342054277389 0.1976081607830148 -0.01146667445065486 
-0.1530288533195980 0.2662180826618610 -0.09315587559238583 
-0.2410244317861562 0.2542181462232455 -0.01794158705188927 
-0.1327848754329884 0.1197768983418916 -0.002746201606864197 
-0.04145596510909975 0.05910372425967547 -0.005811686087479681 
-0.1202229998202766 0.1836933384598024 -0.03946013759685341 
-0.006274909218916823 0.009993899998931893 -0.0003587164645382832 
0.1727717779885828 -0.1436254435983866 -0.02979015969901523 
-0.02752176982717214 0.02575991879834178 -0.001492662247991145 
-0.0001946511688301127 0.0001378017803098362 -5.603787600904224e-05 
0.003027851588477564 -0.001788499114686491 -0.0008644944273127952 
-0.0001946511688301127 0.0001378017803098362 -5.603787600904224e-05 
-0.002188764514262748 0.002964343451419878 -0.001811158139580326 
-0.1270323931371649 -0.1878566918234247 0.3703572146476733 
-0.004118034472015573 0.008138136881653754 -0.001527797859620351 
0.2317723836833435 -0.09161439174446334 -0.1191476125665029 
-0.004118034472015573 0.008138136881653754 -0.001527797859620351 
-0.1079245272195304 0.08622541284962594 -0.0004869825590150145 
0.2198372768408288 -0.2283653278470680 -0.004222077585917357 
-0.06712439232192134 0.05448290770505430 -0.005299219193952275 
-0.2771671729085120 0.2869395336535507 -0.02239857974136338 
-0.1163369077982256 0.1220932325689699 -0.005668244480810058 
0.2273882896918137 -0.2592854015873914 -0.001786589148675534 
-0.1160470731117256 0.1714410973652896 -0.01762187684296656 
-0.007776937551915485 0.01428859080316218 -0.007429097652732523 
0.3524668543107243 -0.3541073824448341 -0.04953622391442476 
-0.1105135360476235 -0.1304265710532004 0.2568831249520136 
-0.2753991122685723 -0.1275075978692478 0.4012371809926162 
0.1202297823528502 -0.05122968913180780 -0.01453024115591843 
0.3151582036076367 -0.1700075329531778 -0.09045196030827404 
0.01262991600435925 0.04295514229091472 -0.02098140533073232 
-0.05556557975412077 -1.267388638219264 1.350396130364231 
0.1357009347209407 -0.09341768411376468 -0.02197193007700154 
0.2468905314325658 -0.2144776109635145 -0.01464476733100577 
-0.06806408008775552 0.1022027983603003 -0.02485090685221127 
-0.1920582841212033 0.2945594210046069 -0.08434723819161039 
-0.01019696216400946 0.02630321538695347 -0.08525368042688568 
-0.06812987636183768 0.1902508231779777 -0.1130302130683517 
-0.1056344260895122 0.1005125956525674 -0.004366278454056610 
-0.1282577920590230 0.2380550180325731 -0.03683725756320044 
-0.08497635623045376 0.1293863517335197 -0.002125344777074312 
0.1280389107290438 -0.09884629405082751 -0.02445230202834684 
-0.08520332870697708 0.1295254415538586 -0.002268255051407048 
-0.08497635623045376 0.1293863517335197 -0.002125344777074312 
-0.08497635623045376 0.1293863517335197 -0.002125344777074312 
-0.08497635623045376 0.1293863517335197 -0.002125344777074312 
-0.08497635623045376 0.1293863517335197 -0.002125344777074312 
-0.08497635623045376 0.1293863517335197 -0.002125344777074312 
-0.08497635623045376 0.1293863517335197 -0.002125344777074312 
-0.08497635623045376 0.1293863517335197 -0.002125344777074312 
-0.08497635623045376 0.1293863517335197 -0.002125344777074312 
-0.04517411799274363 0.07862653013203137 -0.01868379115203327 
-0.04517411799274363 0.07862653013203137 -0.01868379115203327 
0.1883161451865502 -0.1510408337651051 -0.03236507218359427 
0.1883161451865502 -0.1510408337651051 -0.03236507218359427 
0.1299230628636807 -0.07281538908029540 -0.05197751988358956 
-0.1353498643216452 0.1328357723467102 -0.0001187667993812357 
-0.1353498643216452 0.1328357723467102 -0.0001187667993812357 
-0.1353498643216452 0.1328357723467102 -0.0001187667993812357 
0.1462098514448192 -0.1736154904111260 -0.002842280041598873 
0.3180184990118330 -0.2926049099835361 -0.02038838566643463 
-0.06695961514572384 0.05475729385594549 -0.001048351265140974 
-0.08957425787540822 0.1507288215059142 -0.07846926722362173 
-0.03967159800697754 0.04435800234400517 -0.01511892918549524 
-0.1204640394872267 0.1181826896554235 -0.03937117926768871 
-0.007726263395259217 0.02294171223809414 -0.01194801439202329 
-0.4354871609076947 0.5481353793445369 -0.1363356004794074 
-0.05079513310970701 0.03462023181811700 -0.005981425046976042 
0.2246435334778808 -0.1548272077614736 -0.08424697832622269 
-0.1628706167477685 -0.03587190216912978 0.2510078350402349 
-0.009068333615445111 0.02159198407522841 -0.05191727620976250 
-0.09546619390215291 0.08789766646665054 -0.01252196452332627 
0.2557548519481900 -0.2665892284598372 -0.001961267728931618 
0.2198986348494913 -0.1599237497872967 -0.04215157522456627 
0.1235428110436529 -0.1522763620532682 -0.009806365052822943 
-0.003716352899523304 0.04254898412545628 -0.01227150584492972 
-0.03245706506267410 0.1136372460289957 -0.04904978763888443 
0.09142443730052426 -0.09411614972863425 -0.0008898256789074094 
0.09142443730052426 -0.09411614972863425 -0.0008898256789074094 
0.09142443730052426 -0.09411614972863425 -0.0008898256789074094 
-0.06742102440559611 0.06989266771068028 -0.007692672575120090 
-0.003950833170462333 0.003558266212048590 -0.0005019365967567627 
-0.003950833170462333 0.003558266212048590 -0.0005019365967567627 
-0.05361663309766089 0.04190422894199511 -0.0002710804064603227 
-0.04623508524315977 0.03717403180593427 -0.005251868059432755 
-0.04577947075491190 0.07893823985291613 -0.01868731979591053 
-0.001674757264889575 0.002720209777348685 -0.02327796250391487 
-0.06412473735128997 0.1692992578283193 -0.05240775879969194 
-0.005006102128869392 0.01288047059058660 -0.04722784690831988 
0.1377974038153700 -0.1112746932671480 -0.03873434399105991 
-0.09869441969426769 0.1534719110319127 -0.05376582152228109 
-0.1139450081301637 0.06505090849030552 -0.001190642610518603 
-0.07107429965600996 0.1798910960410310 -0.1283844149245179 
-0.04579672572011395 0.07172777660835375 -0.01393248722184008 
-0.01427805045975996 0.01778952798376499 -0.002350123457172434 
-0.05774134226349251 0.05979600798648926 -0.004221333592881620 
-0.002975599412728395 0.002788486328259825 -7.020774045472480e-05 
-0.003143862306765792 0.002982761331890242 -0.0001199242309693953 
-0.02797479966352682 0.04224349324407463 -0.008707267895899849 
-0.002975599412728395 0.002788486328259825 -7.020774045472480e-05 
-0.08563495572443175 0.1029308716547745 -0.04622115322041211 
-0.02201660165123047 0.02004273442341058 -0.008917791820267971 
0.2637833241282706 -0.2282801981836237 -0.02633729230168200 
0.2491124904568355 -0.2343245750511387 -0.008139782456103903 
0.06428187059584630 -0.04742753069501805 -0.003943102046166429 
0.06428187059584630 -0.04742753069501805 -0.003943102046166429 
0.06428187059584630 -0.04742753069501805 -0.003943102046166429 
0.1079547834730510 -0.06192615662803729 -0.03308430194281986 
0.09895571719171828 -0.07116319135350288 -0.008687546227227587 
0.06428187059584630 -0.04742753069501805 -0.003943102046166429 
0.06428187059584630 -0.04742753069501805 -0.003943102046166429 
-0.06084580745596671 0.09314880678545703 -0.005778255305449905 
0.06428187059584630 -0.04742753069501805 -0.003943102046166429 
0.3190750862171286 -0.3142281569430822 -0.03104889457082810 
0.1327791226717817 -0.1550711685393693 -0.0005029059398011715 
0.009458160410066642 -0.3158347059419763 0.3449785307756333 
-0.03693896599666342 -0.1980117901043914 0.2532792074977800 
0.2785666884596608 -0.2307384598861118 -0.06996051966820759 
0.007047512566020393 -0.005065796277555748 -0.001089436706803466 
0.007047512566020393 -0.005065796277555748 -0.001089436706803466 
0.007047512566020393 -0.005065796277555748 -0.001089436706803466 
0.007047512566020393 -0.005065796277555748 -0.001089436706803466 
0.007047512566020393 -0.005065796277555748 -0.001089436706803466 
0.007047512566020393 -0.005065796277555748 -0.001089436706803466 
0.4420514268544116 -0.4220611769083977 -0.007926686381376010 
0.4420514268544116 -0.4220611769083977 -0.007926686381376010 
-0.05882198720026096 0.06386535143042997 -0.01081467918625753 
-0.05882198720026096 0.06386535143042997 -0.01081467918625753 
0.09794586608094936 -0.06921373693150507 -0.009250678211383645 
0.09794586608094936 -0.06921373693150507 -0.009250678211383645 
0.1364626282400384 -0.09333439193714964 -0.02991341822285638 
0.02660078736258290 -0.03969818740215721 -0.001143432663185913 
0.02660078736258290 -0.03969818740215721 -0.001143432663185913 
0.02660078736258290 -0.03969818740215721 -0.001143432663185913 
0.02660078736258290 -0.03969818740215721 -0.001143432663185913 
0.02660078736258290 -0.03969818740215721 -0.001143432663185913 
0.1749575898776302 -0.1417593328107409 -0.03226812151416558 
-0.04479982262851900 0.02488143005009606 -0.0005445751775588592 
0.8819085130181522 -0.8319825647485687 -0.06510464094339970 
-0.004503618954396389 0.004742612168098432 -0.0008970328661402692 
-0.04416683180229270 0.03774549776099374 -0.003201346383810733 
-0.06057388559298970 0.04703599105158992 -2.672390739327105e-05 
-0.06057388559298970 0.04703599105158992 -2.672390739327105e-05 
-0.06057388559298970 0.04703599105158992 -2.672390739327105e-05 
-0.06057388559298970 0.04703599105158992 -2.672390739327105e-05 
-0.06057388559298970 0.04703599105158992 -2.672390739327105e-05 
-0.06883290945730008 0.1517382932146394 -0.09017827404494326 
0.1267614235567748 -0.1427181748764339 -0.01075980418532740 
-0.009283161874465791 0.01607223534543472 -0.009453683171346374 
-0.07074152562274634 0.06976640060439948 -0.003304587579961874 
-0.1065618494506807 0.1272710259679532 -0.01249478113538294 
-0.07074152562274634 0.06976640060439948 -0.003304587579961874 
-0.07074152562274634 0.06976640060439948 -0.003304587579961874 
-0.1666671582666682 0.1729605975080304 -0.02964561824777809 
-0.01223911227195449 0.01173344730632700 -0.0003031713479967200 
-0.01223911227195449 0.01173344730632700 -0.0003031713479967200 
0.1734526875284815 -0.1032226145897494 -0.1004071558107397 
-0.01223911227195449 0.01173344730632700 -0.0003031713479967200 
-0.03492321128162313 0.04126899937134988 -0.005757148411530488 
-0.01181087061375375 0.02111219751652137 -0.01581009311148407 
-0.04522342440394525 0.05721931869565365 -0.01817613365442480 
-0.01181087061375375 0.02111219751652137 -0.01581009311148407 
-0.01181087061375375 0.02111219751652137 -0.01581009311148407 
0.1941850777484803 -0.1312602909199593 -0.04379117965417970 
-0.04108560972182582 0.04991874978752467 -0.007192523312877836 
-0.008343512277276512 0.007938363701405635 -0.0007795551267476639 
-0.008343512277276512 0.007938363701405635 -0.0007795551267476639 
-0.004155494989273368 0.01394631312490292 -0.01165130691750733 
-0.09697124756767529 0.09623116095774677 -0.01270931569803804 
-0.07019681866365121 0.07555961125293387 -0.009357920999759229 
-0.06689911826260762 0.07398157155495062 -0.009334803801060429 
-0.01759479817067176 0.01936224576123378 -0.002189173121779048 
-0.01759479817067176 0.01936224576123378 -0.002189173121779048 
-0.07838602180739770 0.08536308203338831 -0.008305156578339518 
-0.01106735744907965 0.01674321928060960 -0.002905584235651939 
-0.1397379689855722 0.1930857543960519 -0.02976124407604350 
-0.1397379689855722 0.1930857543960519 -0.02976124407604350 
-0.1181945670583897 0.1504401873269220 -0.06488532767340528 
-0.01873098117027658 0.04796559325214683 -0.04846245279423531 
-0.01217499989408381 0.02159206837611367 -0.008043946897802750 
-0.03863469679014264 0.03654262608344006 -0.001477458077872510 
-0.03863469679014264 0.03654262608344006 -0.001477458077872510 
-0.03863469679014264 0.03654262608344006 -0.001477458077872510 
0.07644398736992750 -0.05774161355915586 -0.008240424623900730 
-0.03863469679014264 0.03654262608344006 -0.001477458077872510 
-0.03863469679014264 0.03654262608344006 -0.001477458077872510 
-0.1092935229304352 0.1032554882759937 -0.009768621637586234 
-0.2312203033107234 0.2405085714519864 -0.006538715106343031 
-0.04268553186406493 0.04446077088154624 -0.003270532075888788 
-0.3262541192922626 0.4000428301527954 -0.04952341306919011 
-0.003390223145091714 0.003467551365762392 -0.001243220358933429 
0.05248886755779719 -0.06045582849501853 -0.009526525164208429 
-0.2946201131638085 0.3826863375072743 -0.1276707586871234 
-0.05474375330370671 -0.01935814444413525 0.1767715404490839 
-0.3024474288459744 0.1612995461287739 0.1897561619204920 
-0.1840079975297136 0.2012078525647840 -0.002910209949316829 
-0.1840079975297136 0.2012078525647840 -0.002910209949316829 
-0.1943077214105580 0.03648834315858771 0.1690513390645125 
-0.06833144031394424 -0.1172352232340317 0.2007496273398409 
-0.06833144031394424 -0.1172352232340317 0.2007496273398409 
-0.06833144031394424 -0.1172352232340317 0.2007496273398409 
0.09962480393519066 -0.07673434269427257 -0.0008302752772849776 
0.09962480393519066 -0.07673434269427257 -0.0008302752772849776 
0.09962480393519066 -0.07673434269427257 -0.0008302752772849776 
0.09962480393519066 -0.07673434269427257 -0.0008302752772849776 
0.09962480393519066 -0.07673434269427257 -0.0008302752772849776 
0.09962480393519066 -0.07673434269427257 -0.0008302752772849776 
0.4761196657591770 -0.4246525254868247 -0.06839012762365425 
0.3204339930005027 -0.3179357076650994 -0.006489615378570045 
-0.02472226427424992 -0.3243883192213681 0.4519394508763991 
0.1803045644091684 -0.1101380540879581 -0.01509824470538729 
0.1717515625944420 -0.1713816167344400 -0.009472222723271684 
0.1717515625944420 -0.1713816167344400 -0.009472222723271684 
0.2045628258778771 -0.09269268976775835 -0.1544323716994151 
-0.005384101391085503 0.01091540705775090 -0.001795915773889282 
-0.005384101391085503 0.01091540705775090 -0.001795915773889282 
-0.005384101391085503 0.01091540705775090 -0.001795915773889282 
-0.005384101391085503 0.01091540705775090 -0.001795915773889282 
-0.09986096740498361 0.09021216101439086 -0.002107393004746421 
-0.1098043489082452 0.09375152996056943 -0.002118084871505439 
0.1483149292146123 -0.1349084125381692 -0.01935392107673886 
-0.1054635766737340 0.1247494557966468 -0.01421972426273954 
-0.003692072420407457 0.009794846074575017 -0.004318823265936240 
-0.003692072420407457 0.009794846074575017 -0.004318823265936240 
-0.003692072420407457 0.009794846074575017 -0.004318823265936240 
0.003222502757307677 -0.001926300894996327 -0.0008084565513037530 
0.003222502757307677 -0.001926300894996327 -0.0008084565513037530 
0.3352373571007273 -0.2850725616014030 -0.01093117967358847 
-0.2643526173958876 0.3078873513088208 -0.04064966271109056 
-0.08985445069678286 0.1498848131189917 -0.02183590266464973 
0.1249864026955968 -0.1551266872617424 -0.04999377935550653 
0.1003092516402339 -0.05818781587002790 -0.01896122889398461 
0.1052368667990318 -0.06410008715811248 -0.003519649021510210 
-0.06001028057810395 0.06520030355023615 -0.02233078326627069 
-0.07936028225595197 0.1376596037404145 -0.02632880568227072 
0.5707616992459490 -0.4552730538052351 -0.08561942443846050 
0.5477989495124489 -0.4190903664890571 -0.09665745346103993 
0.3218694780820703 -0.3020285359850035 -0.01365012268664111 
0.3218694780820703 -0.3020285359850035 -0.01365012268664111 
0.2178157486650019 -0.1830631755829507 -0.08102953965265411 
0.1287767257012228 -0.1142616446423789 -0.007988172047818204 
0.1332405300547507 -0.1169613304874605 -0.007419512340989119 
0.1332405300547507 -0.1169613304874605 -0.007419512340989119 
-0.07334652756554563 0.07145468881717425 -0.01242880456603630 
-0.06935645900392517 0.06448960285270304 -0.008118564973849180 
-0.2040532891900354 0.2027566658909580 -0.05979309717347402 
-0.1042393890207784 0.1366855488374817 -0.03602093495543019 
0.01435554943235051 -0.01693348374115750 -0.009793203418255052 
-0.007063341584772515 0.008000255929005847 -8.097686540520990e-06 
-0.007063341584772515 0.008000255929005847 -8.097686540520990e-06 
-0.02287037668832790 0.01410525013173031 -0.0009723416465417756 
-0.02287037668832790 0.01410525013173031 -0.0009723416465417756 
-0.03182389734119743 0.03386588050485720 -0.01307415279094543 
-0.02602028580379802 0.04005364365448634 -0.009087503588214078 
-0.001088621122033908 0.007342624768248588 -0.003095330789442627 
0.06514405863694160 -0.05403451296386796 -0.008188299633908304 
-0.1748835661188312 -0.2453322236342922 0.4643097228974684 
0.02587040199355936 -0.02146746430116014 -0.005929602615187594 
-0.01191923373077933 0.01096565617546664 -0.003898461190746202 
-0.01191923373077933 0.01096565617546664 -0.003898461190746202 
0.03030650841132733 -0.04370320009881808 -0.003915555459278591 
-0.005129722883898605 0.01445553224719105 -0.03422482898904973 
-0.1767804186701492 -0.5453695584005299 0.6801763823162106 
-0.1930021476208873 0.03650257350877222 0.1586759811294021 
-0.06843781333354470 -0.1038826847981307 0.1605023693271429 
-0.03013502942664612 0.03912606201116076 -0.03662749966611380 
-0.08788743065070757 0.07401866638103832 -0.008246960339718579 
-0.06116167877522488 0.03853949519523110 -0.003924536763989957 
-0.02237381984973738 0.03879692947409472 -0.006674213757909099 
-0.02237381984973738 0.03879692947409472 -0.006674213757909099 
0.1614215517881621 -0.1357831962645263 -0.008107399763589866 
-0.02237381984973738 0.03879692947409472 -0.006674213757909099 
-0.06789137213193375 0.09000602636816328 -0.01913510788380566 
-0.02237381984973738 0.03879692947409472 -0.006674213757909099 
-0.05379011831677662 0.07215020210966860 -0.01132941873162571 
-0.05379011831677662 0.07215020210966860 -0.01132941873162571 
-0.08681687150166377 0.07915129758453801 -0.01101132981655702 
-0.05212456143319390 0.1132314413294106 -0.06430652427289107 
0.1426230506681422 -0.1446583624706937 -0.001404788734373498 
0.1426230506681422 -0.1446583624706937 -0.001404788734373498 
-0.02088076422255555 0.02493273532692662 -0.0009334156965248721 
-0.02088076422255555 0.02493273532692662 -0.0009334156965248721 
-0.006192951240038521 0.005154195079245152 -0.01393495558046033 
-0.004841323135914626 0.003654334796043285 -0.0001905330693193052 
-0.004841323135914626 0.003654334796043285 -0.0001905330693193052 
-0.004841323135914626 0.003654334796043285 -0.0001905330693193052 
-0.004841323135914626 0.003654334796043285 -0.0001905330693193052 
-0.05376700320654674 0.03995801817813237 -0.005727070968784350 
-0.01631048797605142 0.01693308467327141 -0.0006221256453243546 
-0.01631048797605142 0.01693308467327141 -0.0006221256453243546 
-0.01631048797605142 0.01693308467327141 -0.0006221256453243546 
-0.07254375247744554 0.06568272388180317 -0.003879771240381872 
-0.07431011723197030 0.06425217523407249 -0.002597552926479348 
-0.07431011723197030 0.06425217523407249 -0.002597552926479348 
-0.07431011723197030 0.06425217523407249 -0.002597552926479348 
-0.1722343711634023 0.2072161211374064 -0.01474153064733995 
-0.1012719520886977 0.1142750089113327 -0.004492073489309557 
-0.06517063145450756 0.07050303100165659 -0.009305165716316560 
-0.1300556961688099 0.1436222067944910 -0.003963663731887925 
0.2153868500684073 -0.1564989253474426 -0.01821579745954265 
-0.1061265369034033 0.04026050077547721 -0.0006822749624792752 
-0.1521703861510335 0.1759602660407603 -0.02018620373946641 
0.4569079470936094 -0.3856461125293496 -0.04851049962755679 
-0.04957356251368589 0.06496708105009959 -0.02300120079869808 
0.3545762587280426 -0.3569665260436852 -0.01588092089903434 
0.08339405542017218 -0.09957440357706246 -0.004566566825581327 
0.1217004025002557 -0.07685658150970022 -0.02196592173700641 
0.1468626805860733 -0.1080434559112632 -0.01337537024515938 
0.1468626805860733 -0.1080434559112632 -0.01337537024515938 
0.1360445854312405 -0.1587904102218687 -0.001306121013981029 
0.1360445854312405 -0.1587904102218687 -0.001306121013981029 
-0.02293313640731349 -0.3446741495190608 0.3562077591238608 
0.06623267975897551 -0.06137713773211655 -0.005092968844465676 
-0.1926326018558984 0.1967329895407289 -0.006548282613369813 
-0.1926326018558984 0.1967329895407289 -0.006548282613369813 
-0.1950697457533092 0.2025263472196763 -0.01127975860955428 
-0.1626799658999781 0.1673407280319581 -0.01537483445006062 
-0.1144822567544725 0.1493355159157784 -0.03404983008359332 
-0.1144822567544725 0.1493355159157784 -0.03404983008359332 
-0.08912414841830123 0.1201377275816439 -0.03130515036825805 
-0.07497125527995104 0.1402110609073289 -0.08090399241296051 
-0.1744087517456513 0.1586712072941195 -0.01164396820210081 
-0.1818582380427831 0.2365563534560402 -0.06811006123477166 
0.3208958772694154 -0.2559137636024045 -0.02938796680269258 
0.2854270641989948 -0.2334721570609693 -0.02946791247787386 
0.3208958772694154 -0.2559137636024045 -0.02938796680269258 
0.1046964981583853 -0.09013207777923507 -0.07421423213495310 
0.1536353551885380 -0.1382866024387464 -0.03032784003425430 
0.4337410927658492 -0.4039293788406508 -0.01543006631001453 
0.6847617421148643 -0.6242106380122242 -0.02561892759278422 
0.1824187884559034 -0.1552364274467391 -0.01961286883216686 
0.04511270973846423 -0.04314484567135234 -0.0002537836321605181 
0.2096753404151399 -0.1671677402040315 -0.008850757021518356 
0.04511270973846423 -0.04314484567135234 -0.0002537836321605181 
0.2764543811783272 -0.2634937211467313 -0.001861843771825250 
-0.03070693766567560 0.02794632418441794 -0.004374696728623768 
0.2923749184512840 -0.2559385031801887 -0.01485424956385258 
0.5775561531061854 -0.5392434174667392 -0.02146871585711414 
0.09873298632731468 -0.07868604715974645 -0.007281501054403203 
0.09873298632731468 -0.07868604715974645 -0.007281501054403203 
0.09873298632731468 -0.07868604715974645 -0.007281501054403203 
0.1914873408575057 -0.2050708686938801 -0.01480945925701764 
0.3291999472630806 -0.3441432253350686 -0.004184953941737743 
0.3291999472630806 -0.3441432253350686 -0.004184953941737743 
-0.008420393695810921 0.01219429824446473 -0.01156603402331752 
-0.003297700401043592 0.001578039697983244 -2.311719869880135e-05 
-0.2058386673201949 0.1671141205954863 -0.01160799466473849 
0.01439414237717643 -0.01223192247197552 -0.008503921599300822 
-0.2739535587954163 0.3686254565748084 -0.06576160320172737 
-0.2739535587954163 0.3686254565748084 -0.06576160320172737 
0.04661603692200396 -0.02755054032730272 -0.0002476186011721470 
-0.007015644896661631 -0.1793952596680215 0.2704806791901939 
0.04661603692200396 -0.02755054032730272 -0.0002476186011721470 
0.04661603692200396 -0.02755054032730272 -0.0002476186011721470 
0.04661603692200396 -0.02755054032730272 -0.0002476186011721470 
0.04661603692200396 -0.02755054032730272 -0.0002476186011721470 
0.04661603692200396 -0.02755054032730272 -0.0002476186011721470 
0.04661603692200396 -0.02755054032730272 -0.0002476186011721470 
0.2479408037674863 -0.2408471816496317 -0.02039012542318387 
0.04909427166413491 -0.04580263125749227 -0.0006047812678524767 
0.04909427166413491 -0.04580263125749227 -0.0006047812678524767 
0.1524334713167697 -0.1804997084635461 -0.03038615974397357 
0.3047571509394321 -0.2712235830896471 -0.06444324105271740 
-0.003368880559647169 0.04395690572072953 -0.02103707681248837 
0.07955239347314405 -0.06324142886548294 -0.004552759293625136 
0.07955239347314405 -0.06324142886548294 -0.004552759293625136 
-0.03108400541748231 0.05609800337193588 -0.01401135291039161 
-0.3651340716603981 0.4879781951588294 -0.09812228922614889 
-0.08532606407831944 0.08302105835614343 -0.006048714890269151 
0.1953005574346440 -0.1831524466702958 -0.01344882481513852 
0.1606267108387721 -0.1594167860118110 -0.008704380634077360 
0.1656139163629188 -0.1485265304290978 -0.02856584931221227 
0.1656139163629188 -0.1485265304290978 -0.02856584931221227 
-0.01071563506347438 0.009374658274372411 -0.001834038966512030 
-0.06162683458589835 0.1490152795336225 -0.06268826745430851 
-0.008231891165048529 0.01381174203157034 -0.01703629186722999 
-0.2481323251773109 0.2374573223571875 -0.01139132364503898 
-0.008649493420982639 0.009830645644293692 -0.004290344935803691 
-0.02642968102250396 0.03071941876251159 -0.008696025124822121 
-0.02642968102250396 0.03071941876251159 -0.008696025124822121 
-0.002903877441392556 0.001947124983889063 -0.0001373689107126553 
-0.02567688029370603 0.02918194638205767 -0.007992147874813373 
0.1113026093717293 -0.09102918377657163 -0.01010468428034423 
-0.06902292749139723 0.1007057269857423 -0.03120141381932768 
-0.01579425728829610 0.02403073576906227 -0.02585962031008385 
-0.01601821590519239 0.01544316623741266 -0.002055719891474346 
-0.04346329180373255 0.04200648000272427 -0.001871210135709185 
-0.04346329180373255 0.04200648000272427 -0.001871210135709185 
-0.04346329180373255 0.04200648000272427 -0.001871210135709185 
-0.02994562818664898 0.02559989372389819 -0.004458024239272953 
0.4931757272952534 -0.4937559964278455 -0.02689061917888124 
0.01870517725384370 -0.006781590027465196 -0.02663804982243446 
0.2350502587107135 -0.2230833430909380 -0.05625718127666644 
0.01870517725384370 -0.006781590027465196 -0.02663804982243446 
0.03755768372466437 -0.02553743192854832 -0.02503839046246168 
-0.03676226840342201 0.01781795446809639 -0.0005466233894799912 
-0.2021588281856372 0.2204079457910944 -0.005452291620040279 
-0.2021588281856372 0.2204079457910944 -0.005452291620040279 
-0.08883479999014182 0.09571411120624083 -0.003312246914812945 
-0.08883479999014182 0.09571411120624083 -0.003312246914812945 
-0.08883479999014182 0.09571411120624083 -0.003312246914812945 
-0.08883479999014182 0.09571411120624083 -0.003312246914812945 
-0.2369393125622648 0.2469214207851940 -0.03314659457958077 
-0.1621921010075995 -0.09237790513333753 0.2884097425138364 
-0.009368923977932602 0.01403276672857462 -0.0003057386414055926 
0.2210503780371135 -0.4377160917865731 0.1598979368558832 
-0.02780108551878202 0.02674336849294562 -0.002039332209747432 
-0.2692286729573759 0.3395651251281518 -0.1465645131603545 
-0.07245214085569113 0.06055080008506027 -0.01489782452884827 
-0.04193917701397286 0.04166456607400357 -0.03655353951839824 
-0.1281575325497150 0.1264379085242225 -0.02325884423847821 
-0.1281575325497150 0.1264379085242225 -0.02325884423847821 
-0.1281575325497150 0.1264379085242225 -0.02325884423847821 
-0.001530021155915763 0.0009235856778087047 -3.891538861914559e-05 
-0.001530021155915763 0.0009235856778087047 -3.891538861914559e-05 
-0.001530021155915763 0.0009235856778087047 -3.891538861914559e-05 
-0.001530021155915763 0.0009235856778087047 -3.891538861914559e-05 
-0.001530021155915763 0.0009235856778087047 -3.891538861914559e-05 
-0.001530021155915763 0.0009235856778087047 -3.891538861914559e-05 
-0.1309977944681756 0.1488834521361194 -0.007794481947963241 
-0.04926317004154351 0.04569485842401138 -0.001544870656605069 
0.02521259785563981 -0.02541687237351828 -0.002615196886133311 
0.02521259785563981 -0.02541687237351828 -0.002615196886133311 
0.02521259785563981 -0.02541687237351828 -0.002615196886133311 
0.06490374356859183 -0.03294393470521342 -0.002929142572365783 
-0.04854495459466116 0.03653637736600616 -0.0001221883946115402 
0.1733462254497632 -0.1816610029465242 -0.02914657074490993 
0.02553292516821786 -0.03209694374028507 -0.002007978249604493 
-0.02484343001364545 -0.06656941119197758 0.1629873154353371 
0.05177405259394059 -0.02434142654522969 -0.008403376810148482 
0.2306530471682643 -0.2165956927042211 -0.009517642271179539 
-0.01167897988856002 0.07109602540925551 -0.004642107437037718 
0.1134486981632530 -0.06948031207121957 -0.002806954177754243 
0.1308520116657942 -0.1626031609799411 -0.01320864595514754 
0.2373542692026560 -0.1620012294232357 -0.05934944916763556 
-0.01777457147176047 0.03407742765739267 -0.02367270547921917 
0.1003817138445408 -0.04212419215338101 -0.03771253500010587 
-0.07661748260758604 -0.04222798464674789 0.1713906922454856 
-0.07661748260758604 -0.04222798464674789 0.1713906922454856 
0.1146438619969373 -0.1950991837822478 0.1504838333583923 
-0.07661748260758604 -0.04222798464674789 0.1713906922454856 
-0.07661748260758604 -0.04222798464674789 0.1713906922454856 
0.3866709873344733 -0.3396988130870763 -0.02935371481415447 
0.01680620761814569 -0.006588456374550124 -0.007976147686550668 
0.01680620761814569 -0.006588456374550124 -0.007976147686550668 
0.01680620761814569 -0.006588456374550124 -0.007976147686550668 
0.01680620761814569 -0.006588456374550124 -0.007976147686550668 
0.01680620761814569 -0.006588456374550124 -0.007976147686550668 
0.01680620761814569 -0.006588456374550124 -0.007976147686550668 
0.006617225003704726 -0.0009583030037619122 -0.01136947100736155 
0.006617225003704726 -0.0009583030037619122 -0.01136947100736155 
0.006617225003704726 -0.0009583030037619122 -0.01136947100736155 
0.006617225003704726 -0.0009583030037619122 -0.01136947100736155 
0.006617225003704726 -0.0009583030037619122 -0.01136947100736155 
-0.03328129292008144 0.05587711172591627 -0.001613229241067985 
-0.03328129292008144 0.05587711172591627 -0.001613229241067985 
-0.002324324522267975 0.005182008892575192 -0.001201314208063203 
-0.002324324522267975 0.005182008892575192 -0.001201314208063203 
-0.03661482670188583 0.05922523795886495 -0.09402091169737646 
-0.05115807894446904 0.05842387234454307 -0.01890738271557976 
-0.1441093993290447 0.1502558299010571 -0.01281263975872371 
-0.2928931611830838 0.3326245306865373 -0.04864245278823383 
0.09345248183918119 -0.07079121516233257 -0.01204013390150061 
0.09345248183918119 -0.07079121516233257 -0.01204013390150061 
0.09345248183918119 -0.07079121516233257 -0.01204013390150061 
0.09345248183918119 -0.07079121516233257 -0.01204013390150061 
-0.0001979763332014589 0.0001352764621824996 -3.039582945007288e-05 
-0.02780672164377588 0.02108133011934895 -0.006829595338527214 
-0.01844218557495309 0.01216219086738841 -0.001635213445030203 
-0.01278585087047148 0.008907829164416901 -0.001283915943912379 
-0.06068400760946302 0.04384126014739076 -0.0002029036770532599 
-0.06068400760946302 0.04384126014739076 -0.0002029036770532599 
-0.06178642783154578 0.04553654506193303 -0.001245620100896130 
-0.005656334704481606 0.003254361702971510 -0.0003512975011178234 
-0.04911948176922101 0.08199464095495827 -0.02556381951735105 
-0.0001886617930597521 0.0001417100638886488 -0.0003885754938144685 
0.1993003460148200 -0.2111722699461924 -0.01039607798710639 
-0.04585489608580218 0.05819082362894559 -0.005320475088557469 
0.1657932722475718 -0.1607666127009449 -0.02443869761670300 
0.07128841230597226 -0.07123570772000803 -0.01301113800069247 
-0.05199447065421962 0.04608237906868484 -0.002793843767746109 
-0.06506720965954056 -0.1651900194081742 0.2272231932895202 
-0.1379905325234765 0.08785535481836212 0.1027013201486902 
-0.1062613499337537 0.1606220621584794 -0.06860195502496885 
-0.0002901608792278978 0.0002456986647631168 -0.0002534044881140729 
-0.05255617296080260 0.04373101609255960 -0.009019984544088082 
-0.02301895975783776 0.04525605673917722 -0.02439175916502608 
-0.03593111588285318 0.04733816819283451 -0.01910017258045407 
-0.02089375633198243 0.02274734561431440 -0.005358184716932052 
-0.1715728648892668 0.1939625284414657 -0.01552929256474672 
-0.06460432502533468 -0.3061372482122939 0.4107510765344308 
0.05213473974198260 -0.02325012557215772 -0.1114196198724125 
0.1374816728506349 -0.1139292633947994 -0.01761668482667551 
0.0007702001958023581 -0.0005990085396711108 -0.005636546935235148 
0.0007702001958023581 -0.0005990085396711108 -0.005636546935235148 
0.0007702001958023581 -0.0005990085396711108 -0.005636546935235148 
0.0007702001958023581 -0.0005990085396711108 -0.005636546935235148 
0.0007702001958023581 -0.0005990085396711108 -0.005636546935235148 
0.06621276784992610 -0.02386511471004647 -0.04259219322335080 
-0.2736269304131290 -0.0001415039730547135 0.2030836459292202 
-0.2736269304131290 -0.0001415039730547135 0.2030836459292202 
-0.2736269304131290 -0.0001415039730547135 0.2030836459292202 
-0.2736269304131290 -0.0001415039730547135 0.2030836459292202 
0.1634061337980391 -0.3548402406439392 0.1644156309217329 
-0.2736269304131290 -0.0001415039730547135 0.2030836459292202 
-0.07006975314444570 0.1104430399583952 -0.01152194229295610 
-0.07006975314444570 0.1104430399583952 -0.01152194229295610 
0.03789449353795545 -0.02019240910172199 -0.02038021058843683 
0.03789449353795545 -0.02019240910172199 -0.02038021058843683 
0.3824648202118799 -0.3297791848278907 -0.03473318802571897 
0.06131011433571163 -0.05045212508027021 -0.01343533028566888 
0.06131011433571163 -0.05045212508027021 -0.01343533028566888 
0.06131011433571163 -0.05045212508027021 -0.01343533028566888 
-0.08859405388397967 0.06324509691963365 -0.001823828761460678 
0.5547757653768566 -0.5067518364624440 -0.04303032168367681 
-0.004243022020450998 0.004297574272125517 -0.0001901753504021967 
-0.005744327802933155 0.007393441614612970 -0.0006859975553838870 
-0.005744327802933155 0.007393441614612970 -0.0006859975553838870 
-0.02772458222485809 0.03386898884838241 -0.008271206034666108 
-0.02772458222485809 0.03386898884838241 -0.008271206034666108 
-0.02772458222485809 0.03386898884838241 -0.008271206034666108 
-0.01844468811834966 0.02666767281969444 -0.004076547362599253 
0.1213719314296010 -0.07289753465457025 -0.01708488721733478 
-0.02540555879556754 0.04650362288195729 -0.003884718300465481 
-0.02894845605206532 0.05041651271916414 -0.004419126070996300 
-0.02217658988154499 0.04216850057491211 -0.05563736754975807 
-0.007564570024638777 0.01420117625779237 -0.005646615523999197 
-0.07885324407452654 0.1383945137369316 -0.1008576547984047 
-0.03622432298367533 0.03162461192724957 -0.01514928297493839 
-0.05290871840931647 0.08685599103938726 -0.01270805359870557 
-0.1591723115042746 0.2706670339757650 -0.1036873745782405 
-0.003965908724721058 0.002635927910098455 -0.0004247126193799580 
-0.1755624591712018 0.1997623729895510 -0.01446854938544119 
-0.1755624591712018 0.1997623729895510 -0.01446854938544119 
-1.675954641083429e-05 1.720464632095551e-05 -3.336859263570293e-06 
-1.675954641083429e-05 1.720464632095551e-05 -3.336859263570293e-06 
-0.007590974875383511 0.003651304001470974 -0.0001385205770234563 
-0.08902630793817554 0.07451490629767815 -0.002636281387352417 
-0.02180849640969120 0.02553205169099660 -0.005083115985944936 
-0.02086870689397167 0.02326627252877624 -0.004464615510594135 
-0.0009397895157195290 0.002265779162220356 -0.0006185004753508011 
-0.0009397895157195290 0.002265779162220356 -0.0006185004753508011 
-0.0009397895157195290 0.002265779162220356 -0.0006185004753508011 
-0.0009397895157195290 0.002265779162220356 -0.0006185004753508011 
-0.1657819794748968 0.1442322593267306 -0.007826730983485401 
-0.03918101833515759 0.03831377341159039 -0.01972298762194281 
-0.06938223938034427 0.08559318994192035 -0.004763731043150912 
0.1536976839595014 -0.1180420669308596 -0.02653221593370416 
0.1536976839595014 -0.1180420669308596 -0.02653221593370416 
0.008494349706044258 -0.007542194007720614 -0.005768307269512323 
0.2628104771740118 -0.2154230113517797 -0.02974392414828928 
0.008494349706044258 -0.007542194007720614 -0.005768307269512323 
-0.03377813201065683 0.04243264201348379 -0.01162865043809136 
0.1759692230951666 -0.1314676414383765 -0.02278322538878601 
0.05716561421677996 -0.04965189304384223 -0.02045349383365841 
-0.0001655218663222214 0.001266890517770001 -0.001803281738845812 
-0.0001655218663222214 0.001266890517770001 -0.001803281738845812 
-0.0001655218663222214 0.001266890517770001 -0.001803281738845812 
-0.0001655218663222214 0.001266890517770001 -0.001803281738845812 
-0.03810161162429632 0.03159485060188729 -0.002965476727539123 
-0.03810161162429632 0.03159485060188729 -0.002965476727539123 
-0.01386678432435906 0.01385365410345546 -0.0004068891050700630 
-0.01386678432435906 0.01385365410345546 -0.0004068891050700630 
0.1519603976449560 -0.1580791528565717 -0.0008393168607212977 
-0.05769617894002004 0.09664586924649608 -0.03324745902043202 
-0.007528421492309731 0.04866892896367308 -0.03478270587091240 
-0.04247224073548703 0.1038408808019031 -0.009297162204083474 
-0.04247224073548703 0.1038408808019031 -0.009297162204083474 
-0.03517961464483856 0.05394118602272647 -0.007215931653693152 
-0.03517961464483856 0.05394118602272647 -0.007215931653693152 
-0.003494193227102596 0.002616108811616732 -0.001822644795759582 
-0.07759145255035033 0.07738949526925398 -0.008316556907071310 
-0.002211399366173324 0.001618197561057086 -8.545350742567346e-05 
-0.2765672794805795 0.2793823896849656 -0.006545879325775697 
-0.02704892283209379 -0.1163776096224016 0.1521222078706168 
-0.02721688644245678 0.004903871179049064 -0.005480151515500240 
0.1001706182947323 -0.1085953286470061 -0.002101923093317704 
0.4636718103788293 -0.4224733796415567 -0.001112359229499773 
-0.03490105178385466 -0.1769691529992150 0.2360581855076700 
-0.03490105178385466 -0.1769691529992150 0.2360581855076700 
-0.01326572122500872 0.04656827487565489 -0.02322009536777238 
-0.01326572122500872 0.04656827487565489 -0.02322009536777238 
-0.01326572122500872 0.04656827487565489 -0.02322009536777238 
-0.001977168524742297 0.002903702366734884 -0.0008757793470171502 
-0.006739067039775107 0.01071084657557361 -0.002855091690424098 
-0.006739067039775107 0.01071084657557361 -0.002855091690424098 
0.1014689563980128 -0.07889327141190118 -0.01933957094460761 
0.1704224007732836 -0.1763728728591950 -0.0006236883334083480 
0.1704224007732836 -0.1763728728591950 -0.0006236883334083480 
0.2506551783526364 -0.2705718177631130 -0.008617133923107300 
0.07819598725203589 -0.1038019241783508 -0.004379381118019684 
0.2546438657138392 -0.2493106146432135 -0.02815068894137173 
-0.0003287607697650013 0.0002494765946935093 -0.0003518221185180300 
-0.0003287607697650013 0.0002494765946935093 -0.0003518221185180300 
-0.03546881307042057 0.02244160654143523 -7.994567518128608e-05 
-0.04208864735028837 0.05342203008408426 -0.02066015732206803 
-0.05742254010935404 0.03516182853488423 -8.419822903012484e-05 
-0.01203771571090906 0.01378184388134605 -0.0003190191903558754 
-0.01203771571090906 0.01378184388134605 -0.0003190191903558754 
-0.01203771571090906 0.01378184388134605 -0.0003190191903558754 
-0.04510007278562260 0.04874184977236893 -0.003291652593419685 
-0.04510007278562260 0.04874184977236893 -0.003291652593419685 
-0.04510007278562260 0.04874184977236893 -0.003291652593419685 
-0.008038405412444030 0.006584741273471413 -0.001186256248149916 
-0.002174367292042312 0.005537865592867595 -0.01426074491438311 
-0.09299267524466871 0.09929791550362019 -0.01459135461709415 
-0.06750484911746421 0.06280200690843252 -0.002762345085282606 
-0.1186316335663755 0.1054297193902156 -0.005750937755445777 
0.05469606340933753 -0.06518856470308336 -0.005720493915658832 
0.05469606340933753 -0.06518856470308336 -0.005720493915658832 
0.04222574214210666 -0.05466885627428472 -1.709426853238908e-05 
0.04222574214210666 -0.05466885627428472 -1.709426853238908e-05 
0.04222574214210666 -0.05466885627428472 -1.709426853238908e-05 
0.04222574214210666 -0.05466885627428472 -1.709426853238908e-05 
0.03036001837197628 -0.02507200875419700 -0.006707430313193306 
0.1427819153854492 -0.1378925110522822 -0.004235243179805250 
0.1504446215835400 -0.1846859016688565 -0.001089128053913815 
0.03919258370689373 -0.02813286696569619 -0.0003376161655624183 
0.03919258370689373 -0.02813286696569619 -0.0003376161655624183 
0.2229879553447933 -0.2027129927043172 -0.001770802171243186 
0.3986387729928625 -0.3451940840770115 -0.02104809317111051 
0.3986387729928625 -0.3451940840770115 -0.02104809317111051 
0.3697866231358681 -0.3754264648963203 -0.0007437099798097267 
0.3697866231358681 -0.3754264648963203 -0.0007437099798097267 
0.3697866231358681 -0.3754264648963203 -0.0007437099798097267 
0.005377365409957253 -0.003215494360359688 -0.007495716800410212 
0.005377365409957253 -0.003215494360359688 -0.007495716800410212 
0.005377365409957253 -0.003215494360359688 -0.007495716800410212 
0.005377365409957253 -0.003215494360359688 -0.007495716800410212 
0.005377365409957253 -0.003215494360359688 -0.007495716800410212 
-0.1059830041413410 0.1273524799556015 -0.01092430375751857 
-0.2055598550582349 0.2099978535687105 -0.01434407875453513 
-0.07702997458914251 0.1387132149324942 -0.06834241306052968 
-0.2843694526516413 0.2717268267602072 -0.01331762485846790 
-0.1387811027350207 0.2296481174643335 -0.05769618057693399 
-0.1509565592759029 0.1779350910728688 -0.01009023404600509 
-0.1509565592759029 0.1779350910728688 -0.01009023404600509 
-0.1509565592759029 0.1779350910728688 -0.01009023404600509 
-0.1509565592759029 0.1779350910728688 -0.01009023404600509 
-0.03016694305970570 0.03095400369303658 -0.004984103390429617 
-0.1713466054587928 0.2123676033784639 -0.04522115643493235 
-0.1251276780518130 0.1405763374804751 -0.001835153259283475 
-0.005504188133121726 0.01140029766566201 -0.02636402433420620 
-0.04489622324234728 0.07315486480690464 -0.01977981068332370 
-0.04489622324234728 0.07315486480690464 -0.01977981068332370 
0.4884202098151488 -0.4097141271994665 -0.04168444751837942 
-0.002437143897410742 0.005793357678947384 -0.004731475996184464 
0.04826870238713958 -0.04303447788340421 -0.001559315914655907 
0.04826870238713958 -0.04303447788340421 -0.001559315914655907 
0.04826870238713958 -0.04303447788340421 -0.001559315914655907 
0.07779379776307142 -0.08096389857924033 -0.01159366493747156 
0.1008468419128086 -0.09779471830447081 -0.02009318993610031 
0.04997030537321386 -0.03900462316197214 -0.03142042321758892 
0.04997030537321386 -0.03900462316197214 -0.03142042321758892 
0.06247900956405064 -0.03734017576408593 -0.1286144472468949 
0.07415620726111631 -0.08636969867392633 -0.0005038092022985888 
0.08426624262332383 -0.09461802110547954 -0.0001335316913702396 
0.04773922900270628 0.0009609214648029670 -0.04465349578943304 
-0.02959480363329626 0.04546130344276724 -0.02446595444368675 
-0.08369728758817434 0.06499017407289148 -0.003077115719047085 
-0.1286624362388703 0.1209865467881306 -0.001635805558762915 
-0.1286624362388703 0.1209865467881306 -0.001635805558762915 
-0.007437043705799989 0.004493004917099309 -0.001840536505415287 
0.008494071150070922 0.09410519574670415 -0.05410144007085847 
0.05608301911956656 0.01138876023862432 -0.04056257705011668 
0.09202034150339904 -0.03130102025143907 -0.03646249340484110 
0.1367114726548325 -0.1133302548551283 -0.01198013789144036 
0.1367114726548325 -0.1133302548551283 -0.01198013789144036 
0.005830309743542594 -0.002541863449522122 -0.02701952339335195 
0.005830309743542594 -0.002541863449522122 -0.02701952339335195 
0.1645626306766757 -0.1240228945326792 -0.008596973389357837 
0.2021242353118437 -0.1896097939806722 -0.005967711576819726 
0.2378259473061843 -0.2484741076796184 -0.01125409285996681 
0.005804137913673614 -0.004758511454673349 -0.02205713736036267 
0.005804137913673614 -0.004758511454673349 -0.02205713736036267 
0.05587909070288891 -0.06392337986078092 -0.008283304805275005 
0.05587909070288891 -0.06392337986078092 -0.008283304805275005 
0.2158883362657796 -0.1895103167786103 -0.006034119684608673 
-0.05112678444891129 0.04262771248178306 -0.002988592670163172 
-0.06626241408148980 0.07194143908679197 -0.007284850925855789 
-0.01208124405389502 0.008388552544823370 -0.002674261475343274 
-0.01592283691465377 0.01464316536819765 -0.009310320516160224 
-0.1356052409546720 0.1162604544652071 -0.006127169888165201 
-0.03976015597098299 -0.2785784070067911 0.2908866067733491 
-0.2140614151517977 0.2374271777031368 -0.08536467180255046 
-0.1354174626062321 0.1438307676272113 -0.001939818878442563 
-0.0002269724765233227 0.0001390898203389104 -0.0001429102743327361 
-0.0002269724765233227 0.0001390898203389104 -0.0001429102743327361 
-0.0005633437644704116 0.0001910791735721883 -8.765061542734911e-06 
-0.0005633437644704116 0.0001910791735721883 -8.765061542734911e-06 
-0.02717568787404355 0.03430454858316460 -0.01886173567855916 
-0.009228364212958983 0.01542000083620147 -0.01509832346666180 
-0.009943381503261618 0.003539368946178561 -1.069186675901819e-05 
-0.009943381503261618 0.003539368946178561 -1.069186675901819e-05 
-0.09504571903588432 0.1019701675720856 -0.002860894338324759 
-0.09504571903588432 0.1019701675720856 -0.002860894338324759 
-0.009943381503261618 0.003539368946178561 -1.069186675901819e-05 
-0.05808309602814676 0.05856275246485276 -0.001429003562451497 
-0.003542897256497776 0.003912889837206844 -0.0005344077705308188 
-0.003542897256497776 0.003912889837206844 -0.0005344077705308188 
-0.1448126773769620 0.1491782987433543 -0.008899686523004307 
-0.02461984280854885 0.03467400814796590 -0.001548091662863720 
-0.03398291344546362 0.02996178555297697 -0.0006505059889325199 
-0.03398291344546362 0.02996178555297697 -0.0006505059889325199 
-0.03398291344546362 0.02996178555297697 -0.0006505059889325199 
-0.003033137187429272 0.001284445637420621 -0.0002413067897696943 
-0.003033137187429272 0.001284445637420621 -0.0002413067897696943 
-0.003033137187429272 0.001284445637420621 -0.0002413067897696943 
-0.001218697077252037 0.001516423600980751 -0.001205762792103716 
-0.02541679782863450 0.05915107282149229 -0.003651013080507552 
-0.02541679782863450 0.05915107282149229 -0.003651013080507552 
-0.02541679782863450 0.05915107282149229 -0.003651013080507552 
-0.02541679782863450 0.05915107282149229 -0.003651013080507552 
-0.2421403811968814 0.2574884170538572 -0.08248237341761823 
-0.008720486594546249 0.03871019716823948 -0.02053896885462834 
-0.008720486594546249 0.03871019716823948 -0.02053896885462834 
-0.008720486594546249 0.03871019716823948 -0.02053896885462834 
-0.04196848570396337 0.03777533077611314 -0.0006144038052963590 
-0.003614609334002187 0.004796504988094753 -0.0006173184992081610 
-0.003614609334002187 0.004796504988094753 -0.0006173184992081610 
-0.006912299021750402 0.01332760489621777 -0.002200147164844849 
-0.1318775239570048 0.1656704280707481 -0.02459938002754971 
-0.1318775239570048 0.1656704280707481 -0.02459938002754971 
